1.04411e-08
-3.28596e-08
3.70949e-08
2.26202e-08
2.64686e-08
-1.99882e-08
1.98074e-08
1.61281e-08
2.08964e-08
8.93194e-11
2.79195e-09
-2.94643e-08
-3.10872e-08
1.97274e-08
3.68664e-08
-2.08491e-08
3.2117e-08
2.88393e-08
3.13694e-08
-2.92231e-08
2.93181e-08
3.07985e-08
-2.44712e-09
-2.75214e-08
-2.51553e-08
2.74338e-08
-3.06817e-08
-7.42388e-09
3.23695e-08
3.11609e-08
2.31323e-08
1.73304e-08
3.04993e-08
-1.04246e-10
2.38611e-08
-2.39929e-09
2.38049e-10
5.59114e-10
-2.17886e-08
-2.32653e-10
2.47926e-08
1.73473e-10
2.16986e-08
2.43187e-09
-2.87056e-08
2.80676e-08
2.92404e-08
3.14272e-08
1.65891e-09
3.00453e-08
-5.62125e-11
-3.24287e-08
3.65518e-08
3.09508e-08
-2.02541e-08
2.40562e-09
1.94303e-08
3.09671e-08
-2.95855e-08
9.46026e-10
3.17297e-08
3.30461e-08
2.0103e-08
-2.76212e-08
1.57591e-08
2.64528e-08
-7.21742e-09
3.6137e-08
3.44463e-09
2.06521e-08
-3.41311e-09
2.84876e-08
-1.93627e-08
-1.29316e-09
-2.30181e-08
1.92396e-08
1.66886e-08
-2.51026e-08
5.83105e-10
1.04294e-08
9.84478e-09
1.74137e-09
2.04071e-08
2.91682e-08
3.27959e-08
-3.26326e-08
-2.38297e-08
-2.1764e-08
1.80225e-10
2.91723e-08
-1.12078e-10
7.75895e-09
-2.68184e-08
1.98982e-08
1.25299e-10
-3.20235e-08
9.48813e-10
2.76105e-08
-6.94626e-09
2.69178e-10
-3.35445e-08
-3.23658e-08
-2.25933e-08
5.62779e-10
2.9098e-08
1.67484e-10
3.19998e-08
-1.69631e-08
2.53184e-08
2.97879e-10
1.07267e-10
1.30485e-10
-2.28812e-08
2.22783e-08
2.8903e-08
-2.34314e-08
-1.68715e-08
-3.25237e-08
3.20671e-08
2.21275e-08
2.92231e-08
1.86267e-08
-3.81911e-08
-2.98727e-10
2.29221e-08
1.0041e-08
-1.96531e-10
2.10346e-08
2.88061e-08
-2.49359e-08
-9.55265e-09
-2.56414e-10
9.78727e-09
2.00454e-08
-3.13985e-08
3.31646e-08
-2.10945e-08
-1.7817e-08
1.9314e-08
1.91209e-08
2.72114e-08
2.94063e-09
2.07932e-08
3.30528e-08
1.99852e-08
3.24315e-08
3.31748e-08
3.17944e-08
2.97517e-08
1.8857e-08
3.19765e-08
3.72568e-08
-2.77047e-08
1.98982e-08
-1.31198e-10
1.78243e-08
3.24831e-08
3.31292e-08
1.0018e-10
2.37461e-08
-2.49788e-08
3.7149e-08
2.62963e-08
-2.29565e-08
2.10506e-08
-4.25677e-10
3.89333e-08
2.36616e-08
-1.54981e-08
6.53371e-11
-2.43416e-08
2.32069e-08
-3.04979e-08
2.74972e-08
2.46882e-08
3.07987e-08
3.24393e-08
1.4182e-10
3.35891e-08
2.75517e-08
1.03175e-08
2.92371e-08
1.72088e-08
3.21165e-08
2.1255e-08
2.66111e-08
-1.40081e-08
3.04877e-08
2.9471e-08
-3.62241e-08
6.74978e-09
2.69808e-08
-1.65356e-08
-3.6256e-08
-1.8363e-08
-2.15206e-08
-1.26639e-10
7.24654e-09
2.29202e-10
2.57041e-08
2.03639e-10
1.6106e-08
3.24847e-08
-2.71958e-08
3.00024e-08
2.7662e-08
-1.82378e-08
1.92272e-08
1.65942e-08
-1.70141e-08
2.89735e-08
7.15144e-10
3.1944e-08
1.65785e-08
2.25254e-08
-1.6465e-08
5.12271e-09
2.77978e-08
7.24593e-10
1.74729e-10
1.59715e-08
3.30761e-08
1.61272e-08
3.27615e-08
-1.74687e-08
2.37166e-08
1.66553e-08
2.88923e-08
9.82094e-11
-1.93862e-08
-1.52791e-08
3.16806e-08
-2.34293e-08
3.22521e-08
-3.2582e-08
2.44052e-08
2.74453e-08
2.83222e-09
6.99466e-09
-1.78245e-09
2.49767e-08
-2.83142e-08
9.25114e-10
3.01655e-10
-3.05809e-08
3.74929e-08
1.96005e-08
-2.34873e-08
1.78504e-08
2.2468e-08
-3.28246e-08
3.15871e-08
2.60773e-08
3.2788e-08
1.84058e-08
1.49345e-08
2.91576e-08
-2.89546e-08
3.16409e-08
1.72204e-08
1.65313e-08
-1.43672e-08
1.0583e-08
-3.13923e-08
-3.81969e-08
3.62149e-08
1.63099e-08
-2.48342e-08
2.88537e-08
2.98032e-08
2.15976e-08
3.21465e-08
3.20035e-08
1.71574e-08
3.00247e-08
1.76184e-09
1.56869e-08
-2.9011e-08
-2.93442e-08
-3.16569e-08
2.93536e-09
1.17408e-08
2.96784e-10
1.78772e-09
-3.29803e-08
3.81222e-09
2.4326e-08
3.76592e-08
1.78417e-08
2.73341e-08
3.88668e-08
1.88536e-08
4.06584e-10
-1.89682e-08
-2.86926e-08
2.28245e-08
2.9552e-08
-2.24038e-08
1.11866e-09
-1.87304e-08
2.48881e-10
2.6332e-08
2.63732e-08
-1.97007e-08
4.24482e-13
-2.65374e-08
2.31891e-08
1.17521e-08
-2.07443e-08
1.51193e-08
2.92928e-08
1.17696e-08
2.30212e-08
3.06431e-08
-7.84822e-09
1.18771e-10
-1.60153e-08
-1.98495e-08
2.88825e-08
2.89841e-08
2.8236e-08
-2.7399e-08
3.27951e-08
1.92634e-08
-1.87709e-08
2.32881e-08
-7.90899e-09
2.39141e-08
2.65322e-09
2.88183e-08
8.21931e-11
3.18833e-08
-2.30224e-08
2.88208e-08
2.0507e-08
-3.18601e-08
3.32334e-08
1.98657e-08
3.83289e-08
1.30915e-10
-1.67341e-10
-1.99453e-08
-1.09281e-10
3.27562e-08
2.06706e-08
-1.69132e-08
3.46619e-09
2.48594e-09
1.96336e-08
-3.1315e-08
-3.5478e-08
1.57147e-08
-2.00129e-08
-3.04143e-08
3.14875e-08
3.02674e-08
3.21771e-08
-3.20805e-08
2.38531e-08
2.80072e-08
1.29762e-10
-3.22836e-08
2.08409e-08
3.17104e-08
3.71673e-08
9.94644e-11
2.00068e-10
2.63557e-08
-1.75593e-08
3.13518e-08
3.89717e-08
2.2739e-08
3.15747e-08
-3.39745e-08
2.45407e-09
2.24364e-08
3.22905e-08
-3.20581e-08
1.72956e-09
2.16395e-08
2.99874e-08
2.30505e-08
3.17829e-08
7.45697e-09
3.18284e-08
9.40162e-10
-6.3769e-11
-3.30284e-08
3.23634e-08
3.15369e-08
1.3082e-09
-4.83941e-09
3.05195e-08
-3.32282e-08
-7.36671e-09
-2.52021e-10
-3.14151e-08
-3.28281e-08
2.34526e-10
3.93421e-08
3.16961e-08
-1.80241e-08
2.83232e-08
-2.25724e-08
3.12271e-08
3.08565e-08
3.19054e-08
2.02208e-08
-2.00285e-08
-5.76835e-10
2.11313e-08
2.1464e-08
3.01922e-08
-2.82924e-08
-7.061e-09
-3.15922e-08
-1.91416e-08
7.57091e-09
2.92191e-08
3.31589e-08
1.72011e-08
-1.91114e-08
-7.92915e-10
2.63267e-08
1.67305e-08
7.52026e-10
-3.97546e-08
7.72486e-09
7.59606e-09
2.62396e-09
-3.26181e-08
1.93467e-08
-1.04046e-08
3.6173e-08
3.00664e-08
1.03406e-08
-1.59989e-08
2.74221e-09
3.13183e-08
2.21654e-08
-1.46663e-10
2.54895e-08
2.71649e-10
2.993e-08
-2.73372e-09
1.78596e-08
-2.45918e-08
3.77165e-08
2.41374e-08
2.16544e-08
1.54408e-08
-1.83605e-08
3.01278e-08
-3.13298e-08
4.28326e-10
3.76027e-09
-1.83812e-08
2.5113e-08
3.14713e-08
-3.32314e-08
3.23658e-08
2.57424e-08
1.8927e-08
3.14766e-08
1.6686e-08
-2.80793e-08
-3.1772e-08
2.92326e-08
2.09801e-08
-2.12256e-08
-1.03074e-08
-2.70487e-08
1.04755e-08
-2.83048e-08
1.58143e-08
2.17596e-08
9.72444e-09
1.92935e-08
1.92023e-08
-2.88412e-08
1.93862e-08
-3.20239e-08
-3.19722e-08
2.08512e-08
2.87553e-08
3.20757e-08
-1.76005e-09
2.63721e-08
3.20352e-08
2.37133e-08
3.22121e-08
2.9146e-08
3.79123e-08
-1.92476e-08
1.58891e-08
-1.61412e-08
2.29212e-08
-2.43349e-08
1.4581e-08
1.67686e-08
2.11047e-08
1.18715e-08
3.21382e-08
2.96424e-08
1.59275e-08
2.61934e-08
-1.59398e-08
-2.69332e-08
-2.23505e-08
3.19507e-08
3.1761e-08
6.85703e-09
3.8767e-08
1.58521e-08
7.10157e-09
1.9444e-08
2.91789e-08
3.11499e-08
3.21367e-08
2.58455e-08
1.95652e-08
-7.36641e-09
-3.20065e-08
-2.83405e-08
2.47852e-08
1.66137e-08
2.64096e-08
-3.08234e-08
2.12278e-08
2.2836e-08
2.91792e-08
2.29972e-08
1.68515e-08
3.32069e-08
-2.54666e-08
2.11786e-08
2.53205e-08
-1.71475e-10
2.92108e-08
-4.19183e-10
-2.16996e-08
-3.00707e-08
-3.04867e-08
2.76724e-08
3.24478e-08
2.89297e-08
2.90086e-08
2.96496e-08
2.74506e-08
2.90504e-08
-2.81346e-08
-2.67178e-08
2.9492e-08
3.66432e-08
1.01679e-08
3.68284e-08
2.23001e-08
-3.16196e-08
-1.04076e-08
3.2065e-08
9.71586e-09
2.1034e-08
-1.96764e-08
-2.85647e-08
5.06806e-09
2.91631e-08
1.93483e-08
3.09999e-08
3.81624e-08
-1.66375e-08
3.02708e-08
3.22782e-08
-2.94705e-08
3.73926e-08
3.18076e-08
-2.55258e-08
2.22296e-08
-7.19286e-12
4.38302e-13
2.41119e-08
3.06776e-08
3.30582e-08
4.27915e-13
2.9231e-08
-7.31787e-10
2.83392e-08
3.10909e-08
-3.16842e-08
3.14544e-08
-7.38045e-09
-3.51349e-08
-3.22549e-08
2.64332e-08
-7.36134e-12
4.28608e-13
3.36225e-08
2.05155e-08
-4.20781e-13
4.12441e-13
-4.27038e-13
-2.63649e-08
3.20787e-08
-4.33042e-13
-1.86947e-08
3.75292e-08
1.95502e-08
6.94258e-12
3.16832e-08
1.96416e-08
3.09926e-08
3.18688e-08
4.00396e-08
-7.42847e-09
3.19694e-08
1.72582e-09
-3.17924e-08
2.69464e-08
-4.10282e-13
3.53497e-08
3.25159e-08
-2.41673e-08
3.35922e-08
-2.16367e-08
-4.22533e-13
3.12612e-08
1.92009e-08
2.63264e-08
-4.17678e-13
2.735e-08
2.40356e-08
3.17311e-08
2.84214e-08
2.8437e-08
-4.29627e-13
3.12709e-08
4.15042e-13
5.14021e-09
-3.13635e-08
2.58403e-08
1.86872e-08
-2.20063e-08
3.05442e-08
4.17807e-13
3.09972e-08
2.66674e-08
1.26872e-09
2.94204e-08
-2.8092e-08
1.96854e-08
3.75431e-08
2.35192e-09
2.04351e-08
-4.23964e-13
4.3005e-13
-4.37747e-13
3.34525e-08
3.32314e-08
1.45654e-08
4.3873e-13
2.68712e-08
2.63749e-08
-4.36396e-13
2.16596e-08
2.92548e-08
4.27281e-13
5.78373e-10
-2.45083e-09
2.97806e-08
-3.16868e-08
4.31126e-13
3.71e-08
-3.13317e-08
4.20729e-13
1.2267e-09
-5.0756e-09
3.76493e-08
1.9886e-08
-4.14063e-13
1.7114e-08
-3.88607e-08
2.68525e-08
2.39029e-08
1.02572e-08
2.43831e-08
3.14659e-08
3.09106e-08
2.83733e-08
-2.65184e-09
-3.19442e-08
3.00025e-08
1.87525e-08
-2.74293e-09
2.43475e-08
-1.27657e-09
-2.50339e-08
1.54392e-09
1.11201e-09
3.29285e-08
3.22229e-08
-3.31994e-08
2.00105e-08
3.72817e-09
1.09357e-09
3.14029e-08
3.14786e-08
-3.04559e-08
-2.6292e-09
-2.4127e-08
3.87249e-08
2.60536e-09
-3.11195e-08
-3.8194e-09
-2.99783e-08
1.76934e-09
1.94136e-08
3.73823e-08
3.19466e-08
7.52841e-09
-3.83686e-08
-2.41044e-08
-3.04033e-08
-3.2988e-08
-3.23207e-08
-2.66375e-09
1.11755e-09
1.17146e-08
1.77446e-09
7.87779e-09
3.21116e-08
2.28485e-08
1.97879e-08
2.10528e-08
2.5422e-08
-7.85379e-09
2.63153e-08
2.71155e-08
-2.44436e-08
-1.61366e-08
-2.82225e-08
3.17895e-08
2.39007e-08
2.89675e-08
2.36468e-08
-2.52873e-08
-2.56096e-08
4.99752e-09
3.01966e-09
-1.04086e-09
2.75075e-08
1.59275e-08
-3.8058e-08
2.64226e-08
-3.20515e-08
3.94011e-08
-2.84571e-08
-2.90386e-08
-2.41832e-08
3.51991e-08
2.40837e-08
1.76415e-09
1.96582e-08
2.84811e-08
1.38973e-08
2.84667e-08
3.22563e-08
-3.0974e-08
1.93694e-08
2.6527e-08
-3.21226e-08
-3.18684e-08
3.21837e-08
-1.75101e-09
2.72489e-08
-3.27898e-08
2.65705e-08
2.52385e-08
3.11482e-08
2.83477e-08
-3.39106e-08
1.08823e-08
2.32498e-08
3.0852e-08
2.27835e-08
-2.33822e-08
-2.88229e-08
3.30671e-08
-3.23589e-08
3.05532e-08
3.2604e-08
2.53896e-08
-3.55548e-09
-3.16038e-08
-3.16102e-08
3.21935e-08
3.23086e-08
1.69839e-09
2.83267e-08
2.9922e-08
-3.11818e-08
3.17697e-08
2.67105e-08
3.75659e-08
3.2933e-08
1.95846e-08
-2.41856e-08
3.25424e-08
3.09322e-08
2.37377e-08
3.31261e-08
2.22729e-08
3.30957e-08
3.08543e-08
-2.92377e-08
3.25426e-08
-2.85694e-08
3.21463e-08
-3.8942e-08
-2.45491e-08
-2.31416e-08
-3.34186e-08
-1.95231e-08
3.76947e-08
-3.17081e-08
7.9729e-11
-2.70751e-08
-1.92203e-08
1.62177e-08
-2.6169e-08
3.01566e-08
3.87249e-08
-2.44713e-09
3.1889e-08
2.47906e-08
1.71139e-08
2.81179e-08
2.96621e-08
-1.86176e-08
-2.12712e-08
2.33642e-08
3.25958e-08
2.34456e-08
4.92331e-09
-3.24553e-08
2.89164e-08
1.99007e-08
2.0683e-08
2.3635e-08
3.23191e-08
5.77529e-10
3.00821e-08
-3.25689e-08
3.58837e-08
3.8767e-08
3.73344e-08
3.21937e-08
2.13551e-08
2.81962e-08
-3.16717e-08
-2.75e-08
1.9324e-08
-2.20983e-08
2.79295e-08
2.55029e-08
3.2905e-08
-2.43993e-08
3.24489e-08
2.43265e-08
2.94165e-08
-2.11451e-08
3.24535e-08
3.23379e-08
2.67597e-08
-2.22722e-08
1.26276e-10
3.33047e-08
2.7405e-08
-1.1016e-08
9.74558e-10
-2.22871e-08
-3.24227e-08
-2.31996e-08
-2.6511e-08
1.90189e-08
9.70481e-10
-1.95302e-08
2.89899e-08
2.572e-08
3.78129e-08
-2.90928e-08
2.78419e-08
-3.26435e-08
2.65836e-08
2.73314e-08
3.70872e-08
2.48316e-09
2.48785e-08
1.87265e-08
3.31384e-08
-2.09259e-08
-2.70335e-08
3.23143e-08
1.19386e-10
2.83853e-08
2.47446e-08
2.46165e-08
3.14564e-08
1.63109e-09
2.99814e-08
2.89974e-08
3.2663e-08
1.9934e-08
-2.55278e-08
-3.30252e-08
3.21307e-08
3.26946e-08
1.72937e-09
-2.51722e-08
3.1596e-08
-2.63712e-08
2.96289e-08
2.06699e-08
1.87103e-08
3.23609e-08
2.4291e-08
2.42901e-08
2.13343e-08
2.42143e-08
7.66734e-09
3.09014e-08
1.65459e-08
3.1455e-08
7.47747e-09
-3.16759e-08
1.95048e-08
-3.19443e-08
2.75075e-08
1.78859e-08
-3.23368e-08
3.26921e-08
1.18386e-08
2.16821e-08
2.5815e-08
2.29167e-08
1.94585e-08
2.86822e-08
2.44299e-08
-2.66919e-08
9.15472e-10
3.87406e-08
3.14976e-08
-3.25542e-08
-2.76709e-08
-2.91928e-08
2.04709e-08
3.35155e-08
-3.25769e-08
3.16449e-08
-2.22429e-08
-3.28769e-08
7.41913e-09
-2.81917e-08
-3.01685e-08
3.18148e-08
-3.19523e-08
-3.84675e-08
3.23856e-08
2.42376e-08
2.76725e-08
2.77805e-08
2.7781e-08
3.1335e-08
-3.24831e-08
3.17931e-08
2.35878e-08
-2.32434e-08
-2.75e-08
2.86294e-08
2.04425e-08
1.56598e-08
3.01208e-08
-1.98457e-08
3.29651e-08
2.37896e-08
3.18323e-08
1.00036e-08
2.28186e-08
-3.04716e-08
-2.8232e-08
-1.65361e-08
2.99055e-08
-3.16559e-08
-4.28378e-13
4.36575e-13
-4.06917e-13
3.69832e-08
2.23143e-08
3.0673e-10
1.84592e-08
-3.30508e-08
2.9237e-08
-7.35569e-12
-7.11054e-12
-3.30622e-08
1.95348e-08
4.25931e-13
-2.04974e-08
1.61027e-08
3.09007e-08
1.73839e-09
1.61856e-08
1.1275e-09
-2.01882e-08
2.05903e-08
2.94457e-08
1.52947e-09
-2.24975e-08
3.2958e-08
-7.41015e-09
1.66104e-08
2.2378e-08
2.05732e-08
-3.1259e-08
1.78897e-08
2.16081e-08
-3.23785e-08
2.86231e-08
-2.01589e-08
-1.73229e-08
2.43977e-08
2.47545e-08
-2.21682e-08
3.12458e-08
2.83141e-09
2.89096e-08
3.24633e-08
1.74499e-08
3.78195e-09
-2.18327e-08
3.55402e-09
7.42528e-09
1.83424e-08
2.71057e-08
-1.04588e-08
2.64331e-08
3.25536e-08
-2.56088e-08
1.69094e-08
2.574e-08
7.65913e-09
1.48429e-10
2.01068e-08
2.91497e-08
-1.45544e-08
-1.96022e-08
1.54981e-08
2.57069e-08
-3.23315e-08
2.21466e-08
3.14601e-08
3.14965e-08
2.13143e-08
-2.43847e-08
1.03108e-08
3.99373e-08
2.96066e-08
3.99373e-08
-2.32179e-08
-2.32028e-08
2.0462e-08
-2.61919e-08
3.3e-08
-2.01496e-08
-2.74501e-08
3.71651e-08
1.97868e-08
3.05186e-08
-2.09649e-08
2.10676e-08
-2.75781e-09
-2.76574e-08
2.41724e-08
3.75846e-08
1.78089e-08
3.07919e-08
3.86879e-08
-1.55052e-08
-1.69481e-08
-2.41934e-08
2.43635e-08
2.7784e-08
4.63445e-09
-7.31638e-09
3.20349e-08
3.31511e-08
7.80691e-09
3.04215e-08
3.04687e-08
1.26978e-09
2.52516e-08
-1.94134e-08
-3.16606e-08
1.84504e-08
-2.77279e-08
-2.70107e-08
3.28627e-08
1.63251e-08
3.6087e-08
3.94001e-08
3.23867e-08
3.13182e-08
-2.82556e-08
-1.7232e-08
1.98478e-10
2.01387e-08
5.71754e-10
3.23126e-08
2.41362e-08
2.16699e-08
2.32434e-08
-6.62999e-11
2.70973e-08
2.84916e-08
-2.63003e-08
3.02745e-08
-2.82229e-08
2.17156e-08
-1.63163e-10
-3.67905e-08
2.73522e-08
2.93798e-08
1.74261e-08
2.7539e-09
2.07789e-08
5.8172e-10
1.99916e-08
-2.75705e-08
-3.02079e-08
-2.5815e-08
-3.30396e-08
-3.92675e-08
3.27715e-08
2.70184e-08
3.23987e-08
2.71649e-08
2.77699e-08
1.97649e-08
1.99754e-08
1.30677e-10
2.31612e-09
-3.23695e-08
2.79668e-08
3.21236e-08
-3.75255e-08
2.17454e-08
2.44634e-08
-2.48017e-08
-2.90727e-08
3.77795e-08
3.31365e-08
2.90677e-08
2.94733e-08
2.96076e-08
1.8927e-08
-3.67867e-08
-2.63036e-08
3.17142e-08
2.53468e-08
2.10945e-08
-2.09007e-08
2.95574e-08
3.73657e-08
-2.41055e-08
-3.14536e-08
2.22471e-08
1.72158e-08
-3.39922e-09
2.23561e-08
1.98561e-08
2.92084e-08
1.33388e-08
3.01344e-08
-2.65142e-08
1.7197e-08
2.9019e-08
2.75343e-08
2.78793e-08
3.16087e-08
-3.08695e-08
9.58007e-10
-3.11136e-08
-2.5733e-08
-2.00063e-08
2.99332e-08
-2.73494e-08
5.1498e-09
2.8884e-08
1.18497e-08
1.70993e-08
-1.70246e-08
2.16367e-08
-2.75804e-08
3.88481e-10
1.84249e-08
-3.88352e-08
1.78211e-09
2.84099e-08
9.60476e-10
1.96489e-08
2.57733e-08
2.08091e-08
3.03105e-08
2.57787e-10
-3.20037e-08
3.50571e-09
-3.26133e-08
1.43096e-08
-3.21042e-08
2.32323e-08
2.84192e-08
3.03095e-08
-3.26966e-08
3.02836e-08
-2.94272e-08
1.89236e-08
3.2156e-08
1.9861e-08
3.27028e-08
-3.31589e-08
2.69395e-08
2.04959e-08
5.69624e-10
2.96979e-08
2.185e-08
3.63397e-08
2.91133e-08
-3.1877e-08
-2.06755e-08
2.54272e-08
1.73417e-09
2.64932e-09
1.98184e-08
-2.54593e-08
2.29204e-08
-2.8969e-08
3.25769e-08
-2.84446e-08
-2.77279e-08
7.23414e-09
2.17985e-08
3.22787e-08
2.6087e-08
-2.6358e-08
3.28596e-08
-2.31455e-08
-2.91918e-08
2.21252e-08
7.34248e-10
3.30351e-08
2.90378e-08
2.59921e-08
3.24403e-08
2.83048e-08
2.01314e-08
-3.56123e-08
-2.87479e-08
-3.86587e-08
2.43977e-08
1.88023e-08
2.88589e-08
-3.30187e-08
3.29637e-08
2.43855e-08
-1.78107e-08
-2.21276e-08
2.93188e-08
-3.27247e-08
2.85113e-08
3.90011e-08
-2.28632e-08
-2.4309e-08
2.96861e-08
-2.51598e-08
-2.17856e-08
2.53872e-08
3.32814e-08
3.30504e-08
3.25239e-08
-2.40463e-08
-3.29386e-08
3.68166e-08
2.26252e-10
2.17263e-08
2.50078e-08
2.7717e-08
2.34875e-08
1.30462e-09
1.77791e-08
2.0062e-08
2.55257e-08
3.13101e-08
4.00688e-08
3.20423e-08
3.28319e-08
-3.16687e-08
-2.20598e-08
-3.79684e-08
1.78436e-09
3.21966e-08
-2.04255e-08
-2.96538e-08
-1.04692e-08
2.32856e-08
3.14455e-08
-3.72987e-08
3.22552e-08
-2.56849e-08
1.55524e-08
-2.11165e-08
-2.87366e-08
-1.18492e-08
-3.50761e-09
3.1889e-08
-3.33623e-08
-2.43176e-08
2.89284e-08
2.10718e-08
-2.6045e-08
-2.48371e-08
2.72093e-08
1.64361e-08
3.35168e-08
3.84182e-08
2.23139e-08
2.1186e-08
3.2422e-08
2.12427e-08
-3.17419e-08
2.62156e-08
-2.18132e-08
2.32383e-08
2.95185e-08
-3.28022e-08
1.26473e-10
-2.42293e-08
2.37064e-08
-1.98943e-08
-1.58514e-08
2.85333e-08
-2.10185e-08
2.2635e-08
3.28148e-08
-3.66021e-08
2.89182e-08
2.34077e-08
3.30171e-08
3.24315e-08
2.32234e-08
3.12116e-08
1.81523e-08
-2.12721e-08
3.12314e-08
3.97187e-08
-3.0774e-08
2.39134e-08
3.23799e-08
-3.23197e-08
2.26068e-08
1.81869e-08
3.15861e-08
2.11409e-10
1.09693e-10
3.01177e-08
-1.99308e-08
-2.72189e-08
3.30022e-08
3.51797e-08
3.45135e-09
2.47109e-08
-2.01213e-08
2.83147e-08
2.87986e-08
1.87175e-08
2.85933e-08
-2.63139e-08
2.74972e-08
-2.75148e-08
-3.08487e-08
-3.11226e-08
1.75861e-08
-2.90631e-08
-7.28566e-10
2.42556e-08
-2.61423e-08
2.18185e-08
-2.03073e-08
2.8509e-08
3.2967e-08
9.39408e-10
1.99455e-08
-2.13127e-08
2.29211e-08
-2.6062e-08
-2.64495e-08
3.60341e-08
2.27957e-08
3.09222e-08
7.20181e-09
3.23974e-08
3.20432e-08
2.46985e-09
2.01202e-08
-3.19058e-08
-1.13562e-08
-2.92179e-08
-3.22881e-08
3.24514e-08
2.91318e-08
-2.32339e-08
2.19094e-08
3.13126e-08
2.10366e-08
2.85253e-08
2.22859e-08
7.2261e-09
3.66555e-08
2.59176e-08
1.83788e-08
1.8253e-08
3.40555e-08
-1.21692e-09
-3.26307e-08
2.35646e-08
3.02355e-08
3.30729e-08
2.6776e-08
2.54607e-08
1.7297e-09
3.56218e-09
3.12612e-08
2.86503e-08
6.35949e-11
1.42544e-08
2.22663e-08
-3.60204e-08
2.2573e-08
2.85872e-08
2.20086e-08
1.99299e-08
4.29767e-10
-1.37133e-08
2.99023e-08
-2.89537e-08
2.88463e-08
2.99434e-08
2.63876e-08
2.3574e-08
3.68227e-08
3.2663e-08
3.07111e-08
3.10502e-08
-1.78233e-08
2.40497e-08
3.93845e-08
-1.7877e-08
-1.43371e-08
-1.7526e-08
2.55656e-08
3.20744e-08
-3.47589e-09
-3.12401e-08
-2.2602e-08
-1.04598e-08
-1.3082e-09
2.72746e-08
-2.29357e-08
3.26573e-08
-3.21922e-08
2.30799e-08
-2.29217e-08
3.28462e-08
3.69505e-08
5.01016e-09
-3.27938e-08
3.89084e-08
2.13679e-10
-2.74388e-08
2.87279e-08
1.03413e-08
3.7541e-08
-3.30483e-08
2.35444e-08
3.10528e-08
2.06283e-08
-2.80793e-08
2.85769e-08
1.69234e-08
2.21094e-08
-3.08802e-08
-3.03028e-08
-2.10034e-08
-3.04461e-08
-2.08865e-08
3.19261e-08
-3.29906e-08
2.58461e-08
-3.08151e-08
-1.71256e-09
1.74508e-08
1.93843e-08
9.52858e-10
3.09918e-08
3.11457e-08
2.88983e-08
3.06292e-08
-1.85133e-08
3.30657e-08
-3.76947e-08
-3.31428e-08
2.87056e-08
2.18328e-08
-2.04724e-10
2.59264e-08
-2.91497e-08
-3.00407e-08
2.36121e-08
2.92084e-08
-3.22538e-08
-3.31513e-08
3.69917e-08
1.64465e-08
-2.41091e-08
1.97674e-08
-3.30711e-08
3.10039e-08
2.1283e-08
6.93195e-10
-3.17376e-08
2.98341e-08
2.74879e-08
-2.74504e-08
-1.97064e-08
2.7556e-08
3.22234e-08
1.65626e-08
2.26654e-10
-3.1904e-08
3.25769e-08
1.90096e-08
3.08487e-08
-2.27602e-08
-2.87718e-08
7.66313e-09
1.17045e-08
2.27151e-08
1.7875e-08
2.29815e-08
2.17856e-08
3.23698e-08
2.81191e-08
-2.38611e-08
2.9628e-08
3.10493e-08
3.26071e-08
1.98136e-08
3.23974e-08
3.26946e-08
-3.20184e-08
-3.19899e-08
2.36732e-08
-5.77006e-10
3.01331e-08
2.61919e-08
3.83061e-08
2.68653e-08
3.72361e-08
-3.32571e-08
3.09321e-08
-3.31873e-08
2.58372e-08
3.07252e-08
1.32064e-10
2.47757e-08
2.16996e-08
2.75079e-08
3.86211e-08
1.7689e-09
3.31995e-08
-3.18966e-08
-3.17726e-08
2.93919e-08
-3.29966e-08
3.1675e-08
-2.94532e-08
5.7652e-10
2.07923e-08
-2.8399e-08
2.7987e-08
2.65374e-08
-1.02268e-08
2.41146e-08
1.5187e-08
2.87287e-08
-2.3003e-08
3.58292e-08
3.03078e-08
-1.65313e-08
-3.92675e-08
-2.13097e-08
3.29354e-08
-2.90465e-08
2.0053e-08
2.01194e-08
4.19154e-13
3.30548e-08
-2.79449e-08
3.17584e-08
3.70217e-09
-3.05139e-08
1.85332e-08
-1.75672e-08
3.22781e-08
3.30597e-08
1.16639e-08
3.06864e-08
3.85934e-08
1.52019e-08
-2.1259e-08
-3.08435e-08
-3.81708e-08
3.19372e-08
2.47483e-08
1.85431e-08
3.25503e-08
4.10853e-13
2.67449e-09
-2.76011e-08
-3.22507e-08
3.67351e-08
3.23186e-08
-1.81099e-08
-2.5198e-08
1.73102e-08
2.38043e-08
3.33351e-08
5.16266e-09
-1.1955e-08
2.44875e-08
-1.02109e-08
1.77727e-08
4.08842e-13
2.41254e-08
-2.26232e-08
4.37534e-13
2.10899e-08
-2.4644e-08
-2.81286e-08
1.69015e-09
1.43248e-08
2.96356e-08
3.36922e-08
7.18863e-10
2.91105e-08
3.31957e-08
2.92392e-08
-3.78575e-09
4.37747e-13
-2.34063e-08
-2.67932e-09
2.5186e-08
2.63862e-08
2.9796e-08
4.15649e-13
2.58896e-08
2.48547e-08
-1.47052e-09
3.07907e-08
2.72092e-08
2.91313e-09
3.19382e-08
-2.99999e-08
1.69514e-08
-3.67623e-09
2.74529e-09
9.20501e-10
2.57124e-08
2.98393e-10
2.03866e-08
2.26094e-10
3.31334e-08
3.15523e-08
2.47999e-10
-3.9392e-08
9.79126e-10
1.97159e-08
-2.16197e-08
-3.25139e-08
2.5001e-09
2.19256e-08
1.53345e-10
2.32408e-08
3.78561e-09
2.35253e-08
1.98482e-08
1.77456e-09
2.58243e-08
-2.63928e-09
3.39745e-08
4.90475e-09
3.85635e-08
1.62677e-09
1.77943e-09
3.07424e-08
2.85607e-09
-2.81793e-08
3.00769e-08
-9.8058e-09
3.06206e-08
-3.28129e-08
-2.31669e-08
2.89827e-08
3.32314e-08
2.98193e-08
2.67932e-09
2.82983e-08
2.61334e-09
2.39934e-09
2.04669e-08
-1.90696e-08
3.2604e-08
2.14736e-08
3.63502e-09
1.76665e-09
1.66388e-09
2.47224e-08
-2.68762e-09
-1.65096e-08
3.7426e-08
2.07816e-08
1.05627e-09
-1.77786e-08
1.87068e-08
3.35117e-08
6.84403e-10
-2.76349e-08
-1.98536e-08
1.4245e-08
2.83413e-09
2.24302e-08
3.57151e-09
1.51519e-09
2.12086e-08
-2.87295e-08
-2.75804e-08
3.79168e-09
-2.4221e-08
-2.64743e-08
7.47143e-09
2.08859e-08
2.30016e-08
1.42307e-10
1.69452e-08
3.78382e-08
1.54368e-09
-1.90798e-08
-1.94084e-08
-1.78619e-08
3.70574e-08
-2.43855e-08
-1.16091e-08
-3.11897e-08
2.43116e-08
2.68565e-08
4.33673e-13
2.7608e-08
1.25982e-09
-3.71316e-09
3.24466e-08
1.67771e-09
1.67715e-08
-2.5963e-09
-3.2967e-08
3.07591e-08
7.58094e-09
2.05591e-08
3.25783e-08
2.75729e-08
1.12265e-08
2.11094e-08
7.05224e-12
1.54027e-08
2.90331e-08
-2.63335e-08
-4.25588e-13
2.72859e-09
4.14661e-13
4.18887e-13
4.25314e-13
-3.25698e-08
4.25646e-13
-2.62382e-09
7.76604e-09
-5.82033e-10
3.07094e-08
1.17139e-08
1.65423e-08
1.1513e-08
2.04351e-08
4.37905e-13
-3.195e-08
2.54173e-08
-4.98034e-09
-3.16726e-08
4.09507e-13
2.66557e-09
-3.06917e-08
1.12579e-09
4.18118e-13
2.43055e-08
2.27816e-08
-2.78261e-08
-3.02274e-08
-1.57954e-08
2.94532e-08
1.11877e-09
-3.26428e-08
-2.24774e-08
-4.13625e-13
-2.16803e-08
3.29645e-08
4.18519e-13
2.53736e-08
2.74605e-08
-2.91641e-08
7.735e-09
3.0379e-08
4.10288e-13
2.74507e-08
3.68783e-09
1.10869e-09
-2.00736e-08
-3.2107e-08
-7.20017e-09
3.84084e-08
3.23051e-08
7.26174e-09
2.30406e-08
-3.16172e-08
1.02062e-08
2.1708e-08
1.28474e-09
3.48753e-08
2.86074e-08
2.91654e-08
-2.12313e-08
2.72854e-08
-1.94266e-08
2.67119e-09
-1.43885e-08
3.30223e-08
2.40385e-08
2.48315e-09
3.00562e-08
2.12993e-08
1.34734e-08
2.56623e-08
1.61809e-08
3.07146e-08
-3.04458e-08
3.05875e-08
-3.28577e-08
2.01314e-08
2.21307e-08
2.63096e-08
-3.35413e-08
1.92628e-08
2.38199e-08
2.88378e-08
2.29053e-08
3.07788e-08
1.71801e-09
1.60824e-08
-3.2751e-08
2.00932e-08
2.21423e-08
-3.23166e-08
1.99906e-08
2.06567e-08
3.0209e-08
2.18115e-08
-2.48207e-08
2.09986e-08
2.09991e-08
-3.26923e-08
3.30139e-08
2.68395e-08
1.72158e-08
2.83936e-08
3.28071e-08
2.89919e-08
3.23331e-08
2.3505e-08
2.68108e-08
3.22229e-08
-2.97685e-08
2.1845e-08
2.68793e-08
2.29132e-08
-2.41766e-09
3.68349e-08
2.58973e-08
-2.5924e-08
-3.18665e-08
2.01008e-08
1.98988e-08
-3.0682e-08
3.24376e-08
1.3118e-09
-3.25111e-08
1.72326e-08
3.49512e-09
-2.54953e-08
-3.22781e-08
-1.54981e-08
-7.27196e-10
2.83201e-08
-2.24522e-08
1.31734e-10
-2.10931e-08
-3.01902e-08
2.63005e-08
6.94018e-09
3.25788e-08
1.89374e-08
2.01293e-08
2.41572e-09
2.77716e-08
2.19604e-08
-3.21113e-08
-1.77545e-08
-9.56615e-10
2.75233e-08
-1.86603e-08
3.29648e-08
3.16089e-08
3.72e-08
-1.98962e-08
-2.28795e-08
-2.135e-08
-2.60497e-08
-2.66854e-08
2.84532e-08
-2.75509e-08
-3.314e-08
2.58138e-08
-1.84106e-08
1.87336e-08
4.28326e-10
-2.80908e-08
3.21956e-08
-3.33309e-08
7.21368e-09
-3.2488e-08
7.47143e-09
-1.93231e-10
2.42188e-08
-2.51465e-08
2.20045e-08
2.7274e-08
3.32984e-08
2.37038e-09
3.04435e-08
2.84606e-08
3.7723e-08
3.18392e-08
1.89429e-08
3.28528e-08
1.87226e-08
2.82225e-08
-5.0932e-09
3.32314e-08
-2.54516e-08
3.59825e-08
7.44298e-09
1.06861e-09
-2.61118e-08
2.837e-08
3.20749e-08
-3.17369e-08
-3.6539e-08
-2.38141e-08
2.91734e-08
3.00838e-08
2.43059e-08
-3.75829e-08
1.9922e-08
-3.72195e-08
-2.9014e-08
2.36719e-08
3.09922e-08
-2.71377e-08
-2.09358e-08
2.88312e-08
3.21109e-08
2.97062e-08
2.98846e-08
3.28627e-08
4.07345e-10
-3.17004e-08
2.21006e-08
1.92308e-08
2.64612e-08
-2.11833e-08
2.68135e-08
1.92882e-08
-2.95457e-08
-1.5915e-08
2.91692e-08
-2.91789e-08
2.76683e-08
3.23967e-08
3.11293e-08
1.61504e-08
1.68551e-08
2.00259e-08
-2.40735e-08
2.71817e-08
2.37262e-08
-2.60449e-08
2.62364e-08
3.47924e-09
3.10824e-08
1.53586e-08
2.48241e-08
2.24313e-08
-2.87525e-08
3.28488e-08
-2.92928e-08
3.43402e-09
1.30362e-09
3.40222e-08
-2.41305e-08
2.39949e-08
3.16067e-08
-2.0474e-08
3.17378e-08
-3.2453e-08
-3.05162e-08
1.56796e-08
2.46183e-09
-2.31907e-09
2.77929e-08
2.85769e-08
3.00882e-08
-3.26597e-08
-2.74746e-08
3.18364e-08
2.03529e-08
1.92454e-08
-3.01858e-08
-2.89455e-08
2.02364e-08
2.22428e-08
2.29019e-08
3.24681e-08
2.76593e-08
2.49323e-08
2.87842e-08
-3.16477e-08
2.86763e-08
2.5208e-08
3.19794e-08
-2.57398e-08
1.93183e-08
3.57392e-08
1.73398e-08
2.21251e-08
3.18596e-08
3.21119e-08
2.18813e-08
1.7249e-08
3.3128e-08
-2.405e-08
2.43032e-08
3.01216e-08
2.22031e-08
3.01576e-08
2.96455e-08
2.92041e-08
3.3332e-08
3.20766e-08
-2.12601e-08
-3.29922e-08
2.83267e-08
-3.30543e-08
-3.14129e-08
3.22492e-08
-2.69541e-08
-3.07749e-08
-7.30302e-10
-3.2008e-08
1.62649e-08
2.1902e-08
2.39352e-08
3.13963e-08
1.85687e-08
2.26343e-08
2.81295e-08
3.31676e-08
-2.28496e-08
3.19217e-08
-3.24825e-08
3.24625e-08
3.8911e-08
-3.32314e-08
1.68243e-08
-3.09193e-08
2.02081e-08
1.56358e-10
1.93676e-08
1.31549e-10
7.27676e-10
-3.30986e-08
3.74627e-08
7.58357e-09
5.12153e-09
-2.44658e-08
3.0731e-08
-3.30833e-08
3.19502e-08
2.76724e-08
2.26791e-10
3.24395e-08
3.27597e-08
3.54578e-08
2.67028e-08
2.97163e-08
3.36366e-08
3.22475e-08
2.21949e-08
-1.87082e-08
-2.89019e-08
2.479e-09
-2.971e-10
-3.53665e-08
-2.3785e-08
-3.08487e-08
3.18074e-08
2.30648e-08
-3.14919e-08
3.05413e-08
-3.18087e-08
3.82273e-08
3.50246e-08
-2.09216e-08
3.22152e-08
2.97749e-08
2.22639e-08
-2.36387e-08
1.42995e-10
3.76554e-08
7.18482e-09
-2.09046e-08
-3.0526e-08
-3.03299e-08
2.47838e-08
3.20924e-08
-3.23836e-08
1.53854e-08
3.03195e-08
3.25531e-08
2.72337e-08
-2.90794e-08
3.16366e-08
3.33419e-08
2.1929e-08
-1.98558e-10
1.70654e-08
-2.48074e-09
3.18868e-08
-3.83686e-08
-3.18932e-08
-2.88844e-08
1.85557e-08
1.44885e-08
2.17156e-08
3.28553e-08
3.70274e-08
-3.0048e-08
3.66119e-08
-3.31354e-08
2.09226e-08
2.186e-08
-3.73785e-08
-3.08252e-10
-2.9222e-08
-2.87449e-08
2.06271e-08
2.00077e-08
-2.64809e-08
1.0401e-08
1.96764e-08
2.87418e-08
-2.96502e-08
3.70714e-08
3.10098e-08
2.31246e-08
3.73892e-08
2.16804e-08
-2.11671e-08
-1.79623e-08
2.9687e-08
-2.74731e-08
3.84685e-08
-2.28812e-08
3.30833e-08
4.33205e-13
2.86358e-08
2.83396e-08
3.19244e-08
-1.90606e-08
-3.75623e-08
-1.60189e-08
2.46432e-08
2.72549e-08
-3.30639e-08
2.26786e-08
-2.81298e-08
-3.37589e-08
2.69808e-08
2.28997e-08
-2.0062e-08
3.1607e-08
3.35898e-08
-1.03322e-08
2.25835e-08
2.90085e-08
-1.03086e-08
7.60436e-09
2.52805e-08
-1.9333e-08
-2.2596e-08
-2.88932e-08
2.70642e-08
1.62266e-08
7.02849e-10
-1.8654e-08
-3.1217e-08
-3.15064e-08
-3.1243e-08
2.11004e-08
-1.63146e-08
-3.18554e-08
1.74119e-08
1.93152e-08
2.22471e-08
3.11196e-08
3.12193e-08
3.7297e-08
-3.76298e-08
1.16672e-08
-1.30134e-09
-1.8582e-08
3.15862e-08
1.71533e-08
3.21608e-08
4.28959e-10
-3.7427e-08
2.06937e-08
2.72206e-08
2.1635e-08
1.43548e-08
4.27373e-13
-2.04242e-08
3.0165e-08
1.83869e-08
4.00396e-08
-3.23063e-08
2.55751e-08
-3.27239e-08
3.44083e-08
2.32506e-10
2.2979e-08
3.16645e-08
-2.11869e-08
-3.20541e-08
2.97525e-08
3.12336e-08
-3.25857e-08
1.31272e-10
-2.80965e-08
2.94214e-08
2.43008e-08
4.14279e-13
2.27404e-08
-3.21914e-08
-2.40276e-08
3.6405e-08
2.81082e-08
2.91654e-08
3.38743e-08
-2.85911e-08
2.58009e-08
3.13532e-08
2.55141e-08
3.56572e-09
2.83531e-08
3.21016e-08
3.17048e-08
1.32693e-10
3.26435e-08
1.50971e-09
2.57985e-08
-2.12065e-08
-2.77947e-09
3.51672e-08
-3.04388e-08
2.74748e-08
-2.55072e-08
3.18628e-08
2.32197e-08
-2.87801e-08
3.6156e-08
1.90282e-08
1.58881e-08
-1.81425e-08
2.23484e-08
-1.74381e-09
-2.52986e-10
-3.57526e-08
-2.50887e-08
3.04414e-08
3.09664e-08
1.64533e-08
2.92705e-10
-2.58624e-08
5.12663e-09
3.68901e-08
1.17185e-08
2.88573e-08
2.36387e-08
-2.70293e-08
9.22251e-10
-2.9318e-08
2.5007e-08
2.80848e-08
-9.95566e-09
-3.01852e-08
2.43532e-08
2.91654e-08
-7.33231e-09
-1.30889e-10
2.71556e-08
3.90746e-08
3.15723e-08
2.62028e-08
-2.62872e-08
-3.14293e-08
5.78125e-10
3.7814e-08
2.55942e-08
3.04687e-08
-2.63105e-08
1.78209e-08
-2.08683e-08
2.41149e-08
2.51322e-08
3.01549e-08
2.37329e-08
3.21986e-08
1.8039e-08
3.57176e-08
2.91682e-08
-2.67653e-09
-2.11627e-08
-2.5422e-08
-2.52352e-08
-2.22893e-08
1.60808e-08
2.30571e-08
5.81217e-10
3.20242e-08
-3.07305e-08
-1.17756e-08
1.91497e-08
1.03339e-09
2.18782e-08
-2.40461e-08
-2.35582e-08
2.78023e-08
3.35143e-08
2.5727e-08
3.2205e-08
3.75457e-09
2.27337e-08
-2.41579e-08
4.96914e-09
2.25432e-08
2.10097e-08
3.03168e-08
2.45992e-08
3.16559e-08
-2.1023e-08
4.24219e-13
2.59323e-08
-2.81005e-08
2.48906e-08
2.91133e-08
-2.10516e-08
-3.37984e-09
-1.94156e-08
2.84854e-08
3.14543e-08
2.55258e-08
-1.7141e-08
-4.29187e-13
-2.81448e-08
-1.26031e-09
4.23059e-13
-4.25477e-13
2.32968e-08
-3.14638e-08
3.23605e-08
3.23394e-08
4.10736e-13
4.28008e-13
4.13766e-13
2.98415e-08
3.29467e-08
3.22068e-08
3.20541e-08
2.86772e-08
4.20082e-13
2.7662e-08
3.07877e-08
4.37477e-13
-1.674e-08
-3.04831e-08
3.07538e-08
3.74228e-08
1.61113e-08
1.34437e-08
-2.55431e-08
-4.30969e-13
1.86169e-08
2.88839e-08
2.92579e-08
1.01108e-08
1.75526e-08
3.25852e-08
2.98416e-08
-2.00184e-08
1.71917e-08
7.45445e-12
-4.35463e-13
-1.90458e-08
1.85052e-08
4.14665e-13
2.80728e-08
2.61548e-08
2.92147e-08
-2.55674e-08
1.98805e-08
2.52863e-08
3.20352e-08
2.92074e-08
-3.10833e-08
4.12817e-13
1.64192e-08
2.2739e-08
-2.08859e-08
3.22836e-08
3.04728e-08
4.12898e-13
-2.0242e-08
-4.28008e-13
-3.73296e-08
2.7591e-08
2.93757e-08
2.14672e-08
-2.99425e-08
3.18556e-08
-4.37081e-13
1.01519e-08
3.2396e-08
2.35657e-08
-3.26995e-08
2.15836e-08
-3.23084e-08
-3.08458e-08
2.20965e-08
-2.50334e-08
4.08792e-13
-3.16442e-08
-4.2198e-13
-2.20403e-08
2.15113e-08
2.37656e-08
3.15141e-08
4.27685e-13
2.76874e-08
1.94833e-08
3.15739e-08
2.81023e-08
3.39958e-09
7.40217e-09
-2.68288e-08
-2.76616e-08
2.37357e-08
1.59714e-08
3.0482e-08
4.26897e-13
4.27915e-13
2.75148e-08
3.02525e-08
7.20368e-10
-1.0459e-08
3.19004e-08
2.3483e-08
-3.31995e-08
1.85185e-08
3.16148e-08
-1.61063e-08
2.74864e-08
2.75096e-08
2.43635e-08
2.10548e-08
2.44436e-08
1.52019e-08
-2.93014e-08
2.6862e-08
2.29563e-08
-2.87603e-08
-2.3522e-08
2.53702e-08
-2.12085e-08
2.93204e-08
-3.18377e-08
2.72227e-08
2.31446e-08
2.2065e-08
2.50936e-08
-2.5629e-08
2.68777e-09
6.96487e-10
-2.54593e-08
3.3278e-08
-3.28007e-08
-1.0466e-08
1.93119e-08
3.04903e-08
-3.23875e-08
4.19968e-13
3.60803e-08
2.17826e-08
-2.85172e-08
-3.14887e-08
2.60124e-08
2.29595e-08
2.47753e-08
2.06351e-08
-4.17374e-13
3.22828e-08
4.29028e-13
-3.95535e-08
-2.39739e-09
7.59249e-09
1.86149e-08
-2.64932e-08
2.64034e-08
3.34875e-08
3.12084e-08
2.90786e-08
1.7385e-08
-4.1478e-13
-2.87525e-08
-3.22067e-08
2.88058e-08
3.00357e-08
-2.84079e-08
-1.11883e-09
2.01008e-08
2.75209e-09
2.42361e-08
1.92809e-08
-1.61262e-08
-2.84332e-08
2.54906e-09
2.28795e-08
1.38278e-08
2.69579e-09
2.40542e-08
1.5878e-08
3.77622e-09
-2.77679e-09
-1.62954e-08
-1.82289e-08
-2.36373e-08
3.15124e-08
-2.53205e-08
1.74223e-09
3.23781e-08
1.5315e-09
7.74323e-09
3.00346e-08
-1.68224e-08
-1.67709e-09
2.68071e-08
3.59342e-08
2.64207e-08
2.66913e-08
2.95964e-08
3.49598e-09
3.21973e-08
-3.16389e-08
1.07772e-09
3.28023e-08
-3.29354e-08
2.80201e-09
-3.06486e-08
3.12859e-08
2.99917e-09
2.57982e-09
2.03164e-08
1.50561e-09
-2.19209e-08
3.79005e-09
2.27837e-08
1.6139e-08
1.61142e-08
2.57118e-08
1.04125e-08
1.61438e-08
2.38611e-08
3.1817e-08
3.2276e-08
-3.29386e-08
2.12408e-08
-2.41552e-08
3.20755e-08
-1.72769e-09
1.22568e-09
3.15379e-08
3.02904e-08
3.14828e-08
3.12268e-08
1.49953e-08
-1.719e-08
-7.84779e-09
2.51855e-08
2.26493e-08
-1.68729e-08
2.8572e-08
-3.86915e-08
2.64528e-09
2.89336e-08
2.7583e-08
2.0655e-08
3.78575e-09
2.42027e-08
2.36003e-08
-1.51818e-08
2.98612e-08
2.84172e-08
3.24053e-08
1.83755e-08
-9.82291e-10
1.44368e-08
1.97998e-08
3.27944e-08
-1.78597e-09
2.21768e-08
2.31482e-08
3.20448e-08
1.25685e-09
3.18984e-08
-2.65118e-08
-2.92074e-08
2.88291e-08
1.63909e-08
-3.05145e-08
1.94668e-08
-2.93536e-09
2.30505e-08
1.69697e-08
2.08276e-08
2.42212e-08
1.54633e-08
1.65629e-08
1.66718e-08
-1.42902e-08
2.0289e-08
-1.19325e-08
-2.78623e-08
2.90047e-08
3.69022e-09
1.27332e-10
3.39847e-09
-4.10545e-13
3.23609e-08
-3.29902e-08
-1.58163e-08
2.61176e-08
3.22115e-08
2.65628e-08
3.20891e-08
3.27334e-08
9.68571e-10
2.02037e-08
3.18347e-08
2.51296e-08
3.8942e-08
3.13456e-08
2.42301e-08
1.99791e-08
2.76588e-08
-2.8509e-08
3.04458e-08
-7.28468e-10
-2.61266e-08
2.52343e-08
3.27813e-08
-2.00058e-08
3.90545e-08
3.21079e-08
-2.04102e-08
9.71384e-10
2.39335e-08
2.92163e-08
-3.32785e-08
5.13492e-09
1.99092e-08
-1.75672e-08
2.31143e-08
-2.95914e-08
2.1902e-08
-4.30561e-13
-2.73269e-08
3.73429e-08
-3.13102e-08
-2.60637e-08
2.19951e-08
-3.04789e-08
2.76709e-08
-3.69844e-08
2.37261e-08
-2.00616e-08
-3.29925e-08
2.19461e-08
1.56126e-08
1.76746e-08
3.06577e-08
1.04135e-08
2.94272e-08
3.69123e-08
2.24755e-08
-2.36785e-08
1.15939e-10
2.55681e-08
2.86802e-08
-3.97249e-08
-2.3861e-08
2.24975e-08
5.15039e-09
2.07637e-08
-2.75e-08
3.77622e-08
2.47422e-09
1.62748e-08
-3.19241e-08
-1.93486e-08
-2.49642e-08
3.15559e-08
-4.39109e-13
2.52873e-08
-2.46076e-08
2.05162e-08
3.08118e-08
3.2281e-08
2.64365e-08
2.20572e-08
3.23791e-08
7.19851e-09
1.02295e-08
2.29188e-08
7.21956e-09
-2.94794e-08
1.59975e-08
2.86332e-08
3.16546e-08
-2.13753e-08
-3.22229e-08
3.76625e-08
-3.34955e-08
3.03078e-08
3.04215e-08
-2.03156e-08
4.87603e-09
1.96489e-08
2.92182e-08
-2.58624e-08
-3.28396e-08
-5.03168e-09
2.00259e-08
3.21121e-08
-3.22451e-08
1.02575e-08
-1.63975e-08
-1.68702e-08
-3.19494e-08
-3.03371e-08
2.54838e-08
3.14611e-08
2.01179e-08
1.31132e-09
3.63999e-08
1.82185e-08
-2.27108e-08
-3.04944e-08
-2.00933e-08
3.08487e-08
-1.89862e-08
-3.21252e-08
2.04363e-08
3.31646e-08
-2.55857e-08
2.41749e-08
3.17587e-08
3.86769e-08
2.7363e-08
2.74731e-08
2.91358e-08
3.09222e-08
-1.00312e-08
2.2078e-08
-3.30743e-08
3.76202e-08
1.6598e-09
1.04411e-08
-9.96441e-09
3.14614e-08
2.62581e-08
3.27815e-08
1.76178e-09
1.0413e-08
3.29215e-08
1.97709e-08
-2.43611e-08
2.07615e-08
-1.63963e-08
-2.17455e-08
3.70791e-08
-2.33076e-08
-2.84978e-08
3.20626e-08
1.99882e-08
-1.5794e-08
3.09227e-08
2.55667e-08
3.40849e-08
3.19058e-08
2.027e-08
2.94324e-08
3.55548e-09
1.99882e-08
-3.26836e-08
2.00929e-08
4.33917e-13
3.22394e-08
2.09857e-08
-2.72253e-08
2.33216e-08
2.36575e-09
2.86544e-08
3.81647e-08
1.83316e-08
3.25385e-08
2.70882e-08
2.00627e-08
2.08655e-08
4.17014e-10
-3.26722e-08
1.25689e-09
-1.83656e-08
3.23069e-08
-1.75441e-08
-3.11834e-08
-3.17088e-08
2.52433e-10
3.0153e-08
2.61544e-08
3.2506e-08
2.85527e-08
2.92928e-08
3.90076e-08
-2.64449e-08
2.80102e-08
1.92754e-08
-3.21378e-08
2.15012e-08
-1.03136e-10
2.20349e-08
1.95494e-08
2.73868e-08
-4.36016e-13
2.98445e-08
2.39361e-09
-2.88116e-08
4.35552e-13
-2.80101e-08
-2.32065e-08
3.09665e-08
2.68409e-08
-3.53524e-08
2.48093e-09
2.47637e-08
-2.57787e-10
3.32766e-08
-2.76204e-08
-1.85791e-08
-2.52296e-08
-3.20163e-08
2.46665e-08
2.45597e-09
1.56168e-08
-1.77105e-08
-1.53856e-08
-2.16366e-08
3.02449e-08
2.83395e-08
3.01276e-08
2.40761e-08
2.59555e-08
3.15069e-08
7.65055e-09
2.0774e-08
2.90427e-08
1.35912e-08
3.21226e-08
1.99384e-08
3.18194e-08
1.02149e-08
3.235e-08
-4.09897e-13
2.0079e-08
-1.20547e-09
-1.72737e-08
3.78104e-08
1.81811e-08
2.0773e-08
2.88704e-08
-1.90175e-08
1.8808e-08
-1.61549e-08
1.87047e-08
2.71418e-08
-2.39531e-08
2.14616e-08
3.87744e-08
-3.04598e-08
-2.4047e-08
1.9561e-08
2.39571e-08
3.14942e-08
1.81225e-08
2.12784e-08
2.52841e-08
-3.24586e-10
3.13675e-08
-2.98823e-08
-4.38688e-13
2.13544e-08
3.14175e-08
-2.40573e-08
-3.14885e-08
3.10665e-08
1.63144e-08
2.29679e-08
5.00062e-09
2.45093e-08
-1.88006e-08
3.19495e-08
2.10686e-08
2.90066e-08
-1.99206e-08
3.24351e-08
-2.42027e-09
7.02616e-10
2.6751e-08
-2.12979e-08
1.14977e-08
3.02772e-08
3.18511e-08
-8.96344e-11
2.79534e-08
3.03018e-08
-2.39225e-08
3.19863e-08
-1.97834e-08
3.82879e-08
1.96124e-08
-1.86607e-08
-7.26498e-10
1.52274e-10
2.57616e-08
3.82561e-08
3.12446e-08
1.91436e-08
-2.89537e-08
3.11405e-08
3.7814e-08
2.3489e-08
2.11259e-08
1.02372e-08
-3.90074e-08
3.24119e-08
-3.2755e-08
2.6987e-08
4.20862e-13
3.81523e-08
3.10665e-08
3.21467e-08
4.23831e-13
4.06133e-13
-2.88338e-08
2.82334e-08
4.35922e-13
2.06902e-08
1.95355e-08
3.21149e-08
4.33728e-13
2.474e-08
3.07444e-08
4.23382e-13
-4.17144e-13
1.94124e-08
-4.21623e-13
-2.81075e-08
3.00733e-08
4.26856e-13
-3.24202e-08
1.42328e-10
2.52184e-08
4.19171e-13
2.51051e-08
2.85489e-08
3.2825e-08
4.27896e-13
1.93994e-08
3.15369e-08
-2.20239e-08
4.32845e-13
-2.75804e-08
4.22152e-13
3.31772e-08
4.34359e-13
2.5632e-08
3.70989e-08
2.42339e-08
2.31797e-08
4.28903e-13
-3.32314e-08
4.11592e-13
-4.32885e-13
4.25314e-13
9.49937e-10
-4.2092e-13
4.24549e-13
3.13705e-08
-4.3005e-13
-2.79192e-08
-1.99991e-10
3.31912e-09
-2.03582e-08
2.86143e-08
-1.65658e-08
3.1607e-08
3.22423e-08
-4.2759e-13
2.75361e-08
2.0627e-08
2.08887e-08
3.32173e-08
-2.42293e-08
3.0258e-08
3.04388e-08
2.55024e-08
2.12085e-08
-1.86918e-08
3.2853e-08
-3.4052e-09
-3.14641e-08
2.80218e-08
3.05172e-08
3.37352e-08
3.24533e-08
3.26181e-08
2.64147e-08
3.28929e-08
1.60284e-08
-2.61518e-08
2.65374e-08
1.93966e-08
2.8048e-08
2.79104e-08
1.99937e-08
2.47068e-08
-3.30999e-08
-1.71358e-09
2.01194e-08
2.09995e-08
2.23001e-08
2.77005e-08
3.15472e-08
3.65741e-08
1.89226e-08
1.86512e-08
-3.24933e-08
-2.36124e-08
3.09588e-08
-3.14858e-08
3.29943e-08
-2.88766e-08
-3.12024e-08
3.29925e-08
2.30437e-08
2.00259e-08
-2.2113e-08
1.9465e-10
2.93014e-08
2.14921e-08
-2.13753e-08
2.52429e-08
3.11795e-08
-1.9063e-08
-2.88968e-08
-1.00161e-08
7.2409e-10
-2.88125e-08
-2.82316e-08
3.28848e-08
-3.33982e-08
2.96871e-08
2.30613e-08
1.78235e-09
2.47344e-08
3.03235e-08
3.09553e-08
-2.48913e-08
3.1918e-08
2.81769e-08
2.77279e-08
3.27147e-08
2.17358e-08
1.88831e-08
3.33322e-08
-2.2573e-08
2.728e-08
3.15578e-08
2.06106e-08
-2.14734e-08
-2.83087e-08
-2.50943e-08
-3.76472e-08
3.21243e-08
3.04342e-08
-2.00077e-08
-2.62496e-09
3.05958e-08
3.23347e-08
2.63496e-08
3.02336e-08
2.5568e-08
2.60948e-08
2.01867e-08
-2.42544e-09
-3.80872e-08
-2.41351e-08
2.90028e-08
2.40133e-08
2.20403e-08
-2.8594e-08
-2.11555e-08
-2.98831e-08
-2.83897e-09
3.83975e-08
-1.28089e-10
-1.77712e-08
2.31246e-08
3.05715e-08
3.0985e-08
1.59149e-08
1.99696e-08
2.4176e-08
-1.85371e-08
2.376e-08
-2.13682e-08
2.5629e-08
2.77118e-08
3.07823e-08
-3.05383e-08
1.66656e-08
2.20983e-08
2.41262e-08
2.90727e-08
7.1207e-09
7.29194e-10
-2.8645e-08
-2.37664e-08
2.88969e-08
1.97245e-08
2.02886e-08
3.24466e-08
2.00598e-08
-2.31246e-08
3.19461e-08
1.90224e-08
-3.21525e-08
2.19551e-08
2.62105e-08
3.73443e-08
-3.40162e-09
-2.8903e-08
1.7733e-08
2.43055e-08
-1.92921e-08
2.7707e-08
1.96831e-08
1.92955e-08
-7.45139e-09
-3.04435e-08
-3.21613e-08
1.06035e-09
-1.45012e-08
3.05488e-08
3.29448e-08
-3.81263e-08
-1.78578e-08
-1.00509e-08
-3.11414e-08
1.05903e-09
2.03152e-08
-2.6768e-08
2.99572e-08
-9.45876e-10
-9.48171e-10
2.09823e-08
-2.49076e-08
-1.92341e-08
1.6468e-08
2.44621e-10
1.96291e-08
-2.55293e-08
1.42586e-08
-2.35382e-09
-3.85736e-08
2.0002e-08
5.25973e-10
1.70835e-08
3.14222e-08
2.35393e-08
1.88818e-08
3.1838e-08
-2.9291e-08
1.03829e-08
-1.50859e-10
3.47144e-09
3.14862e-08
-1.17034e-08
-3.24009e-08
3.25547e-08
2.43977e-08
3.03291e-10
3.10939e-08
-2.17166e-08
1.45925e-09
-2.94017e-08
2.22233e-08
3.12823e-08
2.47239e-08
2.56115e-08
-3.02525e-08
-6.4602e-09
2.43718e-08
2.0819e-08
3.17574e-08
2.76507e-08
-2.53424e-08
-1.1346e-08
-2.16837e-08
3.10377e-08
2.13462e-08
-2.31455e-08
-2.69368e-08
3.20201e-08
-3.2539e-08
3.30372e-08
1.79196e-08
3.14331e-08
-3.18628e-08
-3.02447e-08
-3.52528e-09
1.91141e-08
1.70944e-09
7.56019e-09
-3.2019e-08
-3.30815e-08
2.56612e-08
2.18328e-08
-3.93578e-08
2.21163e-08
3.17026e-08
3.7162e-09
-3.2343e-08
2.35412e-08
1.02966e-09
2.26437e-08
2.00267e-08
3.66683e-08
2.0998e-08
-3.46516e-09
-3.89714e-08
3.49356e-09
-2.07652e-08
3.18398e-08
1.27141e-09
3.68569e-08
-3.23961e-08
3.08918e-08
2.87472e-08
7.40517e-09
2.43814e-08
2.00608e-08
2.17363e-08
-2.9139e-08
2.20337e-08
7.48924e-09
9.76473e-11
3.12419e-08
-3.19421e-08
1.95556e-08
-3.21457e-08
2.33495e-08
3.35954e-08
1.04309e-08
3.02714e-08
2.73938e-08
2.40761e-08
3.27962e-08
2.87475e-08
2.65603e-08
2.98392e-08
2.60925e-08
-2.4078e-08
3.02749e-10
3.22451e-08
1.98134e-08
1.95295e-08
-3.12798e-08
4.14604e-10
2.7825e-08
3.21623e-08
3.20805e-08
-2.94244e-08
3.12273e-08
2.48735e-08
1.79389e-08
1.96148e-08
3.12612e-08
3.55499e-08
1.58442e-08
-2.56336e-08
-2.88894e-08
3.28339e-08
-3.73275e-08
2.90564e-08
1.92966e-08
3.18843e-08
-3.23967e-08
2.29226e-08
-1.60285e-08
3.2152e-08
2.14449e-08
3.71176e-08
3.83607e-08
3.34167e-08
2.78838e-09
3.15044e-08
2.46967e-08
9.2214e-11
2.75194e-08
-3.2556e-08
2.52839e-08
2.17983e-10
3.18141e-08
2.33926e-08
1.67525e-10
3.35155e-08
2.33415e-09
-2.82822e-08
3.35697e-08
1.92664e-08
3.18874e-08
-3.24767e-08
-1.65845e-10
3.15696e-08
9.76273e-10
-2.05761e-08
-2.67367e-08
2.2979e-08
-2.61117e-08
2.11078e-08
1.09561e-08
3.31084e-08
1.85566e-08
3.15069e-08
2.66672e-08
-1.98364e-10
2.53676e-08
2.97852e-08
2.20483e-08
-2.33261e-08
3.06938e-08
1.43835e-08
2.8596e-08
2.73004e-08
2.90865e-08
2.77503e-08
-1.86176e-08
2.9739e-08
-2.43617e-08
-2.76047e-08
3.22644e-08
2.86452e-08
2.47331e-08
2.00292e-08
2.65587e-08
1.02238e-08
2.08676e-08
3.22875e-08
3.30258e-08
2.50931e-08
3.8767e-08
1.09127e-09
2.3268e-08
-2.80595e-08
3.3172e-08
2.81041e-08
1.59924e-08
1.40548e-08
1.29219e-09
2.00457e-08
3.90132e-08
1.04023e-08
3.70904e-08
1.512e-09
2.22427e-08
7.07236e-10
3.26562e-08
1.36069e-08
2.58956e-08
3.32408e-08
1.16284e-08
-3.69792e-08
-2.6558e-09
2.90592e-08
-3.23399e-08
-2.42535e-08
3.04363e-08
-1.69957e-09
2.57026e-08
2.93205e-08
1.9071e-08
3.97997e-08
-2.13491e-08
2.34751e-10
-2.7697e-08
3.24149e-08
2.04763e-08
2.80676e-08
2.02947e-08
3.33354e-08
2.14304e-08
3.08353e-08
1.9702e-08
-2.04704e-08
-1.69989e-08
-2.23547e-08
6.99034e-09
2.84065e-08
-2.01106e-08
2.61618e-09
-1.66697e-08
1.77821e-09
2.03709e-08
-2.99736e-08
3.2205e-08
-3.37239e-08
-5.09617e-09
1.85524e-08
3.30049e-08
-2.35774e-08
-2.63078e-08
2.378e-08
1.4487e-08
3.07117e-08
-5.11874e-09
-7.24738e-09
3.07053e-08
-6.7305e-10
2.16641e-08
-3.25354e-08
-3.69987e-09
1.94498e-08
2.37115e-08
2.61608e-08
3.23877e-08
3.20454e-08
2.37945e-08
3.2326e-08
2.906e-08
3.33609e-08
2.50931e-08
2.84724e-08
2.43346e-08
-3.23513e-08
-3.13141e-08
2.17902e-08
-3.2005e-08
-2.8497e-08
-1.64829e-10
-2.17972e-08
3.00032e-08
-2.76486e-08
3.72817e-08
1.58081e-08
3.27633e-08
-1.88533e-08
2.72757e-08
7.13716e-09
2.33954e-08
3.26562e-08
2.91756e-08
-3.12451e-08
3.01724e-08
3.28596e-08
2.94296e-08
2.56983e-08
2.86622e-08
1.63377e-08
2.04626e-08
-3.21044e-08
-3.18424e-08
3.20227e-08
2.32058e-09
3.15782e-08
-3.31282e-08
3.5436e-09
1.64328e-08
-2.713e-08
-1.71581e-08
3.05994e-08
-2.69332e-08
3.20065e-08
5.53423e-10
2.29049e-08
3.25642e-08
1.52907e-10
3.2897e-08
-2.09416e-08
2.15639e-08
-1.74313e-10
1.60276e-08
-2.35198e-08
-1.30362e-09
-1.71275e-08
2.69075e-10
-1.92664e-08
2.15474e-08
-2.61649e-08
-2.98997e-10
2.8218e-08
2.96888e-08
-2.97333e-08
-1.66036e-08
7.5946e-09
2.5209e-09
-3.13324e-08
4.31113e-13
-1.67702e-08
4.1473e-13
2.58383e-08
2.34162e-08
-2.89727e-08
-1.30345e-09
2.01847e-08
2.39737e-08
3.22202e-08
-2.43831e-08
-3.19625e-08
2.99999e-08
-3.74693e-08
3.65022e-08
2.63116e-08
9.63985e-11
1.43998e-10
3.01222e-08
3.44939e-09
2.96593e-08
-1.73516e-10
-2.84918e-08
2.6261e-08
2.70323e-09
2.96497e-08
2.03928e-08
3.15626e-08
3.08042e-08
3.66615e-08
2.90896e-08
-2.90007e-08
-2.71927e-08
-1.16422e-10
-2.34973e-08
3.07034e-08
1.98943e-08
3.08628e-08
-1.81606e-08
-3.02753e-08
2.51559e-08
-1.16039e-10
2.1443e-08
6.36494e-11
-3.74926e-08
2.69659e-09
3.28445e-08
-2.23262e-08
2.6288e-08
2.63521e-08
3.04117e-08
2.55791e-08
2.74391e-08
-1.66053e-08
2.39795e-08
1.80236e-08
2.00143e-08
3.07875e-08
1.27849e-10
-3.31334e-08
-2.56376e-10
1.71271e-08
1.96945e-08
1.31969e-10
2.8231e-08
2.93188e-08
2.9277e-08
7.1952e-09
-2.31871e-08
1.92564e-08
-2.14591e-08
-1.67686e-08
1.30568e-10
-2.65166e-08
1.99162e-08
3.13612e-08
1.92566e-08
-2.18328e-08
2.55043e-08
2.11248e-08
8.25494e-11
3.02447e-08
2.40644e-08
3.15652e-08
1.60129e-08
-2.38184e-09
2.46439e-08
3.82277e-08
3.34828e-08
2.53194e-08
2.31944e-08
3.16916e-08
-3.20145e-08
-3.22836e-08
1.97296e-08
-3.81636e-08
-3.16291e-08
-1.37193e-08
2.9946e-08
-2.15318e-08
3.85282e-08
1.63663e-08
-3.11952e-08
2.60457e-08
3.03095e-08
7.02632e-10
3.27796e-08
3.20745e-08
2.3102e-08
5.58698e-10
2.1222e-08
1.90241e-08
2.6592e-08
1.28343e-10
2.21488e-08
-3.7364e-08
1.71034e-08
2.08551e-08
2.47767e-08
3.27898e-08
2.15245e-08
-3.70455e-08
-2.18152e-08
2.60273e-08
2.84865e-08
-2.812e-08
1.36346e-08
-3.29217e-08
9.87015e-09
-3.23255e-08
9.22046e-11
4.99415e-09
-9.25379e-11
3.00654e-08
-3.16825e-08
2.58625e-10
-1.90458e-08
-2.91284e-08
3.25484e-08
1.43259e-08
1.71645e-10
-3.20853e-08
-3.6857e-08
2.95808e-08
1.92167e-08
2.40396e-08
-1.6909e-08
1.00313e-08
3.12203e-08
2.76991e-08
2.24109e-08
2.43325e-08
3.03605e-08
3.05994e-08
-3.86289e-08
3.21316e-08
-5.55083e-10
2.41584e-08
4.86783e-09
2.86367e-08
2.10366e-08
2.52563e-08
2.26362e-08
-4.34441e-10
1.89704e-08
-3.01278e-08
1.96296e-08
-1.49747e-10
2.58415e-08
3.08434e-08
1.99335e-08
-1.48479e-08
1.26834e-10
5.34965e-11
1.46578e-10
9.87258e-11
2.3046e-08
2.9139e-08
-2.04665e-08
3.10186e-08
-1.4581e-08
3.04625e-08
2.76588e-08
-3.21068e-08
3.30437e-08
-3.17106e-08
2.16626e-08
-2.76724e-08
3.25542e-08
2.95588e-08
2.95755e-08
2.85249e-08
-8.32256e-11
2.53207e-08
-2.53424e-08
-1.91931e-08
5.00205e-09
-3.30937e-08
2.66745e-08
-1.38295e-08
3.02948e-08
2.83937e-08
2.24328e-08
2.00742e-08
1.01897e-09
3.28312e-08
-2.21094e-08
3.03206e-08
-3.30159e-08
1.90516e-08
-3.19975e-08
3.17726e-08
1.93834e-08
3.22394e-08
3.2544e-08
3.11868e-08
3.07844e-08
3.75154e-08
2.31183e-08
3.13702e-08
1.91921e-08
-2.8903e-08
2.05862e-08
3.23695e-08
-2.70866e-08
3.81553e-08
-3.18252e-08
7.88248e-09
2.91872e-09
-2.73881e-09
3.19729e-08
-2.31882e-08
2.98978e-08
-3.70172e-08
-2.28823e-08
1.72874e-08
2.38088e-08
2.00132e-08
3.27058e-08
2.39033e-08
7.03932e-10
2.80793e-08
1.13283e-08
-3.09949e-08
2.76226e-09
1.18753e-10
3.02816e-08
-2.90386e-08
-1.98667e-08
-2.16439e-08
-3.03779e-08
-2.88262e-08
-3.26466e-08
3.35358e-08
2.37457e-08
3.28022e-08
2.15904e-08
2.51263e-08
-3.17763e-08
2.56338e-08
1.99882e-08
2.26671e-08
1.52782e-08
-2.29494e-08
3.2232e-08
3.1247e-08
9.22654e-10
2.47407e-08
7.48953e-09
-3.28624e-08
-2.93164e-08
1.63472e-08
2.28223e-10
2.6914e-09
-2.34597e-08
2.1218e-08
3.11164e-08
1.45536e-08
2.09363e-08
1.72868e-08
2.05095e-08
3.13473e-08
-2.92231e-08
2.78704e-08
-1.93407e-08
-1.66381e-08
2.2649e-10
-3.25503e-08
2.73548e-08
3.1625e-08
2.0724e-08
3.84306e-08
2.68395e-08
-3.31459e-08
7.26363e-09
-3.27982e-08
-4.28009e-10
2.09658e-08
2.51937e-08
-2.42342e-08
3.50633e-09
2.28011e-08
-2.37663e-08
-3.10667e-08
-2.88467e-08
1.95433e-08
-1.94619e-08
3.24466e-08
2.42017e-08
-3.20989e-08
2.27098e-08
-3.85097e-08
-3.32498e-08
2.91799e-08
3.62182e-08
1.9953e-08
2.03724e-08
-4.00126e-08
3.16864e-08
2.45627e-08
2.21307e-08
-2.83914e-08
3.54326e-09
2.71655e-08
3.19769e-08
-3.15098e-08
3.24101e-08
-2.21959e-08
2.37896e-08
-3.73563e-08
2.38222e-08
-2.28974e-08
-3.14609e-08
3.3366e-08
2.96873e-08
2.36304e-08
2.45491e-08
3.29881e-08
2.30024e-08
2.32904e-08
2.97453e-08
-2.38896e-08
-2.82743e-08
2.91939e-08
1.96707e-08
4.91816e-09
1.74729e-10
-2.99569e-09
3.04899e-08
-2.26862e-08
-2.77279e-08
3.67772e-08
2.41326e-08
3.23695e-08
3.33354e-08
-3.42426e-09
3.30832e-08
-3.28732e-08
-2.96451e-08
2.35318e-08
-3.16731e-08
2.91213e-08
3.16415e-08
-4.29361e-13
3.13044e-08
3.03078e-08
2.30413e-08
2.19148e-10
4.24968e-10
3.18614e-08
3.87633e-08
1.95048e-08
-1.0121e-08
3.62555e-08
3.23199e-08
-1.90842e-08
-1.66487e-08
-2.23814e-08
2.35194e-08
-3.04217e-08
1.89356e-08
1.93868e-08
1.70032e-09
3.85736e-08
2.42818e-08
-3.08585e-08
-4.78352e-09
3.1318e-08
2.51116e-08
-3.20816e-08
3.339e-08
-5.57508e-10
-2.55667e-08
1.96119e-08
-3.13605e-08
2.28567e-08
2.14516e-08
2.27435e-09
-3.91278e-08
1.99154e-08
3.12095e-08
2.38463e-08
-1.87306e-08
-2.92079e-08
2.62543e-08
-2.20038e-08
-2.18813e-08
1.17645e-08
3.31645e-08
3.36755e-08
2.71618e-08
1.93755e-08
3.30724e-08
2.41589e-09
2.56823e-08
4.13326e-10
3.33642e-08
3.30437e-08
1.593e-08
2.30967e-08
2.64718e-08
1.92628e-08
2.5975e-08
7.47547e-09
3.18014e-08
3.26051e-08
2.82141e-09
-2.39653e-08
1.15008e-08
2.6157e-08
7.42387e-09
1.55167e-08
2.9698e-08
3.00792e-08
6.89215e-10
-1.90911e-08
-2.67585e-08
-3.24278e-08
1.75155e-08
-2.85686e-08
-1.42925e-08
3.18175e-08
-3.82915e-08
3.19371e-08
2.84595e-08
2.45114e-09
1.17199e-08
3.84322e-08
3.18667e-08
-1.90897e-08
2.10957e-08
-3.11878e-08
2.1052e-08
2.72986e-08
1.6695e-08
1.71884e-08
7.46499e-09
2.25308e-08
-2.00425e-08
-1.98935e-08
3.20816e-08
1.60903e-08
-3.97546e-08
-3.07247e-08
2.76268e-09
-8.20599e-11
2.08384e-08
2.27916e-08
1.46157e-08
-2.08653e-08
3.17713e-08
1.71597e-08
-1.03839e-08
3.62484e-09
-1.64777e-08
-6.99485e-10
1.88782e-08
2.08452e-08
3.30692e-08
-2.20881e-08
3.75044e-08
3.1373e-08
-2.68079e-08
-3.2828e-08
-1.1568e-08
3.27189e-08
7.18365e-09
-2.17753e-08
5.73554e-10
2.28326e-08
3.28281e-08
2.27559e-08
3.16741e-08
3.21706e-08
2.92467e-08
3.28395e-08
3.17414e-08
2.92074e-08
-2.21813e-08
3.21467e-08
3.12896e-08
-2.9222e-08
1.87554e-08
2.84498e-08
1.35559e-10
-2.2666e-08
2.3802e-08
1.89237e-08
2.64345e-08
2.03164e-08
2.63522e-08
-3.13569e-08
-3.03711e-08
2.2533e-08
1.99369e-08
2.90443e-08
3.02829e-08
-2.77702e-08
2.83767e-08
-3.00164e-09
-1.83838e-08
-3.00046e-08
2.41934e-08
-3.28913e-08
4.21467e-10
-2.51064e-08
1.77327e-09
2.99326e-08
-3.17179e-08
3.67969e-08
2.21059e-08
2.36282e-08
2.96519e-08
3.19488e-08
3.16559e-08
2.58009e-08
2.34864e-08
-2.42672e-08
2.55189e-08
-1.89266e-08
3.17689e-08
-2.77279e-08
2.27187e-10
-1.58534e-08
1.28416e-09
2.74826e-08
2.55413e-08
2.94998e-08
2.15655e-08
1.0459e-08
2.87099e-08
-1.87509e-08
3.23035e-08
2.26944e-08
2.32853e-08
2.85956e-08
-2.42361e-08
2.48909e-08
3.30548e-08
2.29507e-08
1.49629e-10
2.48667e-08
2.40015e-08
-5.14942e-09
3.16012e-08
3.2587e-08
1.01457e-08
3.35413e-08
3.25809e-08
-2.73983e-08
3.27843e-08
1.95504e-08
1.87784e-08
-1.65867e-08
3.27327e-08
1.35207e-08
2.21173e-08
3.13971e-08
3.25091e-08
-2.77279e-08
1.55563e-08
2.12256e-08
2.22021e-08
2.01533e-08
3.57067e-09
2.30388e-08
2.83405e-08
2.62072e-08
-2.84376e-08
-2.63338e-09
3.04334e-08
-2.93435e-08
3.10448e-08
3.15168e-08
3.32314e-08
3.19294e-08
1.89475e-08
3.20986e-08
1.43754e-08
2.64149e-08
1.97122e-08
1.90795e-08
3.20863e-08
-2.36446e-08
2.18355e-08
-3.81652e-08
2.77145e-08
-3.22836e-08
-2.5028e-08
1.39093e-08
1.83887e-08
2.78257e-08
1.90088e-08
2.92182e-08
3.70335e-08
-3.41557e-09
2.36105e-08
3.06243e-08
2.18689e-08
3.02622e-08
3.24697e-08
2.56372e-08
3.07318e-08
-1.02614e-08
3.35164e-08
2.62408e-08
-1.36128e-08
3.25769e-08
2.69197e-08
-2.41584e-08
-9.80315e-09
-2.76388e-08
2.64104e-08
-2.90763e-08
2.2901e-08
3.20805e-08
1.76003e-08
2.27825e-08
3.76554e-08
2.38623e-08
1.92526e-08
1.04608e-08
2.74826e-08
-3.22473e-08
2.13535e-08
3.19702e-08
-2.20068e-08
1.8864e-08
1.32678e-10
2.98445e-08
-2.68712e-08
3.39414e-08
2.1621e-08
2.51617e-08
7.44157e-09
-2.75039e-08
-2.84154e-08
3.22891e-08
3.10284e-08
2.77145e-08
1.86623e-08
3.06829e-08
-3.25274e-08
2.04576e-08
-2.98274e-08
2.71015e-08
3.22607e-08
-2.96539e-08
2.04037e-08
2.23607e-08
2.10268e-08
2.32234e-08
2.15903e-08
1.00218e-08
2.10177e-08
-2.85336e-08
2.24062e-08
2.92742e-08
3.03049e-08
2.70086e-08
3.08371e-08
2.06745e-08
1.60164e-08
2.90104e-08
-3.31563e-08
2.51201e-08
2.81572e-08
2.17768e-08
3.14173e-08
3.24466e-08
2.96365e-08
3.15387e-08
2.71044e-08
-3.78055e-08
-1.6665e-08
-2.77279e-08
3.08049e-08
-2.44378e-08
-1.64272e-08
3.07877e-08
2.99731e-08
2.43349e-08
3.26484e-08
2.73354e-08
-3.23352e-08
1.90041e-08
1.96722e-08
1.66294e-08
3.40938e-09
2.86552e-10
3.13084e-08
3.128e-08
-3.22031e-08
5.77971e-10
-2.15596e-08
2.89114e-08
2.08661e-08
1.74339e-08
3.14223e-08
3.15167e-08
1.17045e-08
3.10374e-08
-3.15701e-08
1.17699e-08
-3.08383e-08
2.56562e-08
-2.0827e-08
2.39489e-08
1.44143e-08
2.79526e-08
7.21199e-09
-1.58744e-08
2.40364e-08
2.69452e-09
2.30986e-08
2.49668e-09
-2.06925e-08
-1.69497e-08
-1.61103e-08
5.70207e-10
2.20375e-08
3.2763e-08
3.13739e-08
3.2107e-08
1.62285e-08
2.17917e-08
7.27802e-12
-2.45804e-08
2.84e-08
4.27134e-10
2.11426e-08
2.86342e-10
3.08365e-08
-3.03858e-08
-2.94714e-08
2.65374e-08
2.6687e-08
-2.37364e-08
-3.74531e-08
2.02473e-08
2.46995e-09
2.65319e-08
-7.10798e-09
3.75087e-08
3.26872e-08
-2.16231e-08
3.2013e-08
2.98776e-08
2.96033e-08
-2.87477e-08
-1.90087e-08
2.2979e-08
-2.20871e-08
2.30813e-09
1.44806e-10
2.98445e-08
2.77503e-08
-5.14536e-09
1.84345e-08
1.4054e-08
7.41132e-09
-1.00934e-08
3.18535e-08
-2.3912e-08
-3.47808e-09
-2.99259e-08
3.11516e-08
3.16815e-08
2.64473e-08
1.27494e-10
2.07192e-08
-2.75708e-09
2.31012e-08
2.58737e-08
3.32278e-08
2.82921e-08
3.90685e-08
-2.34558e-08
2.39248e-08
2.57695e-08
-3.1413e-08
3.19371e-08
2.72076e-09
3.26946e-08
2.40476e-08
2.36951e-08
2.64202e-08
-2.90621e-08
3.24149e-08
-3.33106e-08
-7.59786e-09
3.06006e-08
1.76167e-08
-2.56637e-08
3.30548e-08
2.76037e-08
1.87068e-08
3.7859e-08
3.08949e-08
3.64996e-08
3.2616e-08
-2.71469e-08
3.37919e-08
3.30956e-08
3.19131e-08
3.26644e-08
-1.86284e-08
-3.08021e-08
2.75407e-08
2.76142e-08
2.22154e-08
3.2516e-08
-2.0215e-08
-3.01279e-08
2.90423e-08
1.40827e-08
2.93729e-08
-3.09224e-08
4.01079e-08
2.07424e-08
2.11448e-08
3.89459e-08
-2.26882e-08
2.05267e-08
3.54002e-09
-2.39225e-08
3.27521e-08
-1.97039e-08
-2.08248e-08
9.82291e-10
3.09169e-08
2.30413e-08
3.25239e-08
2.72492e-08
2.50189e-08
2.48459e-08
5.04341e-09
-1.73851e-09
1.87863e-08
3.13666e-08
-1.76405e-08
3.15655e-08
2.85517e-08
2.30728e-08
2.55611e-08
-2.19108e-08
-3.16204e-08
3.26915e-08
-1.65134e-09
7.16304e-10
1.76003e-08
2.87529e-08
2.40454e-08
-2.12486e-08
1.39414e-08
2.53205e-08
-2.98162e-08
-2.41805e-09
-2.07744e-08
2.06914e-08
3.15512e-08
2.90348e-08
2.69729e-08
3.11353e-08
1.897e-08
7.38535e-09
1.60564e-08
3.16657e-08
3.34404e-08
2.19907e-08
-1.84176e-08
3.62732e-08
3.30171e-08
3.19427e-08
4.93542e-09
2.32533e-09
-3.06281e-08
-2.86828e-08
-2.1219e-08
3.29173e-08
2.06599e-08
1.94577e-08
2.16243e-08
2.27988e-08
2.88074e-08
2.98479e-08
2.55389e-08
2.98056e-08
-2.71015e-08
-2.42192e-08
2.48207e-08
-5.00514e-09
3.33372e-08
-2.03742e-08
2.65822e-08
3.16971e-08
-2.50861e-08
3.82559e-08
3.08321e-08
-2.22736e-08
3.88704e-08
2.86792e-08
1.95743e-08
2.99896e-08
-3.17778e-08
2.0155e-08
1.27738e-09
-2.90912e-08
-2.97756e-08
2.8368e-08
2.7662e-08
1.96615e-08
-1.77325e-08
3.23431e-08
-2.2644e-08
3.27452e-08
2.26699e-08
-2.25514e-08
2.81779e-08
2.10268e-08
-3.04388e-08
-2.07717e-08
3.6484e-08
-2.11786e-08
2.83477e-08
2.72044e-09
4.25512e-10
3.3076e-08
-2.96361e-08
-2.41807e-08
1.62711e-08
-2.9921e-10
3.51692e-09
3.13746e-08
-3.19977e-08
-2.88467e-08
3.69226e-08
2.07369e-08
1.67355e-08
2.05818e-08
2.83897e-09
3.68916e-08
2.53205e-08
2.92074e-08
-1.71996e-09
-3.0756e-08
2.09857e-08
-3.24681e-08
-1.81428e-08
2.61523e-08
2.1259e-08
4.37905e-13
2.95538e-08
-3.37328e-08
2.49047e-08
2.51666e-08
2.76486e-08
2.81864e-08
-2.13351e-08
1.78858e-09
-1.8987e-08
-2.2008e-08
-2.9078e-08
-3.2897e-08
-3.82557e-08
4.27038e-13
2.4503e-08
2.21199e-08
3.67151e-08
2.43139e-08
1.14253e-08
2.38247e-08
2.36659e-08
3.14683e-08
3.1519e-08
1.57496e-08
2.6332e-08
1.6997e-08
1.3045e-09
7.28492e-10
-2.91542e-08
-2.90599e-08
1.9715e-08
3.13694e-08
1.97233e-08
2.4519e-08
2.72819e-09
-2.96496e-08
2.27294e-08
-2.48033e-08
-3.14821e-08
2.25106e-08
-1.73075e-08
2.25837e-10
2.63293e-08
1.5902e-08
2.99495e-08
-2.03199e-08
-3.15964e-08
1.92744e-08
2.76486e-08
2.05801e-08
3.48681e-09
1.52448e-09
1.19646e-08
2.96337e-08
3.09588e-08
1.58768e-08
2.39848e-08
-2.77124e-09
3.24848e-09
1.3996e-08
1.48034e-08
1.94955e-08
1.72013e-08
2.40081e-08
-3.31651e-08
2.36582e-08
3.22461e-08
-2.85223e-08
3.28565e-08
2.25508e-08
3.18714e-08
2.6318e-08
-2.10177e-08
2.9107e-08
-1.04119e-08
2.3992e-08
-3.06383e-08
-3.30994e-08
2.97199e-09
2.14529e-08
-2.57577e-10
-2.86513e-08
-2.92527e-08
2.97891e-08
3.22874e-08
3.39745e-08
3.705e-08
2.84719e-08
2.48879e-08
2.59197e-08
2.92866e-08
-2.86541e-08
1.98667e-08
3.01498e-08
3.68825e-08
1.84214e-08
2.22422e-08
-3.84229e-08
3.0619e-08
3.09164e-08
1.94463e-08
2.00076e-08
2.1578e-08
1.9241e-08
3.3331e-08
2.97579e-08
3.23265e-08
2.96137e-08
-2.55752e-08
-3.31581e-08
3.61913e-08
3.12544e-08
1.76729e-08
1.98606e-08
-3.09507e-08
-2.10376e-08
2.43028e-08
-2.1635e-08
3.23055e-08
-2.85445e-10
2.25474e-08
3.16148e-08
2.52958e-08
3.06474e-08
-3.05776e-08
-3.14828e-08
3.25531e-08
-3.02602e-08
-3.28022e-08
-3.66146e-08
2.18328e-08
2.64486e-08
1.63959e-08
2.93181e-08
2.22283e-08
-2.62745e-08
2.10945e-08
1.82866e-08
-1.65496e-08
2.63913e-08
2.43854e-08
9.74558e-10
3.30543e-08
-3.29661e-08
3.69775e-08
-3.74239e-08
-2.3579e-08
2.94673e-08
3.11072e-08
2.87343e-08
2.2223e-08
2.51231e-08
3.25802e-08
2.46742e-08
-1.66224e-08
1.67094e-08
-3.05442e-08
3.18954e-08
-1.30256e-09
-1.7198e-09
2.19249e-08
2.83405e-08
2.16125e-08
-3.30753e-08
-2.36374e-08
2.80198e-08
-1.86358e-08
2.99652e-08
-3.3392e-08
-2.7456e-08
2.73618e-08
3.30242e-08
3.2586e-08
-3.20552e-08
-1.30007e-09
1.76157e-09
2.52048e-08
2.72206e-08
2.84628e-08
1.4805e-10
-1.88655e-08
3.19618e-08
2.58496e-08
1.16445e-08
2.42325e-08
2.99023e-08
2.76459e-08
1.63145e-08
-3.65876e-08
-2.83868e-08
1.90417e-08
5.60546e-11
2.82762e-09
1.38179e-08
-7.33531e-10
3.17486e-08
2.29304e-08
1.81797e-08
-3.14565e-08
-1.65371e-08
-2.91324e-08
1.27246e-09
2.10739e-08
3.16476e-08
2.12085e-08
2.08683e-08
3.31434e-08
2.44198e-08
-1.24397e-09
-3.48753e-08
-2.52905e-08
2.44029e-08
-3.07521e-08
2.15419e-08
2.9154e-08
5.16266e-09
3.13557e-08
2.2322e-08
2.78107e-08
-1.70671e-08
3.37e-08
-2.92349e-08
9.74185e-09
1.29271e-09
-2.22169e-08
-2.70381e-08
-3.26104e-08
-3.03649e-08
-2.0002e-08
1.50615e-10
2.65023e-08
3.09908e-08
2.00129e-08
1.74401e-08
2.25291e-10
2.82062e-08
2.241e-08
3.16559e-08
2.32179e-08
3.24466e-08
2.9139e-08
-3.10435e-08
3.82559e-08
1.96459e-08
2.89177e-08
-2.46131e-08
1.67037e-08
-1.70767e-09
2.18404e-10
-3.2277e-08
2.1708e-08
2.01106e-08
1.77152e-08
2.41748e-08
1.88629e-08
-2.32082e-08
3.12668e-08
3.24023e-08
-9.72106e-10
-1.87821e-08
2.21772e-08
7.47072e-09
-2.9277e-08
2.46828e-08
2.7993e-08
3.2107e-08
3.21257e-08
-3.29918e-08
2.66064e-08
2.81121e-08
3.02831e-08
3.22044e-08
2.74464e-08
3.23957e-08
2.66902e-08
-2.28251e-10
-2.59822e-08
-2.60766e-08
-2.46806e-09
3.07223e-08
-1.99786e-08
-3.13579e-08
-2.72792e-08
-2.99696e-08
2.02711e-08
3.24243e-08
3.82239e-08
-2.78379e-08
1.86193e-08
2.3378e-08
-1.0246e-08
2.43111e-08
1.13662e-08
2.73983e-08
2.41951e-08
-1.94156e-08
-3.23121e-08
2.95688e-08
-3.12109e-08
-2.69339e-08
-2.30605e-08
4.16812e-10
-1.30454e-09
-3.87365e-08
-2.82693e-08
2.74775e-08
3.23605e-08
-1.56994e-08
3.05978e-08
1.87246e-08
2.56797e-08
3.31676e-08
-2.36581e-08
-2.40364e-08
3.01603e-08
3.21082e-08
-2.346e-08
-8.18005e-11
1.99388e-08
-2.08246e-08
3.1598e-08
3.31302e-08
-1.44747e-10
-2.05035e-10
3.47319e-08
3.90348e-08
3.26737e-08
1.6391e-08
2.08887e-08
2.27559e-08
1.02024e-08
2.88875e-08
3.23427e-08
2.00762e-08
-3.04558e-08
-1.46144e-08
3.09955e-08
2.16427e-08
5.71547e-10
-2.26368e-08
3.04301e-08
-2.5224e-08
2.12409e-08
-2.39581e-08
3.19929e-08
2.88346e-08
1.95257e-08
-3.21101e-08
2.45671e-08
1.77385e-08
-4.84711e-09
-3.19321e-08
2.40417e-08
3.04802e-08
2.42901e-08
1.87732e-08
3.18884e-08
-2.93301e-08
-5.15455e-09
-2.03043e-08
3.87304e-08
2.87317e-08
-3.04512e-08
3.34167e-08
-2.29802e-08
7.26366e-09
-1.68593e-08
-3.06428e-08
-1.04857e-08
3.15592e-08
-3.07875e-08
3.27295e-08
-3.17025e-08
2.3635e-08
2.93787e-08
4.01079e-08
3.89773e-08
1.73404e-08
2.03587e-08
3.30351e-08
3.7364e-08
-1.6695e-08
-2.43833e-09
3.3309e-08
3.30694e-08
3.29621e-08
2.49625e-08
5.03815e-09
-2.66411e-08
9.65952e-10
-2.34792e-08
1.99209e-08
9.78957e-10
3.76554e-08
2.45911e-08
2.3519e-08
-2.51704e-08
-2.48839e-08
-2.30874e-10
2.56509e-08
1.87706e-08
1.85489e-08
1.83034e-08
-2.92192e-08
3.56566e-09
-1.82088e-08
2.84657e-08
3.08889e-08
5.74709e-10
3.25551e-08
-2.59022e-08
3.19191e-08
-2.30955e-08
1.87548e-08
3.22401e-08
1.96722e-08
3.06776e-08
-2.22159e-08
2.41762e-08
3.0092e-08
7.45095e-09
-3.51199e-08
3.19512e-08
3.01959e-08
3.67658e-08
-3.27562e-08
-2.46432e-08
3.0835e-08
2.16017e-08
1.91326e-08
1.44996e-08
3.14175e-08
-3.01017e-08
-3.30852e-08
3.20749e-08
2.87053e-08
1.37453e-08
-2.56623e-08
2.75075e-08
3.33578e-08
3.16239e-08
2.96737e-08
2.38222e-08
3.26774e-08
1.4852e-10
2.42891e-08
3.31627e-08
3.27424e-08
-2.85081e-08
-2.05098e-08
2.58756e-08
-3.00405e-08
3.01881e-08
2.38288e-08
3.01558e-08
-3.26923e-08
-1.72011e-08
-2.84628e-08
-2.83516e-08
2.24574e-08
2.05928e-08
-2.65293e-08
3.04797e-08
2.72329e-08
1.72752e-08
-2.6332e-08
-1.7198e-09
-2.1602e-08
3.89333e-08
2.43397e-08
3.28281e-08
2.66146e-08
2.49036e-08
-2.76687e-09
3.08689e-08
2.36027e-09
2.25255e-08
1.42586e-08
3.22782e-08
1.63326e-08
2.47986e-10
2.46529e-08
2.2884e-08
2.62514e-08
-2.43572e-08
2.97779e-08
3.05242e-08
3.29323e-08
4.86921e-09
2.96392e-08
3.15054e-08
3.13287e-08
-3.67536e-09
-7.1859e-10
-2.19537e-08
3.29023e-08
-1.75694e-08
1.79255e-08
-2.76349e-08
2.65267e-08
-2.82317e-08
2.54569e-08
3.85895e-08
3.28682e-08
1.89338e-08
3.20784e-08
1.93505e-08
2.84667e-08
3.18998e-08
3.25438e-08
3.33106e-08
-1.91603e-08
-3.13492e-08
-3.40627e-09
1.73077e-08
-1.9589e-08
2.0586e-08
2.04255e-08
-2.69947e-08
1.90001e-08
-3.17806e-08
-2.25254e-08
2.91213e-08
2.38338e-08
3.29437e-08
2.38297e-08
-3.05386e-08
2.1173e-08
2.01823e-08
2.13665e-08
2.94063e-08
2.5265e-08
2.03967e-08
-2.26844e-08
1.23306e-09
3.28477e-09
7.11067e-10
2.08655e-08
3.26307e-08
1.70794e-08
3.31271e-08
2.35263e-08
2.96122e-08
-3.31159e-08
-3.08458e-08
2.44946e-08
-2.68446e-08
1.88926e-08
3.68703e-08
-1.89241e-08
2.39153e-08
3.27189e-08
2.29149e-08
3.06744e-08
-2.53941e-08
1.72723e-09
-2.85765e-08
2.55882e-08
-3.87589e-08
-2.71337e-08
-2.71204e-08
2.3151e-08
3.158e-08
2.39682e-08
-2.46819e-08
1.92302e-08
2.57065e-08
3.35155e-08
2.89587e-08
2.76593e-08
3.07312e-08
3.1475e-08
2.79968e-08
3.04867e-08
-3.14009e-08
2.65018e-08
1.94156e-08
2.88074e-08
2.15136e-08
3.19973e-08
3.27911e-08
3.07673e-08
2.43176e-08
2.02946e-08
2.97475e-08
3.65197e-08
-1.98887e-08
2.50536e-08
3.84229e-08
-1.30362e-09
-3.22869e-08
1.16594e-08
2.29132e-08
-3.20144e-08
1.2623e-09
3.21317e-08
1.99549e-08
-3.32262e-08
3.70638e-08
-3.7176e-08
2.99188e-08
1.75111e-08
3.10918e-08
3.26759e-08
2.42838e-10
3.14591e-08
2.28496e-08
3.1024e-08
-2.59252e-08
1.00084e-10
-1.29992e-09
3.23241e-08
2.05905e-08
-7.68368e-09
3.253e-08
2.70605e-08
2.94643e-08
3.70626e-08
3.29215e-08
3.28099e-08
1.74958e-08
1.01059e-08
3.78675e-09
2.78274e-08
2.27146e-08
-7.34248e-10
2.84326e-08
-1.60399e-08
1.84495e-08
2.27776e-08
3.18576e-08
-5.04849e-09
-3.18443e-08
-3.00515e-08
1.97192e-08
3.26407e-08
4.83519e-09
5.70103e-11
2.39863e-08
-3.10377e-08
2.84214e-08
1.95188e-08
3.87683e-08
3.69246e-08
-3.27189e-08
2.25148e-08
3.06216e-08
2.42656e-08
3.23105e-08
-2.10416e-08
2.28698e-08
2.27551e-08
3.28105e-08
3.2602e-08
3.04716e-08
-2.83012e-08
-3.22172e-08
2.49213e-09
-2.12085e-08
2.50262e-08
-2.13994e-08
7.17287e-10
2.78542e-08
1.6012e-08
2.8645e-08
-2.86449e-08
1.75831e-08
-2.96337e-08
2.52545e-08
2.42607e-10
-2.38224e-08
1.76623e-08
3.82277e-08
3.21151e-08
-2.95729e-08
-3.21546e-08
3.22379e-08
3.2051e-08
1.81527e-08
3.26893e-08
2.14186e-08
2.85946e-08
-2.57506e-08
3.08756e-08
-2.9135e-08
2.36673e-08
-3.35445e-08
2.09683e-08
-1.76155e-08
3.14052e-08
2.06699e-08
2.71306e-08
-1.61176e-08
3.20304e-08
2.76349e-08
-3.21113e-08
2.98873e-08
-3.95314e-08
3.04782e-08
3.08155e-08
2.06106e-08
-2.72021e-08
-2.02519e-08
3.01399e-08
2.84862e-08
1.80549e-08
-2.48988e-08
-1.55974e-08
1.99948e-08
3.8108e-08
2.55942e-08
-3.0144e-08
-2.80456e-08
2.76279e-08
2.29087e-08
2.51529e-08
2.18936e-08
-3.29336e-08
3.30938e-08
3.7967e-08
2.76486e-08
-3.21529e-08
1.86024e-08
-2.40623e-08
-1.75184e-09
2.92642e-08
2.0155e-08
-2.599e-08
2.36423e-09
3.1433e-08
2.3453e-08
1.65667e-08
-1.13752e-08
2.00887e-08
2.90677e-08
-2.82009e-08
3.22836e-08
3.2288e-08
2.85104e-08
-3.28912e-08
-1.18815e-08
3.29102e-08
-3.06666e-08
-2.85349e-08
2.12383e-08
6.94565e-09
-3.39354e-09
3.2353e-08
3.2366e-08
3.23379e-08
1.89046e-08
2.51088e-08
-4.82984e-09
-3.13323e-08
2.14335e-08
2.86992e-08
1.94132e-08
3.12835e-08
2.72489e-08
-2.08716e-08
3.21617e-08
1.24481e-10
1.90696e-08
3.27585e-08
3.55721e-08
2.00435e-08
-1.02988e-08
-2.55645e-08
2.08676e-08
-2.87476e-08
2.00454e-08
2.03551e-08
2.37762e-08
3.20336e-08
1.29299e-09
-3.34198e-08
-2.5432e-08
-2.11137e-08
3.70755e-09
3.25186e-08
-3.04114e-08
2.20179e-08
3.30994e-08
-2.90436e-08
-2.26427e-08
-2.52434e-08
3.22241e-08
3.26128e-08
3.14293e-08
2.05974e-08
2.21285e-08
-3.20493e-08
2.48017e-08
2.138e-08
2.40794e-08
2.73916e-08
-3.31689e-08
2.27559e-08
1.69224e-08
3.31946e-08
2.02945e-08
-3.20117e-08
2.85095e-08
1.01658e-08
3.11955e-08
1.98226e-08
2.56218e-08
-1.94e-08
1.51275e-08
3.1754e-08
-3.07493e-08
3.05175e-08
3.02412e-08
2.21275e-08
2.80555e-08
2.94259e-08
3.31743e-08
3.07606e-08
-2.39003e-09
2.7039e-08
-3.19747e-08
3.04887e-08
2.71901e-08
3.9549e-08
-1.897e-08
3.28592e-08
-2.98907e-10
2.88384e-08
2.83345e-08
-1.00747e-08
1.65106e-08
-2.10695e-08
2.27747e-08
-1.45782e-08
3.33372e-08
-2.36201e-08
7.31787e-10
1.94498e-08
2.09911e-08
3.31384e-08
3.19362e-08
3.27726e-08
2.41094e-08
-1.73698e-09
2.11106e-08
2.22471e-08
1.67347e-10
1.99972e-08
-2.55093e-10
-3.46673e-08
2.42339e-08
3.26514e-08
2.89772e-08
-3.1519e-08
-3.01121e-08
-1.97351e-08
3.26934e-08
2.80604e-08
-2.67178e-08
-2.25957e-08
2.81679e-08
3.57176e-08
2.92855e-08
2.40597e-08
2.40136e-08
7.62818e-09
-1.27138e-09
1.85104e-08
1.99214e-08
3.22083e-08
-2.49753e-08
1.30883e-10
9.77057e-09
2.23001e-08
2.84475e-08
2.32163e-08
3.97587e-08
-3.12726e-08
3.87837e-08
2.40331e-08
3.23265e-08
3.2817e-08
-2.58558e-08
1.5757e-08
1.97176e-08
3.27571e-08
3.13817e-08
-2.25077e-08
2.5553e-08
3.31975e-08
5.12663e-09
2.22647e-08
2.86443e-08
2.90912e-08
-3.34525e-08
3.08458e-08
-3.29867e-08
2.14263e-08
-2.23001e-08
2.904e-08
2.9037e-08
-3.16334e-08
-3.30964e-08
-5.12271e-09
3.60246e-08
-2.10548e-08
2.87031e-08
5.6909e-10
2.36978e-08
-3.62427e-08
3.39745e-08
-1.70348e-08
2.57118e-08
2.32954e-08
2.43571e-08
-2.11295e-08
3.24924e-08
3.21952e-08
-2.97071e-08
2.21443e-08
-3.17773e-08
2.8534e-09
2.30384e-08
2.95588e-08
-1.28934e-09
1.61611e-08
-1.84401e-08
2.83127e-08
-2.25148e-08
2.7262e-08
3.30395e-08
3.3301e-08
3.32801e-08
-3.28308e-08
2.31682e-08
2.77279e-08
1.6795e-08
2.72197e-08
2.99062e-09
-3.14761e-08
7.47102e-09
3.77795e-08
-3.22403e-08
2.58029e-08
2.8961e-08
1.39948e-08
-2.13015e-08
2.82025e-08
3.13849e-08
3.30272e-08
2.72162e-08
2.23001e-08
2.80879e-08
-2.39054e-09
9.73375e-09
-2.36387e-08
3.25536e-08
-3.16717e-08
3.07035e-08
-2.75194e-08
2.18848e-08
-2.61725e-08
-3.15445e-08
-2.66049e-08
2.51218e-08
-2.98011e-08
3.08156e-08
-2.23405e-08
-1.96418e-08
-3.1377e-08
2.72934e-08
1.90589e-08
2.83421e-08
2.06168e-08
3.24999e-08
-2.87017e-10
-2.84926e-08
-2.02375e-08
1.04035e-08
3.18363e-08
-2.1269e-08
5.46896e-10
-2.86761e-08
2.7814e-08
3.30462e-08
2.19334e-08
-3.35161e-08
-1.82423e-08
-2.01387e-08
2.74483e-08
-3.18728e-08
1.88558e-08
2.37693e-08
-7.15936e-09
-2.29275e-08
2.10356e-08
1.93141e-08
3.30994e-08
3.54457e-08
3.05891e-08
2.29623e-08
1.84863e-08
-3.13343e-08
-1.62877e-08
-3.34104e-08
1.89309e-08
2.3954e-08
-2.85094e-08
3.17609e-08
3.11354e-08
3.33372e-08
3.90926e-08
2.76593e-08
2.57275e-08
2.19015e-08
4.74538e-09
3.6709e-08
3.20859e-08
4.96861e-09
3.1596e-08
-2.87297e-08
2.76549e-08
-1.9338e-08
2.07016e-08
-3.23149e-08
2.96033e-08
3.20147e-08
3.26275e-08
2.31455e-08
-3.15462e-08
5.77038e-10
3.22375e-08
2.91984e-08
1.01578e-08
-5.80124e-10
-3.9439e-08
1.92759e-08
1.71123e-08
3.27562e-08
1.33616e-08
3.22521e-08
2.7679e-08
-2.87279e-08
-2.20814e-08
3.21633e-08
3.57526e-08
2.54593e-08
3.05419e-08
3.13851e-08
-1.92616e-08
-2.27928e-08
-1.90507e-08
2.82113e-08
3.29518e-08
-2.90709e-08
-9.54782e-10
3.19168e-08
3.74953e-08
-1.64777e-08
3.91062e-08
2.43977e-08
-2.82924e-08
3.35537e-09
-2.91158e-08
3.16871e-08
3.01098e-08
3.37919e-08
-1.86117e-08
2.54153e-10
2.86464e-08
1.35572e-10
3.30729e-08
3.0142e-08
1.89274e-08
2.4273e-08
2.31918e-08
3.18471e-08
-2.95246e-08
2.3653e-08
2.47657e-08
7.35079e-09
-2.03152e-08
5.15406e-09
-2.54092e-10
2.22253e-08
2.29879e-08
2.11713e-08
-3.97997e-08
-3.3021e-08
2.87236e-08
-3.31045e-08
2.82712e-08
2.7995e-08
3.2274e-08
2.83194e-08
2.42818e-08
-1.95693e-08
1.97138e-10
1.70794e-08
2.00105e-08
-2.50686e-08
-2.30369e-10
3.1952e-08
1.99413e-08
3.19913e-08
2.59191e-08
3.3e-08
3.15098e-08
3.21505e-08
3.90132e-08
2.84185e-08
3.2994e-08
2.33939e-08
1.67593e-09
3.00167e-08
-2.10506e-08
-3.21706e-08
-2.80028e-08
-1.93172e-08
-3.26732e-08
3.17088e-08
3.32173e-08
-2.02712e-08
3.94959e-08
3.24467e-08
-3.05437e-08
-3.0859e-08
1.37466e-08
3.05369e-08
2.41065e-08
1.58488e-08
2.48815e-08
-1.44062e-08
2.91419e-08
3.2854e-08
2.58469e-08
3.10305e-08
-3.27442e-08
1.75208e-08
3.87344e-08
2.15066e-08
2.58009e-08
2.10899e-08
-3.3835e-09
3.2672e-08
2.71204e-08
-3.30813e-08
-2.41762e-08
1.97466e-08
3.27582e-08
4.274e-10
2.42367e-09
3.2879e-08
-3.15307e-08
9.69504e-10
3.20236e-08
3.25133e-08
3.1455e-08
-2.07889e-08
2.2362e-08
2.9014e-08
2.16326e-08
3.22919e-08
2.62598e-08
-2.96196e-09
4.2907e-10
-2.109e-08
-3.15029e-08
-3.81867e-08
3.01531e-08
2.55293e-08
2.04362e-08
2.52255e-08
3.72317e-08
2.1242e-08
3.65988e-08
3.15593e-08
-3.05143e-08
-3.00791e-08
3.17667e-08
2.09416e-08
-2.28589e-08
-2.66466e-08
2.84379e-08
3.26552e-08
2.96178e-08
2.83857e-08
2.76017e-08
3.65892e-08
-2.97269e-08
-2.68395e-08
-3.74071e-08
-3.89149e-08
-3.07796e-08
2.39877e-08
-3.0233e-08
1.65282e-08
2.55359e-08
1.78262e-09
3.31989e-08
-3.30994e-08
2.88654e-08
-3.98093e-08
3.25255e-08
2.20633e-08
-2.25798e-08
-3.14855e-08
-3.27351e-08
-2.17549e-08
-3.27147e-08
2.86425e-08
2.06943e-08
1.03056e-08
-2.43055e-08
-2.23624e-08
1.66775e-08
-2.78977e-08
3.27546e-08
2.02001e-08
2.59952e-08
3.31354e-08
2.84166e-08
-3.75616e-08
2.02443e-08
-2.16203e-08
3.31084e-08
2.5553e-08
-2.6527e-08
2.75148e-08
-3.16832e-08
-1.88971e-08
-1.7731e-09
-3.32034e-08
2.8812e-08
-3.22942e-08
2.8437e-08
2.76486e-08
2.84296e-08
-1.13182e-10
3.15056e-08
2.31455e-08
2.44113e-08
2.04847e-08
1.70953e-09
2.41552e-08
7.33231e-09
-1.60399e-08
3.32314e-08
-2.20524e-08
1.56254e-08
2.86056e-08
2.43139e-08
-2.76858e-08
2.75039e-08
-2.56795e-08
1.8646e-08
-3.31324e-08
1.58359e-08
2.91158e-08
-5.36359e-10
2.76817e-08
-3.09646e-08
2.16307e-08
3.18085e-08
3.87649e-08
1.65474e-08
3.80246e-08
3.06578e-08
-3.24512e-08
-2.43929e-08
2.14686e-08
3.19747e-08
7.81172e-09
1.71574e-08
2.59522e-09
-3.15533e-08
1.32077e-08
2.06758e-08
2.42016e-08
3.35155e-08
2.49048e-08
3.33943e-08
-1.70204e-08
2.91891e-08
-3.64625e-08
-1.8834e-08
1.60918e-08
-2.1645e-08
-1.48379e-10
-3.04566e-08
2.12616e-08
-1.90348e-08
2.16461e-08
2.64186e-08
1.16924e-08
1.73439e-08
-1.70388e-08
2.61799e-08
2.42052e-08
2.99585e-08
2.76898e-08
3.17509e-08
1.99832e-08
-2.34395e-08
2.0586e-08
5.08159e-09
2.56346e-08
-1.32823e-10
3.60349e-08
3.80647e-08
2.6194e-08
2.94125e-08
2.14266e-08
2.23354e-08
2.68303e-08
3.323e-08
-3.33896e-08
-2.33795e-08
-3.10487e-08
3.25426e-08
3.31065e-08
2.80948e-08
-2.31682e-08
-2.03525e-08
-2.52729e-08
3.33608e-08
2.58009e-08
3.15696e-08
3.27288e-08
2.95808e-08
2.28397e-08
-2.34852e-08
3.18519e-08
1.75425e-08
3.31708e-08
-3.22997e-08
3.12988e-08
-3.20223e-08
3.06047e-08
2.24566e-08
2.70029e-08
2.09046e-08
3.25484e-08
1.46157e-08
2.48021e-08
2.17943e-08
-3.18675e-08
3.6433e-08
2.20045e-08
3.30898e-08
7.38438e-09
3.35862e-08
3.89802e-08
-3.27961e-08
2.70107e-09
3.11492e-08
2.23191e-08
3.21378e-08
1.69887e-10
-2.14524e-08
-2.10706e-08
3.09736e-08
-3.25855e-08
3.18208e-08
1.84061e-08
3.86656e-08
1.23897e-09
3.29887e-08
3.25176e-08
1.64718e-08
2.31925e-08
3.32069e-08
-2.53123e-08
-2.8659e-08
3.84551e-08
2.42857e-08
-3.06776e-08
-2.93007e-08
3.0378e-08
3.1399e-08
-3.31707e-08
2.11878e-08
-3.07011e-08
-2.06975e-08
2.34265e-08
3.86629e-13
2.21835e-08
2.2602e-08
3.0495e-08
-7.21028e-10
-4.19757e-13
3.06727e-08
3.18797e-08
4.32968e-13
4.35576e-13
4.28354e-13
3.26545e-08
-4.25941e-13
4.39403e-13
-4.21644e-13
-3.33038e-09
2.30406e-08
1.14255e-08
3.15566e-08
1.01126e-08
2.31853e-08
2.25764e-08
2.81417e-10
3.26219e-08
6.9329e-10
-2.65704e-08
1.36098e-08
-3.01365e-08
-2.00435e-08
-3.00919e-08
2.14377e-08
1.6953e-08
2.23193e-08
-2.23061e-08
1.50391e-10
-3.30515e-08
3.13979e-08
-3.0014e-08
3.14129e-08
-3.02743e-08
1.8583e-08
2.01213e-08
-1.25561e-09
2.12268e-08
3.8942e-08
-2.6261e-08
-3.25239e-08
-2.3221e-08
2.25734e-08
2.42461e-08
3.22115e-08
4.18176e-10
1.59692e-08
2.08452e-08
2.38656e-08
2.37324e-08
-1.68917e-08
1.96624e-08
-2.19027e-08
2.43176e-08
2.39571e-08
3.76858e-08
-3.20619e-08
2.27755e-10
2.98947e-08
-1.76005e-09
-3.20349e-08
2.36694e-08
1.65849e-08
3.25961e-08
-2.74446e-08
-1.62246e-10
3.10635e-08
2.77496e-08
2.9277e-08
2.78593e-08
1.97937e-08
2.94158e-08
-3.27329e-08
-3.14906e-08
3.22068e-08
3.31783e-08
3.12234e-08
-2.97164e-08
3.0012e-08
-3.339e-08
2.51148e-08
2.96419e-08
1.28494e-09
-1.88282e-08
-1.86163e-08
-2.83461e-08
-1.89231e-08
3.1381e-08
2.39098e-08
7.3544e-09
2.07498e-08
2.44231e-08
2.0258e-10
3.33126e-08
-2.08318e-08
-3.0115e-08
1.96722e-08
2.20283e-08
1.01604e-08
3.79104e-08
-3.24571e-08
2.91888e-08
1.5214e-08
2.94197e-08
-3.29313e-08
1.77945e-08
1.83954e-08
1.28908e-09
2.66477e-08
2.95799e-08
3.07577e-08
2.18589e-08
-3.56532e-08
2.84965e-08
1.99511e-08
2.89721e-08
1.70187e-08
2.79123e-08
-3.1068e-08
-3.30762e-08
-3.23606e-08
3.2986e-08
2.3061e-08
2.57732e-08
3.15725e-08
3.02224e-08
3.18828e-08
2.10015e-08
3.18728e-08
2.52881e-08
3.75829e-08
1.83143e-08
-2.9397e-08
7.37149e-09
-2.37365e-08
-1.85144e-08
1.96795e-08
2.20673e-08
3.10247e-08
3.19232e-08
2.31293e-10
3.25807e-08
-1.85464e-08
3.3305e-08
-2.76188e-08
1.87793e-08
3.16694e-08
3.24085e-08
-2.57272e-08
2.18098e-08
2.88903e-08
3.11711e-08
2.36519e-08
2.36522e-08
1.66171e-08
3.10342e-08
-2.40559e-08
2.39718e-08
-3.24871e-08
3.21021e-08
1.97345e-08
-1.04032e-08
-1.7406e-08
2.20973e-08
3.17924e-08
3.27528e-08
3.07094e-08
3.21356e-08
-2.48075e-08
2.34953e-08
3.15169e-08
-2.55943e-08
3.19598e-08
-3.68667e-08
-1.3082e-09
2.69184e-08
3.19829e-08
3.22274e-08
3.90746e-08
1.30362e-09
2.04073e-08
-2.73868e-08
2.17917e-08
-2.63199e-08
-3.08769e-08
3.12589e-08
-2.29652e-08
2.31319e-08
-2.23505e-08
3.56184e-09
3.52816e-08
-3.19371e-08
3.21761e-08
-1.74421e-10
1.68589e-08
3.05551e-08
4.92817e-09
2.03724e-08
3.26838e-08
-3.26686e-08
7.34481e-09
-3.80914e-08
2.22236e-08
2.14034e-08
1.99386e-08
2.19501e-08
3.85721e-08
3.3064e-08
3.26126e-08
2.31655e-08
3.28624e-08
-3.26512e-08
3.32032e-08
-2.63293e-08
1.01801e-08
3.23695e-08
2.57248e-08
-2.58132e-08
1.33835e-08
-3.27372e-08
-1.63618e-08
2.74388e-08
1.82213e-08
2.10957e-08
3.67661e-08
-2.74483e-08
9.98435e-09
2.91939e-08
-3.75651e-08
3.16227e-08
1.18705e-08
3.2099e-08
3.30444e-08
2.63072e-08
-3.29848e-08
1.71897e-08
-2.64971e-08
3.06279e-08
3.54614e-09
3.6714e-08
1.70083e-08
1.91629e-08
-3.88057e-08
-1.22809e-09
-5.14536e-09
-3.13824e-08
3.26999e-08
1.45254e-08
4.13657e-10
1.30703e-10
3.18774e-08
-1.60931e-08
2.65401e-08
2.73487e-08
2.91147e-08
-3.03142e-08
3.08351e-08
9.58761e-10
-3.23605e-08
2.45793e-08
2.20783e-08
-3.27562e-08
-1.88103e-08
2.71068e-08
2.23783e-08
-2.75148e-08
2.97164e-08
2.12647e-08
1.17195e-08
2.59936e-08
2.2335e-08
-3.28343e-08
-3.23543e-08
2.99033e-08
1.04857e-08
-2.78148e-08
-3.21966e-08
-3.29455e-08
-3.8541e-08
2.45853e-10
2.87553e-08
1.58965e-08
-1.88145e-08
-2.60703e-08
3.79598e-08
3.1978e-08
3.06118e-08
-3.21884e-08
2.86296e-08
3.28212e-08
1.16237e-08
2.48972e-08
-2.99287e-08
-3.03532e-10
3.09189e-08
-3.22468e-08
-9.73403e-10
3.23781e-08
2.12268e-08
3.98622e-08
3.82273e-08
3.85317e-08
2.62053e-08
3.12892e-08
2.17108e-08
3.26563e-08
-3.24278e-08
2.99044e-08
1.91651e-08
2.76322e-08
2.61685e-08
3.12852e-08
2.56819e-08
-2.44368e-08
3.75316e-08
2.8989e-08
2.43101e-08
3.15636e-08
2.68395e-08
-3.15768e-08
2.41832e-08
-3.09904e-08
3.51809e-08
1.74107e-09
-5.79914e-10
3.24006e-08
3.26188e-08
3.20096e-08
2.47502e-08
3.2569e-08
-3.47336e-09
3.10537e-08
3.30999e-08
2.95914e-08
1.98099e-08
2.92291e-08
2.97046e-08
-2.79233e-09
-1.45936e-08
1.86745e-08
2.19631e-08
2.50061e-09
3.26116e-08
2.35833e-08
-3.22816e-08
-3.00656e-08
2.16616e-08
3.22962e-08
-2.92981e-08
2.71017e-08
1.68738e-08
2.2647e-08
2.48517e-09
3.13475e-08
3.1598e-08
1.90655e-08
2.88654e-08
1.45687e-08
2.2404e-08
-2.87119e-08
-3.48455e-09
1.30673e-09
2.96165e-08
1.96957e-08
2.17858e-08
2.63506e-08
-3.21373e-08
2.88136e-08
2.20835e-08
1.15367e-08
7.2422e-10
2.71572e-08
3.32908e-08
2.16259e-08
9.87553e-11
3.22692e-08
3.08135e-08
3.31222e-08
3.25154e-08
-2.12208e-08
1.87968e-08
3.37608e-08
2.22364e-08
1.90559e-08
2.08775e-08
2.77053e-08
-3.07341e-08
1.85797e-08
-2.92634e-08
2.56848e-08
3.03104e-08
-3.25779e-08
2.07856e-08
2.87031e-08
3.2592e-08
1.73696e-08
3.16559e-08
-2.49547e-08
2.15383e-08
-2.17243e-08
3.15964e-08
7.51173e-09
3.31169e-08
2.41726e-08
-2.62452e-08
-1.96503e-08
-2.4942e-09
3.08298e-08
2.75255e-08
-2.99054e-08
-3.99345e-08
-2.39808e-08
-2.95588e-08
2.54501e-08
-2.86614e-08
1.00765e-08
-2.8241e-08
-3.29648e-08
2.16048e-08
1.95853e-08
5.00251e-09
-1.78619e-08
-3.1625e-08
3.14284e-08
-2.93311e-08
3.79394e-08
-3.16438e-08
2.85249e-08
2.88229e-08
2.49948e-08
-3.18506e-08
-1.28813e-09
3.2104e-08
2.87263e-08
-3.18614e-08
-7.17511e-10
-3.31834e-08
-7.21853e-09
2.72792e-08
-2.99995e-08
2.40693e-09
2.78352e-08
2.64743e-08
2.82307e-08
2.6723e-09
2.15993e-08
-9.53071e-10
-2.76398e-08
3.36069e-08
-1.69656e-08
-1.30256e-09
-1.84449e-08
-1.95408e-08
3.03932e-08
3.26325e-08
3.0233e-08
2.34542e-08
2.7336e-08
-1.28936e-10
3.0518e-08
2.94214e-08
-4.98482e-09
3.21844e-08
-3.22201e-08
3.08713e-08
3.21308e-08
7.45738e-09
-2.91654e-08
3.21535e-08
1.72874e-08
-2.41855e-08
-2.05439e-08
2.5022e-08
2.90085e-08
2.78704e-08
2.83477e-08
2.36446e-08
2.01258e-08
-1.10512e-08
2.25649e-08
3.0538e-08
3.20438e-08
3.21463e-08
2.80954e-08
5.69991e-10
2.15179e-08
-2.95661e-08
-4.9557e-09
2.9427e-10
-2.51864e-08
3.23518e-08
-1.71887e-08
-3.28107e-08
-1.79196e-08
2.2164e-08
-2.59394e-08
-2.21176e-08
2.00174e-08
3.15784e-08
-2.88825e-08
4.13326e-10
-7.46499e-09
-2.00773e-08
-2.25198e-08
2.9582e-08
3.20459e-08
2.8679e-08
2.80157e-08
1.48414e-10
-2.03761e-08
3.83268e-08
-3.30781e-08
-2.28221e-08
1.27531e-10
2.52832e-08
-1.9794e-08
2.21766e-08
-2.03402e-08
-2.95368e-08
3.32682e-08
3.22809e-08
9.74743e-10
-3.00906e-08
3.1982e-08
3.31783e-08
2.71321e-08
2.26924e-08
2.10197e-08
3.84675e-08
2.00183e-08
3.76499e-08
2.22693e-08
1.96126e-08
3.59181e-08
-2.16702e-08
-2.87792e-08
3.73983e-08
2.04891e-08
3.12529e-08
-1.69133e-08
1.65262e-08
2.33622e-08
-2.54574e-08
3.17667e-08
3.28995e-08
1.6618e-08
3.08001e-08
3.255e-08
1.89416e-08
2.35167e-08
2.48623e-08
-3.24887e-08
-9.80801e-10
3.30504e-08
-2.17888e-08
3.19784e-08
2.94866e-08
3.84927e-08
3.65272e-08
3.04716e-08
7.87823e-09
-3.07724e-08
3.27827e-08
-2.60845e-08
2.68786e-08
2.0579e-08
-3.15577e-08
2.19951e-08
3.23846e-08
3.2349e-08
2.08137e-08
-2.55043e-08
1.93431e-08
2.93833e-08
5.61004e-10
-1.87313e-08
-2.11732e-08
2.41749e-08
3.15766e-08
2.59219e-08
2.56416e-08
2.25694e-08
-1.99223e-08
2.98598e-08
-3.45628e-09
-2.02974e-08
2.22433e-08
2.71471e-08
1.65284e-08
7.47547e-09
2.96244e-08
-3.11407e-08
-2.41972e-08
2.0633e-08
-7.27838e-09
2.99585e-08
-3.31977e-08
7.07028e-10
2.97756e-08
2.8465e-08
3.11908e-08
2.16114e-08
1.63829e-08
2.91426e-08
2.32473e-08
-3.10502e-08
2.46455e-08
1.92935e-08
2.85428e-08
2.6931e-08
3.65274e-08
-3.12708e-08
2.07478e-08
3.18469e-08
3.89065e-08
2.27367e-08
1.61142e-08
1.68366e-08
2.92025e-08
2.79919e-08
2.81722e-08
2.30415e-08
-3.55515e-08
2.29565e-08
1.1955e-08
-2.14687e-10
3.04999e-08
-2.29411e-08
3.09899e-08
3.27338e-08
1.70993e-08
-3.05813e-08
2.9034e-08
1.87068e-08
-3.12876e-08
1.19252e-08
2.75214e-08
-3.07806e-08
3.00059e-08
-3.32601e-08
2.89347e-08
-1.67008e-08
3.19084e-08
1.9189e-08
-2.87158e-08
1.88655e-08
2.74455e-08
3.03885e-08
2.00132e-08
1.92183e-10
2.75923e-08
-1.41463e-10
-3.51035e-09
3.22134e-08
2.52841e-08
2.3116e-08
2.75877e-08
-2.29975e-08
2.18498e-08
-2.32069e-08
3.88704e-08
3.95012e-08
2.0981e-08
1.91314e-08
3.13472e-08
2.19683e-08
2.35512e-08
3.27169e-08
-3.22799e-08
3.15941e-08
2.04532e-08
-2.19424e-08
3.80854e-08
-2.00168e-08
-2.95491e-08
-3.20487e-08
1.86366e-08
2.7201e-08
-1.70767e-09
-3.62374e-08
3.3064e-08
3.18155e-08
2.72846e-08
1.64612e-08
-2.43097e-08
3.23215e-08
3.27823e-08
1.19041e-08
3.22805e-08
2.41749e-08
2.0214e-08
-2.74322e-08
1.97899e-08
2.26225e-08
3.2454e-08
3.26535e-08
3.7426e-08
3.27615e-08
2.84773e-08
2.99651e-08
1.74917e-08
3.00948e-08
-2.02999e-08
-2.88573e-08
2.17551e-08
1.85135e-08
3.21778e-08
3.42227e-09
-2.66006e-08
-2.38843e-08
3.15129e-08
-2.68004e-08
-2.50315e-08
1.77582e-08
3.09687e-08
2.33551e-10
3.04696e-08
1.8771e-08
2.99013e-08
2.59713e-08
-3.17499e-08
1.30007e-09
2.89958e-08
3.37507e-08
3.73476e-08
-2.91829e-08
1.00719e-08
3.22782e-08
-2.21616e-08
-2.76623e-08
-2.35434e-08
2.16592e-08
3.00248e-08
3.19751e-08
-3.02047e-08
1.44191e-08
3.1974e-08
2.41821e-08
2.20605e-08
2.39226e-08
-3.17054e-08
2.43055e-08
-2.14429e-08
-3.06026e-08
3.35954e-08
2.63105e-08
-2.70372e-08
3.01935e-08
3.29304e-08
-3.07973e-08
2.92774e-08
3.0749e-08
-2.37611e-08
-2.55868e-10
-1.98457e-08
2.65934e-08
3.26647e-08
-1.34957e-08
3.21196e-08
-1.66305e-08
-1.70645e-08
-1.90152e-08
2.41717e-08
3.82577e-08
3.08393e-08
2.41246e-08
3.67352e-08
3.00959e-08
2.31984e-08
-2.75245e-08
2.57358e-08
-1.92658e-08
-3.23086e-08
3.05057e-08
-1.98828e-10
3.05606e-08
2.00454e-08
3.08102e-08
3.15447e-08
-2.738e-08
2.72846e-08
2.37165e-08
-2.64041e-08
3.55988e-09
4.73235e-09
2.83181e-08
3.27702e-08
2.97121e-08
7.27077e-09
3.07799e-08
4.27457e-10
1.31251e-09
3.12438e-08
2.95382e-08
3.28249e-08
2.28045e-10
3.22024e-08
3.18844e-08
3.24131e-08
3.0859e-08
-3.82195e-08
-2.3861e-08
3.11305e-08
3.21969e-08
-2.98581e-08
2.27948e-08
-2.37278e-08
3.23285e-08
2.94947e-08
-2.69596e-08
-3.2788e-08
3.5256e-08
-3.03742e-08
7.76585e-09
2.93007e-08
1.04608e-08
3.08458e-08
2.29825e-08
-3.84275e-08
-2.55021e-08
2.10346e-08
3.26095e-08
1.99079e-08
2.86161e-08
2.08975e-08
-2.28024e-08
-3.12263e-08
3.81416e-08
-2.68712e-08
1.87916e-08
-2.2799e-08
-2.70692e-08
2.53276e-08
2.01314e-08
9.72036e-11
2.81538e-08
3.12292e-08
2.06783e-08
3.24395e-08
-1.89066e-08
1.88378e-08
3.03292e-08
3.70373e-08
3.14946e-08
-3.06666e-08
-3.33419e-08
2.97555e-08
-2.18806e-08
3.20502e-08
2.94723e-08
1.93307e-08
2.47181e-09
-2.98795e-08
3.32051e-08
-9.08693e-10
2.02426e-08
3.25502e-08
3.74627e-08
3.23522e-08
-9.61617e-10
2.01017e-08
-1.94619e-08
2.51267e-08
-2.74011e-08
2.08383e-08
-2.88311e-08
1.98099e-08
5.63444e-10
3.21042e-08
3.31316e-08
3.03331e-08
2.34082e-08
3.24218e-08
2.693e-08
-4.11508e-10
3.22607e-08
-2.80797e-08
3.293e-08
3.22478e-08
2.12615e-08
2.85097e-08
2.86023e-08
3.21068e-08
8.1156e-11
3.11343e-08
-5.12299e-09
9.94297e-09
3.15251e-08
-2.37376e-08
5.14536e-09
-2.5211e-08
9.68858e-10
-2.57763e-10
8.07614e-11
1.67528e-10
3.11849e-08
2.56623e-08
2.93714e-08
2.41544e-08
3.19916e-08
-2.60855e-08
9.6175e-10
2.4188e-09
-3.25655e-08
2.17997e-08
3.74852e-08
2.28834e-08
-2.58022e-08
2.51116e-08
2.31424e-08
-2.92449e-08
-5.7747e-10
2.45176e-08
3.16518e-08
2.60668e-08
2.76349e-08
-3.03309e-08
3.16525e-08
-3.88944e-08
2.40564e-08
2.41832e-08
-3.00704e-08
2.63522e-08
-2.35069e-08
9.44714e-10
3.18674e-08
2.09313e-08
2.03525e-08
2.75966e-08
-2.74992e-08
-2.93936e-08
2.63893e-08
-2.02574e-08
1.01767e-08
-1.95132e-08
2.5944e-08
3.15863e-08
2.74865e-08
1.26357e-10
-3.27819e-08
2.09834e-08
-3.21862e-08
-2.80908e-08
-3.30049e-08
3.25178e-08
3.32723e-08
2.27526e-08
2.86298e-08
2.08409e-08
-2.73787e-08
2.14356e-08
3.04872e-08
-2.7406e-09
-3.24278e-08
3.02412e-08
-7.77483e-09
-3.6959e-09
2.03842e-10
-3.90469e-08
2.57757e-08
-3.18882e-08
2.09046e-08
3.21947e-08
-1.63975e-08
-3.27257e-08
1.0182e-08
3.25219e-08
-1.51271e-08
-1.96034e-08
3.63963e-09
3.70145e-08
1.79945e-08
-2.74612e-08
1.17443e-08
3.2757e-08
1.11883e-09
-2.57524e-08
3.67405e-08
1.61421e-08
-7.69737e-09
-1.6556e-09
2.60319e-09
3.02535e-09
7.45006e-09
2.90133e-08
-2.52794e-08
1.13801e-08
3.7034e-09
3.31384e-08
1.74553e-09
1.58798e-08
-1.91465e-08
3.7359e-08
3.0047e-09
3.8489e-08
1.71807e-09
3.5633e-09
1.67081e-09
2.03044e-08
-2.98057e-09
3.00841e-08
-3.80643e-09
-1.26693e-09
-2.8577e-09
2.5442e-08
4.13969e-13
2.34247e-08
4.32885e-13
2.15544e-08
2.00454e-08
1.69626e-08
2.72144e-08
3.32173e-08
3.02173e-08
1.5112e-10
9.34005e-10
1.94204e-08
3.05144e-08
3.13084e-08
3.25551e-08
1.65207e-08
3.096e-08
2.10516e-08
-1.71039e-08
2.63026e-08
-3.13623e-08
1.45574e-10
-2.93735e-08
2.07462e-08
-1.77325e-08
3.23601e-08
1.95106e-08
3.96759e-08
4.28008e-13
2.14203e-08
-4.30564e-13
4.17663e-13
4.07586e-13
-1.13944e-08
-4.27978e-13
3.07955e-08
2.25511e-08
1.9855e-08
1.90212e-08
-2.61247e-08
-2.6212e-08
2.91682e-08
1.60564e-08
-4.39776e-13
3.25533e-08
2.96774e-08
4.31517e-13
2.82593e-08
7.07581e-09
-1.69749e-10
3.35322e-08
1.75651e-08
3.03352e-10
-4.28008e-13
-2.75866e-08
-4.16346e-13
3.091e-08
2.36417e-08
3.97884e-08
2.20825e-08
-4.233e-13
3.27243e-08
3.05242e-08
3.21599e-08
1.90682e-08
4.35839e-13
2.25246e-08
4.2529e-13
4.20816e-13
4.40155e-13
4.32787e-13
1.67876e-08
-3.20278e-08
3.98497e-13
-3.15581e-08
3.21955e-08
2.92965e-08
4.13222e-13
4.27315e-13
2.86995e-08
-4.00471e-08
-2.3561e-08
4.24787e-13
-4.38302e-13
4.17748e-13
4.22264e-13
-2.08246e-08
-2.44066e-08
-4.34795e-13
4.23358e-13
2.20403e-08
5.73421e-10
1.95473e-08
1.687e-10
3.18452e-08
1.5754e-08
3.30801e-08
2.71629e-08
-2.31455e-08
2.56115e-10
2.96464e-08
-2.03253e-08
-4.35839e-13
5.7798e-10
3.08713e-08
1.98419e-10
4.28274e-13
4.13282e-13
3.7945e-08
2.16187e-08
-2.43635e-08
2.51271e-08
-2.84804e-08
-4.34795e-13
2.30003e-08
1.62291e-08
-2.35854e-08
-4.17144e-13
1.99906e-08
2.21581e-08
2.70179e-08
-2.3828e-08
4.08308e-13
-2.87836e-08
3.16546e-08
3.14093e-08
-1.99307e-08
2.84875e-08
2.18359e-08
3.43067e-09
4.35546e-13
3.17726e-08
1.1089e-08
-4.15186e-13
-3.13254e-08
2.57173e-08
3.11723e-08
2.76099e-08
4.17168e-13
4.10483e-13
3.17723e-08
4.28903e-13
3.12054e-08
2.62515e-08
-2.06248e-08
-2.23625e-08
-2.83421e-08
2.12256e-08
-1.95241e-08
2.40555e-08
3.40849e-08
1.71506e-09
-1.93505e-08
3.03711e-08
-3.1965e-08
3.10361e-08
2.41353e-08
2.1112e-08
7.36959e-09
1.75466e-08
2.76695e-08
2.00435e-08
-2.73877e-09
3.11944e-08
-3.22064e-08
2.30884e-08
1.93087e-08
1.94866e-08
4.27521e-10
1.51777e-09
2.91576e-08
3.17004e-08
2.05367e-08
2.09801e-08
2.07246e-08
2.90835e-08
2.26964e-10
2.69291e-08
-3.22422e-08
3.22079e-08
-4.1473e-13
2.40024e-08
2.97168e-08
-3.26943e-08
1.50242e-09
-3.22695e-08
1.49004e-09
2.83462e-09
3.23217e-08
2.47804e-08
2.7965e-08
3.29313e-08
3.21634e-08
2.96828e-08
3.22206e-08
2.65261e-08
3.25239e-08
9.68754e-10
2.90331e-08
2.99347e-08
2.02675e-08
2.40254e-08
3.1592e-08
-3.05331e-08
3.13968e-08
3.66407e-08
2.4488e-08
-3.07254e-08
-1.12372e-09
4.85567e-09
2.56597e-08
3.08162e-08
3.03407e-08
-1.03567e-08
3.7814e-08
3.82878e-08
3.02751e-08
-3.13845e-08
3.04716e-08
-3.53597e-08
3.16858e-08
2.65337e-09
2.22736e-08
2.99959e-08
3.05022e-08
2.13544e-08
2.57524e-08
-2.86519e-08
-1.11566e-10
1.3622e-08
-2.45101e-10
2.80668e-08
2.54344e-10
-3.26164e-08
3.23695e-08
8.80072e-11
3.25016e-08
3.08623e-08
-2.42986e-08
3.66399e-08
-3.26955e-08
2.06902e-08
-2.99601e-09
3.096e-08
3.11326e-08
3.22867e-08
-2.83194e-08
1.71749e-08
-3.18091e-08
2.8394e-08
2.57228e-08
1.70221e-08
-1.86454e-08
-1.04596e-08
3.30994e-08
3.32786e-08
3.01202e-08
3.70522e-08
1.68715e-08
-2.16231e-08
1.86638e-08
2.41994e-09
1.74313e-10
2.29373e-08
3.05442e-08
-9.56833e-10
2.12881e-08
2.79299e-08
7.44257e-09
-1.74072e-09
-1.88019e-08
3.30994e-08
-3.27866e-08
-3.27562e-08
3.31752e-08
-2.43635e-08
-2.13018e-08
4.24821e-13
2.93146e-08
-1.65983e-08
4.35463e-13
1.15994e-08
3.01596e-08
2.55924e-08
-2.08802e-08
-1.89145e-08
3.06225e-08
4.3597e-13
2.1873e-08
2.05345e-08
3.21196e-08
-2.23459e-08
3.29624e-08
-2.09396e-08
-2.22842e-08
4.33761e-13
-1.98043e-08
4.23482e-13
2.31642e-08
4.27468e-13
-2.99229e-08
-4.32887e-13
-2.04725e-10
3.16491e-08
-4.36328e-13
4.29069e-13
3.32314e-08
4.27468e-13
2.47464e-08
9.71428e-09
2.48892e-08
3.74956e-08
1.96489e-08
3.16057e-08
1.45483e-08
3.04488e-08
2.50291e-08
2.72489e-08
3.22441e-08
2.70506e-08
-3.09984e-08
1.69141e-09
1.78924e-08
1.02163e-08
1.69831e-08
-1.71583e-08
2.39768e-08
-3.22433e-08
3.13535e-08
2.92484e-08
3.01372e-08
2.17167e-08
1.03108e-08
-3.2854e-08
3.77085e-08
-3.21914e-08
2.10945e-08
2.2941e-08
2.02514e-08
-2.95961e-08
2.00611e-08
-2.25943e-08
7.45697e-09
1.97115e-08
2.48207e-08
2.53778e-10
3.00332e-08
-2.78025e-08
-2.55431e-08
2.99668e-08
3.3078e-08
1.95675e-08
-3.03198e-08
3.25571e-08
1.93345e-08
3.81969e-08
-2.76188e-08
-2.46136e-08
5.48401e-10
3.13303e-08
-3.28142e-08
1.99852e-08
1.18262e-08
-2.19209e-08
-3.09935e-08
3.27836e-08
3.31816e-08
-2.40761e-08
3.29891e-08
2.66413e-08
2.95072e-08
3.08753e-08
3.24746e-08
3.29891e-08
-5.06583e-09
-2.97163e-08
2.09046e-08
3.05383e-08
-3.28736e-08
3.18884e-08
-3.81772e-08
3.22809e-08
3.11462e-08
-3.26564e-08
-1.89171e-08
1.48292e-09
1.89907e-08
2.45015e-09
-2.99676e-08
3.24473e-08
3.21442e-08
1.99134e-08
3.91777e-08
3.25018e-08
-3.22064e-08
-3.12234e-08
1.97703e-08
2.86739e-08
3.11918e-08
3.00948e-08
2.35946e-08
-2.14676e-08
1.73353e-10
3.08517e-08
2.73719e-08
-1.73319e-08
9.75435e-10
2.51124e-08
2.09071e-08
2.8255e-08
-3.26885e-08
2.48361e-08
2.01387e-08
-2.05903e-08
3.72881e-08
2.33798e-08
-1.74741e-09
2.56424e-08
-3.3108e-08
2.1665e-08
-3.2279e-08
-3.28026e-08
3.0725e-08
2.1259e-08
-2.68118e-08
-2.82912e-08
2.74901e-08
3.21982e-08
3.99718e-08
2.89069e-08
3.84686e-08
2.92344e-08
2.94903e-08
-7.16063e-09
-3.96556e-08
2.77872e-08
1.46721e-10
-3.68227e-08
2.17275e-08
3.34159e-08
3.05991e-08
-4.96517e-09
-2.9314e-08
1.84185e-08
3.79765e-08
3.21613e-08
3.29548e-08
2.92377e-08
-1.97905e-08
3.71505e-08
2.41174e-08
-2.84093e-08
5.82602e-10
2.8346e-08
2.33335e-08
1.11065e-08
-1.03509e-08
2.42084e-08
-2.53011e-08
3.31783e-08
2.55048e-08
3.82976e-08
3.039e-08
2.86864e-08
3.86321e-08
3.07111e-08
1.45152e-08
2.61392e-08
-3.16136e-08
-3.08431e-08
2.28114e-08
2.56336e-08
1.45668e-08
3.31816e-08
3.63948e-08
1.98979e-08
2.53767e-08
3.2572e-08
2.80225e-08
1.44236e-08
-3.02938e-08
2.27535e-08
-2.29428e-08
-3.26554e-08
3.06952e-08
3.06367e-08
1.77896e-08
1.71884e-08
2.76768e-08
2.08333e-08
2.15113e-08
4.85093e-09
2.30159e-08
-2.81397e-08
1.29428e-10
2.88605e-08
2.43517e-09
-2.31224e-08
3.23447e-08
2.8102e-08
-2.13762e-08
3.15189e-08
3.71563e-09
1.88842e-08
3.09222e-08
2.0167e-08
3.0061e-08
2.65603e-08
2.88767e-08
-1.98611e-08
3.00653e-08
2.73406e-08
-3.2453e-08
2.77145e-08
5.82602e-10
-3.42228e-09
3.29637e-08
2.929e-08
2.05531e-08
-2.22471e-08
3.04872e-08
-3.27452e-08
2.49256e-08
2.99181e-08
-7.27236e-10
2.77778e-08
3.32498e-08
2.84811e-08
3.10086e-08
2.04254e-08
-3.19977e-08
3.31707e-08
2.87744e-08
2.61866e-08
7.12343e-10
1.91271e-08
2.58232e-08
-3.09266e-08
2.05732e-08
3.23337e-08
-2.1257e-08
-3.05156e-10
1.8417e-08
1.01476e-08
4.75395e-09
2.40068e-08
-3.23094e-08
2.37984e-08
2.45348e-08
2.81104e-08
5.0196e-09
1.77266e-08
-2.47924e-09
-1.84394e-08
3.1758e-08
2.06612e-08
-3.6387e-08
3.29891e-08
3.90154e-08
-2.96496e-08
2.86225e-08
2.27865e-08
1.91085e-08
3.20726e-08
-3.46673e-08
2.8987e-08
-3.69037e-08
2.18115e-08
2.85483e-08
2.20179e-08
3.19448e-08
3.01432e-08
5.09617e-09
-2.84555e-08
2.88831e-08
3.64062e-08
9.30632e-11
-2.76348e-08
7.4381e-09
3.70578e-09
-3.32257e-08
1.65801e-08
2.15418e-08
3.82559e-08
-2.25849e-08
3.23687e-08
-2.96788e-08
2.39344e-08
3.10419e-08
2.43545e-08
2.1489e-08
-3.21033e-08
-3.04713e-08
1.88297e-08
-3.21924e-08
-2.2574e-08
2.46668e-08
3.29957e-08
1.78494e-08
2.78838e-09
3.29922e-08
-2.17555e-08
2.62481e-08
-2.69298e-08
1.91271e-08
2.32543e-10
-2.2404e-08
3.79151e-08
2.29247e-08
-1.9189e-08
3.2279e-08
3.27432e-08
-3.74755e-09
-3.26627e-08
3.30372e-08
3.03435e-08
4.27908e-10
2.43342e-09
2.47039e-08
2.40092e-08
1.71593e-08
9.39749e-10
3.07568e-08
-7.26602e-10
-7.25205e-10
-5.01317e-09
-1.9855e-08
3.30781e-08
-2.00259e-08
3.23092e-08
-3.26965e-08
7.24762e-09
3.0791e-08
3.72552e-08
-2.59691e-08
2.6064e-08
-2.14899e-08
9.52762e-10
3.11565e-08
2.34932e-08
3.33847e-08
2.90444e-08
-3.85259e-08
3.33354e-08
2.90866e-08
3.18204e-08
1.12023e-08
2.43855e-08
3.04962e-08
-2.98047e-08
-2.92079e-08
2.75552e-08
3.45834e-08
1.89697e-08
2.674e-08
-2.73485e-08
2.2858e-08
-3.28136e-08
1.89142e-08
2.92326e-08
3.07483e-08
-2.01878e-08
1.18432e-08
-2.45875e-08
2.87369e-08
1.88303e-08
-9.54691e-10
1.28862e-10
3.33047e-08
3.29348e-08
-2.92074e-08
3.81969e-08
1.70601e-08
3.1433e-08
-2.35888e-08
-2.90807e-08
1.27093e-10
-2.5836e-08
2.56844e-08
3.66348e-08
2.6711e-08
1.9007e-08
2.72643e-09
-1.04608e-08
2.62347e-08
1.5392e-08
3.23363e-08
-4.07449e-10
2.87792e-08
-2.72674e-08
-2.53702e-08
-1.81174e-08
2.5824e-08
2.37759e-08
2.03594e-08
1.58518e-08
2.05345e-08
1.98982e-08
2.44028e-08
2.8505e-08
2.85193e-10
-3.22468e-08
-1.63336e-08
7.10465e-09
1.67305e-08
1.56869e-08
3.30463e-08
1.29555e-10
-2.19249e-08
1.83842e-10
1.60473e-08
2.09027e-08
1.69401e-08
2.01399e-08
2.98479e-08
3.68101e-08
-3.19698e-08
2.01907e-08
3.30535e-08
2.33347e-08
-3.3108e-08
-3.09222e-08
-1.64185e-08
-2.67363e-08
-1.19149e-08
2.14377e-08
-3.15978e-08
3.29323e-08
3.35426e-08
1.99491e-10
3.72817e-08
-6.99793e-09
3.63051e-08
-2.58417e-08
3.23222e-08
-2.30837e-08
2.92467e-08
2.0701e-08
2.91174e-08
-1.50262e-08
1.84197e-08
1.4436e-08
2.42926e-08
2.61392e-08
2.28185e-08
-1.24239e-09
3.23605e-08
-2.60149e-08
2.97837e-08
2.52953e-08
3.0147e-08
-2.14158e-08
2.99995e-08
1.89788e-08
3.18398e-08
3.72761e-08
1.39169e-08
3.01892e-08
1.46059e-10
1.96997e-08
-3.02261e-08
-2.00458e-08
-3.1744e-08
-2.74258e-08
-3.14875e-08
-2.63912e-08
-3.20748e-08
-2.27913e-08
2.0586e-08
2.90802e-08
4.24106e-10
2.91419e-08
3.24473e-08
-3.18987e-08
3.23824e-08
9.68269e-09
3.26946e-08
3.20497e-08
-2.20971e-08
1.3854e-08
9.72036e-10
1.35715e-08
3.06224e-08
2.48213e-08
2.54608e-08
1.69417e-08
-1.97949e-10
-2.75107e-08
2.35774e-08
2.27822e-08
3.57708e-08
3.09588e-08
2.17166e-08
2.4101e-08
2.81534e-08
-3.20048e-08
3.00502e-08
1.6397e-08
2.37336e-09
3.36434e-09
3.91175e-08
3.09797e-08
2.39285e-08
2.92655e-10
-2.6861e-08
-3.10396e-08
3.26116e-08
2.21073e-08
3.10305e-08
-2.88396e-08
1.27738e-09
-2.65667e-08
1.98035e-08
-2.55189e-08
-3.21834e-08
3.56021e-09
1.76469e-09
3.1717e-08
2.19191e-08
2.89152e-08
2.039e-08
3.05144e-08
-2.46432e-08
2.57277e-08
2.30155e-08
-3.20709e-08
3.0286e-08
3.05442e-08
-1.45573e-08
2.74987e-08
2.14992e-08
2.5265e-08
-2.48692e-08
2.17488e-08
2.66762e-08
3.32745e-08
3.05798e-08
-3.20942e-08
5.02886e-09
5.73381e-10
3.27435e-08
2.0333e-08
9.3518e-11
2.80257e-08
-3.10716e-08
2.02179e-08
-3.67116e-08
-3.19577e-08
3.02987e-08
-2.24553e-08
3.42227e-09
2.7556e-08
3.63161e-08
-2.90191e-08
1.2843e-10
-3.02499e-08
3.34404e-08
-2.10516e-08
3.09934e-08
1.99773e-08
2.35904e-08
-3.30994e-08
2.69947e-08
1.31692e-09
-3.21797e-08
2.15088e-08
-2.93958e-08
-2.69464e-08
-3.03194e-08
2.35807e-08
-1.45928e-08
1.55432e-08
3.22412e-08
2.50494e-08
2.27235e-08
2.45555e-08
-3.66664e-08
2.58009e-08
-2.61949e-08
2.30623e-08
3.28608e-08
3.89149e-08
-2.69896e-08
2.12466e-08
2.27603e-08
3.15655e-08
-2.43139e-08
-3.07875e-08
3.19756e-08
-2.81662e-09
2.85488e-08
-1.44754e-08
2.87272e-08
3.07366e-08
2.83266e-08
2.76843e-08
1.60573e-08
1.3545e-10
-2.24557e-08
-2.72104e-08
7.33531e-10
-1.92226e-08
3.11683e-08
-2.39435e-08
2.84979e-08
1.51512e-08
2.7238e-08
2.07711e-08
3.21211e-08
2.4144e-08
3.24793e-08
2.57494e-08
2.05586e-08
-3.47852e-09
2.25342e-08
-1.94687e-08
2.18235e-08
3.10929e-08
-3.34525e-08
2.96612e-08
1.69729e-08
3.2648e-08
-2.73537e-08
-1.41631e-08
2.00887e-08
-1.77636e-08
9.78814e-10
2.12784e-08
-1.65641e-08
-1.91085e-08
-2.30258e-08
1.53581e-10
2.39884e-08
2.67416e-08
2.24229e-08
2.50241e-08
2.07369e-08
-1.74233e-09
-2.39098e-08
3.35155e-08
2.51357e-08
2.84667e-08
2.90561e-08
-2.88916e-08
1.26054e-10
3.0518e-08
-2.97356e-08
3.34828e-08
3.22277e-08
-3.85677e-08
3.30018e-08
2.34601e-08
8.89409e-10
2.83172e-08
3.30813e-08
-2.22253e-08
-2.90049e-08
4.23114e-10
-3.21391e-08
3.59086e-08
-3.3136e-08
2.69454e-09
-2.39267e-08
-1.79196e-08
3.2988e-08
3.27317e-08
1.93862e-08
2.89431e-08
2.17902e-08
3.08487e-08
1.04035e-08
3.47002e-08
2.08694e-08
3.17379e-08
4.9708e-09
2.46181e-08
3.04143e-08
2.49898e-09
-3.23971e-08
2.58009e-08
-1.83071e-08
-3.04405e-08
2.90752e-08
1.00208e-08
-3.05557e-08
2.43911e-08
-2.65283e-08
-2.09478e-08
1.95061e-08
1.25408e-10
2.53896e-08
-2.75343e-08
-2.76486e-08
9.17619e-11
-3.09266e-08
-2.42339e-08
1.99852e-08
3.26933e-08
3.78833e-08
2.25957e-08
3.25139e-08
3.09121e-08
1.30475e-09
2.44563e-08
3.97227e-08
1.71577e-08
-3.10799e-08
-3.53983e-09
2.53895e-08
-1.54043e-08
2.82233e-08
2.08294e-08
1.84508e-08
-2.6328e-08
-3.16505e-08
-3.19054e-08
-1.9464e-08
2.63293e-08
1.10438e-08
1.71732e-08
2.33954e-08
3.37608e-08
2.1012e-08
2.71254e-08
-1.4372e-08
1.58643e-08
-2.6972e-08
-1.88773e-08
-1.30567e-09
-2.52214e-08
-2.97433e-09
2.00645e-08
1.61704e-08
1.81869e-08
7.76805e-09
2.16418e-08
1.64131e-08
3.10805e-08
-2.93305e-09
3.67759e-09
-3.61802e-08
-2.15959e-08
3.75742e-09
-3.25655e-08
-2.5377e-08
2.09823e-08
-3.81904e-09
3.17138e-08
2.78995e-08
-1.72868e-08
-1.94619e-08
-2.84223e-08
3.68587e-09
2.96356e-08
-3.16989e-08
1.04667e-09
-1.47153e-09
3.45543e-08
3.22473e-08
1.94619e-08
1.05091e-09
-1.30939e-09
1.12161e-08
1.68654e-09
1.99002e-08
1.0669e-09
-7.28492e-10
2.78769e-08
3.23708e-08
3.0207e-08
2.96454e-09
2.83048e-08
2.10718e-08
7.11845e-10
-2.752e-08
1.93843e-08
1.93141e-08
4.8063e-09
2.04351e-08
2.28975e-08
1.84584e-08
3.08922e-08
-3.14875e-08
-2.7978e-08
1.94797e-08
2.89882e-09
-1.54195e-09
2.20838e-08
2.83662e-08
2.84065e-08
2.64116e-08
2.5066e-08
7.15121e-09
-3.22229e-08
-3.04042e-08
1.09693e-08
1.0676e-09
-7.0957e-12
2.98482e-08
7.36884e-09
1.02528e-08
3.84997e-08
2.61471e-08
2.5392e-08
1.07192e-09
2.87352e-08
1.93087e-08
3.14826e-08
-2.15836e-08
2.70929e-09
-3.13101e-08
2.1665e-08
2.6548e-09
2.34886e-08
1.8953e-10
1.90413e-08
3.29266e-08
-2.51529e-08
1.84486e-08
-1.05133e-09
3.08556e-08
3.15942e-08
3.08284e-08
1.09448e-09
1.28077e-09
2.76349e-08
2.16626e-08
2.68146e-08
1.99681e-08
3.3075e-08
2.03919e-08
-2.10351e-08
-2.14994e-08
1.82223e-08
2.2239e-08
2.84771e-08
2.32954e-08
2.26867e-08
1.73454e-09
2.70827e-08
1.47462e-09
2.87585e-08
-3.0892e-08
3.57713e-09
3.01116e-08
-7.85866e-09
3.04058e-08
2.85247e-08
-3.21435e-08
2.89562e-09
2.80201e-09
-1.54572e-08
1.77729e-09
2.07523e-08
-3.22253e-08
1.90224e-08
3.74071e-08
7.33135e-10
7.80083e-09
-3.25104e-08
2.10686e-08
2.57106e-08
3.1625e-08
3.11991e-08
-3.89065e-08
2.87464e-08
1.6768e-08
3.14116e-08
3.33608e-08
1.72055e-08
1.61511e-08
3.37004e-09
-1.85971e-08
1.15388e-08
2.4095e-08
2.90847e-08
1.98561e-08
2.01856e-08
3.14797e-08
1.73439e-08
2.0337e-08
-3.22382e-08
3.26995e-08
3.10419e-08
1.19149e-08
-1.88947e-08
-2.46352e-08
3.11434e-08
-1.17408e-08
-1.78434e-08
-2.55072e-08
2.4326e-08
1.60284e-08
3.27813e-08
1.66698e-08
-3.14042e-08
3.04681e-08
2.24522e-08
2.59675e-08
3.17639e-08
2.51363e-08
2.97741e-08
-3.28229e-08
3.16264e-08
-3.70622e-08
1.96604e-08
-2.17587e-08
1.79129e-08
-3.22102e-08
-7.82273e-09
3.29967e-08
3.00884e-08
2.11459e-08
1.75401e-08
1.00544e-08
2.6426e-08
-3.2174e-08
2.8343e-08
2.98623e-08
9.33093e-10
-3.38725e-08
-1.16049e-08
-2.7543e-08
-2.22226e-08
3.30018e-08
1.52019e-08
-2.9591e-08
3.18379e-08
1.9902e-08
3.05557e-08
9.76396e-09
2.57947e-08
-3.35335e-09
2.9424e-08
2.59222e-08
2.59325e-08
3.12354e-08
2.86503e-08
2.48461e-08
3.01404e-10
2.31553e-08
-1.5371e-08
-1.72214e-08
2.58635e-08
