<?xml version="1.0"?>
<MethodSetup Method="TMlpANN::TMlp_ANN">
  <GeneralInfo>
    <Info name="TMVA Release" value="4.2.1 [262657]"/>
    <Info name="ROOT Release" value="6.10/09 [395785]"/>
    <Info name="Creator" value="bribeiro"/>
    <Info name="Date" value="Mon Aug  5 19:34:12 2019"/>
    <Info name="Host" value="Linux cmsbuild64.cern.ch 2.6.32-696.30.1.el6.x86_64 #1 SMP Tue May 22 06:09:36 CEST 2018 x86_64 x86_64 x86_64 GNU/Linux"/>
    <Info name="Dir" value="/afs/cern.ch/user/b/bribeiro/CMSSW_9_4_11/src/TopLJets2015/TopAnalysis"/>
    <Info name="Training events" value="2350"/>
    <Info name="TrainingTime" value="2.94923410e+01"/>
    <Info name="AnalysisType" value="Classification"/>
  </GeneralInfo>
  <Options>
    <Option name="V" modified="No">False</Option>
    <Option name="VerbosityLevel" modified="No">Default</Option>
    <Option name="VarTransform" modified="No">None</Option>
    <Option name="H" modified="No">False</Option>
    <Option name="CreateMVAPdfs" modified="No">False</Option>
    <Option name="IgnoreNegWeightsInTraining" modified="No">False</Option>
    <Option name="NCycles" modified="Yes">150</Option>
    <Option name="HiddenLayers" modified="Yes">N,N-10</Option>
    <Option name="ValidationFraction" modified="No">5.000000e-01</Option>
    <Option name="LearningMethod" modified="No">stochastic</Option>
  </Options>
  <Variables NVar="34">
    <Variable VarIndex="0" Expression="mll" Label="mll" Title="mll" Unit="" Internal="mll" Type="F" Min="2.02793007e+01" Max="5.97478699e+02"/>
    <Variable VarIndex="1" Expression="metpt" Label="metpt" Title="metpt" Unit="" Internal="metpt" Type="F" Min="1.68311119e+00" Max="3.32743286e+02"/>
    <Variable VarIndex="2" Expression="metphi" Label="metphi" Title="metphi" Unit="" Internal="metphi" Type="F" Min="-3.13882303e+00" Max="3.14048409e+00"/>
    <Variable VarIndex="3" Expression="l1pt" Label="l1pt" Title="l1pt" Unit="" Internal="l1pt" Type="F" Min="3.00322418e+01" Max="4.03231598e+02"/>
    <Variable VarIndex="4" Expression="l1eta" Label="l1eta" Title="l1eta" Unit="" Internal="l1eta" Type="F" Min="-2.08107328e+00" Max="2.09884596e+00"/>
    <Variable VarIndex="5" Expression="l1phi" Label="l1phi" Title="l1phi" Unit="" Internal="l1phi" Type="F" Min="-3.14041924e+00" Max="3.13922071e+00"/>
    <Variable VarIndex="6" Expression="l1m" Label="l1m" Title="l1m" Unit="" Internal="l1m" Type="F" Min="-1.57575101e-01" Max="1.10394567e-01"/>
    <Variable VarIndex="7" Expression="l2pt" Label="l2pt" Title="l2pt" Unit="" Internal="l2pt" Type="F" Min="2.00140743e+01" Max="3.70726044e+02"/>
    <Variable VarIndex="8" Expression="l2eta" Label="l2eta" Title="l2eta" Unit="" Internal="l2eta" Type="F" Min="-2.49600029e+00" Max="2.49103880e+00"/>
    <Variable VarIndex="9" Expression="l2phi" Label="l2phi" Title="l2phi" Unit="" Internal="l2phi" Type="F" Min="-3.13340020e+00" Max="3.14062452e+00"/>
    <Variable VarIndex="10" Expression="l2m" Label="l2m" Title="l2m" Unit="" Internal="l2m" Type="F" Min="-1.00738361e-01" Max="1.37217700e-01"/>
    <Variable VarIndex="11" Expression="b1pt" Label="b1pt" Title="b1pt" Unit="" Internal="b1pt" Type="F" Min="3.11951771e+01" Max="4.19236145e+02"/>
    <Variable VarIndex="12" Expression="b1eta" Label="b1eta" Title="b1eta" Unit="" Internal="b1eta" Type="F" Min="-2.35138226e+00" Max="2.39874864e+00"/>
    <Variable VarIndex="13" Expression="b1phi" Label="b1phi" Title="b1phi" Unit="" Internal="b1phi" Type="F" Min="-3.13399196e+00" Max="3.13679862e+00"/>
    <Variable VarIndex="14" Expression="b1m" Label="b1m" Title="b1m" Unit="" Internal="b1m" Type="F" Min="4.25436592e+00" Max="4.62017250e+01"/>
    <Variable VarIndex="15" Expression="b2pt" Label="b2pt" Title="b2pt" Unit="" Internal="b2pt" Type="F" Min="3.00168381e+01" Max="3.02202484e+02"/>
    <Variable VarIndex="16" Expression="b2eta" Label="b2eta" Title="b2eta" Unit="" Internal="b2eta" Type="F" Min="-2.39648771e+00" Max="2.37122560e+00"/>
    <Variable VarIndex="17" Expression="b2phi" Label="b2phi" Title="b2phi" Unit="" Internal="b2phi" Type="F" Min="-3.14009833e+00" Max="3.14145517e+00"/>
    <Variable VarIndex="18" Expression="b2m" Label="b2m" Title="b2m" Unit="" Internal="b2m" Type="F" Min="3.62259173e+00" Max="3.44613457e+01"/>
    <Variable VarIndex="19" Expression="deltarll" Label="deltarll" Title="deltarll" Unit="" Internal="deltarll" Type="F" Min="3.48062068e-01" Max="5.02614498e+00"/>
    <Variable VarIndex="20" Expression="deltaphill" Label="deltaphill" Title="deltaphill" Unit="" Internal="deltaphill" Type="F" Min="-3.14066720e+00" Max="3.14041781e+00"/>
    <Variable VarIndex="21" Expression="mlb" Label="mlb" Title="mlb" Unit="" Internal="mlb" Type="F" Min="1.28518648e+01" Max="1.42470673e+02"/>
    <Variable VarIndex="22" Expression="px2" Label="px2" Title="px2" Unit="" Internal="px2" Type="F" Min="5.10143174e-04" Max="5.76231938e+05"/>
    <Variable VarIndex="23" Expression="py2" Label="py2" Title="py2" Unit="" Internal="py2" Type="F" Min="1.06606440e-05" Max="2.10180375e+05"/>
    <Variable VarIndex="24" Expression="pz2" Label="pz2" Title="pz2" Unit="" Internal="pz2" Type="F" Min="4.74584568e-03" Max="3.09132200e+06"/>
    <Variable VarIndex="25" Expression="E2" Label="E2" Title="E2" Unit="" Internal="E2" Type="F" Min="4.72017891e+04" Max="4.19064975e+06"/>
    <Variable VarIndex="26" Expression="yvis" Label="yvis" Title="yvis" Unit="" Internal="yvis" Type="F" Min="-1.97409499e+00" Max="1.98028159e+00"/>
    <Variable VarIndex="27" Expression="ysum" Label="ysum" Title="ysum" Unit="" Internal="ysum" Type="F" Min="3.85880142e-01" Max="7.87795734e+00"/>
    <Variable VarIndex="28" Expression="max_dy" Label="max_dy" Title="max_dy" Unit="" Internal="max_dy" Type="F" Min="-1.53698695e+00" Max="2.08465052e+00"/>
    <Variable VarIndex="29" Expression="min_dy" Label="min_dy" Title="min_dy" Unit="" Internal="min_dy" Type="F" Min="-2.06907248e+00" Max="1.52355886e+00"/>
    <Variable VarIndex="30" Expression="mpp" Label="mpp" Title="mpp" Unit="" Internal="mpp" Type="F" Min="3.15632507e+02" Max="2.70463062e+03"/>
    <Variable VarIndex="31" Expression="ypp" Label="ypp" Title="ypp" Unit="" Internal="ypp" Type="F" Min="-9.96123314e-01" Max="8.44526768e-01"/>
    <Variable VarIndex="32" Expression="reg_mtt" Label="reg_mtt" Title="reg_mtt" Unit="" Internal="reg_mtt" Type="F" Min="3.61442291e+02" Max="1.70833203e+03"/>
    <Variable VarIndex="33" Expression="reg_ytt" Label="reg_ytt" Title="reg_ytt" Unit="" Internal="reg_ytt" Type="F" Min="-4.06252813e+00" Max="1.37250066e+00"/>
  </Variables>
  <Spectators NSpec="6">
    <Spectator SpecIndex="0" Expression="run" Label="run" Title="run" Unit="" Internal="run" Type="F" Min="1.00000000e+00" Max="1.00000000e+00"/>
    <Spectator SpecIndex="1" Expression="lumi" Label="lumi" Title="lumi" Unit="" Internal="lumi" Type="F" Min="8.00000000e+00" Max="2.64575000e+05"/>
    <Spectator SpecIndex="2" Expression="ev" Label="ev" Title="ev" Unit="" Internal="ev" Type="F" Min="8.00000000e+00" Max="4.65784384e+08"/>
    <Spectator SpecIndex="3" Expression="rho" Label="rho" Title="rho" Unit="" Internal="rho" Type="F" Min="0.00000000e+00" Max="6.17198105e+01"/>
    <Spectator SpecIndex="4" Expression="nvtx" Label="nvtx" Title="nvtx" Unit="" Internal="nvtx" Type="F" Min="1.00000000e+00" Max="9.30000000e+01"/>
    <Spectator SpecIndex="5" Expression="weight" Label="weight" Title="weight" Unit="" Internal="weight" Type="F" Min="-4.00125835e-08" Max="9.81974363e-01"/>
  </Spectators>
  <Classes NClass="2">
    <Class Name="Signal" Index="0"/>
    <Class Name="Background" Index="1"/>
  </Classes>
  <Transformations NTransformations="0"/>
  <MVAPdfs/>
  <Weights>
    <Architecture BuildOptions="@mll,@metpt,@metphi,@l1pt,@l1eta,@l1phi,@l1m,@l2pt,@l2eta,@l2phi,@l2m,@b1pt,@b1eta,@b1phi,@b1m,@b2pt,@b2eta,@b2phi,@b2m,@deltarll,@deltaphill,@mlb,@px2,@py2,@pz2,@E2,@yvis,@ysum,@max_dy,@min_dy,@mpp,@ypp,@reg_mtt,@reg_ytt:34:24:type"/>
    <input>
      78.3855 128.053 46.2777 78.0516 1.85765 0.149549 42.4931 75.7785 0.956063 -0.0347016 1.82388 -0.0626661 0.0504442 0.0773255 31.8874 51.7358 1.05991 -0.00422567 1.84286 0.0222719 0.051492 0.0300275 50.0732 103.005 0.987557 0.00160838 1.8203 -0.0507469 5.09996 13.6222 30.9632 61.7956 1.00667 -0.0379866 1.77844 -0.0333628 3.5861 9.68274 0.816146 2.37161 2.11912 0.0835048 23.7577 69.3171 22536.4 6854.51 15970.9 6130.46 201239 95048.1 306654 329549 0.695718 -0.0137512 1.35358 3.26598 0.532103 0.303259 0.542746 -0.280818 371.924 914.574 0.35412 -0.143231 151.977 531.05 0.765535 -1.05274 
    </input>
    <output>
      1 0 
    </output>
    <neurons>
      -0.212072 0.238026 0.433637 0.312508 0.464527 -0.202487 0.111171 -0.267756 -0.395568 0.140167 0.45693 0.42954 -0.312962 -0.0521786 0.350572 0.0694502 0.396554 0.353857 -0.128883 0.47886 -0.0882651 -0.0374888 0.345636 -0.330366 0.0451386 -0.454019 -0.474709 -0.112028 0.272763 0.342054 0.245768 -0.15008 0.496105 0.0693269 -0.0545908 -0.213937 0.403588 -0.30322 1.02775 -0.36947 -0.0965629 -0.206118 -0.555524 0.541218 0.0749373 -0.23582 0.0698867 0.176412 0.700195 -0.0502223 -0.293141 0.505503 0.578737 -0.313097 0.0981711 0.144774 0.2942 -0.636375 -0.0664895 0.0627009 -0.306061 -0.0384165 -1.16896 -0.529276 0.125606 0.0514677 0.266809 0.437821 -0.494722 -0.234325 0.016393 -0.0533294 -0.655526 -0.555237 -0.893731 -0.505948 -0.419063 -0.0765617 -0.400385 -0.676467 0.0550172 -0.384949 -0.0569105 -0.16024 -0.0168131 -0.518663 -0.717672 -0.566076 -0.11847 -0.899916 -0.74957 -0.163725 0.0120113 
    </neurons>
    <synapses>
      -0.881705 -0.302026 0.440019 -0.732279 -0.356669 -0.476582 0.964088 1.1486 -0.774941 0.744146 -0.414141 0.574959 -0.367371 -0.535818 -0.227541 0.560453 -0.111061 -0.171733 -0.172248 -0.813737 -0.0364308 0.276008 -0.0493882 0.0208218 0.419486 0.589544 -0.143361 -0.342734 -0.352373 -0.359821 0.322512 1.06898 0.136868 -0.319732 -0.722432 -0.440804 -0.0241625 1.04633 -1.04428 0.0781008 0.0433913 -0.284505 0.174506 -0.653271 -0.598608 -0.309431 -0.226635 -0.719346 0.786452 -0.56638 -0.523193 -0.215144 -0.0433606 -1.26969 -0.0298811 -0.386697 0.831389 0.325106 0.621628 0.0963563 -0.324854 1.12869 -0.256464 -0.94088 1.98751 1.30439 -0.702336 0.117896 -0.554157 -0.13061 0.271253 0.0647425 -0.216111 -0.364002 0.245452 0.505577 0.600694 0.522005 0.0039166 -0.51582 -0.115889 0.464136 0.236365 0.235729 -0.00533438 -0.44385 -0.284686 -0.0339795 0.746205 -0.350209 -0.243241 0.346089 0.123884 0.220736 -0.21548 0.0362954 0.38923 0.107967 0.102705 -0.437144 -0.544759 0.123473 0.138252 -0.156117 0.0114593 0.12387 -0.394993 0.351487 0.438143 0.197365 -0.079545 -0.554628 0.315235 -0.104571 0.0946354 0.164157 -0.161305 -0.0594282 -0.403076 0.00783578 -0.216925 -0.435424 0.0780926 -0.470154 0.404331 0.538777 0.354386 0.484245 0.0558852 0.0626838 0.232421 0.164421 0.159096 -0.0375476 -0.289848 -0.449048 0.62987 -0.489602 0.177512 -0.0873219 0.938821 -0.500705 0.364522 0.94158 0.495241 0.152635 -0.567079 0.285346 -0.171792 0.0679409 -0.338077 0.732138 0.228503 -0.026094 0.520018 0.374924 -0.912668 -0.254524 0.435043 0.735481 0.656605 0.466489 0.0589046 -0.394169 -0.422362 0.421619 0.637201 0.235419 0.234786 0.182794 0.597781 1.14362 -0.368151 1.35814 0.654905 -0.704864 -0.411426 -0.141061 -0.426216 0.877328 -0.797533 -0.882905 0.509915 0.581754 0.377426 -0.10381 0.262232 0.332734 -0.226519 0.743986 0.0317237 0.13242 -0.182662 0.328081 -0.232964 -0.19337 0.927352 -0.421145 1.27489 0.632821 0.380096 -0.0529681 -0.106012 0.239987 -0.584868 0.273406 0.709649 -1.1471 0.151786 0.20368 -0.449959 -0.289873 -0.145811 -0.6329 -0.327424 0.40864 -1.13607 0.287778 -0.204772 -0.23405 0.198283 -0.102266 0.711225 -1.27485 -0.358671 0.617547 0.243005 1.05291 0.986158 -0.0607744 -0.497896 0.0132517 -0.0617903 0.228328 1.25727 0.520987 -0.571492 0.113904 -0.137133 0.249997 -0.178328 -0.483776 -0.0249863 0.311304 -0.536071 -0.0284635 0.387795 0.224804 0.00768163 -0.0198229 0.184003 0.877975 0.382988 0.357925 -0.721935 -0.804161 0.424544 0.249094 -0.292297 0.503955 -0.641827 -0.0252039 0.0426474 -0.268408 -0.0191492 0.177768 0.561759 -0.17373 -0.382766 -0.0918635 0.322466 0.471062 -0.0736193 0.570336 0.436759 0.0451138 0.64583 0.404836 0.133892 -0.00717638 0.250108 -0.0995999 -0.492975 0.303022 -0.616877 -0.156002 0.0434515 0.133987 -0.647461 -0.215766 -0.19287 -0.833834 -0.668388 0.276222 -0.314832 0.354156 0.109402 -0.552367 -0.572898 -0.706389 -0.0867572 0.524906 -0.218614 0.0306066 0.0189551 -0.00431196 -0.666053 -0.221469 -0.296483 -0.771142 -0.0153353 0.504683 0.642799 0.301678 0.741588 -0.864293 -1.0014 -0.603605 -0.0671411 0.793504 -0.074611 -0.355954 -0.276088 0.169676 0.202305 -0.146377 0.591569 0.700581 0.0619917 0.82842 0.58381 -0.566993 0.315153 -0.616938 -0.319916 0.46598 0.621675 0.200435 -1.21864 0.664507 0.489252 0.46439 0.261441 0.0832034 -1.65508 -0.291818 0.894634 -0.162886 0.236541 -1.04565 0.0126832 -0.0287914 -0.71116 -0.834903 0.301252 0.0686043 -0.582541 0.22007 -0.327559 0.977787 1.35678 -0.205029 -0.447164 -0.0184512 -0.227446 -0.497151 -0.845988 -0.887272 -1.28151 -0.12793 0.176597 0.596568 0.46323 0.41548 0.0840298 0.7906 0.364016 1.24001 -0.564294 0.0504834 0.0770766 0.391787 -0.0873239 -0.745083 -0.739063 0.144118 -0.273413 -0.0791881 0.127039 -0.725964 -0.278959 0.117313 -0.467062 0.454221 -0.240334 -0.705049 0.394485 0.339242 -0.0704479 0.86481 -0.72642 -0.176955 0.18303 -0.754409 0.448381 -0.717256 0.0985989 -0.745858 0.180148 -0.233149 -0.405832 0.27909 -0.226023 0.0748029 -0.00736895 -0.611868 0.735281 0.58458 -0.32018 -0.418808 0.511008 0.0144856 -0.0717687 -0.524336 0.351325 0.0658361 -0.260725 0.0621825 -0.0346879 0.474368 -0.274632 -0.00519652 -0.262733 -0.136187 0.296494 0.319208 0.470807 0.307338 0.260661 0.290448 -0.191228 -0.330502 0.165426 0.334937 -0.64433 -0.274417 0.2614 -0.443867 0.265846 0.539073 0.302771 0.0719186 -0.476565 -0.358258 -0.199349 -0.251673 -0.198378 -0.233668 -0.466519 -0.076922 0.609262 -0.331487 -0.123118 0.0297384 0.176384 0.305537 -0.428446 0.343016 0.0304092 0.0780011 -0.228822 0.198906 -0.783768 0.197045 -0.32272 0.636938 -0.0597745 -0.454941 0.807326 0.336534 0.424157 0.234365 0.928287 0.38187 0.76405 -0.0216805 -0.590851 -0.19297 0.513214 0.226876 -0.234652 0.121074 0.181032 0.651352 0.233147 0.467863 0.39488 -0.741435 -0.693791 0.40601 -0.370323 -0.454147 0.00344865 -1.00123 0.0715723 0.182205 -0.554178 -1.57021 -0.119554 0.931521 -0.0678303 0.384802 0.477183 0.29718 -0.229571 -0.515177 -0.197612 -0.788964 0.248481 0.436604 0.0203583 -0.264681 -0.3189 -0.394877 -0.391488 0.207658 0.329075 -0.0388235 -0.143999 -0.187774 -0.15617 -0.297069 0.118362 -0.284707 0.305949 0.423155 -0.34417 0.196747 0.172734 0.362331 0.17073 -0.0303738 0.541147 0.518075 -0.213437 -0.495184 0.144456 0.112911 0.497198 0.425574 0.232762 0.129051 -0.391258 0.229952 0.384982 0.158786 -0.0837735 -0.0723273 0.116373 -0.301644 -0.579935 0.354256 0.171221 -0.468451 0.557552 0.391399 -0.279436 0.291761 0.317605 0.506054 0.295873 -0.225312 -0.228225 -0.23528 -0.162621 -0.557667 -0.449488 0.300533 -0.441756 0.305189 -0.528832 -0.477035 0.244484 0.0737381 0.755363 -0.829529 -0.174734 0.182457 -0.0486599 1.15083 0.71126 -0.262967 0.645807 1.05074 0.00924734 0.788889 0.198293 0.752166 0.00659331 -0.672702 -0.296248 0.0102821 -0.528882 -0.291934 0.27293 0.648518 0.000819349 0.00399327 0.304869 0.472779 0.815583 0.727501 0.533333 0.360208 -0.162867 0.204451 -0.239067 -1.12553 0.477552 0.429074 -0.566255 -0.0287974 -0.398427 -0.349199 0.226693 0.425084 -0.381322 0.322675 -0.118476 0.298124 -0.216143 -0.309437 -0.770678 -0.372876 -0.106099 0.180027 -0.181021 0.700301 0.535105 0.309336 -0.227211 -0.0409171 0.714828 -0.118191 -0.239332 0.384404 0.487564 0.59424 -0.601292 -0.801681 0.778509 0.497156 0.0350412 0.307966 0.0681159 0.201624 0.161681 -0.251214 -0.176681 -0.907225 -0.649104 0.202759 0.162902 -0.218462 0.062998 -0.236669 -0.209372 0.293941 0.468666 -0.113554 -0.128615 -0.000191283 -0.129133 0.726607 -0.346327 -0.321419 0.356352 0.294271 -0.333007 0.625586 -0.3336 1.04042 -0.236773 -0.382201 0.162429 0.49551 1.06846 -0.886691 0.124428 0.141886 -0.750399 -0.064825 -0.575426 0.881187 -0.792874 -0.556222 -0.182877 -0.635647 -0.114981 0.332864 0.611897 1.19583 0.63166 1.183 0.275095 -0.077462 -0.371238 -0.150426 0.0597289 0.102861 1.88451 0.187215 -1.67627 0.243755 0.304415 0.394575 0.157006 0.256787 -0.126057 0.435021 0.2179 -0.200972 -0.37834 -0.0853581 0.0270796 -0.164379 -0.569217 -0.146473 -0.251914 0.328878 0.391662 -0.347051 1.03797 -0.0269846 0.488552 -0.480577 0.501197 0.490567 -0.0338232 0.103412 0.0715091 0.296286 0.559707 0.153931 -0.525132 -0.420577 0.677478 0.437204 -0.29346 -0.138291 -0.108821 -0.498513 -0.349254 0.0312776 0.171287 -0.256404 -0.357525 -0.140127 -0.142351 -0.0702901 -0.524762 0.0852392 0.205922 -0.289565 -0.243391 -0.0313683 0.0719391 0.17476 0.661473 -0.205421 0.378666 0.171784 0.298317 -0.256826 -0.0614091 -0.124225 0.143232 -0.652814 0.589993 -0.149517 0.168306 0.113576 0.331969 0.111174 0.564271 0.161448 -0.409662 -0.0714108 0.300202 -0.444057 0.163216 -0.476211 0.0350032 0.417106 -0.0128278 -0.326808 0.123856 0.54016 -0.563535 -0.478347 0.229966 0.25422 0.116248 -0.125982 0.20689 -0.431169 -0.176271 -0.203727 0.0919878 -0.298352 -0.500043 -0.277746 0.601836 0.105733 0.465173 0.336201 0.195009 0.45459 0.229798 0.191894 0.801747 -0.0484706 -0.0197433 -0.324596 0.182818 0.433241 -0.322864 0.586153 -0.0384697 0.30118 0.632419 0.515624 -0.221819 -0.106201 -0.366584 0.0430961 0.502283 0.0832432 -0.106114 0.637949 0.100353 -0.00880767 0.128201 -0.0357427 0.443862 0.490542 0.503274 -0.477364 -0.494559 0.254187 -0.21387 0.0628141 -0.571593 0.441413 -0.208825 -0.048466 -0.738312 0.00675715 0.609203 0.0910121 0.273523 -0.123252 -0.0222662 -0.212585 -0.805382 -0.411577 0.918238 0.199531 -0.471729 0.165866 0.670033 0.568637 0.0700533 -0.0857697 -0.302581 -0.726749 0.291449 0.244368 0.569417 0.280494 -0.425598 0.296285 -0.072485 -0.665995 0.331093 -0.0992712 0.426731 0.115743 0.149862 0.0791576 -0.391894 -0.294168 0.574286 0.447675 0.830445 0.124355 -0.0414608 -0.24563 -0.205787 0.375272 0.00503192 0.0354121 -0.715603 -0.00218513 -0.745715 -0.355252 0.323056 -0.228328 -0.242853 0.430252 0.503494 -0.408173 -0.935785 -0.193243 0.0812231 0.128921 -0.0520147 0.427064 -0.0454463 0.103562 -0.443461 0.557565 -0.169935 0.276177 -0.393438 -0.645535 -0.500752 -0.107337 -0.431734 0.176641 0.065872 0.128983 -0.149246 0.118939 0.464121 0.024104 0.166241 0.448276 -0.262602 -0.658894 -0.0618282 0.277841 -0.132329 0.223548 0.231776 0.101033 -0.148382 0.120447 1.06899 0.500968 0.0395088 0.251272 0.182861 0.885433 -0.480881 0.0220756 0.427879 -0.511348 -0.255109 0.415212 1.33839 -0.523009 0.210734 0.0312869 1.14454 0.203341 -0.0436059 -0.777956 0.39891 -0.220034 0.289787 -0.616046 0.0387418 0.177706 0.479429 0.424753 0.605458 -0.180965 1.2526 -0.667563 0.143346 0.573672 0.518515 -2.62298 -0.352547 1.35345 -0.0929096 -0.532972 -0.671859 -0.193931 0.177595 0.0743617 -0.173526 -0.326231 -0.673761 -0.217805 0.702835 -0.0364614 0.31533 -0.0752184 0.57739 -0.316065 1.10311 -0.334919 0.100338 0.025216 -0.430329 -0.685813 -0.220006 0.211502 -0.10418 0.159636 0.684993 -0.0439046 -0.0501858 0.373104 0.567988 -0.578766 0.0378762 0.313975 0.376371 0.0587148 -0.691928 -0.399599 -0.882617 -0.0746002 0.529145 0.610528 0.704368 -0.919725 0.690319 0.21412 -0.491772 0.767889 1.05522 -0.682033 0.0733487 -0.468498 1.03298 -0.0561451 -0.78445 -0.0389927 -0.536614 -0.875433 -0.348277 -0.235984 -0.190812 -0.65563 -0.624011 -0.392511 -1.15137 1.84343 0.229721 -1.0912 0.150963 0.285986 -0.0646825 0.591714 -0.365668 -1.05108 -0.697566 0.188945 0.316619 0.449095 1.4312 -0.168237 0.543036 -0.465442 0.249668 -0.028822 -0.0907555 -0.778767 0.768926 0.58048 -0.688303 -0.907213 0.880654 -0.0029903 0.32758 0.41612 -0.216267 0.31652 0.719684 0.631882 0.38536 -0.0152432 -0.335053 -0.038272 -0.438183 -0.130077 -0.129688 0.141646 -0.0971799 -0.131665 0.203227 0.364273 0.39262 -0.134786 -0.332538 0.573695 -0.0296264 -0.581702 -0.191724 0.334529 -0.00820721 0.0810599 0.0195022 -0.733704 0.409675 0.131767 0.170048 0.202733 0.572005 0.0453056 0.561579 0.728708 0.181185 -0.309296 0.724923 0.0341999 0.129492 -0.0634023 -0.0647244 -0.142904 -0.363713 -0.537266 0.471159 0.451896 0.165096 -0.128876 0.00144169 -0.58608 -0.271868 0.598891 0.677006 0.635278 0.025147 -0.229293 -0.409398 -0.543203 0.308939 0.559438 0.00543576 0.261361 0.230194 -0.396123 -0.305113 -0.176712 -0.0420983 0.384631 0.293484 0.395338 -0.833121 -0.247365 0.230359 -0.524935 -0.501638 0.355088 0.161641 0.251509 -0.223747 -0.156007 -0.0922528 -0.4628 -0.206425 -0.351208 -0.477607 0.255087 0.170005 0.313626 -0.415764 -0.344023 0.176564 -0.19472 0.270757 -0.299088 0.233955 -0.113657 -0.63355 -0.147296 -0.10831 0.234013 -0.473131 0.0568192 0.433128 0.31366 -0.419602 -0.102418 -0.423765 -0.589718 -0.588499 0.246562 -0.535276 -0.411119 -0.417529 0.0865717 0.163479 -0.244754 0.189074 0.0236008 0.0191944 -0.171349 0.235253 -0.0758761 -0.420928 -0.340087 -0.570949 -0.245791 -0.227921 -0.464363 -0.347085 0.341606 -0.150311 0.249125 -0.413895 -0.277173 0.0313304 -0.453019 -0.103219 -0.116373 -0.0280842 -0.293569 -0.0505939 0.0401524 -0.152779 -0.191892 -0.251231 0.128839 0.0850269 -0.424808 -0.31425 -0.632051 0.24778 -0.392118 0.200477 -0.0267904 -0.189889 0.0266817 -0.507341 -0.132075 0.164339 -0.361803 -0.50983 0.209875 -0.69507 -0.266083 -0.309345 -0.0818859 0.126824 -0.140913 -0.474449 -0.353857 -0.632091 -0.559242 -0.445851 0.397572 0.0242585 -0.0339604 -0.700028 -0.634269 0.118845 -0.119377 -0.428168 -0.27102 -0.221077 -0.488919 -0.274117 -0.229686 -0.459599 -0.0269869 -0.498886 0.121232 0.0337546 0.266092 -0.0235261 -0.664518 -0.0280831 0.179511 -0.507478 -0.520265 -0.373015 -0.172434 0.126853 -0.204683 0.246127 0.0425103 0.121753 -0.648288 0.347038 -0.768731 -0.662497 0.34341 -0.138321 -0.582056 -0.432025 -0.608697 -0.109354 -0.153431 -0.325607 0.0800661 -0.35003 0.208912 -0.200237 -0.0616799 0.267633 -0.215432 -0.450091 -0.0983415 -0.0488176 -0.0545505 -0.553306 -0.018343 -0.361999 0.230121 -0.530162 -0.143728 0.0239731 0.128952 -0.547483 -0.283853 0.0642282 0.0510717 -0.393514 -0.462873 -0.0301166 0.150354 -0.176581 0.257561 -0.401191 -0.290185 0.08328 0.363995 -0.346666 0.189391 -0.379772 0.105353 0.26299 -0.601299 0.174127 0.202846 -0.505042 0.106892 -0.536468 -0.544349 -0.0107099 0.254467 -0.597925 -0.143557 -0.292186 -0.124119 -0.263283 -0.519697 0.122715 -0.290102 -0.506063 -0.0330519 -0.427704 -0.511955 -0.0790166 0.258937 -1.62429 -3.17115 0.772619 -0.108836 -2.06872 1.82583 -2.12341 0.863525 1.20729 -1.95394 2.25377 -1.9375 -0.510737 -0.746936 2.00512 0.588528 -0.624236 -2.07668 1.07207 0.983434 -3.0325 -1.12622 0.380208 0.948103 -1.00535 -1.14882 -1.03659 0.968979 -3.28632 1.3647 2.48675 -1.66908 0.0646833 0.860537 0.253445 -0.458812 -0.169617 0.0150385 -0.0834126 0.402395 -0.354647 -0.361744 0.0881074 -0.38119 -0.413665 -0.415034 -0.242344 0.326571 -0.323704 0.19462 0.216722 -0.434422 -0.129271 -0.182202 -0.0623899 0.158282 -0.447324 0.196966 -0.518527 -0.506351 -0.568881 0.240325 0.451917 -0.437716 -0.46093 0.40741 -0.576531 -0.091775 -0.105377 -0.337193 0.131243 -0.197513 -0.55463 0.279115 0.21384 -0.0926682 0.045823 -0.520594 0.122046 -0.0135128 0.214088 -0.0816291 -0.157301 -0.415 -0.373456 0.0823066 -0.631392 -0.280641 -0.340438 -0.487343 -0.551524 -0.0516359 0.0836439 -0.0472621 -0.0818487 -0.269754 -0.461686 -0.0964147 -0.0995413 0.0926204 0.146621 -0.320852 0.275193 -0.176961 0.101304 -0.0830956 -0.211381 -0.294688 -0.376235 -0.515925 0.11027 -0.635765 -0.106949 -0.762835 -0.360777 -0.530831 0.285475 -0.239819 -0.391458 0.198644 -0.39295 -0.388834 -0.509621 -0.16804 -0.100139 0.305838 -0.625983 -0.504879 0.347782 -0.355016 -0.212034 0.109115 -0.0883431 -0.13312 -0.112026 0.0964683 0.14162 -0.513866 -0.0746001 -0.571428 -0.125432 0.1554 -0.373235 0.00624104 0.334586 -0.264009 0.0188681 -0.533281 0.00499703 -0.0722927 0.0519759 -0.538271 -0.200509 -0.617988 -0.303698 -0.404811 0.0950693 -0.344664 -0.478686 0.00749637 -0.307317 -0.337908 0.150007 -0.203909 -0.162547 -0.404693 0.224944 0.273559 -0.634067 0.0766367 -0.373717 0.125765 -0.0865205 -0.488084 -0.443532 0.211139 -0.0289893 -0.0036288 -0.47035 -0.166543 0.0120306 -0.309224 -0.386247 0.129539 -0.152065 0.0967326 0.01743 -0.0801818 0.0685393 -0.134251 0.180926 -0.534461 0.332426 0.40036 -0.0285615 -0.38651 0.00824359 -0.0428962 -0.315937 -0.185074 -0.133813 0.0550208 -0.573217 -0.716278 -0.453314 -0.460231 -0.393167 -0.465864 -0.158598 -0.395608 -0.438594 -0.0490701 -0.391742 0.15117 -0.288829 0.249521 0.0754707 -0.618296 -0.146975 0.0577637 0.0273019 -0.458394 -0.639577 0.160362 -0.180906 -0.588708 0.0360932 0.041442 -0.320563 0.193103 0.0907811 -0.640945 0.0327775 -0.455674 0.309158 -0.147393 -0.068421 0.175641 0.0682821 0.139497 -0.337083 0.121194 -0.718179 -0.0095156 -0.092783 -0.285146 -0.379792 -0.172377 0.111865 -0.810492 -0.151627 -0.557348 -0.489585 0.163389 -0.543723 0.0441403 0.209007 -0.304913 -0.487756 0.139214 -0.220853 -0.492878 0.00968745 -0.0210521 -0.0222583 0.0423979 -0.238436 -0.0104514 0.239903 -0.5818 0.222582 0.107414 0.240054 -0.280903 -0.184265 -0.1788 -0.200391 -0.0675967 -0.542984 -0.422311 0.303642 -0.583413 -0.578494 -0.17545 -0.716848 0.275138 0.249522 -0.195377 -0.165947 -0.112385 0.250001 -0.192534 -0.00476488 -0.419675 0.170645 0.0606847 -0.293327 0.212452 -0.249959 -0.283943 -0.42564 0.206092 0.129895 -0.362798 -0.564431 -0.305445 -0.175411 0.181502 0.00913116 -0.0249344 0.00363315 -0.400079 0.076972 0.134749 -0.433965 0.198055 -0.0343476 -0.126711 -0.476351 -0.0341357 -0.0917103 -0.363384 -0.314207 -0.404045 -0.0953336 -0.353418 -0.270312 0.00727357 -0.0840652 0.0258525 -0.594601 -0.490271 -0.385782 0.310127 0.128275 -0.400941 0.29308 -0.153306 -0.660181 -0.26033 -0.303503 0.153605 -0.40161 0.232549 -0.155459 -0.136456 -0.133808 -0.504891 -0.0337393 -0.565164 -0.190181 0.0755387 0.119526 -0.141979 -0.267372 -0.413051 -0.193429 -0.229207 0.0718772 -0.595346 -0.142989 -0.0477922 0.0608871 -0.0381555 0.0323506 0.227608 -0.102274 -0.712892 -0.00965484 0.21603 -0.465263 -0.466696 -0.353242 -0.0395475 0.298295 -0.475001 0.0964242 -0.0582445 0.00428263 -0.549523 -0.0116887 0.028309 -0.563722 -0.205423 0.0583493 0.0926591 -0.44935 0.226203 -0.304925 0.138484 -0.450986 -0.0133477 -0.0761457 -0.436175 -0.0430247 -0.281142 -0.723016 -0.216125 -0.135424 0.0598009 0.379641 -0.106622 0.0932463 -0.404521 -0.500532 0.257106 -0.532161 -0.466293 0.142029 -0.373852 -0.162952 -0.443878 -0.163462 -0.495755 -0.707068 0.070196 -0.280952 -0.760134 -0.129758 -0.115601 -0.487034 -0.0278383 0.133594 0.287022 0.223209 -0.487127 0.26512 -0.590132 -0.724147 0.164879 0.0931459 0.168617 -0.390402 0.171416 0.416991 -0.491384 -0.126125 0.0376101 0.113862 -0.536385 -0.351241 -0.263317 0.0076921 -0.688466 -0.374032 -0.145179 0.0688948 -0.122014 -1.27853 0.0785668 -0.118586 -0.274114 -0.0918381 0.508635 0.418976 -0.371836 0.454888 -0.677873 -0.708925 0.287115 -0.299834 -0.426403 -0.846196 -0.168708 -0.309891 0.257156 -0.637085 0.320355 -0.502291 0.28095 -0.782034 -0.271069 0.617541 -0.178639 -1.35833 -0.0154749 0.0230026 -0.0909164 -0.429225 -0.393014 -0.16105 -0.00315776 -0.0280385 0.245754 0.168687 -0.370434 0.208078 0.261147 -0.124907 0.130972 -0.00202953 -0.287643 -0.0397434 -0.704307 -0.514962 -0.114412 -0.608291 -0.158333 -0.398371 0.252303 -0.38209 -0.570655 -0.0908046 0.137843 0.0502175 -0.313693 -0.130444 -0.673637 -0.02686 -0.540898 0.467872 0.399359 -1.06243 -0.398532 -0.194551 0.189396 -0.991902 -1.03359 -0.444619 -0.74689 -0.860259 -0.773405 0.647483 -0.68635 -0.87104 0.279837 -0.47445 0.387575 -0.427749 0.218407 -0.838378 -0.963643 -0.810261 -0.0791534 0.307639 -0.00130441 -0.348168 -0.0693646 -0.818704 -0.195672 0.352016 0.38994 0.721789 0.309139 -0.305378 -0.181831 -0.774398 -0.287271 0.303688 -0.115781 -0.589133 0.393131 0.047877 -0.890589 -0.469997 0.0691343 -0.479087 -0.414082 0.253869 0.0318295 0.456279 -0.356058 -0.406613 0.104476 -0.385787 0.182652 -0.383399 -0.223826 -0.306138 -0.297388 0.238346 -0.395177 -0.860114 0.113644 0.0535062 -0.637667 -0.20693 0.268485 -0.469601 -0.271182 0.0261393 -0.465796 -0.198035 0.233111 -0.516852 0.175794 0.210488 -0.292058 -0.101691 -0.459424 -0.604955 -0.298498 -0.178466 -0.101039 -0.559533 -0.438451 -0.651189 -0.434826 -0.153646 0.183083 -0.534557 0.029663 0.0773759 0.0245837 0.266721 -0.289971 0.21588 -0.30253 -0.245142 -0.320533 -0.0253495 0.146177 -0.145741 -0.00131713 -0.0437446 0.287157 -0.168311 -0.155307 1.97267 0.254135 -0.230921 -0.231831 -0.0668302 -0.144979 0.157836 -0.212219 0.238579 0.209186 0.228157 -0.102585 -0.349864 -1.14135 0.008708 1.68605 -0.606272 -0.0193622 
    </synapses>
  </Weights>
</MethodSetup>
