<?xml version="1.0"?>
<MethodSetup Method="BDT::BDTG_HU_y">
  <GeneralInfo>
    <Info name="TMVA Release" value="4.2.1 [262657]"/>
    <Info name="ROOT Release" value="6.10/09 [395785]"/>
    <Info name="Creator" value="bribeiro"/>
    <Info name="Date" value="Mon Jan  6 15:42:01 2020"/>
    <Info name="Host" value="Linux cmsbuild64.cern.ch 2.6.32-696.30.1.el6.x86_64 #1 SMP Tue May 22 06:09:36 CEST 2018 x86_64 x86_64 x86_64 GNU/Linux"/>
    <Info name="Dir" value="/afs/cern.ch/user/b/bribeiro/CMSSW_9_4_11/src/TopLJets2015/TopAnalysis"/>
    <Info name="Training events" value="14170"/>
    <Info name="TrainingTime" value="2.57597208e+00"/>
    <Info name="AnalysisType" value="Regression"/>
  </GeneralInfo>
  <Options>
    <Option name="V" modified="Yes">False</Option>
    <Option name="VerbosityLevel" modified="No">Default</Option>
    <Option name="VarTransform" modified="No">None</Option>
    <Option name="H" modified="Yes">False</Option>
    <Option name="CreateMVAPdfs" modified="No">False</Option>
    <Option name="IgnoreNegWeightsInTraining" modified="No">False</Option>
    <Option name="NTrees" modified="Yes">64</Option>
    <Option name="MaxDepth" modified="Yes">4</Option>
    <Option name="MinNodeSize" modified="No">0.2%</Option>
    <Option name="nCuts" modified="Yes">20</Option>
    <Option name="BoostType" modified="Yes">Grad</Option>
    <Option name="AdaBoostR2Loss" modified="No">quadratic</Option>
    <Option name="UseBaggedBoost" modified="No">False</Option>
    <Option name="Shrinkage" modified="Yes">3.000000e-01</Option>
    <Option name="AdaBoostBeta" modified="No">5.000000e-01</Option>
    <Option name="UseRandomisedTrees" modified="No">False</Option>
    <Option name="UseNvars" modified="No">6</Option>
    <Option name="UsePoissonNvars" modified="No">True</Option>
    <Option name="BaggedSampleFraction" modified="No">6.000000e-01</Option>
    <Option name="UseYesNoLeaf" modified="No">False</Option>
    <Option name="NegWeightTreatment" modified="No">pray</Option>
    <Option name="Css" modified="No">1.000000e+00</Option>
    <Option name="Cts_sb" modified="No">1.000000e+00</Option>
    <Option name="Ctb_ss" modified="No">1.000000e+00</Option>
    <Option name="Cbb" modified="No">1.000000e+00</Option>
    <Option name="NodePurityLimit" modified="No">5.000000e-01</Option>
    <Option name="SeparationType" modified="No">regressionvariance</Option>
    <Option name="RegressionLossFunctionBDTG" modified="Yes">huber</Option>
    <Option name="HuberQuantile" modified="No">7.000000e-01</Option>
    <Option name="DoBoostMonitor" modified="No">False</Option>
    <Option name="UseFisherCuts" modified="No">False</Option>
    <Option name="MinLinCorrForFisher" modified="No">8.000000e-01</Option>
    <Option name="UseExclusiveVars" modified="No">False</Option>
    <Option name="DoPreselection" modified="No">False</Option>
    <Option name="SigToBkgFraction" modified="No">1.000000e+00</Option>
    <Option name="PruneMethod" modified="No">nopruning</Option>
    <Option name="PruneStrength" modified="No">0.000000e+00</Option>
    <Option name="PruningValFraction" modified="No">5.000000e-01</Option>
    <Option name="SkipNormalization" modified="No">False</Option>
    <Option name="nEventsMin" modified="No">0</Option>
    <Option name="UseBaggedGrad" modified="No">False</Option>
    <Option name="GradBaggingFraction" modified="No">6.000000e-01</Option>
    <Option name="UseNTrainEvents" modified="No">0</Option>
    <Option name="NNodesMax" modified="No">0</Option>
  </Options>
  <Variables NVar="34">
    <Variable VarIndex="0" Expression="mll" Label="mll" Title="mll" Unit="" Internal="mll" Type="F" Min="2.01043358e+01" Max="1.12357031e+03"/>
    <Variable VarIndex="1" Expression="nljets" Label="nljets" Title="nljets" Unit="" Internal="nljets" Type="F" Min="0.00000000e+00" Max="6.00000000e+00"/>
    <Variable VarIndex="2" Expression="nbjets" Label="nbjets" Title="nbjets" Unit="" Internal="nbjets" Type="F" Min="2.00000000e+00" Max="4.00000000e+00"/>
    <Variable VarIndex="3" Expression="metpt" Label="metpt" Title="metpt" Unit="" Internal="metpt" Type="F" Min="6.40878558e-01" Max="9.49200134e+02"/>
    <Variable VarIndex="4" Expression="metphi" Label="metphi" Title="metphi" Unit="" Internal="metphi" Type="F" Min="-3.14134645e+00" Max="3.14145446e+00"/>
    <Variable VarIndex="5" Expression="l1pt" Label="l1pt" Title="l1pt" Unit="" Internal="l1pt" Type="F" Min="3.00067863e+01" Max="7.10798279e+02"/>
    <Variable VarIndex="6" Expression="l1eta" Label="l1eta" Title="l1eta" Unit="" Internal="l1eta" Type="F" Min="-2.09992504e+00" Max="2.09870791e+00"/>
    <Variable VarIndex="7" Expression="l1phi" Label="l1phi" Title="l1phi" Unit="" Internal="l1phi" Type="F" Min="-3.14118195e+00" Max="3.14148593e+00"/>
    <Variable VarIndex="8" Expression="l1m" Label="l1m" Title="l1m" Unit="" Internal="l1m" Type="F" Min="-3.11830580e-01" Max="1.97807953e-01"/>
    <Variable VarIndex="9" Expression="l2pt" Label="l2pt" Title="l2pt" Unit="" Internal="l2pt" Type="F" Min="2.00008240e+01" Max="4.40407715e+02"/>
    <Variable VarIndex="10" Expression="l2eta" Label="l2eta" Title="l2eta" Unit="" Internal="l2eta" Type="F" Min="-2.39950705e+00" Max="2.39693928e+00"/>
    <Variable VarIndex="11" Expression="l2phi" Label="l2phi" Title="l2phi" Unit="" Internal="l2phi" Type="F" Min="-3.14118791e+00" Max="3.14082694e+00"/>
    <Variable VarIndex="12" Expression="l2m" Label="l2m" Title="l2m" Unit="" Internal="l2m" Type="F" Min="-4.03093904e-01" Max="2.71714777e-01"/>
    <Variable VarIndex="13" Expression="b1pt" Label="b1pt" Title="b1pt" Unit="" Internal="b1pt" Type="F" Min="3.04041882e+01" Max="5.85363953e+02"/>
    <Variable VarIndex="14" Expression="b1eta" Label="b1eta" Title="b1eta" Unit="" Internal="b1eta" Type="F" Min="-2.39731121e+00" Max="2.39803338e+00"/>
    <Variable VarIndex="15" Expression="b1phi" Label="b1phi" Title="b1phi" Unit="" Internal="b1phi" Type="F" Min="-3.14154148e+00" Max="3.14145160e+00"/>
    <Variable VarIndex="16" Expression="b1m" Label="b1m" Title="b1m" Unit="" Internal="b1m" Type="F" Min="3.24933958e+00" Max="6.26895866e+01"/>
    <Variable VarIndex="17" Expression="b2pt" Label="b2pt" Title="b2pt" Unit="" Internal="b2pt" Type="F" Min="3.00017509e+01" Max="2.86404480e+02"/>
    <Variable VarIndex="18" Expression="b2eta" Label="b2eta" Title="b2eta" Unit="" Internal="b2eta" Type="F" Min="-2.39952803e+00" Max="2.39143538e+00"/>
    <Variable VarIndex="19" Expression="b2phi" Label="b2phi" Title="b2phi" Unit="" Internal="b2phi" Type="F" Min="-3.14157486e+00" Max="3.14136744e+00"/>
    <Variable VarIndex="20" Expression="b2m" Label="b2m" Title="b2m" Unit="" Internal="b2m" Type="F" Min="2.54510522e+00" Max="4.70349960e+01"/>
    <Variable VarIndex="21" Expression="deltarll" Label="deltarll" Title="deltarll" Unit="" Internal="deltarll" Type="F" Min="2.81501561e-01" Max="5.23594284e+00"/>
    <Variable VarIndex="22" Expression="deltaphill" Label="deltaphill" Title="deltaphill" Unit="" Internal="deltaphill" Type="F" Min="-3.14152360e+00" Max="3.14138818e+00"/>
    <Variable VarIndex="23" Expression="mlb" Label="mlb" Title="mlb" Unit="" Internal="mlb" Type="F" Min="1.59899750e+01" Max="1.49750610e+02"/>
    <Variable VarIndex="24" Expression="px2" Label="px2" Title="px2" Unit="" Internal="px2" Type="F" Min="7.01223598e-07" Max="6.73477188e+05"/>
    <Variable VarIndex="25" Expression="py2" Label="py2" Title="py2" Unit="" Internal="py2" Type="F" Min="4.74931952e-08" Max="1.62155912e+06"/>
    <Variable VarIndex="26" Expression="pz2" Label="pz2" Title="pz2" Unit="" Internal="pz2" Type="F" Min="1.40760225e-04" Max="4.25374100e+06"/>
    <Variable VarIndex="27" Expression="E2" Label="E2" Title="E2" Unit="" Internal="E2" Type="F" Min="3.56139570e+04" Max="5.23792150e+06"/>
    <Variable VarIndex="28" Expression="yvis" Label="yvis" Title="yvis" Unit="" Internal="yvis" Type="F" Min="-2.11414385e+00" Max="2.12295032e+00"/>
    <Variable VarIndex="29" Expression="ysum" Label="ysum" Title="ysum" Unit="" Internal="ysum" Type="F" Min="3.20867091e-01" Max="8.38666534e+00"/>
    <Variable VarIndex="30" Expression="max_dy" Label="max_dy" Title="max_dy" Unit="" Internal="max_dy" Type="F" Min="-1.54347682e+00" Max="2.28718877e+00"/>
    <Variable VarIndex="31" Expression="min_dy" Label="min_dy" Title="min_dy" Unit="" Internal="min_dy" Type="F" Min="-2.17138886e+00" Max="1.78974748e+00"/>
    <Variable VarIndex="32" Expression="rec_ytt" Label="rec_ytt" Title="rec_ytt" Unit="" Internal="rec_ytt" Type="F" Min="-2.23707271e+00" Max="2.38993335e+00"/>
    <Variable VarIndex="33" Expression="rec_mtt" Label="rec_mtt" Title="rec_mtt" Unit="" Internal="rec_mtt" Type="F" Min="3.45033356e+02" Max="4.43274658e+03"/>
  </Variables>
  <Spectators NSpec="10">
    <Spectator SpecIndex="0" Expression="run" Label="run" Title="run" Unit="" Internal="run" Type="F" Min="1.00000000e+00" Max="1.00000000e+00"/>
    <Spectator SpecIndex="1" Expression="lumi" Label="lumi" Title="lumi" Unit="" Internal="lumi" Type="F" Min="3.00000000e+00" Max="2.64594000e+05"/>
    <Spectator SpecIndex="2" Expression="ev" Label="ev" Title="ev" Unit="" Internal="ev" Type="F" Min="3.00000000e+00" Max="4.65817376e+08"/>
    <Spectator SpecIndex="3" Expression="rho" Label="rho" Title="rho" Unit="" Internal="rho" Type="F" Min="0.00000000e+00" Max="7.45759659e+01"/>
    <Spectator SpecIndex="4" Expression="channel" Label="channel" Title="channel" Unit="" Internal="channel" Type="F" Min="1.21000000e+02" Max="1.69000000e+02"/>
    <Spectator SpecIndex="5" Expression="mpp" Label="mpp" Title="mpp" Unit="" Internal="mpp" Type="F" Min="3.49061005e+02" Max="1.00000000e+04"/>
    <Spectator SpecIndex="6" Expression="ypp" Label="ypp" Title="ypp" Unit="" Internal="ypp" Type="F" Min="-9.66485977e-01" Max="1.00000000e+01"/>
    <Spectator SpecIndex="7" Expression="gen_mtt" Label="gen_mtt" Title="gen_mtt" Unit="" Internal="gen_mtt" Type="F" Min="3.35572327e+02" Max="2.41753223e+03"/>
    <Spectator SpecIndex="8" Expression="gen_ytt" Label="gen_ytt" Title="gen_ytt" Unit="" Internal="gen_ytt" Type="F" Min="-2.53111053e+00" Max="2.36455297e+00"/>
    <Spectator SpecIndex="9" Expression="weight" Label="weight" Title="weight" Unit="" Internal="weight" Type="F" Min="-4.01403355e-08" Max="1.55085327e-05"/>
  </Spectators>
  <Classes NClass="1">
    <Class Name="Regression" Index="0"/>
  </Classes>
  <Targets NTrgt="1">
    <Target TargetIndex="0" Expression="rec_ytt-gen_ytt" Label="target" Title="target" Unit="" Internal="target" Type="F" Min="-1.63888788e+00" Max="2.01044726e+00"/>
  </Targets>
  <Transformations NTransformations="0"/>
  <MVAPdfs/>
  <Weights NTrees="64" AnalysisType="1">
    <BinaryTree type="DecisionTree" boostWeight="6.5925717353820801e-04" itree="0">
      <Node pos="s" depth="0" NCoef="0" IVar="32" Cut="-3.3736489713191986e-02" cType="1" res="-1.0747195919975638e-03" rms="1.6804128885269165e-01" purity="1.0000000000000000e+00" nType="0">
        <Node pos="l" depth="1" NCoef="0" IVar="28" Cut="-1.2545518577098846e-01" cType="1" res="-3.9524570107460022e-02" rms="1.6432517766952515e-01" purity="1.0000000000000000e+00" nType="0">
          <Node pos="l" depth="2" NCoef="0" IVar="32" Cut="-4.5352533459663391e-01" cType="1" res="-2.7942284941673279e-02" rms="1.6556024551391602e-01" purity="1.0000000000000000e+00" nType="0">
            <Node pos="l" depth="3" NCoef="0" IVar="28" Cut="-5.9919494390487671e-01" cType="1" res="-5.5190719664096832e-02" rms="1.6232059895992279e-01" purity="1.0000000000000000e+00" nType="0">
              <Node pos="l" depth="4" NCoef="0" IVar="-1" Cut="0.0000000000000000e+00" cType="1" res="-1.4263420365750790e-02" rms="1.6611015796661377e-01" purity="1.0000000000000000e+00" nType="-99"/>
              <Node pos="r" depth="4" NCoef="0" IVar="-1" Cut="0.0000000000000000e+00" cType="1" res="-4.5340906828641891e-02" rms="1.3665848970413208e-01" purity="1.0000000000000000e+00" nType="-99"/>
            </Node>
            <Node pos="r" depth="3" NCoef="0" IVar="28" Cut="-3.8441044092178345e-01" cType="1" res="3.3987335860729218e-02" rms="1.5588977932929993e-01" purity="1.0000000000000000e+00" nType="0">
              <Node pos="l" depth="4" NCoef="0" IVar="-1" Cut="0.0000000000000000e+00" cType="1" res="4.1794054210186005e-02" rms="1.3366310298442841e-01" purity="1.0000000000000000e+00" nType="-99"/>
              <Node pos="r" depth="4" NCoef="0" IVar="-1" Cut="0.0000000000000000e+00" cType="1" res="-2.5612544268369675e-03" rms="1.5260311961174011e-01" purity="1.0000000000000000e+00" nType="-99"/>
            </Node>
          </Node>
          <Node pos="r" depth="2" NCoef="0" IVar="32" Cut="-1.6870643198490143e-01" cType="1" res="-1.1014334857463837e-01" rms="1.3679790496826172e-01" purity="1.0000000000000000e+00" nType="0">
            <Node pos="l" depth="3" NCoef="0" IVar="32" Cut="-3.0649015307426453e-01" cType="1" res="-1.5004776418209076e-01" rms="1.1495477706193924e-01" purity="1.0000000000000000e+00" nType="0">
              <Node pos="l" depth="4" NCoef="0" IVar="-1" Cut="0.0000000000000000e+00" cType="1" res="-8.9720942080020905e-02" rms="9.8212718963623047e-02" purity="1.0000000000000000e+00" nType="-99"/>
              <Node pos="r" depth="4" NCoef="0" IVar="-1" Cut="0.0000000000000000e+00" cType="1" res="-4.8006486147642136e-02" rms="1.2061794847249985e-01" purity="1.0000000000000000e+00" nType="-99"/>
            </Node>
            <Node pos="r" depth="3" NCoef="0" IVar="28" Cut="-1.7255643382668495e-02" cType="1" res="-7.3674924671649933e-02" rms="1.4475508034229279e-01" purity="1.0000000000000000e+00" nType="0">
              <Node pos="l" depth="4" NCoef="0" IVar="-1" Cut="0.0000000000000000e+00" cType="1" res="-2.9488846193999052e-03" rms="1.3646329939365387e-01" purity="1.0000000000000000e+00" nType="-99"/>
              <Node pos="r" depth="4" NCoef="0" IVar="-1" Cut="0.0000000000000000e+00" cType="1" res="-4.9172602593898773e-02" rms="1.3175855576992035e-01" purity="1.0000000000000000e+00" nType="-99"/>
            </Node>
          </Node>
        </Node>
        <Node pos="r" depth="1" NCoef="0" IVar="28" Cut="-4.5263484120368958e-02" cType="1" res="3.5843305289745331e-02" rms="1.6322176158428192e-01" purity="1.0000000000000000e+00" nType="0">
          <Node pos="l" depth="2" NCoef="0" IVar="28" Cut="-3.3565068244934082e-01" cType="1" res="1.4560279250144958e-01" rms="1.2672665715217590e-01" purity="1.0000000000000000e+00" nType="0">
            <Node pos="l" depth="3" NCoef="0" IVar="7" Cut="-1.6659189760684967e-01" cType="1" res="2.0313714444637299e-01" rms="1.0171313583850861e-01" purity="1.0000000000000000e+00" nType="0">
              <Node pos="l" depth="4" NCoef="0" IVar="-1" Cut="0.0000000000000000e+00" cType="1" res="1.1773635447025299e-01" rms="1.3467375934123993e-01" purity="1.0000000000000000e+00" nType="-99"/>
              <Node pos="r" depth="4" NCoef="0" IVar="-1" Cut="0.0000000000000000e+00" cType="1" res="1.2147542834281921e-01" rms="5.2194174379110336e-02" purity="1.0000000000000000e+00" nType="-99"/>
            </Node>
            <Node pos="r" depth="3" NCoef="0" IVar="32" Cut="9.8394729197025299e-02" cType="1" res="1.3684187829494476e-01" rms="1.2786297500133514e-01" purity="1.0000000000000000e+00" nType="0">
              <Node pos="l" depth="4" NCoef="0" IVar="-1" Cut="0.0000000000000000e+00" cType="1" res="4.5647919178009033e-02" rms="1.3324102759361267e-01" purity="1.0000000000000000e+00" nType="-99"/>
              <Node pos="r" depth="4" NCoef="0" IVar="-1" Cut="0.0000000000000000e+00" cType="1" res="8.1809483468532562e-02" rms="1.1371370404958725e-01" purity="1.0000000000000000e+00" nType="-99"/>
            </Node>
          </Node>
          <Node pos="r" depth="2" NCoef="0" IVar="32" Cut="6.5899920463562012e-01" cType="1" res="2.7564808726310730e-02" rms="1.6267231106758118e-01" purity="1.0000000000000000e+00" nType="0">
            <Node pos="l" depth="3" NCoef="0" IVar="28" Cut="5.6117832660675049e-01" cType="1" res="-3.4555103629827499e-03" rms="1.6095955669879913e-01" purity="1.0000000000000000e+00" nType="0">
              <Node pos="l" depth="4" NCoef="0" IVar="-1" Cut="0.0000000000000000e+00" cType="1" res="7.2379917837679386e-03" rms="1.5601122379302979e-01" purity="1.0000000000000000e+00" nType="-99"/>
              <Node pos="r" depth="4" NCoef="0" IVar="-1" Cut="0.0000000000000000e+00" cType="1" res="-4.3625403195619583e-02" rms="1.4228196442127228e-01" purity="1.0000000000000000e+00" nType="-99"/>
            </Node>
            <Node pos="r" depth="3" NCoef="0" IVar="28" Cut="6.9929790496826172e-01" cType="1" res="6.8151146173477173e-02" rms="1.5582446753978729e-01" purity="1.0000000000000000e+00" nType="0">
              <Node pos="l" depth="4" NCoef="0" IVar="-1" Cut="0.0000000000000000e+00" cType="1" res="5.8510322123765945e-02" rms="1.2662704288959503e-01" purity="1.0000000000000000e+00" nType="-99"/>
              <Node pos="r" depth="4" NCoef="0" IVar="-1" Cut="0.0000000000000000e+00" cType="1" res="1.9678115844726562e-02" rms="1.5783068537712097e-01" purity="1.0000000000000000e+00" nType="-99"/>
            </Node>
          </Node>
        </Node>
      </Node>
    </BinaryTree>
    <BinaryTree type="DecisionTree" boostWeight="1.0000000000000000e+00" itree="1">
      <Node pos="s" depth="0" NCoef="0" IVar="32" Cut="-2.5407010316848755e-01" cType="1" res="-7.5065076816827059e-04" rms="1.5812434256076813e-01" purity="1.0000000000000000e+00" nType="0">
        <Node pos="l" depth="1" NCoef="0" IVar="28" Cut="-3.4889623522758484e-01" cType="1" res="-3.5008195787668228e-02" rms="1.5653030574321747e-01" purity="1.0000000000000000e+00" nType="0">
          <Node pos="l" depth="2" NCoef="0" IVar="32" Cut="-7.2686016559600830e-01" cType="1" res="-2.1955223754048347e-02" rms="1.5833064913749695e-01" purity="1.0000000000000000e+00" nType="0">
            <Node pos="l" depth="3" NCoef="0" IVar="28" Cut="-7.6921540498733521e-01" cType="1" res="-5.3869720548391342e-02" rms="1.5579627454280853e-01" purity="1.0000000000000000e+00" nType="0">
              <Node pos="l" depth="4" NCoef="0" IVar="-1" Cut="0.0000000000000000e+00" cType="1" res="-1.4609347097575665e-02" rms="1.5788415074348450e-01" purity="1.0000000000000000e+00" nType="-99"/>
              <Node pos="r" depth="4" NCoef="0" IVar="-1" Cut="0.0000000000000000e+00" cType="1" res="-5.2416305989027023e-02" rms="1.2879483401775360e-01" purity="1.0000000000000000e+00" nType="-99"/>
            </Node>
            <Node pos="r" depth="3" NCoef="0" IVar="28" Cut="-6.7002129554748535e-01" cType="1" res="2.5570204481482506e-02" rms="1.4992903172969818e-01" purity="1.0000000000000000e+00" nType="0">
              <Node pos="l" depth="4" NCoef="0" IVar="-1" Cut="0.0000000000000000e+00" cType="1" res="4.6387951821088791e-02" rms="1.3622516393661499e-01" purity="1.0000000000000000e+00" nType="-99"/>
              <Node pos="r" depth="4" NCoef="0" IVar="-1" Cut="0.0000000000000000e+00" cType="1" res="-9.2162651708349586e-04" rms="1.4382964372634888e-01" purity="1.0000000000000000e+00" nType="-99"/>
            </Node>
          </Node>
          <Node pos="r" depth="2" NCoef="0" IVar="32" Cut="-3.8591808080673218e-01" cType="1" res="-9.3864984810352325e-02" rms="1.3309150934219360e-01" purity="1.0000000000000000e+00" nType="0">
            <Node pos="l" depth="3" NCoef="0" IVar="26" Cut="9.7660273437500000e+03" cType="1" res="-1.2778569757938385e-01" rms="1.1937446892261505e-01" purity="1.0000000000000000e+00" nType="0">
              <Node pos="l" depth="4" NCoef="0" IVar="-1" Cut="0.0000000000000000e+00" cType="1" res="-6.7126236855983734e-02" rms="1.1351419240236282e-01" purity="1.0000000000000000e+00" nType="-99"/>
              <Node pos="r" depth="4" NCoef="0" IVar="-1" Cut="0.0000000000000000e+00" cType="1" res="-3.2104093581438065e-02" rms="1.2491358071565628e-01" purity="1.0000000000000000e+00" nType="-99"/>
            </Node>
            <Node pos="r" depth="3" NCoef="0" IVar="28" Cut="-2.2174859046936035e-01" cType="1" res="-6.1806589365005493e-02" rms="1.3737219572067261e-01" purity="1.0000000000000000e+00" nType="0">
              <Node pos="l" depth="4" NCoef="0" IVar="-1" Cut="0.0000000000000000e+00" cType="1" res="-2.2047485690563917e-03" rms="1.2630210816860199e-01" purity="1.0000000000000000e+00" nType="-99"/>
              <Node pos="r" depth="4" NCoef="0" IVar="-1" Cut="0.0000000000000000e+00" cType="1" res="-4.1473850607872009e-02" rms="1.3114979863166809e-01" purity="1.0000000000000000e+00" nType="-99"/>
            </Node>
          </Node>
        </Node>
        <Node pos="r" depth="1" NCoef="0" IVar="32" Cut="8.7911611795425415e-01" cType="1" res="2.0756239071488380e-02" rms="1.5530252456665039e-01" purity="1.0000000000000000e+00" nType="0">
          <Node pos="l" depth="2" NCoef="0" IVar="28" Cut="8.0452841520309448e-01" cType="1" res="8.9489435777068138e-03" rms="1.5446023643016815e-01" purity="1.0000000000000000e+00" nType="0">
            <Node pos="l" depth="3" NCoef="0" IVar="28" Cut="-2.2978128492832184e-01" cType="1" res="1.6838876530528069e-02" rms="1.5295217931270599e-01" purity="1.0000000000000000e+00" nType="0">
              <Node pos="l" depth="4" NCoef="0" IVar="-1" Cut="0.0000000000000000e+00" cType="1" res="4.3056257069110870e-02" rms="1.3925288617610931e-01" purity="1.0000000000000000e+00" nType="-99"/>
              <Node pos="r" depth="4" NCoef="0" IVar="-1" Cut="0.0000000000000000e+00" cType="1" res="3.1057482119649649e-03" rms="1.5172462165355682e-01" purity="1.0000000000000000e+00" nType="-99"/>
            </Node>
            <Node pos="r" depth="3" NCoef="0" IVar="32" Cut="7.2914224863052368e-01" cType="1" res="-1.0544609278440475e-01" rms="1.2880520522594452e-01" purity="1.0000000000000000e+00" nType="0">
              <Node pos="l" depth="4" NCoef="0" IVar="-1" Cut="0.0000000000000000e+00" cType="1" res="-6.8581439554691315e-02" rms="9.6696689724922180e-02" purity="1.0000000000000000e+00" nType="-99"/>
              <Node pos="r" depth="4" NCoef="0" IVar="-1" Cut="0.0000000000000000e+00" cType="1" res="-2.3665774613618851e-02" rms="1.3641856610774994e-01" purity="1.0000000000000000e+00" nType="-99"/>
            </Node>
          </Node>
          <Node pos="r" depth="2" NCoef="0" IVar="28" Cut="9.1040819883346558e-01" cType="1" res="6.3016541302204132e-02" rms="1.5088999271392822e-01" purity="1.0000000000000000e+00" nType="0">
            <Node pos="l" depth="3" NCoef="0" IVar="32" Cut="9.5037680864334106e-01" cType="1" res="1.3227294385433197e-01" rms="1.2178420275449753e-01" purity="1.0000000000000000e+00" nType="0">
              <Node pos="l" depth="4" NCoef="0" IVar="-1" Cut="0.0000000000000000e+00" cType="1" res="3.5438053309917450e-02" rms="1.4184792339801788e-01" purity="1.0000000000000000e+00" nType="-99"/>
              <Node pos="r" depth="4" NCoef="0" IVar="-1" Cut="0.0000000000000000e+00" cType="1" res="7.6174534857273102e-02" rms="9.8931699991226196e-02" purity="1.0000000000000000e+00" nType="-99"/>
            </Node>
            <Node pos="r" depth="3" NCoef="0" IVar="32" Cut="1.2391748428344727e+00" cType="1" res="3.8833323866128922e-02" rms="1.5257582068443298e-01" purity="1.0000000000000000e+00" nType="0">
              <Node pos="l" depth="4" NCoef="0" IVar="-1" Cut="0.0000000000000000e+00" cType="1" res="-2.7604105416685343e-03" rms="1.4932525157928467e-01" purity="1.0000000000000000e+00" nType="-99"/>
              <Node pos="r" depth="4" NCoef="0" IVar="-1" Cut="0.0000000000000000e+00" cType="1" res="3.4082405269145966e-02" rms="1.4324149489402771e-01" purity="1.0000000000000000e+00" nType="-99"/>
            </Node>
          </Node>
        </Node>
      </Node>
    </BinaryTree>
    <BinaryTree type="DecisionTree" boostWeight="1.0000000000000000e+00" itree="2">
      <Node pos="s" depth="0" NCoef="0" IVar="32" Cut="4.0693074464797974e-01" cType="1" res="-5.1915459334850311e-04" rms="1.5181328356266022e-01" purity="1.0000000000000000e+00" nType="0">
        <Node pos="l" depth="1" NCoef="0" IVar="28" Cut="2.6456212997436523e-01" cType="1" res="-1.5084944665431976e-02" rms="1.5102705359458923e-01" purity="1.0000000000000000e+00" nType="0">
          <Node pos="l" depth="2" NCoef="0" IVar="32" Cut="2.8481628745794296e-02" cType="1" res="-7.1548298001289368e-03" rms="1.5096251666545868e-01" purity="1.0000000000000000e+00" nType="0">
            <Node pos="l" depth="3" NCoef="0" IVar="32" Cut="-1.1583027839660645e+00" cType="1" res="-1.9382908940315247e-02" rms="1.5017575025558472e-01" purity="1.0000000000000000e+00" nType="0">
              <Node pos="l" depth="4" NCoef="0" IVar="-1" Cut="0.0000000000000000e+00" cType="1" res="-3.4404765814542770e-02" rms="1.4574110507965088e-01" purity="1.0000000000000000e+00" nType="-99"/>
              <Node pos="r" depth="4" NCoef="0" IVar="-1" Cut="0.0000000000000000e+00" cType="1" res="-3.8134651258587837e-03" rms="1.4888544380664825e-01" purity="1.0000000000000000e+00" nType="-99"/>
            </Node>
            <Node pos="r" depth="3" NCoef="0" IVar="28" Cut="4.4217269867658615e-02" cType="1" res="5.0930544734001160e-02" rms="1.4082232117652893e-01" purity="1.0000000000000000e+00" nType="0">
              <Node pos="l" depth="4" NCoef="0" IVar="-1" Cut="0.0000000000000000e+00" cType="1" res="4.0470588952302933e-02" rms="1.2844592332839966e-01" purity="1.0000000000000000e+00" nType="-99"/>
              <Node pos="r" depth="4" NCoef="0" IVar="-1" Cut="0.0000000000000000e+00" cType="1" res="8.1442352384328842e-03" rms="1.4080190658569336e-01" purity="1.0000000000000000e+00" nType="-99"/>
            </Node>
          </Node>
          <Node pos="r" depth="2" NCoef="0" IVar="32" Cut="1.8172918260097504e-01" cType="1" res="-8.2973524928092957e-02" rms="1.3352443277835846e-01" purity="1.0000000000000000e+00" nType="0">
            <Node pos="l" depth="3" NCoef="0" IVar="32" Cut="-5.8512788265943527e-02" cType="1" res="-1.3876156508922577e-01" rms="1.1916987597942352e-01" purity="1.0000000000000000e+00" nType="0">
              <Node pos="l" depth="4" NCoef="0" IVar="-1" Cut="0.0000000000000000e+00" cType="1" res="-1.3740970194339752e-01" rms="7.9611867666244507e-02" purity="1.0000000000000000e+00" nType="-99"/>
              <Node pos="r" depth="4" NCoef="0" IVar="-1" Cut="0.0000000000000000e+00" cType="1" res="-5.8694388717412949e-02" rms="1.2227302044630051e-01" purity="1.0000000000000000e+00" nType="-99"/>
            </Node>
            <Node pos="r" depth="3" NCoef="0" IVar="28" Cut="3.7077045440673828e-01" cType="1" res="-6.2267143279314041e-02" rms="1.3263171911239624e-01" purity="1.0000000000000000e+00" nType="0">
              <Node pos="l" depth="4" NCoef="0" IVar="-1" Cut="0.0000000000000000e+00" cType="1" res="-6.0205929912626743e-03" rms="1.2983897328376770e-01" purity="1.0000000000000000e+00" nType="-99"/>
              <Node pos="r" depth="4" NCoef="0" IVar="-1" Cut="0.0000000000000000e+00" cType="1" res="-3.8633581250905991e-02" rms="1.2427295744419098e-01" purity="1.0000000000000000e+00" nType="-99"/>
            </Node>
          </Node>
        </Node>
        <Node pos="r" depth="1" NCoef="0" IVar="28" Cut="4.9359139800071716e-01" cType="1" res="3.2351791858673096e-02" rms="1.4840929210186005e-01" purity="1.0000000000000000e+00" nType="0">
          <Node pos="l" depth="2" NCoef="0" IVar="28" Cut="3.3820080757141113e-01" cType="1" res="9.8346456885337830e-02" rms="1.2652234733104706e-01" purity="1.0000000000000000e+00" nType="0">
            <Node pos="l" depth="3" NCoef="0" IVar="26" Cut="5.4874965820312500e+03" cType="1" res="1.3995879888534546e-01" rms="1.1323800683021545e-01" purity="1.0000000000000000e+00" nType="0">
              <Node pos="l" depth="4" NCoef="0" IVar="-1" Cut="0.0000000000000000e+00" cType="1" res="8.8577531278133392e-02" rms="1.0263211280107498e-01" purity="1.0000000000000000e+00" nType="-99"/>
              <Node pos="r" depth="4" NCoef="0" IVar="-1" Cut="0.0000000000000000e+00" cType="1" res="4.7285433858633041e-02" rms="1.1936096847057343e-01" purity="1.0000000000000000e+00" nType="-99"/>
            </Node>
            <Node pos="r" depth="3" NCoef="0" IVar="32" Cut="5.3595560789108276e-01" cType="1" res="7.1880064904689789e-02" rms="1.2740436196327209e-01" purity="1.0000000000000000e+00" nType="0">
              <Node pos="l" depth="4" NCoef="0" IVar="-1" Cut="0.0000000000000000e+00" cType="1" res="1.1082063429057598e-02" rms="1.2325741350650787e-01" purity="1.0000000000000000e+00" nType="-99"/>
              <Node pos="r" depth="4" NCoef="0" IVar="-1" Cut="0.0000000000000000e+00" cType="1" res="4.6277143061161041e-02" rms="1.1812917143106461e-01" purity="1.0000000000000000e+00" nType="-99"/>
            </Node>
          </Node>
          <Node pos="r" depth="2" NCoef="0" IVar="32" Cut="7.8501087427139282e-01" cType="1" res="1.5810446813702583e-02" rms="1.4889024198055267e-01" purity="1.0000000000000000e+00" nType="0">
            <Node pos="l" depth="3" NCoef="0" IVar="28" Cut="7.3598182201385498e-01" cType="1" res="-2.8220828622579575e-02" rms="1.4116919040679932e-01" purity="1.0000000000000000e+00" nType="0">
              <Node pos="l" depth="4" NCoef="0" IVar="-1" Cut="0.0000000000000000e+00" cType="1" res="-5.1933991926489398e-05" rms="1.3964995741844177e-01" purity="1.0000000000000000e+00" nType="-99"/>
              <Node pos="r" depth="4" NCoef="0" IVar="-1" Cut="0.0000000000000000e+00" cType="1" res="-3.3038094639778137e-02" rms="1.2615272402763367e-01" purity="1.0000000000000000e+00" nType="-99"/>
            </Node>
            <Node pos="r" depth="3" NCoef="0" IVar="28" Cut="1.0371690988540649e+00" cType="1" res="3.9590064436197281e-02" rms="1.4753064513206482e-01" purity="1.0000000000000000e+00" nType="0">
              <Node pos="l" depth="4" NCoef="0" IVar="-1" Cut="0.0000000000000000e+00" cType="1" res="2.7453657239675522e-02" rms="1.3654825091362000e-01" purity="1.0000000000000000e+00" nType="-99"/>
              <Node pos="r" depth="4" NCoef="0" IVar="-1" Cut="0.0000000000000000e+00" cType="1" res="3.4548679832369089e-03" rms="1.5218976140022278e-01" purity="1.0000000000000000e+00" nType="-99"/>
            </Node>
          </Node>
        </Node>
      </Node>
    </BinaryTree>
    <BinaryTree type="DecisionTree" boostWeight="1.0000000000000000e+00" itree="3">
      <Node pos="s" depth="0" NCoef="0" IVar="32" Cut="1.8659713864326477e-01" cType="1" res="-3.7971686106175184e-04" rms="1.4649295806884766e-01" purity="1.0000000000000000e+00" nType="0">
        <Node pos="l" depth="1" NCoef="0" IVar="28" Cut="-1.3380901655182242e-03" cType="1" res="-1.3885862194001675e-02" rms="1.4690822362899780e-01" purity="1.0000000000000000e+00" nType="0">
          <Node pos="l" depth="2" NCoef="0" IVar="32" Cut="-1.5994918346405029e-01" cType="1" res="-4.4383252970874310e-03" rms="1.4730340242385864e-01" purity="1.0000000000000000e+00" nType="0">
            <Node pos="l" depth="3" NCoef="0" IVar="18" Cut="-1.0377733707427979e+00" cType="1" res="-1.4420621097087860e-02" rms="1.4738026261329651e-01" purity="1.0000000000000000e+00" nType="0">
              <Node pos="l" depth="4" NCoef="0" IVar="-1" Cut="0.0000000000000000e+00" cType="1" res="6.2571265734732151e-03" rms="1.5075117349624634e-01" purity="1.0000000000000000e+00" nType="-99"/>
              <Node pos="r" depth="4" NCoef="0" IVar="-1" Cut="0.0000000000000000e+00" cType="1" res="-1.1636460199952126e-02" rms="1.4330971240997314e-01" purity="1.0000000000000000e+00" nType="-99"/>
            </Node>
            <Node pos="r" depth="3" NCoef="0" IVar="28" Cut="-2.0789557695388794e-01" cType="1" res="4.8492930829524994e-02" rms="1.3508550822734833e-01" purity="1.0000000000000000e+00" nType="0">
              <Node pos="l" depth="4" NCoef="0" IVar="-1" Cut="0.0000000000000000e+00" cType="1" res="3.9058480411767960e-02" rms="1.3372750580310822e-01" purity="1.0000000000000000e+00" nType="-99"/>
              <Node pos="r" depth="4" NCoef="0" IVar="-1" Cut="0.0000000000000000e+00" cType="1" res="1.0460243560373783e-02" rms="1.3160397112369537e-01" purity="1.0000000000000000e+00" nType="-99"/>
            </Node>
          </Node>
          <Node pos="r" depth="2" NCoef="0" IVar="32" Cut="6.4295969903469086e-02" cType="1" res="-6.0466732829809189e-02" rms="1.3564266264438629e-01" purity="1.0000000000000000e+00" nType="0">
            <Node pos="l" depth="3" NCoef="0" IVar="28" Cut="1.2663485109806061e-01" cType="1" res="-8.3260461688041687e-02" rms="1.2964265048503876e-01" purity="1.0000000000000000e+00" nType="0">
              <Node pos="l" depth="4" NCoef="0" IVar="-1" Cut="0.0000000000000000e+00" cType="1" res="-2.3520689457654953e-02" rms="1.3121204078197479e-01" purity="1.0000000000000000e+00" nType="-99"/>
              <Node pos="r" depth="4" NCoef="0" IVar="-1" Cut="0.0000000000000000e+00" cType="1" res="-5.2913006395101547e-02" rms="1.2102142721414566e-01" purity="1.0000000000000000e+00" nType="-99"/>
            </Node>
            <Node pos="r" depth="3" NCoef="0" IVar="28" Cut="2.0007564127445221e-01" cType="1" res="-3.1657483428716660e-02" rms="1.3756482303142548e-01" purity="1.0000000000000000e+00" nType="0">
              <Node pos="l" depth="4" NCoef="0" IVar="-1" Cut="0.0000000000000000e+00" cType="1" res="7.4274546932429075e-04" rms="1.3271346688270569e-01" purity="1.0000000000000000e+00" nType="-99"/>
              <Node pos="r" depth="4" NCoef="0" IVar="-1" Cut="0.0000000000000000e+00" cType="1" res="-3.0804641544818878e-02" rms="1.3155603408813477e-01" purity="1.0000000000000000e+00" nType="-99"/>
            </Node>
          </Node>
        </Node>
        <Node pos="r" depth="1" NCoef="0" IVar="28" Cut="2.6227512955665588e-01" cType="1" res="1.9543321803212166e-02" rms="1.4357730746269226e-01" purity="1.0000000000000000e+00" nType="0">
          <Node pos="l" depth="2" NCoef="0" IVar="32" Cut="3.0633524060249329e-01" cType="1" res="7.8176379203796387e-02" rms="1.3051965832710266e-01" purity="1.0000000000000000e+00" nType="0">
            <Node pos="l" depth="3" NCoef="0" IVar="28" Cut="1.3591355085372925e-01" cType="1" res="4.3245159089565277e-02" rms="1.3144229352474213e-01" purity="1.0000000000000000e+00" nType="0">
              <Node pos="l" depth="4" NCoef="0" IVar="-1" Cut="0.0000000000000000e+00" cType="1" res="2.8469316661357880e-02" rms="1.2779071927070618e-01" purity="1.0000000000000000e+00" nType="-99"/>
              <Node pos="r" depth="4" NCoef="0" IVar="-1" Cut="0.0000000000000000e+00" cType="1" res="4.3026022613048553e-03" rms="1.2850421667098999e-01" purity="1.0000000000000000e+00" nType="-99"/>
            </Node>
            <Node pos="r" depth="3" NCoef="0" IVar="26" Cut="2.7436501464843750e+03" cType="1" res="1.0973978787660599e-01" rms="1.2131854146718979e-01" purity="1.0000000000000000e+00" nType="0">
              <Node pos="l" depth="4" NCoef="0" IVar="-1" Cut="0.0000000000000000e+00" cType="1" res="6.6341079771518707e-02" rms="1.1223487555980682e-01" purity="1.0000000000000000e+00" nType="-99"/>
              <Node pos="r" depth="4" NCoef="0" IVar="-1" Cut="0.0000000000000000e+00" cType="1" res="3.3056363463401794e-02" rms="1.2478704750537872e-01" purity="1.0000000000000000e+00" nType="-99"/>
            </Node>
          </Node>
          <Node pos="r" depth="2" NCoef="0" IVar="32" Cut="5.0161683559417725e-01" cType="1" res="9.3342438340187073e-03" rms="1.4329971373081207e-01" purity="1.0000000000000000e+00" nType="0">
            <Node pos="l" depth="3" NCoef="0" IVar="28" Cut="4.5942234992980957e-01" cType="1" res="-3.3117897808551788e-02" rms="1.3446208834648132e-01" purity="1.0000000000000000e+00" nType="0">
              <Node pos="l" depth="4" NCoef="0" IVar="-1" Cut="0.0000000000000000e+00" cType="1" res="-1.6891689738258719e-03" rms="1.2943008542060852e-01" purity="1.0000000000000000e+00" nType="-99"/>
              <Node pos="r" depth="4" NCoef="0" IVar="-1" Cut="0.0000000000000000e+00" cType="1" res="-2.8272202238440514e-02" rms="1.3159325718879700e-01" purity="1.0000000000000000e+00" nType="-99"/>
            </Node>
            <Node pos="r" depth="3" NCoef="0" IVar="28" Cut="6.1686009168624878e-01" cType="1" res="2.3161776363849640e-02" rms="1.4337420463562012e-01" purity="1.0000000000000000e+00" nType="0">
              <Node pos="l" depth="4" NCoef="0" IVar="-1" Cut="0.0000000000000000e+00" cType="1" res="2.5350997224450111e-02" rms="1.3224422931671143e-01" purity="1.0000000000000000e+00" nType="-99"/>
              <Node pos="r" depth="4" NCoef="0" IVar="-1" Cut="0.0000000000000000e+00" cType="1" res="3.9166593924164772e-03" rms="1.4424568414688110e-01" purity="1.0000000000000000e+00" nType="-99"/>
            </Node>
          </Node>
        </Node>
      </Node>
    </BinaryTree>
    <BinaryTree type="DecisionTree" boostWeight="1.0000000000000000e+00" itree="4">
      <Node pos="s" depth="0" NCoef="0" IVar="32" Cut="1.0679316520690918e+00" cType="1" res="-2.1946639753878117e-04" rms="1.4230182766914368e-01" purity="1.0000000000000000e+00" nType="0">
        <Node pos="l" depth="1" NCoef="0" IVar="32" Cut="-1.1356781721115112e+00" cType="1" res="-4.6444130130112171e-03" rms="1.4160296320915222e-01" purity="1.0000000000000000e+00" nType="0">
          <Node pos="l" depth="2" NCoef="0" IVar="26" Cut="2.0553384375000000e+05" cType="1" res="-5.0185222178697586e-02" rms="1.4501984417438507e-01" purity="1.0000000000000000e+00" nType="0">
            <Node pos="l" depth="3" NCoef="0" IVar="27" Cut="2.4559401562500000e+05" cType="1" res="-1.1337027698755264e-01" rms="1.2403789907693863e-01" purity="1.0000000000000000e+00" nType="0">
              <Node pos="l" depth="4" NCoef="0" IVar="-1" Cut="0.0000000000000000e+00" cType="1" res="-9.3885757029056549e-02" rms="9.0716958045959473e-02" purity="1.0000000000000000e+00" nType="-99"/>
              <Node pos="r" depth="4" NCoef="0" IVar="-1" Cut="0.0000000000000000e+00" cType="1" res="-3.5822253674268723e-02" rms="1.3450372219085693e-01" purity="1.0000000000000000e+00" nType="-99"/>
            </Node>
            <Node pos="r" depth="3" NCoef="0" IVar="32" Cut="-1.6607353687286377e+00" cType="1" res="-1.2973096221685410e-02" rms="1.4359503984451294e-01" purity="1.0000000000000000e+00" nType="0">
              <Node pos="l" depth="4" NCoef="0" IVar="-1" Cut="0.0000000000000000e+00" cType="1" res="-4.6040404587984085e-02" rms="1.2584316730499268e-01" purity="1.0000000000000000e+00" nType="-99"/>
              <Node pos="r" depth="4" NCoef="0" IVar="-1" Cut="0.0000000000000000e+00" cType="1" res="4.5901238918304443e-03" rms="1.3920170068740845e-01" purity="1.0000000000000000e+00" nType="-99"/>
            </Node>
          </Node>
          <Node pos="r" depth="2" NCoef="0" IVar="28" Cut="-9.5227575302124023e-01" cType="1" res="-5.7259196182712913e-04" rms="1.4057673513889313e-01" purity="1.0000000000000000e+00" nType="0">
            <Node pos="l" depth="3" NCoef="0" IVar="32" Cut="-9.4440352916717529e-01" cType="1" res="8.2199037075042725e-02" rms="1.3249485194683075e-01" purity="1.0000000000000000e+00" nType="0">
              <Node pos="l" depth="4" NCoef="0" IVar="-1" Cut="0.0000000000000000e+00" cType="1" res="2.0804086700081825e-02" rms="1.4004650712013245e-01" purity="1.0000000000000000e+00" nType="-99"/>
              <Node pos="r" depth="4" NCoef="0" IVar="-1" Cut="0.0000000000000000e+00" cType="1" res="6.3119985163211823e-02" rms="9.9530756473541260e-02" purity="1.0000000000000000e+00" nType="-99"/>
            </Node>
            <Node pos="r" depth="3" NCoef="0" IVar="32" Cut="-9.2586141824722290e-01" cType="1" res="-4.8330579884350300e-03" rms="1.3965894281864166e-01" purity="1.0000000000000000e+00" nType="0">
              <Node pos="l" depth="4" NCoef="0" IVar="-1" Cut="0.0000000000000000e+00" cType="1" res="-4.2921334505081177e-02" rms="1.2397520244121552e-01" purity="1.0000000000000000e+00" nType="-99"/>
              <Node pos="r" depth="4" NCoef="0" IVar="-1" Cut="0.0000000000000000e+00" cType="1" res="-7.0728373248130083e-04" rms="1.3914470374584198e-01" purity="1.0000000000000000e+00" nType="-99"/>
            </Node>
          </Node>
        </Node>
        <Node pos="r" depth="1" NCoef="0" IVar="28" Cut="1.1030913591384888e+00" cType="1" res="4.6834647655487061e-02" rms="1.4119975268840790e-01" purity="1.0000000000000000e+00" nType="0">
          <Node pos="l" depth="2" NCoef="0" IVar="26" Cut="1.1756786718750000e+05" cType="1" res="1.0218337178230286e-01" rms="1.1642864346504211e-01" purity="1.0000000000000000e+00" nType="0">
            <Node pos="l" depth="3" NCoef="0" IVar="22" Cut="1.6027368307113647e+00" cType="1" res="1.2578614056110382e-01" rms="1.1791194230318069e-01" purity="1.0000000000000000e+00" nType="0">
              <Node pos="l" depth="4" NCoef="0" IVar="-1" Cut="0.0000000000000000e+00" cType="1" res="6.1578053981065750e-02" rms="1.2343125045299530e-01" purity="1.0000000000000000e+00" nType="-99"/>
              <Node pos="r" depth="4" NCoef="0" IVar="-1" Cut="0.0000000000000000e+00" cType="1" res="9.6077248454093933e-02" rms="8.9512556791305542e-02" purity="1.0000000000000000e+00" nType="-99"/>
            </Node>
            <Node pos="r" depth="3" NCoef="0" IVar="32" Cut="1.1162530183792114e+00" cType="1" res="7.2441160678863525e-02" rms="1.0738258808851242e-01" purity="1.0000000000000000e+00" nType="0">
              <Node pos="l" depth="4" NCoef="0" IVar="-1" Cut="0.0000000000000000e+00" cType="1" res="8.3849597722291946e-03" rms="1.1356897652149200e-01" purity="1.0000000000000000e+00" nType="-99"/>
              <Node pos="r" depth="4" NCoef="0" IVar="-1" Cut="0.0000000000000000e+00" cType="1" res="3.3711750060319901e-02" rms="9.9479272961616516e-02" purity="1.0000000000000000e+00" nType="-99"/>
            </Node>
          </Node>
          <Node pos="r" depth="2" NCoef="0" IVar="32" Cut="1.4457455873489380e+00" cType="1" res="2.0666142925620079e-02" rms="1.4429631829261780e-01" purity="1.0000000000000000e+00" nType="0">
            <Node pos="l" depth="3" NCoef="0" IVar="28" Cut="1.3376895189285278e+00" cType="1" res="-1.4503369107842445e-02" rms="1.3678558170795441e-01" purity="1.0000000000000000e+00" nType="0">
              <Node pos="l" depth="4" NCoef="0" IVar="-1" Cut="0.0000000000000000e+00" cType="1" res="5.4879039525985718e-03" rms="1.3219980895519257e-01" purity="1.0000000000000000e+00" nType="-99"/>
              <Node pos="r" depth="4" NCoef="0" IVar="-1" Cut="0.0000000000000000e+00" cType="1" res="-4.0034592151641846e-02" rms="1.1152894049882889e-01" purity="1.0000000000000000e+00" nType="-99"/>
            </Node>
            <Node pos="r" depth="3" NCoef="0" IVar="27" Cut="6.0682250000000000e+05" cType="1" res="6.3264511525630951e-02" rms="1.4165347814559937e-01" purity="1.0000000000000000e+00" nType="0">
              <Node pos="l" depth="4" NCoef="0" IVar="-1" Cut="0.0000000000000000e+00" cType="1" res="6.4260296523571014e-02" rms="1.3827520608901978e-01" purity="1.0000000000000000e+00" nType="-99"/>
              <Node pos="r" depth="4" NCoef="0" IVar="-1" Cut="0.0000000000000000e+00" cType="1" res="8.7345773354172707e-03" rms="1.3312605023384094e-01" purity="1.0000000000000000e+00" nType="-99"/>
            </Node>
          </Node>
        </Node>
      </Node>
    </BinaryTree>
    <BinaryTree type="DecisionTree" boostWeight="1.0000000000000000e+00" itree="5">
      <Node pos="s" depth="0" NCoef="0" IVar="32" Cut="-1.3557381629943848e+00" cType="1" res="-2.0592402142938226e-04" rms="1.3906660676002502e-01" purity="1.0000000000000000e+00" nType="0">
        <Node pos="l" depth="1" NCoef="0" IVar="26" Cut="4.0958003125000000e+05" cType="1" res="-5.4992131888866425e-02" rms="1.3833591341972351e-01" purity="1.0000000000000000e+00" nType="0">
          <Node pos="l" depth="2" NCoef="0" IVar="26" Cut="2.2185529687500000e+05" cType="1" res="-9.3395553529262543e-02" rms="1.3048739731311798e-01" purity="1.0000000000000000e+00" nType="0">
            <Node pos="l" depth="3" NCoef="0" IVar="12" Cut="1.9287522882223129e-02" cType="1" res="-1.2074274569749832e-01" rms="1.1458894610404968e-01" purity="1.0000000000000000e+00" nType="0">
              <Node pos="l" depth="4" NCoef="0" IVar="-1" Cut="0.0000000000000000e+00" cType="1" res="-8.6974397301673889e-02" rms="8.5009209811687469e-02" purity="1.0000000000000000e+00" nType="-99"/>
              <Node pos="r" depth="4" NCoef="0" IVar="-1" Cut="0.0000000000000000e+00" cType="1" res="-4.5628685504198074e-02" rms="1.3687865436077118e-01" purity="1.0000000000000000e+00" nType="-99"/>
            </Node>
            <Node pos="r" depth="3" NCoef="0" IVar="32" Cut="-1.6202019453048706e+00" cType="1" res="-6.8405874073505402e-02" rms="1.3885073363780975e-01" purity="1.0000000000000000e+00" nType="0">
              <Node pos="l" depth="4" NCoef="0" IVar="-1" Cut="0.0000000000000000e+00" cType="1" res="-7.6823413372039795e-02" rms="1.2828165292739868e-01" purity="1.0000000000000000e+00" nType="-99"/>
              <Node pos="r" depth="4" NCoef="0" IVar="-1" Cut="0.0000000000000000e+00" cType="1" res="-1.5585594810545444e-02" rms="1.3549587130546570e-01" purity="1.0000000000000000e+00" nType="-99"/>
            </Node>
          </Node>
          <Node pos="r" depth="2" NCoef="0" IVar="32" Cut="-1.7339283227920532e+00" cType="1" res="4.7664633020758629e-03" rms="1.2866197526454926e-01" purity="1.0000000000000000e+00" nType="0">
            <Node pos="l" depth="3" NCoef="0" IVar="28" Cut="-1.7359248399734497e+00" cType="1" res="-4.8118583858013153e-02" rms="1.2457233667373657e-01" purity="1.0000000000000000e+00" nType="0">
              <Node pos="l" depth="4" NCoef="0" IVar="-1" Cut="0.0000000000000000e+00" cType="1" res="-1.6653571510687470e-03" rms="1.2283501774072647e-01" purity="1.0000000000000000e+00" nType="-99"/>
              <Node pos="r" depth="4" NCoef="0" IVar="-1" Cut="0.0000000000000000e+00" cType="1" res="-3.3344548195600510e-02" rms="1.1335211992263794e-01" purity="1.0000000000000000e+00" nType="-99"/>
            </Node>
            <Node pos="r" depth="3" NCoef="0" IVar="28" Cut="-1.4651287794113159e+00" cType="1" res="2.9932450503110886e-02" rms="1.2281078845262527e-01" purity="1.0000000000000000e+00" nType="0">
              <Node pos="l" depth="4" NCoef="0" IVar="-1" Cut="0.0000000000000000e+00" cType="1" res="2.6221333071589470e-02" rms="1.1354877054691315e-01" purity="1.0000000000000000e+00" nType="-99"/>
              <Node pos="r" depth="4" NCoef="0" IVar="-1" Cut="0.0000000000000000e+00" cType="1" res="-1.3729197904467583e-02" rms="1.0244007408618927e-01" purity="1.0000000000000000e+00" nType="-99"/>
            </Node>
          </Node>
        </Node>
        <Node pos="r" depth="1" NCoef="0" IVar="28" Cut="-1.2385246753692627e+00" cType="1" res="1.9938892219215631e-03" rms="1.3864451646804810e-01" purity="1.0000000000000000e+00" nType="0">
          <Node pos="l" depth="2" NCoef="0" IVar="28" Cut="-1.3994982242584229e+00" cType="1" res="8.8924750685691833e-02" rms="1.2377192080020905e-01" purity="1.0000000000000000e+00" nType="0">
            <Node pos="l" depth="3" NCoef="0" IVar="33" Cut="4.3060369873046875e+02" cType="1" res="1.3302399218082428e-01" rms="9.0437509119510651e-02" purity="1.0000000000000000e+00" nType="0">
              <Node pos="l" depth="4" NCoef="0" IVar="-1" Cut="0.0000000000000000e+00" cType="1" res="8.4383368492126465e-02" rms="8.7061338126659393e-02" purity="1.0000000000000000e+00" nType="-99"/>
              <Node pos="r" depth="4" NCoef="0" IVar="-1" Cut="0.0000000000000000e+00" cType="1" res="4.5808006078004837e-02" rms="8.8376529514789581e-02" purity="1.0000000000000000e+00" nType="-99"/>
            </Node>
            <Node pos="r" depth="3" NCoef="0" IVar="32" Cut="-1.1781978607177734e+00" cType="1" res="7.0487774908542633e-02" rms="1.3096496462821960e-01" purity="1.0000000000000000e+00" nType="0">
              <Node pos="l" depth="4" NCoef="0" IVar="-1" Cut="0.0000000000000000e+00" cType="1" res="1.7958894371986389e-02" rms="1.2856943905353546e-01" purity="1.0000000000000000e+00" nType="-99"/>
              <Node pos="r" depth="4" NCoef="0" IVar="-1" Cut="0.0000000000000000e+00" cType="1" res="5.9372399002313614e-02" rms="1.2435023486614227e-01" purity="1.0000000000000000e+00" nType="-99"/>
            </Node>
          </Node>
          <Node pos="r" depth="2" NCoef="0" IVar="32" Cut="-9.9869012832641602e-01" cType="1" res="3.6214778083376586e-04" rms="1.3838732242584229e-01" purity="1.0000000000000000e+00" nType="0">
            <Node pos="l" depth="3" NCoef="0" IVar="28" Cut="-1.0579460859298706e+00" cType="1" res="-4.8967923969030380e-02" rms="1.3395413756370544e-01" purity="1.0000000000000000e+00" nType="0">
              <Node pos="l" depth="4" NCoef="0" IVar="-1" Cut="0.0000000000000000e+00" cType="1" res="2.0170821808278561e-03" rms="1.3063097000122070e-01" purity="1.0000000000000000e+00" nType="-99"/>
              <Node pos="r" depth="4" NCoef="0" IVar="-1" Cut="0.0000000000000000e+00" cType="1" res="-3.6260534077882767e-02" rms="1.2526027858257294e-01" purity="1.0000000000000000e+00" nType="-99"/>
            </Node>
            <Node pos="r" depth="3" NCoef="0" IVar="28" Cut="-7.5724792480468750e-01" cType="1" res="3.3430769108235836e-03" rms="1.3808718323707581e-01" purity="1.0000000000000000e+00" nType="0">
              <Node pos="l" depth="4" NCoef="0" IVar="-1" Cut="0.0000000000000000e+00" cType="1" res="2.3514907807111740e-02" rms="1.3129529356956482e-01" purity="1.0000000000000000e+00" nType="-99"/>
              <Node pos="r" depth="4" NCoef="0" IVar="-1" Cut="0.0000000000000000e+00" cType="1" res="-2.5310355704277754e-04" rms="1.3776296377182007e-01" purity="1.0000000000000000e+00" nType="-99"/>
            </Node>
          </Node>
        </Node>
      </Node>
    </BinaryTree>
    <BinaryTree type="DecisionTree" boostWeight="1.0000000000000000e+00" itree="6">
      <Node pos="s" depth="0" NCoef="0" IVar="32" Cut="1.0679316520690918e+00" cType="1" res="-2.2418696607928723e-04" rms="1.3767956197261810e-01" purity="1.0000000000000000e+00" nType="0">
        <Node pos="l" depth="1" NCoef="0" IVar="28" Cut="8.7966233491897583e-01" cType="1" res="-3.3644989598542452e-03" rms="1.3720896840095520e-01" purity="1.0000000000000000e+00" nType="0">
          <Node pos="l" depth="2" NCoef="0" IVar="32" Cut="7.5242686271667480e-01" cType="1" res="-3.5475616459734738e-04" rms="1.3708284497261047e-01" purity="1.0000000000000000e+00" nType="0">
            <Node pos="l" depth="3" NCoef="0" IVar="18" Cut="1.0480113327503204e-01" cType="1" res="-3.6266224924474955e-03" rms="1.3694824278354645e-01" purity="1.0000000000000000e+00" nType="0">
              <Node pos="l" depth="4" NCoef="0" IVar="-1" Cut="0.0000000000000000e+00" cType="1" res="2.3369484115391970e-03" rms="1.3790783286094666e-01" purity="1.0000000000000000e+00" nType="-99"/>
              <Node pos="r" depth="4" NCoef="0" IVar="-1" Cut="0.0000000000000000e+00" cType="1" res="-7.4033164419233799e-03" rms="1.3398295640945435e-01" purity="1.0000000000000000e+00" nType="-99"/>
            </Node>
            <Node pos="r" depth="3" NCoef="0" IVar="28" Cut="7.5346720218658447e-01" cType="1" res="4.9255669116973877e-02" rms="1.2933476269245148e-01" purity="1.0000000000000000e+00" nType="0">
              <Node pos="l" depth="4" NCoef="0" IVar="-1" Cut="0.0000000000000000e+00" cType="1" res="3.1556829810142517e-02" rms="1.2595976889133453e-01" purity="1.0000000000000000e+00" nType="-99"/>
              <Node pos="r" depth="4" NCoef="0" IVar="-1" Cut="0.0000000000000000e+00" cType="1" res="4.5028608292341232e-03" rms="1.2591886520385742e-01" purity="1.0000000000000000e+00" nType="-99"/>
            </Node>
          </Node>
          <Node pos="r" depth="2" NCoef="0" IVar="28" Cut="1.1470395326614380e+00" cType="1" res="-6.1647504568099976e-02" rms="1.2618994712829590e-01" purity="1.0000000000000000e+00" nType="0">
            <Node pos="l" depth="3" NCoef="0" IVar="32" Cut="9.4867020845413208e-01" cType="1" res="-4.7155685722827911e-02" rms="1.2747697532176971e-01" purity="1.0000000000000000e+00" nType="0">
              <Node pos="l" depth="4" NCoef="0" IVar="-1" Cut="0.0000000000000000e+00" cType="1" res="-2.7649814262986183e-02" rms="1.2351519614458084e-01" purity="1.0000000000000000e+00" nType="-99"/>
              <Node pos="r" depth="4" NCoef="0" IVar="-1" Cut="0.0000000000000000e+00" cType="1" res="-2.4081349838525057e-03" rms="1.2525464594364166e-01" purity="1.0000000000000000e+00" nType="-99"/>
            </Node>
            <Node pos="r" depth="3" NCoef="0" IVar="20" Cut="9.4050683975219727e+00" cType="1" res="-1.2872026860713959e-01" rms="9.4562709331512451e-02" purity="1.0000000000000000e+00" nType="0">
              <Node pos="l" depth="4" NCoef="0" IVar="-1" Cut="0.0000000000000000e+00" cType="1" res="-7.2562903165817261e-02" rms="7.8433565795421600e-02" purity="1.0000000000000000e+00" nType="-99"/>
              <Node pos="r" depth="4" NCoef="0" IVar="-1" Cut="0.0000000000000000e+00" cType="1" res="-3.6653567105531693e-02" rms="1.0599032044410706e-01" purity="1.0000000000000000e+00" nType="-99"/>
            </Node>
          </Node>
        </Node>
        <Node pos="r" depth="1" NCoef="0" IVar="29" Cut="4.5050301551818848e+00" cType="1" res="3.3169344067573547e-02" rms="1.3824345171451569e-01" purity="1.0000000000000000e+00" nType="0">
          <Node pos="l" depth="2" NCoef="0" IVar="32" Cut="1.2475856542587280e+00" cType="1" res="7.1796588599681854e-02" rms="1.2438843399286270e-01" purity="1.0000000000000000e+00" nType="0">
            <Node pos="l" depth="3" NCoef="0" IVar="29" Cut="3.3908689022064209e+00" cType="1" res="5.1742065697908401e-02" rms="1.2698270380496979e-01" purity="1.0000000000000000e+00" nType="0">
              <Node pos="l" depth="4" NCoef="0" IVar="-1" Cut="0.0000000000000000e+00" cType="1" res="6.0293521732091904e-02" rms="1.2029626220464706e-01" purity="1.0000000000000000e+00" nType="-99"/>
              <Node pos="r" depth="4" NCoef="0" IVar="-1" Cut="0.0000000000000000e+00" cType="1" res="1.2872678227722645e-02" rms="1.2366293370723724e-01" purity="1.0000000000000000e+00" nType="-99"/>
            </Node>
            <Node pos="r" depth="3" NCoef="0" IVar="32" Cut="1.4357584714889526e+00" cType="1" res="1.0732527077198029e-01" rms="1.1109625548124313e-01" purity="1.0000000000000000e+00" nType="0">
              <Node pos="l" depth="4" NCoef="0" IVar="-1" Cut="0.0000000000000000e+00" cType="1" res="4.3659456074237823e-02" rms="1.1380585283041000e-01" purity="1.0000000000000000e+00" nType="-99"/>
              <Node pos="r" depth="4" NCoef="0" IVar="-1" Cut="0.0000000000000000e+00" cType="1" res="1.0900419205427170e-01" rms="8.3137631416320801e-02" purity="1.0000000000000000e+00" nType="-99"/>
            </Node>
          </Node>
          <Node pos="r" depth="2" NCoef="0" IVar="32" Cut="1.5716372728347778e+00" cType="1" res="1.0615857318043709e-02" rms="1.4091131091117859e-01" purity="1.0000000000000000e+00" nType="0">
            <Node pos="l" depth="3" NCoef="0" IVar="29" Cut="5.5917921066284180e+00" cType="1" res="-1.0727259330451488e-02" rms="1.3333518803119659e-01" purity="1.0000000000000000e+00" nType="0">
              <Node pos="l" depth="4" NCoef="0" IVar="-1" Cut="0.0000000000000000e+00" cType="1" res="3.7910544779151678e-03" rms="1.3215160369873047e-01" purity="1.0000000000000000e+00" nType="-99"/>
              <Node pos="r" depth="4" NCoef="0" IVar="-1" Cut="0.0000000000000000e+00" cType="1" res="-2.7725694701075554e-02" rms="1.1704211682081223e-01" purity="1.0000000000000000e+00" nType="-99"/>
            </Node>
            <Node pos="r" depth="3" NCoef="0" IVar="28" Cut="1.5355595350265503e+00" cType="1" res="6.1258953064680099e-02" rms="1.4539749920368195e-01" purity="1.0000000000000000e+00" nType="0">
              <Node pos="l" depth="4" NCoef="0" IVar="-1" Cut="0.0000000000000000e+00" cType="1" res="6.2727458775043488e-02" rms="1.2397065013647079e-01" purity="1.0000000000000000e+00" nType="-99"/>
              <Node pos="r" depth="4" NCoef="0" IVar="-1" Cut="0.0000000000000000e+00" cType="1" res="9.5912050455808640e-03" rms="1.4719681441783905e-01" purity="1.0000000000000000e+00" nType="-99"/>
            </Node>
          </Node>
        </Node>
      </Node>
    </BinaryTree>
    <BinaryTree type="DecisionTree" boostWeight="1.0000000000000000e+00" itree="7">
      <Node pos="s" depth="0" NCoef="0" IVar="32" Cut="-6.9473737478256226e-01" cType="1" res="-2.3639400023967028e-04" rms="1.3592675328254700e-01" purity="1.0000000000000000e+00" nType="0">
        <Node pos="l" depth="1" NCoef="0" IVar="28" Cut="-7.3529714345932007e-01" cType="1" res="-2.0799154415726662e-02" rms="1.3788054883480072e-01" purity="1.0000000000000000e+00" nType="0">
          <Node pos="l" depth="2" NCoef="0" IVar="32" Cut="-1.0622756481170654e+00" cType="1" res="-5.6098434142768383e-03" rms="1.3707636296749115e-01" purity="1.0000000000000000e+00" nType="0">
            <Node pos="l" depth="3" NCoef="0" IVar="28" Cut="-1.1296041011810303e+00" cType="1" res="-2.5208389386534691e-02" rms="1.3737285137176514e-01" purity="1.0000000000000000e+00" nType="0">
              <Node pos="l" depth="4" NCoef="0" IVar="-1" Cut="0.0000000000000000e+00" cType="1" res="-1.3530179858207703e-03" rms="1.3757537305355072e-01" purity="1.0000000000000000e+00" nType="-99"/>
              <Node pos="r" depth="4" NCoef="0" IVar="-1" Cut="0.0000000000000000e+00" cType="1" res="-2.8702940791845322e-02" rms="1.2793871760368347e-01" purity="1.0000000000000000e+00" nType="-99"/>
            </Node>
            <Node pos="r" depth="3" NCoef="0" IVar="28" Cut="-9.0067678689956665e-01" cType="1" res="2.1222500130534172e-02" rms="1.3203284144401550e-01" purity="1.0000000000000000e+00" nType="0">
              <Node pos="l" depth="4" NCoef="0" IVar="-1" Cut="0.0000000000000000e+00" cType="1" res="2.2259473800659180e-02" rms="1.2789253890514374e-01" purity="1.0000000000000000e+00" nType="-99"/>
              <Node pos="r" depth="4" NCoef="0" IVar="-1" Cut="0.0000000000000000e+00" cType="1" res="-6.9410200230777264e-03" rms="1.2586086988449097e-01" purity="1.0000000000000000e+00" nType="-99"/>
            </Node>
          </Node>
          <Node pos="r" depth="2" NCoef="0" IVar="32" Cut="-8.6369812488555908e-01" cType="1" res="-7.2396077215671539e-02" rms="1.2773488461971283e-01" purity="1.0000000000000000e+00" nType="0">
            <Node pos="l" depth="3" NCoef="0" IVar="26" Cut="3.9677195312500000e+04" cType="1" res="-1.0502144694328308e-01" rms="1.2064921110868454e-01" purity="1.0000000000000000e+00" nType="0">
              <Node pos="l" depth="4" NCoef="0" IVar="-1" Cut="0.0000000000000000e+00" cType="1" res="-7.5052604079246521e-02" rms="1.1350946873426437e-01" purity="1.0000000000000000e+00" nType="-99"/>
              <Node pos="r" depth="4" NCoef="0" IVar="-1" Cut="0.0000000000000000e+00" cType="1" res="-3.0587740242481232e-02" rms="1.2319567054510117e-01" purity="1.0000000000000000e+00" nType="-99"/>
            </Node>
            <Node pos="r" depth="3" NCoef="0" IVar="28" Cut="-6.3659411668777466e-01" cType="1" res="-5.5006138980388641e-02" rms="1.2800207734107971e-01" purity="1.0000000000000000e+00" nType="0">
              <Node pos="l" depth="4" NCoef="0" IVar="-1" Cut="0.0000000000000000e+00" cType="1" res="-5.6634210050106049e-03" rms="1.3371823728084564e-01" purity="1.0000000000000000e+00" nType="-99"/>
              <Node pos="r" depth="4" NCoef="0" IVar="-1" Cut="0.0000000000000000e+00" cType="1" res="-3.2378513365983963e-02" rms="1.1883562803268433e-01" purity="1.0000000000000000e+00" nType="-99"/>
            </Node>
          </Node>
        </Node>
        <Node pos="r" depth="1" NCoef="0" IVar="28" Cut="-4.9388414621353149e-01" cType="1" res="4.9588298425078392e-03" rms="1.3493371009826660e-01" purity="1.0000000000000000e+00" nType="0">
          <Node pos="l" depth="2" NCoef="0" IVar="32" Cut="-6.1435514688491821e-01" cType="1" res="5.4028432816267014e-02" rms="1.2996348738670349e-01" purity="1.0000000000000000e+00" nType="0">
            <Node pos="l" depth="3" NCoef="0" IVar="28" Cut="-6.9306564331054688e-01" cType="1" res="4.5662303455173969e-03" rms="1.3799196481704712e-01" purity="1.0000000000000000e+00" nType="0">
              <Node pos="l" depth="4" NCoef="0" IVar="-1" Cut="0.0000000000000000e+00" cType="1" res="1.9062723964452744e-02" rms="1.3294935226440430e-01" purity="1.0000000000000000e+00" nType="-99"/>
              <Node pos="r" depth="4" NCoef="0" IVar="-1" Cut="0.0000000000000000e+00" cType="1" res="-1.2154682539403439e-02" rms="1.3133555650711060e-01" purity="1.0000000000000000e+00" nType="-99"/>
            </Node>
            <Node pos="r" depth="3" NCoef="0" IVar="28" Cut="-6.1097353696823120e-01" cType="1" res="7.4106514453887939e-02" rms="1.2091737240552902e-01" purity="1.0000000000000000e+00" nType="0">
              <Node pos="l" depth="4" NCoef="0" IVar="-1" Cut="0.0000000000000000e+00" cType="1" res="4.4226888567209244e-02" rms="1.1586474627256393e-01" purity="1.0000000000000000e+00" nType="-99"/>
              <Node pos="r" depth="4" NCoef="0" IVar="-1" Cut="0.0000000000000000e+00" cType="1" res="2.0800124853849411e-02" rms="1.2174636125564575e-01" purity="1.0000000000000000e+00" nType="-99"/>
            </Node>
          </Node>
          <Node pos="r" depth="2" NCoef="0" IVar="32" Cut="-4.0058332681655884e-01" cType="1" res="-2.7891001082025468e-04" rms="1.3439936935901642e-01" purity="1.0000000000000000e+00" nType="0">
            <Node pos="l" depth="3" NCoef="0" IVar="28" Cut="-4.0583702921867371e-01" cType="1" res="-5.2904307842254639e-02" rms="1.2878784537315369e-01" purity="1.0000000000000000e+00" nType="0">
              <Node pos="l" depth="4" NCoef="0" IVar="-1" Cut="0.0000000000000000e+00" cType="1" res="-6.3122780993580818e-03" rms="1.2568317353725433e-01" purity="1.0000000000000000e+00" nType="-99"/>
              <Node pos="r" depth="4" NCoef="0" IVar="-1" Cut="0.0000000000000000e+00" cType="1" res="-3.1310893595218658e-02" rms="1.2655450403690338e-01" purity="1.0000000000000000e+00" nType="-99"/>
            </Node>
            <Node pos="r" depth="3" NCoef="0" IVar="18" Cut="3.3848476409912109e-01" cType="1" res="4.3417746201157570e-03" rms="1.3389679789543152e-01" purity="1.0000000000000000e+00" nType="0">
              <Node pos="l" depth="4" NCoef="0" IVar="-1" Cut="0.0000000000000000e+00" cType="1" res="6.1735212802886963e-03" rms="1.3287062942981720e-01" purity="1.0000000000000000e+00" nType="-99"/>
              <Node pos="r" depth="4" NCoef="0" IVar="-1" Cut="0.0000000000000000e+00" cType="1" res="-2.5611151941120625e-03" rms="1.3396820425987244e-01" purity="1.0000000000000000e+00" nType="-99"/>
            </Node>
          </Node>
        </Node>
      </Node>
    </BinaryTree>
    <BinaryTree type="DecisionTree" boostWeight="1.0000000000000000e+00" itree="8">
      <Node pos="s" depth="0" NCoef="0" IVar="32" Cut="1.8659713864326477e-01" cType="1" res="-1.7603376181796193e-04" rms="1.3348653912544250e-01" purity="1.0000000000000000e+00" nType="0">
        <Node pos="l" depth="1" NCoef="0" IVar="28" Cut="-1.3380901655182242e-03" cType="1" res="-7.2061251848936081e-03" rms="1.3394954800605774e-01" purity="1.0000000000000000e+00" nType="0">
          <Node pos="l" depth="2" NCoef="0" IVar="32" Cut="-5.0613641738891602e-01" cType="1" res="-8.0070004332810640e-04" rms="1.3381519913673401e-01" purity="1.0000000000000000e+00" nType="0">
            <Node pos="l" depth="3" NCoef="0" IVar="28" Cut="-5.1275622844696045e-01" cType="1" res="-1.3778084889054298e-02" rms="1.3472367823123932e-01" purity="1.0000000000000000e+00" nType="0">
              <Node pos="l" depth="4" NCoef="0" IVar="-1" Cut="0.0000000000000000e+00" cType="1" res="-1.5996259171515703e-03" rms="1.3430449366569519e-01" purity="1.0000000000000000e+00" nType="-99"/>
              <Node pos="r" depth="4" NCoef="0" IVar="-1" Cut="0.0000000000000000e+00" cType="1" res="-2.8832089155912399e-02" rms="1.2555174529552460e-01" purity="1.0000000000000000e+00" nType="-99"/>
            </Node>
            <Node pos="r" depth="3" NCoef="0" IVar="28" Cut="-4.6292802691459656e-01" cType="1" res="1.5369137749075890e-02" rms="1.3088630139827728e-01" purity="1.0000000000000000e+00" nType="0">
              <Node pos="l" depth="4" NCoef="0" IVar="-1" Cut="0.0000000000000000e+00" cType="1" res="2.8908494859933853e-02" rms="1.2519337236881256e-01" purity="1.0000000000000000e+00" nType="-99"/>
              <Node pos="r" depth="4" NCoef="0" IVar="-1" Cut="0.0000000000000000e+00" cType="1" res="2.0636431872844696e-03" rms="1.2961401045322418e-01" purity="1.0000000000000000e+00" nType="-99"/>
            </Node>
          </Node>
          <Node pos="r" depth="2" NCoef="0" IVar="32" Cut="-1.3878113031387329e-01" cType="1" res="-3.8787931203842163e-02" rms="1.3007743656635284e-01" purity="1.0000000000000000e+00" nType="0">
            <Node pos="l" depth="3" NCoef="0" IVar="19" Cut="1.3393723964691162e+00" cType="1" res="-9.1039121150970459e-02" rms="1.2027454376220703e-01" purity="1.0000000000000000e+00" nType="0">
              <Node pos="l" depth="4" NCoef="0" IVar="-1" Cut="0.0000000000000000e+00" cType="1" res="-4.7235306352376938e-02" rms="1.0500221699476242e-01" purity="1.0000000000000000e+00" nType="-99"/>
              <Node pos="r" depth="4" NCoef="0" IVar="-1" Cut="0.0000000000000000e+00" cType="1" res="-3.3058449625968933e-02" rms="1.3955646753311157e-01" purity="1.0000000000000000e+00" nType="-99"/>
            </Node>
            <Node pos="r" depth="3" NCoef="0" IVar="28" Cut="1.1949442327022552e-01" cType="1" res="-2.9137544333934784e-02" rms="1.2952232360839844e-01" purity="1.0000000000000000e+00" nType="0">
              <Node pos="l" depth="4" NCoef="0" IVar="-1" Cut="0.0000000000000000e+00" cType="1" res="-1.0057771578431129e-03" rms="1.2471935153007507e-01" purity="1.0000000000000000e+00" nType="-99"/>
              <Node pos="r" depth="4" NCoef="0" IVar="-1" Cut="0.0000000000000000e+00" cType="1" res="-2.1019255742430687e-02" rms="1.2956684827804565e-01" purity="1.0000000000000000e+00" nType="-99"/>
            </Node>
          </Node>
        </Node>
        <Node pos="r" depth="1" NCoef="0" IVar="28" Cut="2.6227512955665588e-01" cType="1" res="1.0194119065999985e-02" rms="1.3211949169635773e-01" purity="1.0000000000000000e+00" nType="0">
          <Node pos="l" depth="2" NCoef="0" IVar="32" Cut="3.0633524060249329e-01" cType="1" res="5.3005397319793701e-02" rms="1.2681142985820770e-01" purity="1.0000000000000000e+00" nType="0">
            <Node pos="l" depth="3" NCoef="0" IVar="26" Cut="4.9880512695312500e+03" cType="1" res="2.8566712513566017e-02" rms="1.2518957257270813e-01" purity="1.0000000000000000e+00" nType="0">
              <Node pos="l" depth="4" NCoef="0" IVar="-1" Cut="0.0000000000000000e+00" cType="1" res="1.7057053744792938e-02" rms="1.2642255425453186e-01" purity="1.0000000000000000e+00" nType="-99"/>
              <Node pos="r" depth="4" NCoef="0" IVar="-1" Cut="0.0000000000000000e+00" cType="1" res="1.5877466648817062e-04" rms="1.1752649396657944e-01" purity="1.0000000000000000e+00" nType="-99"/>
            </Node>
            <Node pos="r" depth="3" NCoef="0" IVar="6" Cut="9.1341900825500488e-01" cType="1" res="7.5087890028953552e-02" rms="1.2418993562459946e-01" purity="1.0000000000000000e+00" nType="0">
              <Node pos="l" depth="4" NCoef="0" IVar="-1" Cut="0.0000000000000000e+00" cType="1" res="3.9647083729505539e-02" rms="1.2005127966403961e-01" purity="1.0000000000000000e+00" nType="-99"/>
              <Node pos="r" depth="4" NCoef="0" IVar="-1" Cut="0.0000000000000000e+00" cType="1" res="1.1820737272500992e-02" rms="1.3097326457500458e-01" purity="1.0000000000000000e+00" nType="-99"/>
            </Node>
          </Node>
          <Node pos="r" depth="2" NCoef="0" IVar="32" Cut="3.9671033620834351e-01" cType="1" res="2.7398986276239157e-03" rms="1.3160616159439087e-01" purity="1.0000000000000000e+00" nType="0">
            <Node pos="l" depth="3" NCoef="0" IVar="28" Cut="3.6975628137588501e-01" cType="1" res="-3.1869873404502869e-02" rms="1.2561796605587006e-01" purity="1.0000000000000000e+00" nType="0">
              <Node pos="l" depth="4" NCoef="0" IVar="-1" Cut="0.0000000000000000e+00" cType="1" res="-2.8353002853691578e-03" rms="1.2020066380500793e-01" purity="1.0000000000000000e+00" nType="-99"/>
              <Node pos="r" depth="4" NCoef="0" IVar="-1" Cut="0.0000000000000000e+00" cType="1" res="-2.0163927227258682e-02" rms="1.2657120823860168e-01" purity="1.0000000000000000e+00" nType="-99"/>
            </Node>
            <Node pos="r" depth="3" NCoef="0" IVar="28" Cut="5.2826654911041260e-01" cType="1" res="8.5800904780626297e-03" rms="1.3169610500335693e-01" purity="1.0000000000000000e+00" nType="0">
              <Node pos="l" depth="4" NCoef="0" IVar="-1" Cut="0.0000000000000000e+00" cType="1" res="1.5775576233863831e-02" rms="1.2578865885734558e-01" purity="1.0000000000000000e+00" nType="-99"/>
              <Node pos="r" depth="4" NCoef="0" IVar="-1" Cut="0.0000000000000000e+00" cType="1" res="-1.8469479982741177e-04" rms="1.3199308514595032e-01" purity="1.0000000000000000e+00" nType="-99"/>
            </Node>
          </Node>
        </Node>
      </Node>
    </BinaryTree>
    <BinaryTree type="DecisionTree" boostWeight="1.0000000000000000e+00" itree="9">
      <Node pos="s" depth="0" NCoef="0" IVar="32" Cut="1.2882652282714844e+00" cType="1" res="-1.3246717571746558e-04" rms="1.3169507682323456e-01" purity="1.0000000000000000e+00" nType="0">
        <Node pos="l" depth="1" NCoef="0" IVar="28" Cut="1.0667752027511597e+00" cType="1" res="-1.7901120008900762e-03" rms="1.3128404319286346e-01" purity="1.0000000000000000e+00" nType="0">
          <Node pos="l" depth="2" NCoef="0" IVar="32" Cut="9.5169657468795776e-01" cType="1" res="-8.9967172243632376e-05" rms="1.3124887645244598e-01" purity="1.0000000000000000e+00" nType="0">
            <Node pos="l" depth="3" NCoef="0" IVar="32" Cut="-1.6297956705093384e+00" cType="1" res="-1.9918174948543310e-03" rms="1.3114486634731293e-01" purity="1.0000000000000000e+00" nType="0">
              <Node pos="l" depth="4" NCoef="0" IVar="-1" Cut="0.0000000000000000e+00" cType="1" res="-3.1024854630231857e-02" rms="1.3193029165267944e-01" purity="1.0000000000000000e+00" nType="-99"/>
              <Node pos="r" depth="4" NCoef="0" IVar="-1" Cut="0.0000000000000000e+00" cType="1" res="-4.0247943252325058e-04" rms="1.3091430068016052e-01" purity="1.0000000000000000e+00" nType="-99"/>
            </Node>
            <Node pos="r" depth="3" NCoef="0" IVar="26" Cut="1.0380708593750000e+05" cType="1" res="4.2398326098918915e-02" rms="1.2629276514053345e-01" purity="1.0000000000000000e+00" nType="0">
              <Node pos="l" depth="4" NCoef="0" IVar="-1" Cut="0.0000000000000000e+00" cType="1" res="3.4380976110696793e-02" rms="1.3172128796577454e-01" purity="1.0000000000000000e+00" nType="-99"/>
              <Node pos="r" depth="4" NCoef="0" IVar="-1" Cut="0.0000000000000000e+00" cType="1" res="5.6792935356497765e-03" rms="1.1445589363574982e-01" purity="1.0000000000000000e+00" nType="-99"/>
            </Node>
          </Node>
          <Node pos="r" depth="2" NCoef="0" IVar="32" Cut="9.8258721828460693e-01" cType="1" res="-4.5550361275672913e-02" rms="1.2443371862173080e-01" purity="1.0000000000000000e+00" nType="0">
            <Node pos="l" depth="3" NCoef="0" IVar="29" Cut="4.7910094261169434e+00" cType="1" res="-9.8256342113018036e-02" rms="1.1951759457588196e-01" purity="1.0000000000000000e+00" nType="0">
              <Node pos="l" depth="4" NCoef="0" IVar="-1" Cut="0.0000000000000000e+00" cType="1" res="-3.5375535488128662e-02" rms="1.2838955223560333e-01" purity="1.0000000000000000e+00" nType="-99"/>
              <Node pos="r" depth="4" NCoef="0" IVar="-1" Cut="0.0000000000000000e+00" cType="1" res="-7.0646233856678009e-02" rms="8.9594498276710510e-02" purity="1.0000000000000000e+00" nType="-99"/>
            </Node>
            <Node pos="r" depth="3" NCoef="0" IVar="28" Cut="1.2456129789352417e+00" cType="1" res="-2.8074167668819427e-02" rms="1.2105740606784821e-01" purity="1.0000000000000000e+00" nType="0">
              <Node pos="l" depth="4" NCoef="0" IVar="-1" Cut="0.0000000000000000e+00" cType="1" res="-2.9705553315579891e-03" rms="1.2001448869705200e-01" purity="1.0000000000000000e+00" nType="-99"/>
              <Node pos="r" depth="4" NCoef="0" IVar="-1" Cut="0.0000000000000000e+00" cType="1" res="-2.6447586715221405e-02" rms="1.1204428225755692e-01" purity="1.0000000000000000e+00" nType="-99"/>
            </Node>
          </Node>
        </Node>
        <Node pos="r" depth="1" NCoef="0" IVar="26" Cut="4.1526140625000000e+05" cType="1" res="3.4911181777715683e-02" rms="1.3543504476547241e-01" purity="1.0000000000000000e+00" nType="0">
          <Node pos="l" depth="2" NCoef="0" IVar="26" Cut="1.2512787500000000e+05" cType="1" res="6.0460817068815231e-02" rms="1.3662873208522797e-01" purity="1.0000000000000000e+00" nType="0">
            <Node pos="l" depth="3" NCoef="0" IVar="32" Cut="1.4408180713653564e+00" cType="1" res="1.1003746092319489e-01" rms="1.1878678947687149e-01" purity="1.0000000000000000e+00" nType="0">
              <Node pos="l" depth="4" NCoef="0" IVar="-1" Cut="0.0000000000000000e+00" cType="1" res="5.3039025515317917e-02" rms="1.2470612674951553e-01" purity="1.0000000000000000e+00" nType="-99"/>
              <Node pos="r" depth="4" NCoef="0" IVar="-1" Cut="0.0000000000000000e+00" cType="1" res="9.6698373556137085e-02" rms="9.2002347111701965e-02" purity="1.0000000000000000e+00" nType="-99"/>
            </Node>
            <Node pos="r" depth="3" NCoef="0" IVar="17" Cut="3.8475261688232422e+01" cType="1" res="4.8588093370199203e-02" rms="1.3794630765914917e-01" purity="1.0000000000000000e+00" nType="0">
              <Node pos="l" depth="4" NCoef="0" IVar="-1" Cut="0.0000000000000000e+00" cType="1" res="-2.0209299400448799e-03" rms="1.5125060081481934e-01" purity="1.0000000000000000e+00" nType="-99"/>
              <Node pos="r" depth="4" NCoef="0" IVar="-1" Cut="0.0000000000000000e+00" cType="1" res="3.0631987378001213e-02" rms="1.3115406036376953e-01" purity="1.0000000000000000e+00" nType="-99"/>
            </Node>
          </Node>
          <Node pos="r" depth="2" NCoef="0" IVar="32" Cut="1.7613354921340942e+00" cType="1" res="-3.1647363211959600e-03" rms="1.2424197793006897e-01" purity="1.0000000000000000e+00" nType="0">
            <Node pos="l" depth="3" NCoef="0" IVar="28" Cut="1.5065873861312866e+00" cType="1" res="-2.0612889900803566e-02" rms="1.1263681948184967e-01" purity="1.0000000000000000e+00" nType="0">
              <Node pos="l" depth="4" NCoef="0" IVar="-1" Cut="0.0000000000000000e+00" cType="1" res="2.9485642444342375e-03" rms="1.0362277179956436e-01" purity="1.0000000000000000e+00" nType="-99"/>
              <Node pos="r" depth="4" NCoef="0" IVar="-1" Cut="0.0000000000000000e+00" cType="1" res="-2.0201047882437706e-02" rms="1.1289664357900620e-01" purity="1.0000000000000000e+00" nType="-99"/>
            </Node>
            <Node pos="r" depth="3" NCoef="0" IVar="28" Cut="1.8105390071868896e+00" cType="1" res="5.0564497709274292e-02" rms="1.4169329404830933e-01" purity="1.0000000000000000e+00" nType="0">
              <Node pos="l" depth="4" NCoef="0" IVar="-1" Cut="0.0000000000000000e+00" cType="1" res="5.3468454629182816e-02" rms="1.2671948969364166e-01" purity="1.0000000000000000e+00" nType="-99"/>
              <Node pos="r" depth="4" NCoef="0" IVar="-1" Cut="0.0000000000000000e+00" cType="1" res="7.4107777327299118e-03" rms="1.4264456927776337e-01" purity="1.0000000000000000e+00" nType="-99"/>
            </Node>
          </Node>
        </Node>
      </Node>
    </BinaryTree>
    <BinaryTree type="DecisionTree" boostWeight="1.0000000000000000e+00" itree="10">
      <Node pos="s" depth="0" NCoef="0" IVar="32" Cut="-3.3736489713191986e-02" cType="1" res="-1.5241290384437889e-04" rms="1.3085514307022095e-01" purity="1.0000000000000000e+00" nType="0">
        <Node pos="l" depth="1" NCoef="0" IVar="28" Cut="-2.5803443789482117e-01" cType="1" res="-6.3408170826733112e-03" rms="1.3170641660690308e-01" purity="1.0000000000000000e+00" nType="0">
          <Node pos="l" depth="2" NCoef="0" IVar="32" Cut="-5.6219923496246338e-01" cType="1" res="1.7157061956822872e-03" rms="1.3196039199829102e-01" purity="1.0000000000000000e+00" nType="0">
            <Node pos="l" depth="3" NCoef="0" IVar="29" Cut="3.3904914855957031e+00" cType="1" res="-9.6709774807095528e-03" rms="1.3314446806907654e-01" purity="1.0000000000000000e+00" nType="0">
              <Node pos="l" depth="4" NCoef="0" IVar="-1" Cut="0.0000000000000000e+00" cType="1" res="-1.5797723084688187e-02" rms="1.2744148075580597e-01" purity="1.0000000000000000e+00" nType="-99"/>
              <Node pos="r" depth="4" NCoef="0" IVar="-1" Cut="0.0000000000000000e+00" cType="1" res="2.1176245063543320e-03" rms="1.3366079330444336e-01" purity="1.0000000000000000e+00" nType="-99"/>
            </Node>
            <Node pos="r" depth="3" NCoef="0" IVar="28" Cut="-5.8096939325332642e-01" cType="1" res="2.4904454126954079e-02" rms="1.2638244032859802e-01" purity="1.0000000000000000e+00" nType="0">
              <Node pos="l" depth="4" NCoef="0" IVar="-1" Cut="0.0000000000000000e+00" cType="1" res="2.6138145476579666e-02" rms="1.2557972967624664e-01" purity="1.0000000000000000e+00" nType="-99"/>
              <Node pos="r" depth="4" NCoef="0" IVar="-1" Cut="0.0000000000000000e+00" cType="1" res="6.3846609555184841e-03" rms="1.2521062791347504e-01" purity="1.0000000000000000e+00" nType="-99"/>
            </Node>
          </Node>
          <Node pos="r" depth="2" NCoef="0" IVar="32" Cut="-1.7043992877006531e-01" cType="1" res="-3.1236754730343819e-02" rms="1.2774690985679626e-01" purity="1.0000000000000000e+00" nType="0">
            <Node pos="l" depth="3" NCoef="0" IVar="26" Cut="4.2080434570312500e+03" cType="1" res="-4.6562235802412033e-02" rms="1.2629270553588867e-01" purity="1.0000000000000000e+00" nType="0">
              <Node pos="l" depth="4" NCoef="0" IVar="-1" Cut="0.0000000000000000e+00" cType="1" res="-2.5479450821876526e-02" rms="1.2935803830623627e-01" purity="1.0000000000000000e+00" nType="-99"/>
              <Node pos="r" depth="4" NCoef="0" IVar="-1" Cut="0.0000000000000000e+00" cType="1" res="-9.4089163467288017e-03" rms="1.1639532446861267e-01" purity="1.0000000000000000e+00" nType="-99"/>
            </Node>
            <Node pos="r" depth="3" NCoef="0" IVar="28" Cut="-8.8133834302425385e-02" cType="1" res="-1.0390689596533775e-02" rms="1.2675859034061432e-01" purity="1.0000000000000000e+00" nType="0">
              <Node pos="l" depth="4" NCoef="0" IVar="-1" Cut="0.0000000000000000e+00" cType="1" res="1.0642338544130325e-02" rms="1.1682964861392975e-01" purity="1.0000000000000000e+00" nType="-99"/>
              <Node pos="r" depth="4" NCoef="0" IVar="-1" Cut="0.0000000000000000e+00" cType="1" res="-1.4729432761669159e-02" rms="1.2628835439682007e-01" purity="1.0000000000000000e+00" nType="-99"/>
            </Node>
          </Node>
        </Node>
        <Node pos="r" depth="1" NCoef="0" IVar="28" Cut="9.0249881148338318e-02" cType="1" res="5.7894480414688587e-03" rms="1.2975510954856873e-01" purity="1.0000000000000000e+00" nType="0">
          <Node pos="l" depth="2" NCoef="0" IVar="17" Cut="4.8128234863281250e+01" cType="1" res="3.5971615463495255e-02" rms="1.2731690704822540e-01" purity="1.0000000000000000e+00" nType="0">
            <Node pos="l" depth="3" NCoef="0" IVar="4" Cut="-1.6508133411407471e+00" cType="1" res="5.4594088345766068e-02" rms="1.3292242586612701e-01" purity="1.0000000000000000e+00" nType="0">
              <Node pos="l" depth="4" NCoef="0" IVar="-1" Cut="0.0000000000000000e+00" cType="1" res="7.1523296646773815e-03" rms="1.3998158276081085e-01" purity="1.0000000000000000e+00" nType="-99"/>
              <Node pos="r" depth="4" NCoef="0" IVar="-1" Cut="0.0000000000000000e+00" cType="1" res="3.1969711184501648e-02" rms="1.2896646559238434e-01" purity="1.0000000000000000e+00" nType="-99"/>
            </Node>
            <Node pos="r" depth="3" NCoef="0" IVar="32" Cut="2.2617200016975403e-01" cType="1" res="2.2164301946759224e-02" rms="1.2116204202175140e-01" purity="1.0000000000000000e+00" nType="0">
              <Node pos="l" depth="4" NCoef="0" IVar="-1" Cut="0.0000000000000000e+00" cType="1" res="5.5518350563943386e-03" rms="1.2115232646465302e-01" purity="1.0000000000000000e+00" nType="-99"/>
              <Node pos="r" depth="4" NCoef="0" IVar="-1" Cut="0.0000000000000000e+00" cType="1" res="2.3365052416920662e-02" rms="1.1471278965473175e-01" purity="1.0000000000000000e+00" nType="-99"/>
            </Node>
          </Node>
          <Node pos="r" depth="2" NCoef="0" IVar="32" Cut="1.9782137870788574e-01" cType="1" res="2.6765701477415860e-04" rms="1.2943689525127411e-01" purity="1.0000000000000000e+00" nType="0">
            <Node pos="l" depth="3" NCoef="0" IVar="28" Cut="4.4923588633537292e-01" cType="1" res="-3.0640259385108948e-02" rms="1.2969788908958435e-01" purity="1.0000000000000000e+00" nType="0">
              <Node pos="l" depth="4" NCoef="0" IVar="-1" Cut="0.0000000000000000e+00" cType="1" res="-9.3063004314899445e-03" rms="1.2956319749355316e-01" purity="1.0000000000000000e+00" nType="-99"/>
              <Node pos="r" depth="4" NCoef="0" IVar="-1" Cut="0.0000000000000000e+00" cType="1" res="-4.6607647091150284e-02" rms="1.0868201404809952e-01" purity="1.0000000000000000e+00" nType="-99"/>
            </Node>
            <Node pos="r" depth="3" NCoef="0" IVar="28" Cut="3.8145804405212402e-01" cType="1" res="4.4737537391483784e-03" rms="1.2882938981056213e-01" purity="1.0000000000000000e+00" nType="0">
              <Node pos="l" depth="4" NCoef="0" IVar="-1" Cut="0.0000000000000000e+00" cType="1" res="1.0497012175619602e-02" rms="1.2623283267021179e-01" purity="1.0000000000000000e+00" nType="-99"/>
              <Node pos="r" depth="4" NCoef="0" IVar="-1" Cut="0.0000000000000000e+00" cType="1" res="-8.3555781748145819e-04" rms="1.2883514165878296e-01" purity="1.0000000000000000e+00" nType="-99"/>
            </Node>
          </Node>
        </Node>
      </Node>
    </BinaryTree>
    <BinaryTree type="DecisionTree" boostWeight="1.0000000000000000e+00" itree="11">
      <Node pos="s" depth="0" NCoef="0" IVar="32" Cut="-1.3557381629943848e+00" cType="1" res="-4.7194298531394452e-05" rms="1.2947016954421997e-01" purity="1.0000000000000000e+00" nType="0">
        <Node pos="l" depth="1" NCoef="0" IVar="26" Cut="6.0648118750000000e+05" cType="1" res="-3.0848227441310883e-02" rms="1.3342265784740448e-01" purity="1.0000000000000000e+00" nType="0">
          <Node pos="l" depth="2" NCoef="0" IVar="29" Cut="5.3481168746948242e+00" cType="1" res="-5.1457289606332779e-02" rms="1.3327172398567200e-01" purity="1.0000000000000000e+00" nType="0">
            <Node pos="l" depth="3" NCoef="0" IVar="11" Cut="2.2443258762359619e+00" cType="1" res="-7.5327955186367035e-02" rms="1.2530492246150970e-01" purity="1.0000000000000000e+00" nType="0">
              <Node pos="l" depth="4" NCoef="0" IVar="-1" Cut="0.0000000000000000e+00" cType="1" res="-4.7556430101394653e-02" rms="1.1829046905040741e-01" purity="1.0000000000000000e+00" nType="-99"/>
              <Node pos="r" depth="4" NCoef="0" IVar="-1" Cut="0.0000000000000000e+00" cType="1" res="-4.4571491889655590e-03" rms="1.3710041344165802e-01" purity="1.0000000000000000e+00" nType="-99"/>
            </Node>
            <Node pos="r" depth="3" NCoef="0" IVar="32" Cut="-1.5634901523590088e+00" cType="1" res="-2.6286730542778969e-02" rms="1.3674490153789520e-01" purity="1.0000000000000000e+00" nType="0">
              <Node pos="l" depth="4" NCoef="0" IVar="-1" Cut="0.0000000000000000e+00" cType="1" res="-3.0607046559453011e-02" rms="1.3455186784267426e-01" purity="1.0000000000000000e+00" nType="-99"/>
              <Node pos="r" depth="4" NCoef="0" IVar="-1" Cut="0.0000000000000000e+00" cType="1" res="9.7493398934602737e-03" rms="1.2184470146894455e-01" purity="1.0000000000000000e+00" nType="-99"/>
            </Node>
          </Node>
          <Node pos="r" depth="2" NCoef="0" IVar="17" Cut="5.5686717987060547e+01" cType="1" res="3.3945415169000626e-02" rms="1.1133106797933578e-01" purity="1.0000000000000000e+00" nType="0">
            <Node pos="l" depth="3" NCoef="0" IVar="-1" Cut="0.0000000000000000e+00" cType="1" res="2.8851421549916267e-02" rms="9.2035643756389618e-02" purity="1.0000000000000000e+00" nType="-99"/>
            <Node pos="r" depth="3" NCoef="0" IVar="7" Cut="1.9304120540618896e-01" cType="1" res="1.8141411244869232e-02" rms="1.1415717750787735e-01" purity="1.0000000000000000e+00" nType="0">
              <Node pos="l" depth="4" NCoef="0" IVar="-1" Cut="0.0000000000000000e+00" cType="1" res="-4.3050539679825306e-03" rms="1.2246422469615936e-01" purity="1.0000000000000000e+00" nType="-99"/>
              <Node pos="r" depth="4" NCoef="0" IVar="-1" Cut="0.0000000000000000e+00" cType="1" res="1.4797014184296131e-02" rms="9.9995374679565430e-02" purity="1.0000000000000000e+00" nType="-99"/>
            </Node>
          </Node>
        </Node>
        <Node pos="r" depth="1" NCoef="0" IVar="28" Cut="-1.2385246753692627e+00" cType="1" res="1.1895498028025031e-03" rms="1.2915565073490143e-01" purity="1.0000000000000000e+00" nType="0">
          <Node pos="l" depth="2" NCoef="0" IVar="14" Cut="-1.9855720996856689e+00" cType="1" res="5.8326259255409241e-02" rms="1.2521296739578247e-01" purity="1.0000000000000000e+00" nType="0">
            <Node pos="l" depth="3" NCoef="0" IVar="-1" Cut="0.0000000000000000e+00" cType="1" res="3.6060367710888386e-03" rms="1.4256638288497925e-01" purity="1.0000000000000000e+00" nType="-99"/>
            <Node pos="r" depth="3" NCoef="0" IVar="0" Cut="9.6479835510253906e+01" cType="1" res="6.9777026772499084e-02" rms="1.1807863414287567e-01" purity="1.0000000000000000e+00" nType="0">
              <Node pos="l" depth="4" NCoef="0" IVar="-1" Cut="0.0000000000000000e+00" cType="1" res="4.5739118009805679e-02" rms="1.0978475213050842e-01" purity="1.0000000000000000e+00" nType="-99"/>
              <Node pos="r" depth="4" NCoef="0" IVar="-1" Cut="0.0000000000000000e+00" cType="1" res="1.6383785754442215e-02" rms="1.2140263617038727e-01" purity="1.0000000000000000e+00" nType="-99"/>
            </Node>
          </Node>
          <Node pos="r" depth="2" NCoef="0" IVar="32" Cut="-8.2034152746200562e-01" cType="1" res="1.1706146324286237e-04" rms="1.2898673117160797e-01" purity="1.0000000000000000e+00" nType="0">
            <Node pos="l" depth="3" NCoef="0" IVar="27" Cut="2.2410146875000000e+05" cType="1" res="-2.0419819280505180e-02" rms="1.3037368655204773e-01" purity="1.0000000000000000e+00" nType="0">
              <Node pos="l" depth="4" NCoef="0" IVar="-1" Cut="0.0000000000000000e+00" cType="1" res="-2.9337206855416298e-02" rms="1.3800013065338135e-01" purity="1.0000000000000000e+00" nType="-99"/>
              <Node pos="r" depth="4" NCoef="0" IVar="-1" Cut="0.0000000000000000e+00" cType="1" res="-1.3067340478301048e-03" rms="1.2336080521345139e-01" purity="1.0000000000000000e+00" nType="-99"/>
            </Node>
            <Node pos="r" depth="3" NCoef="0" IVar="28" Cut="-7.4795943498611450e-01" cType="1" res="2.6574218645691872e-03" rms="1.2858638167381287e-01" purity="1.0000000000000000e+00" nType="0">
              <Node pos="l" depth="4" NCoef="0" IVar="-1" Cut="0.0000000000000000e+00" cType="1" res="2.3540623486042023e-02" rms="1.2288607656955719e-01" purity="1.0000000000000000e+00" nType="-99"/>
              <Node pos="r" depth="4" NCoef="0" IVar="-1" Cut="0.0000000000000000e+00" cType="1" res="9.0498724603094161e-06" rms="1.2834329903125763e-01" purity="1.0000000000000000e+00" nType="-99"/>
            </Node>
          </Node>
        </Node>
      </Node>
    </BinaryTree>
    <BinaryTree type="DecisionTree" boostWeight="1.0000000000000000e+00" itree="12">
      <Node pos="s" depth="0" NCoef="0" IVar="10" Cut="-3.4388718008995056e-01" cType="1" res="6.3964507717173547e-05" rms="1.2858851253986359e-01" purity="1.0000000000000000e+00" nType="0">
        <Node pos="l" depth="1" NCoef="0" IVar="32" Cut="-1.1869601011276245e+00" cType="1" res="7.3381168767809868e-03" rms="1.2917996942996979e-01" purity="1.0000000000000000e+00" nType="0">
          <Node pos="l" depth="2" NCoef="0" IVar="28" Cut="-1.2879205942153931e+00" cType="1" res="-1.6713583841919899e-02" rms="1.3235577940940857e-01" purity="1.0000000000000000e+00" nType="0">
            <Node pos="l" depth="3" NCoef="0" IVar="32" Cut="-1.5872092247009277e+00" cType="1" res="7.1971062570810318e-03" rms="1.3022518157958984e-01" purity="1.0000000000000000e+00" nType="0">
              <Node pos="l" depth="4" NCoef="0" IVar="-1" Cut="0.0000000000000000e+00" cType="1" res="-1.2241614982485771e-02" rms="1.3299888372421265e-01" purity="1.0000000000000000e+00" nType="-99"/>
              <Node pos="r" depth="4" NCoef="0" IVar="-1" Cut="0.0000000000000000e+00" cType="1" res="1.3780278153717518e-02" rms="1.2049482762813568e-01" purity="1.0000000000000000e+00" nType="-99"/>
            </Node>
            <Node pos="r" depth="3" NCoef="0" IVar="28" Cut="-1.0730742216110229e+00" cType="1" res="-4.7856118530035019e-02" rms="1.2857766449451447e-01" purity="1.0000000000000000e+00" nType="0">
              <Node pos="l" depth="4" NCoef="0" IVar="-1" Cut="0.0000000000000000e+00" cType="1" res="-1.3780741021037102e-02" rms="1.2781561911106110e-01" purity="1.0000000000000000e+00" nType="-99"/>
              <Node pos="r" depth="4" NCoef="0" IVar="-1" Cut="0.0000000000000000e+00" cType="1" res="-3.9060581475496292e-02" rms="1.2429323792457581e-01" purity="1.0000000000000000e+00" nType="-99"/>
            </Node>
          </Node>
          <Node pos="r" depth="2" NCoef="0" IVar="28" Cut="-9.1040712594985962e-01" cType="1" res="1.1640336364507675e-02" rms="1.2812848389148712e-01" purity="1.0000000000000000e+00" nType="0">
            <Node pos="l" depth="3" NCoef="0" IVar="32" Cut="-7.4538308382034302e-01" cType="1" res="4.1736666113138199e-02" rms="1.2422473728656769e-01" purity="1.0000000000000000e+00" nType="0">
              <Node pos="l" depth="4" NCoef="0" IVar="-1" Cut="0.0000000000000000e+00" cType="1" res="1.4214735478162766e-02" rms="1.2410592287778854e-01" purity="1.0000000000000000e+00" nType="-99"/>
              <Node pos="r" depth="4" NCoef="0" IVar="-1" Cut="0.0000000000000000e+00" cType="1" res="5.4285880178213120e-02" rms="9.8822608590126038e-02" purity="1.0000000000000000e+00" nType="-99"/>
            </Node>
            <Node pos="r" depth="3" NCoef="0" IVar="32" Cut="-6.8674337863922119e-01" cType="1" res="6.7526451312005520e-03" rms="1.2808552384376526e-01" purity="1.0000000000000000e+00" nType="0">
              <Node pos="l" depth="4" NCoef="0" IVar="-1" Cut="0.0000000000000000e+00" cType="1" res="-8.8556194677948952e-03" rms="1.2850646674633026e-01" purity="1.0000000000000000e+00" nType="-99"/>
              <Node pos="r" depth="4" NCoef="0" IVar="-1" Cut="0.0000000000000000e+00" cType="1" res="5.4319868795573711e-03" rms="1.2698674201965332e-01" purity="1.0000000000000000e+00" nType="-99"/>
            </Node>
          </Node>
        </Node>
        <Node pos="r" depth="1" NCoef="0" IVar="32" Cut="-7.3658227920532227e-02" cType="1" res="-4.6459245495498180e-03" rms="1.2798377871513367e-01" purity="1.0000000000000000e+00" nType="0">
          <Node pos="l" depth="2" NCoef="0" IVar="28" Cut="-2.0706705749034882e-01" cType="1" res="-1.9236976280808449e-02" rms="1.2705816328525543e-01" purity="1.0000000000000000e+00" nType="0">
            <Node pos="l" depth="3" NCoef="0" IVar="32" Cut="-3.3813881874084473e-01" cType="1" res="-9.7585674375295639e-03" rms="1.2711526453495026e-01" purity="1.0000000000000000e+00" nType="0">
              <Node pos="l" depth="4" NCoef="0" IVar="-1" Cut="0.0000000000000000e+00" cType="1" res="-6.6592749208211899e-03" rms="1.2670646607875824e-01" purity="1.0000000000000000e+00" nType="-99"/>
              <Node pos="r" depth="4" NCoef="0" IVar="-1" Cut="0.0000000000000000e+00" cType="1" res="5.9846034273505211e-03" rms="1.2519395351409912e-01" purity="1.0000000000000000e+00" nType="-99"/>
            </Node>
            <Node pos="r" depth="3" NCoef="0" IVar="13" Cut="6.5977577209472656e+01" cType="1" res="-4.4142123311758041e-02" rms="1.2348811328411102e-01" purity="1.0000000000000000e+00" nType="0">
              <Node pos="l" depth="4" NCoef="0" IVar="-1" Cut="0.0000000000000000e+00" cType="1" res="-3.8085732609033585e-02" rms="1.2163071334362030e-01" purity="1.0000000000000000e+00" nType="-99"/>
              <Node pos="r" depth="4" NCoef="0" IVar="-1" Cut="0.0000000000000000e+00" cType="1" res="-1.3030135072767735e-02" rms="1.2229483574628830e-01" purity="1.0000000000000000e+00" nType="-99"/>
            </Node>
          </Node>
          <Node pos="r" depth="2" NCoef="0" IVar="31" Cut="-7.0803380012512207e-01" cType="1" res="1.2457460397854447e-03" rms="1.2788467109203339e-01" purity="1.0000000000000000e+00" nType="0">
            <Node pos="l" depth="3" NCoef="0" IVar="32" Cut="1.4546635150909424e+00" cType="1" res="-1.6094433143734932e-02" rms="1.2536865472793579e-01" purity="1.0000000000000000e+00" nType="0">
              <Node pos="l" depth="4" NCoef="0" IVar="-1" Cut="0.0000000000000000e+00" cType="1" res="-7.3945685289800167e-03" rms="1.2449046969413757e-01" purity="1.0000000000000000e+00" nType="-99"/>
              <Node pos="r" depth="4" NCoef="0" IVar="-1" Cut="0.0000000000000000e+00" cType="1" res="2.8789522126317024e-02" rms="1.2260340154170990e-01" purity="1.0000000000000000e+00" nType="-99"/>
            </Node>
            <Node pos="r" depth="3" NCoef="0" IVar="6" Cut="-2.8175488114356995e-01" cType="1" res="6.0211536474525928e-03" rms="1.2815755605697632e-01" purity="1.0000000000000000e+00" nType="0">
              <Node pos="l" depth="4" NCoef="0" IVar="-1" Cut="0.0000000000000000e+00" cType="1" res="1.0423698462545872e-02" rms="1.2735794484615326e-01" purity="1.0000000000000000e+00" nType="-99"/>
              <Node pos="r" depth="4" NCoef="0" IVar="-1" Cut="0.0000000000000000e+00" cType="1" res="2.2227717272471637e-04" rms="1.2791492044925690e-01" purity="1.0000000000000000e+00" nType="-99"/>
            </Node>
          </Node>
        </Node>
      </Node>
    </BinaryTree>
    <BinaryTree type="DecisionTree" boostWeight="1.0000000000000000e+00" itree="13">
      <Node pos="s" depth="0" NCoef="0" IVar="32" Cut="6.2726438045501709e-01" cType="1" res="8.7514788901899010e-05" rms="1.2775124609470367e-01" purity="1.0000000000000000e+00" nType="0">
        <Node pos="l" depth="1" NCoef="0" IVar="28" Cut="6.9431310892105103e-01" cType="1" res="-2.7928387280553579e-03" rms="1.2762032449245453e-01" purity="1.0000000000000000e+00" nType="0">
          <Node pos="l" depth="2" NCoef="0" IVar="6" Cut="-1.1020282506942749e+00" cType="1" res="-1.3869921676814556e-03" rms="1.2748906016349792e-01" purity="1.0000000000000000e+00" nType="0">
            <Node pos="l" depth="3" NCoef="0" IVar="32" Cut="-1.2841396331787109e+00" cType="1" res="1.2159264646470547e-02" rms="1.2853097915649414e-01" purity="1.0000000000000000e+00" nType="0">
              <Node pos="l" depth="4" NCoef="0" IVar="-1" Cut="0.0000000000000000e+00" cType="1" res="-5.0806137733161449e-03" rms="1.3126094639301300e-01" purity="1.0000000000000000e+00" nType="-99"/>
              <Node pos="r" depth="4" NCoef="0" IVar="-1" Cut="0.0000000000000000e+00" cType="1" res="7.9487878829240799e-03" rms="1.2686058878898621e-01" purity="1.0000000000000000e+00" nType="-99"/>
            </Node>
            <Node pos="r" depth="3" NCoef="0" IVar="32" Cut="-3.2767936587333679e-01" cType="1" res="-4.6358658000826836e-03" rms="1.2702330946922302e-01" purity="1.0000000000000000e+00" nType="0">
              <Node pos="l" depth="4" NCoef="0" IVar="-1" Cut="0.0000000000000000e+00" cType="1" res="-5.3821569308638573e-03" rms="1.2868958711624146e-01" purity="1.0000000000000000e+00" nType="-99"/>
              <Node pos="r" depth="4" NCoef="0" IVar="-1" Cut="0.0000000000000000e+00" cType="1" res="1.7882483007269911e-05" rms="1.2578065693378448e-01" purity="1.0000000000000000e+00" nType="-99"/>
            </Node>
          </Node>
          <Node pos="r" depth="2" NCoef="0" IVar="0" Cut="1.4041079711914062e+02" cType="1" res="-6.4332634210586548e-02" rms="1.1780962347984314e-01" purity="1.0000000000000000e+00" nType="0">
            <Node pos="l" depth="3" NCoef="0" IVar="12" Cut="-1.1035359464585781e-02" cType="1" res="-7.5673624873161316e-02" rms="1.1866027861833572e-01" purity="1.0000000000000000e+00" nType="0">
              <Node pos="l" depth="4" NCoef="0" IVar="-1" Cut="0.0000000000000000e+00" cType="1" res="-4.8918813467025757e-02" rms="8.5407920181751251e-02" purity="1.0000000000000000e+00" nType="-99"/>
              <Node pos="r" depth="4" NCoef="0" IVar="-1" Cut="0.0000000000000000e+00" cType="1" res="-3.0885592103004456e-02" rms="1.2389317154884338e-01" purity="1.0000000000000000e+00" nType="-99"/>
            </Node>
            <Node pos="r" depth="3" NCoef="0" IVar="18" Cut="4.5795616507530212e-01" cType="1" res="-3.1727287918329239e-02" rms="1.0893990844488144e-01" purity="1.0000000000000000e+00" nType="0">
              <Node pos="l" depth="4" NCoef="0" IVar="-1" Cut="0.0000000000000000e+00" cType="1" res="-1.9902070052921772e-03" rms="1.1779403686523438e-01" purity="1.0000000000000000e+00" nType="-99"/>
              <Node pos="r" depth="4" NCoef="0" IVar="-1" Cut="0.0000000000000000e+00" cType="1" res="-1.9270339980721474e-02" rms="9.4401307404041290e-02" purity="1.0000000000000000e+00" nType="-99"/>
            </Node>
          </Node>
        </Node>
        <Node pos="r" depth="1" NCoef="0" IVar="28" Cut="6.0936880111694336e-01" cType="1" res="1.0519166477024555e-02" rms="1.2768161296844482e-01" purity="1.0000000000000000e+00" nType="0">
          <Node pos="l" depth="2" NCoef="0" IVar="26" Cut="1.0023854492187500e+04" cType="1" res="4.9844786524772644e-02" rms="1.3069540262222290e-01" purity="1.0000000000000000e+00" nType="0">
            <Node pos="l" depth="3" NCoef="0" IVar="19" Cut="4.2127051949501038e-01" cType="1" res="9.0509906411170959e-02" rms="1.2443973124027252e-01" purity="1.0000000000000000e+00" nType="0">
              <Node pos="l" depth="4" NCoef="0" IVar="-1" Cut="0.0000000000000000e+00" cType="1" res="7.0178270339965820e-02" rms="1.0440639406442642e-01" purity="1.0000000000000000e+00" nType="-99"/>
              <Node pos="r" depth="4" NCoef="0" IVar="-1" Cut="0.0000000000000000e+00" cType="1" res="3.5986825823783875e-02" rms="1.4088635146617889e-01" purity="1.0000000000000000e+00" nType="-99"/>
            </Node>
            <Node pos="r" depth="3" NCoef="0" IVar="10" Cut="-2.1611227095127106e-01" cType="1" res="3.9926461875438690e-02" rms="1.3026458024978638e-01" purity="1.0000000000000000e+00" nType="0">
              <Node pos="l" depth="4" NCoef="0" IVar="-1" Cut="0.0000000000000000e+00" cType="1" res="4.2312990874052048e-02" rms="1.1443503946065903e-01" purity="1.0000000000000000e+00" nType="-99"/>
              <Node pos="r" depth="4" NCoef="0" IVar="-1" Cut="0.0000000000000000e+00" cType="1" res="1.2563891708850861e-02" rms="1.3128310441970825e-01" purity="1.0000000000000000e+00" nType="-99"/>
            </Node>
          </Node>
