<?xml version="1.0"?>
<MethodSetup Method="BDT::BDTG_LS_fold4">
  <GeneralInfo>
    <Info name="TMVA Release" value="4.2.1 [262657]"/>
    <Info name="ROOT Release" value="6.13/08 [396552]"/>
    <Info name="Creator" value="bribeiro"/>
    <Info name="Date" value="Fri Jun 28 12:56:23 2019"/>
    <Info name="Host" value="Linux lcgapp-centos7-x86-64-6.cern.ch 3.10.0-693.21.1.el7.x86_64 #1 SMP Wed Mar 7 19:03:37 UTC 2018 x86_64 x86_64 x86_64 GNU/Linux"/>
    <Info name="Dir" value="/afs/cern.ch/user/b/bribeiro/CMSSW_9_4_11/src/TopLJets2015/TopAnalysis"/>
    <Info name="Training events" value="11336"/>
    <Info name="TrainingTime" value="1.72781110e+00"/>
    <Info name="AnalysisType" value="Regression"/>
  </GeneralInfo>
  <Options>
    <Option name="V" modified="Yes">False</Option>
    <Option name="VerbosityLevel" modified="No">Default</Option>
    <Option name="VarTransform" modified="No">None</Option>
    <Option name="H" modified="Yes">False</Option>
    <Option name="CreateMVAPdfs" modified="No">False</Option>
    <Option name="IgnoreNegWeightsInTraining" modified="No">False</Option>
    <Option name="NTrees" modified="Yes">64</Option>
    <Option name="MaxDepth" modified="Yes">4</Option>
    <Option name="MinNodeSize" modified="No">0.2%</Option>
    <Option name="nCuts" modified="Yes">20</Option>
    <Option name="BoostType" modified="Yes">Grad</Option>
    <Option name="AdaBoostR2Loss" modified="No">quadratic</Option>
    <Option name="UseBaggedBoost" modified="No">False</Option>
    <Option name="Shrinkage" modified="Yes">3.000000e-01</Option>
    <Option name="AdaBoostBeta" modified="No">5.000000e-01</Option>
    <Option name="UseRandomisedTrees" modified="No">False</Option>
    <Option name="UseNvars" modified="No">6</Option>
    <Option name="UsePoissonNvars" modified="No">True</Option>
    <Option name="BaggedSampleFraction" modified="No">6.000000e-01</Option>
    <Option name="UseYesNoLeaf" modified="No">False</Option>
    <Option name="NegWeightTreatment" modified="No">pray</Option>
    <Option name="Css" modified="No">1.000000e+00</Option>
    <Option name="Cts_sb" modified="No">1.000000e+00</Option>
    <Option name="Ctb_ss" modified="No">1.000000e+00</Option>
    <Option name="Cbb" modified="No">1.000000e+00</Option>
    <Option name="NodePurityLimit" modified="No">5.000000e-01</Option>
    <Option name="SeparationType" modified="No">regressionvariance</Option>
    <Option name="RegressionLossFunctionBDTG" modified="Yes">leastsquares</Option>
    <Option name="HuberQuantile" modified="No">7.000000e-01</Option>
    <Option name="DoBoostMonitor" modified="No">False</Option>
    <Option name="UseFisherCuts" modified="No">False</Option>
    <Option name="MinLinCorrForFisher" modified="No">8.000000e-01</Option>
    <Option name="UseExclusiveVars" modified="No">False</Option>
    <Option name="DoPreselection" modified="No">False</Option>
    <Option name="SigToBkgFraction" modified="No">1.000000e+00</Option>
    <Option name="PruneMethod" modified="No">nopruning</Option>
    <Option name="PruneStrength" modified="No">0.000000e+00</Option>
    <Option name="PruningValFraction" modified="No">5.000000e-01</Option>
    <Option name="SkipNormalization" modified="No">False</Option>
    <Option name="nEventsMin" modified="No">0</Option>
    <Option name="UseBaggedGrad" modified="No">False</Option>
    <Option name="GradBaggingFraction" modified="No">6.000000e-01</Option>
    <Option name="UseNTrainEvents" modified="No">0</Option>
    <Option name="NNodesMax" modified="No">0</Option>
  </Options>
  <Variables NVar="34">
    <Variable VarIndex="0" Expression="mll" Label="mll" Title="mll" Unit="" Internal="mll" Type="F" Min="3.40282347e+38" Max="-3.40282347e+38"/>
    <Variable VarIndex="1" Expression="nljets" Label="nljets" Title="nljets" Unit="" Internal="nljets" Type="F" Min="3.40282347e+38" Max="-3.40282347e+38"/>
    <Variable VarIndex="2" Expression="nbjets" Label="nbjets" Title="nbjets" Unit="" Internal="nbjets" Type="F" Min="3.40282347e+38" Max="-3.40282347e+38"/>
    <Variable VarIndex="3" Expression="metpt" Label="metpt" Title="metpt" Unit="" Internal="metpt" Type="F" Min="3.40282347e+38" Max="-3.40282347e+38"/>
    <Variable VarIndex="4" Expression="metphi" Label="metphi" Title="metphi" Unit="" Internal="metphi" Type="F" Min="3.40282347e+38" Max="-3.40282347e+38"/>
    <Variable VarIndex="5" Expression="l1pt" Label="l1pt" Title="l1pt" Unit="" Internal="l1pt" Type="F" Min="3.40282347e+38" Max="-3.40282347e+38"/>
    <Variable VarIndex="6" Expression="l1eta" Label="l1eta" Title="l1eta" Unit="" Internal="l1eta" Type="F" Min="3.40282347e+38" Max="-3.40282347e+38"/>
    <Variable VarIndex="7" Expression="l1phi" Label="l1phi" Title="l1phi" Unit="" Internal="l1phi" Type="F" Min="3.40282347e+38" Max="-3.40282347e+38"/>
    <Variable VarIndex="8" Expression="l1m" Label="l1m" Title="l1m" Unit="" Internal="l1m" Type="F" Min="3.40282347e+38" Max="-3.40282347e+38"/>
    <Variable VarIndex="9" Expression="l2pt" Label="l2pt" Title="l2pt" Unit="" Internal="l2pt" Type="F" Min="3.40282347e+38" Max="-3.40282347e+38"/>
    <Variable VarIndex="10" Expression="l2eta" Label="l2eta" Title="l2eta" Unit="" Internal="l2eta" Type="F" Min="3.40282347e+38" Max="-3.40282347e+38"/>
    <Variable VarIndex="11" Expression="l2phi" Label="l2phi" Title="l2phi" Unit="" Internal="l2phi" Type="F" Min="3.40282347e+38" Max="-3.40282347e+38"/>
    <Variable VarIndex="12" Expression="l2m" Label="l2m" Title="l2m" Unit="" Internal="l2m" Type="F" Min="3.40282347e+38" Max="-3.40282347e+38"/>
    <Variable VarIndex="13" Expression="b1pt" Label="b1pt" Title="b1pt" Unit="" Internal="b1pt" Type="F" Min="3.40282347e+38" Max="-3.40282347e+38"/>
    <Variable VarIndex="14" Expression="b1eta" Label="b1eta" Title="b1eta" Unit="" Internal="b1eta" Type="F" Min="3.40282347e+38" Max="-3.40282347e+38"/>
    <Variable VarIndex="15" Expression="b1phi" Label="b1phi" Title="b1phi" Unit="" Internal="b1phi" Type="F" Min="3.40282347e+38" Max="-3.40282347e+38"/>
    <Variable VarIndex="16" Expression="b1m" Label="b1m" Title="b1m" Unit="" Internal="b1m" Type="F" Min="3.40282347e+38" Max="-3.40282347e+38"/>
    <Variable VarIndex="17" Expression="b2pt" Label="b2pt" Title="b2pt" Unit="" Internal="b2pt" Type="F" Min="3.40282347e+38" Max="-3.40282347e+38"/>
    <Variable VarIndex="18" Expression="b2eta" Label="b2eta" Title="b2eta" Unit="" Internal="b2eta" Type="F" Min="3.40282347e+38" Max="-3.40282347e+38"/>
    <Variable VarIndex="19" Expression="b2phi" Label="b2phi" Title="b2phi" Unit="" Internal="b2phi" Type="F" Min="3.40282347e+38" Max="-3.40282347e+38"/>
    <Variable VarIndex="20" Expression="b2m" Label="b2m" Title="b2m" Unit="" Internal="b2m" Type="F" Min="3.40282347e+38" Max="-3.40282347e+38"/>
    <Variable VarIndex="21" Expression="deltarll" Label="deltarll" Title="deltarll" Unit="" Internal="deltarll" Type="F" Min="3.40282347e+38" Max="-3.40282347e+38"/>
    <Variable VarIndex="22" Expression="deltaphill" Label="deltaphill" Title="deltaphill" Unit="" Internal="deltaphill" Type="F" Min="3.40282347e+38" Max="-3.40282347e+38"/>
    <Variable VarIndex="23" Expression="mlb" Label="mlb" Title="mlb" Unit="" Internal="mlb" Type="F" Min="3.40282347e+38" Max="-3.40282347e+38"/>
    <Variable VarIndex="24" Expression="px2" Label="px2" Title="px2" Unit="" Internal="px2" Type="F" Min="3.40282347e+38" Max="-3.40282347e+38"/>
    <Variable VarIndex="25" Expression="py2" Label="py2" Title="py2" Unit="" Internal="py2" Type="F" Min="3.40282347e+38" Max="-3.40282347e+38"/>
    <Variable VarIndex="26" Expression="pz2" Label="pz2" Title="pz2" Unit="" Internal="pz2" Type="F" Min="3.40282347e+38" Max="-3.40282347e+38"/>
    <Variable VarIndex="27" Expression="E2" Label="E2" Title="E2" Unit="" Internal="E2" Type="F" Min="3.40282347e+38" Max="-3.40282347e+38"/>
    <Variable VarIndex="28" Expression="yvis" Label="yvis" Title="yvis" Unit="" Internal="yvis" Type="F" Min="3.40282347e+38" Max="-3.40282347e+38"/>
    <Variable VarIndex="29" Expression="ysum" Label="ysum" Title="ysum" Unit="" Internal="ysum" Type="F" Min="3.40282347e+38" Max="-3.40282347e+38"/>
    <Variable VarIndex="30" Expression="max_dy" Label="max_dy" Title="max_dy" Unit="" Internal="max_dy" Type="F" Min="3.40282347e+38" Max="-3.40282347e+38"/>
    <Variable VarIndex="31" Expression="min_dy" Label="min_dy" Title="min_dy" Unit="" Internal="min_dy" Type="F" Min="3.40282347e+38" Max="-3.40282347e+38"/>
    <Variable VarIndex="32" Expression="rec_ytt" Label="rec_ytt" Title="rec_ytt" Unit="" Internal="rec_ytt" Type="F" Min="3.40282347e+38" Max="-3.40282347e+38"/>
    <Variable VarIndex="33" Expression="rec_mtt" Label="rec_mtt" Title="rec_mtt" Unit="" Internal="rec_mtt" Type="F" Min="3.40282347e+38" Max="-3.40282347e+38"/>
  </Variables>
  <Spectators NSpec="10">
    <Spectator SpecIndex="0" Expression="run" Label="run" Title="run" Unit="" Internal="run" Type="F" Min="3.40282347e+38" Max="-3.40282347e+38"/>
    <Spectator SpecIndex="1" Expression="lumi" Label="lumi" Title="lumi" Unit="" Internal="lumi" Type="F" Min="3.40282347e+38" Max="-3.40282347e+38"/>
    <Spectator SpecIndex="2" Expression="ev" Label="ev" Title="ev" Unit="" Internal="ev" Type="F" Min="3.40282347e+38" Max="-3.40282347e+38"/>
    <Spectator SpecIndex="3" Expression="rho" Label="rho" Title="rho" Unit="" Internal="rho" Type="F" Min="3.40282347e+38" Max="-3.40282347e+38"/>
    <Spectator SpecIndex="4" Expression="nvtx" Label="nvtx" Title="nvtx" Unit="" Internal="nvtx" Type="F" Min="3.40282347e+38" Max="-3.40282347e+38"/>
    <Spectator SpecIndex="5" Expression="channel" Label="channel" Title="channel" Unit="" Internal="channel" Type="F" Min="3.40282347e+38" Max="-3.40282347e+38"/>
    <Spectator SpecIndex="6" Expression="mpp" Label="mpp" Title="mpp" Unit="" Internal="mpp" Type="F" Min="3.40282347e+38" Max="-3.40282347e+38"/>
    <Spectator SpecIndex="7" Expression="ypp" Label="ypp" Title="ypp" Unit="" Internal="ypp" Type="F" Min="3.40282347e+38" Max="-3.40282347e+38"/>
    <Spectator SpecIndex="8" Expression="gen_mtt" Label="gen_mtt" Title="gen_mtt" Unit="" Internal="gen_mtt" Type="F" Min="3.40282347e+38" Max="-3.40282347e+38"/>
    <Spectator SpecIndex="9" Expression="gen_ytt" Label="gen_ytt" Title="gen_ytt" Unit="" Internal="gen_ytt" Type="F" Min="3.40282347e+38" Max="-3.40282347e+38"/>
  </Spectators>
  <Classes NClass="1">
    <Class Name="Regression" Index="0"/>
  </Classes>
  <Targets NTrgt="1">
    <Target TargetIndex="0" Expression="rec_mtt/gen_mtt" Label="target" Title="target" Unit="" Internal="target" Type="F" Min="3.40282347e+38" Max="-3.40282347e+38"/>
  </Targets>
  <Transformations NTransformations="0"/>
  <MVAPdfs/>
  <Weights NTrees="64" AnalysisType="1">
    <BinaryTree type="DecisionTree" boostWeight="1.0249339939609707e+00" itree="0">
      <Node pos="s" depth="0" NCoef="0" IVar="33" Cut="7.3433935546875000e+02" cType="1" res="-3.1391350630016746e-10" rms="2.6268556714057922e-01" purity="1.0000000000000000e+00" nType="0">
        <Node pos="l" depth="1" NCoef="0" IVar="33" Cut="4.5622915649414062e+02" cType="1" res="-4.6856049448251724e-02" rms="1.5941174328327179e-01" purity="1.0000000000000000e+00" nType="0">
          <Node pos="l" depth="2" NCoef="0" IVar="33" Cut="3.9797885131835938e+02" cType="1" res="-1.0272492468357086e-01" rms="1.2540619075298309e-01" purity="1.0000000000000000e+00" nType="0">
            <Node pos="l" depth="3" NCoef="0" IVar="21" Cut="1.9173924922943115e+00" cType="1" res="-1.2839259207248688e-01" rms="1.1649362742900848e-01" purity="1.0000000000000000e+00" nType="0">
              <Node pos="l" depth="4" NCoef="0" IVar="-1" Cut="0.0000000000000000e+00" cType="1" res="-3.1553149223327637e-02" rms="1.0122395306825638e-01" purity="1.0000000000000000e+00" nType="-99"/>
              <Node pos="r" depth="4" NCoef="0" IVar="-1" Cut="0.0000000000000000e+00" cType="1" res="-4.6609401702880859e-02" rms="1.2680512666702271e-01" purity="1.0000000000000000e+00" nType="-99"/>
            </Node>
            <Node pos="r" depth="3" NCoef="0" IVar="21" Cut="2.2192051410675049e+00" cType="1" res="-6.9568134844303131e-02" rms="1.2869063019752502e-01" purity="1.0000000000000000e+00" nType="0">
              <Node pos="l" depth="4" NCoef="0" IVar="-1" Cut="0.0000000000000000e+00" cType="1" res="-1.5732938423752785e-02" rms="1.2055421620607376e-01" purity="1.0000000000000000e+00" nType="-99"/>
              <Node pos="r" depth="4" NCoef="0" IVar="-1" Cut="0.0000000000000000e+00" cType="1" res="-2.7621289715170860e-02" rms="1.3540437817573547e-01" purity="1.0000000000000000e+00" nType="-99"/>
            </Node>
          </Node>
          <Node pos="r" depth="2" NCoef="0" IVar="33" Cut="5.6216632080078125e+02" cType="1" res="2.1980112418532372e-02" rms="1.6959151625633240e-01" purity="1.0000000000000000e+00" nType="0">
            <Node pos="l" depth="3" NCoef="0" IVar="27" Cut="1.8990310937500000e+05" cType="1" res="-1.0385872796177864e-02" rms="1.4154200255870819e-01" purity="1.0000000000000000e+00" nType="0">
              <Node pos="l" depth="4" NCoef="0" IVar="-1" Cut="0.0000000000000000e+00" cType="1" res="1.1770599521696568e-02" rms="1.5235018730163574e-01" purity="1.0000000000000000e+00" nType="-99"/>
              <Node pos="r" depth="4" NCoef="0" IVar="-1" Cut="0.0000000000000000e+00" cType="1" res="-8.3619831129908562e-03" rms="1.3319589197635651e-01" purity="1.0000000000000000e+00" nType="-99"/>
            </Node>
            <Node pos="r" depth="3" NCoef="0" IVar="27" Cut="2.0136559375000000e+05" cType="1" res="6.2300868332386017e-02" rms="1.9157913327217102e-01" purity="1.0000000000000000e+00" nType="0">
              <Node pos="l" depth="4" NCoef="0" IVar="-1" Cut="0.0000000000000000e+00" cType="1" res="6.5211750566959381e-02" rms="2.0322120189666748e-01" purity="1.0000000000000000e+00" nType="-99"/>
              <Node pos="r" depth="4" NCoef="0" IVar="-1" Cut="0.0000000000000000e+00" cType="1" res="1.1609113775193691e-02" rms="1.7828495800495148e-01" purity="1.0000000000000000e+00" nType="-99"/>
            </Node>
          </Node>
        </Node>
        <Node pos="r" depth="1" NCoef="0" IVar="33" Cut="1.7910870361328125e+03" cType="1" res="2.9671457409858704e-01" rms="4.9305561184883118e-01" purity="1.0000000000000000e+00" nType="0">
          <Node pos="l" depth="2" NCoef="0" IVar="33" Cut="1.0353986816406250e+03" cType="1" res="2.6100635528564453e-01" rms="3.7704452872276306e-01" purity="1.0000000000000000e+00" nType="0">
            <Node pos="l" depth="3" NCoef="0" IVar="27" Cut="3.0472115625000000e+05" cType="1" res="1.9107332825660706e-01" rms="2.8719398379325867e-01" purity="1.0000000000000000e+00" nType="0">
              <Node pos="l" depth="4" NCoef="0" IVar="-1" Cut="0.0000000000000000e+00" cType="1" res="1.2467055022716522e-01" rms="3.1103459000587463e-01" purity="1.0000000000000000e+00" nType="-99"/>
              <Node pos="r" depth="4" NCoef="0" IVar="-1" Cut="0.0000000000000000e+00" cType="1" res="3.7437416613101959e-02" rms="2.4289141595363617e-01" purity="1.0000000000000000e+00" nType="-99"/>
            </Node>
            <Node pos="r" depth="3" NCoef="0" IVar="27" Cut="5.6274150000000000e+05" cType="1" res="4.8038530349731445e-01" rms="5.1567029953002930e-01" purity="1.0000000000000000e+00" nType="0">
              <Node pos="l" depth="4" NCoef="0" IVar="-1" Cut="0.0000000000000000e+00" cType="1" res="2.4116542935371399e-01" rms="5.5695992708206177e-01" purity="1.0000000000000000e+00" nType="-99"/>
              <Node pos="r" depth="4" NCoef="0" IVar="-1" Cut="0.0000000000000000e+00" cType="1" res="7.2483561933040619e-02" rms="3.1459635496139526e-01" purity="1.0000000000000000e+00" nType="-99"/>
            </Node>
          </Node>
          <Node pos="r" depth="2" NCoef="0" IVar="-1" Cut="0.0000000000000000e+00" cType="1" res="5.3834277391433716e-01" rms="1.4765692949295044e+00" purity="1.0000000000000000e+00" nType="-99"/>
        </Node>
      </Node>
    </BinaryTree>
    <BinaryTree type="DecisionTree" boostWeight="1.0000000000000000e+00" itree="1">
      <Node pos="s" depth="0" NCoef="0" IVar="33" Cut="9.2899237060546875e+02" cType="1" res="-3.4582861574428136e-10" rms="2.2894237935543060e-01" purity="1.0000000000000000e+00" nType="0">
        <Node pos="l" depth="1" NCoef="0" IVar="33" Cut="5.1165014648437500e+02" cType="1" res="-2.0481729879975319e-02" rms="1.6590274870395660e-01" purity="1.0000000000000000e+00" nType="0">
          <Node pos="l" depth="2" NCoef="0" IVar="33" Cut="4.1640399169921875e+02" cType="1" res="-6.0905821621417999e-02" rms="1.2730056047439575e-01" purity="1.0000000000000000e+00" nType="0">
            <Node pos="l" depth="3" NCoef="0" IVar="21" Cut="1.2329666614532471e+00" cType="1" res="-8.5399858653545380e-02" rms="1.1740880459547043e-01" purity="1.0000000000000000e+00" nType="0">
              <Node pos="l" depth="4" NCoef="0" IVar="-1" Cut="0.0000000000000000e+00" cType="1" res="-1.6186593100428581e-02" rms="9.5878243446350098e-02" purity="1.0000000000000000e+00" nType="-99"/>
              <Node pos="r" depth="4" NCoef="0" IVar="-1" Cut="0.0000000000000000e+00" cType="1" res="-2.8553100302815437e-02" rms="1.2169493734836578e-01" purity="1.0000000000000000e+00" nType="-99"/>
            </Node>
            <Node pos="r" depth="3" NCoef="0" IVar="27" Cut="1.6422131250000000e+05" cType="1" res="-2.8093684464693069e-02" rms="1.3254332542419434e-01" purity="1.0000000000000000e+00" nType="0">
              <Node pos="l" depth="4" NCoef="0" IVar="-1" Cut="0.0000000000000000e+00" cType="1" res="3.3856434747576714e-03" rms="1.3529510796070099e-01" purity="1.0000000000000000e+00" nType="-99"/>
              <Node pos="r" depth="4" NCoef="0" IVar="-1" Cut="0.0000000000000000e+00" cType="1" res="-1.2468937784433365e-02" rms="1.2885570526123047e-01" purity="1.0000000000000000e+00" nType="-99"/>
            </Node>
          </Node>
          <Node pos="r" depth="2" NCoef="0" IVar="27" Cut="2.7669903125000000e+05" cType="1" res="5.1364667713642120e-02" rms="1.9893133640289307e-01" purity="1.0000000000000000e+00" nType="0">
            <Node pos="l" depth="3" NCoef="0" IVar="33" Cut="6.6904437255859375e+02" cType="1" res="1.1492442339658737e-01" rms="2.0973522961139679e-01" purity="1.0000000000000000e+00" nType="0">
              <Node pos="l" depth="4" NCoef="0" IVar="-1" Cut="0.0000000000000000e+00" cType="1" res="1.9576722756028175e-02" rms="1.6996839642524719e-01" purity="1.0000000000000000e+00" nType="-99"/>
              <Node pos="r" depth="4" NCoef="0" IVar="-1" Cut="0.0000000000000000e+00" cType="1" res="7.7243410050868988e-02" rms="2.4479408562183380e-01" purity="1.0000000000000000e+00" nType="-99"/>
            </Node>
            <Node pos="r" depth="3" NCoef="0" IVar="33" Cut="6.7037188720703125e+02" cType="1" res="1.9708352163434029e-02" rms="1.8536578118801117e-01" purity="1.0000000000000000e+00" nType="0">
              <Node pos="l" depth="4" NCoef="0" IVar="-1" Cut="0.0000000000000000e+00" cType="1" res="-4.3933787383139133e-03" rms="1.4475911855697632e-01" purity="1.0000000000000000e+00" nType="-99"/>
              <Node pos="r" depth="4" NCoef="0" IVar="-1" Cut="0.0000000000000000e+00" cType="1" res="1.8899006769061089e-02" rms="2.1884140372276306e-01" purity="1.0000000000000000e+00" nType="-99"/>
            </Node>
          </Node>
        </Node>
        <Node pos="r" depth="1" NCoef="0" IVar="33" Cut="1.9300938720703125e+03" cType="1" res="3.4515747427940369e-01" rms="5.8793878555297852e-01" purity="1.0000000000000000e+00" nType="0">
          <Node pos="l" depth="2" NCoef="0" IVar="27" Cut="5.6274150000000000e+05" cType="1" res="2.9710876941680908e-01" rms="4.4239142537117004e-01" purity="1.0000000000000000e+00" nType="0">
            <Node pos="l" depth="3" NCoef="0" IVar="33" Cut="1.2907642822265625e+03" cType="1" res="4.8553401231765747e-01" rms="5.0566667318344116e-01" purity="1.0000000000000000e+00" nType="0">
              <Node pos="l" depth="4" NCoef="0" IVar="-1" Cut="0.0000000000000000e+00" cType="1" res="1.1716335266828537e-01" rms="3.9265832304954529e-01" purity="1.0000000000000000e+00" nType="-99"/>
              <Node pos="r" depth="4" NCoef="0" IVar="-1" Cut="0.0000000000000000e+00" cType="1" res="2.8571918606758118e-01" rms="7.0167046785354614e-01" purity="1.0000000000000000e+00" nType="-99"/>
            </Node>
            <Node pos="r" depth="3" NCoef="0" IVar="0" Cut="2.5858624267578125e+02" cType="1" res="1.3933099806308746e-01" rms="3.0142268538475037e-01" purity="1.0000000000000000e+00" nType="0">
              <Node pos="l" depth="4" NCoef="0" IVar="-1" Cut="0.0000000000000000e+00" cType="1" res="6.7744366824626923e-02" rms="3.4399652481079102e-01" purity="1.0000000000000000e+00" nType="-99"/>
              <Node pos="r" depth="4" NCoef="0" IVar="-1" Cut="0.0000000000000000e+00" cType="1" res="1.4572996646165848e-02" rms="2.1432591974735260e-01" purity="1.0000000000000000e+00" nType="-99"/>
            </Node>
          </Node>
          <Node pos="r" depth="2" NCoef="0" IVar="-1" Cut="0.0000000000000000e+00" cType="1" res="4.5526376366615295e-01" rms="1.6043422222137451e+00" purity="1.0000000000000000e+00" nType="-99"/>
        </Node>
      </Node>
    </BinaryTree>
    <BinaryTree type="DecisionTree" boostWeight="1.0000000000000000e+00" itree="2">
      <Node pos="s" depth="0" NCoef="0" IVar="33" Cut="9.2899237060546875e+02" cType="1" res="-2.9518959498986419e-10" rms="2.0739649236202240e-01" purity="1.0000000000000000e+00" nType="0">
        <Node pos="l" depth="1" NCoef="0" IVar="33" Cut="4.8388067626953125e+02" cType="1" res="-1.4337211847305298e-02" rms="1.5705011785030365e-01" purity="1.0000000000000000e+00" nType="0">
          <Node pos="l" depth="2" NCoef="0" IVar="33" Cut="3.8469766235351562e+02" cType="1" res="-4.7294553369283676e-02" rms="1.2156356126070023e-01" purity="1.0000000000000000e+00" nType="0">
            <Node pos="l" depth="3" NCoef="0" IVar="0" Cut="1.1423491668701172e+02" cType="1" res="-7.1609303355216980e-02" rms="1.1247436702251434e-01" purity="1.0000000000000000e+00" nType="0">
              <Node pos="l" depth="4" NCoef="0" IVar="-1" Cut="0.0000000000000000e+00" cType="1" res="-1.9556919112801552e-02" rms="1.0820192843675613e-01" purity="1.0000000000000000e+00" nType="-99"/>
              <Node pos="r" depth="4" NCoef="0" IVar="-1" Cut="0.0000000000000000e+00" cType="1" res="-3.9077475666999817e-02" rms="1.3209053874015808e-01" purity="1.0000000000000000e+00" nType="-99"/>
            </Node>
            <Node pos="r" depth="3" NCoef="0" IVar="0" Cut="1.3158639526367188e+02" cType="1" res="-3.2759793102741241e-02" rms="1.2443725764751434e-01" purity="1.0000000000000000e+00" nType="0">
              <Node pos="l" depth="4" NCoef="0" IVar="-1" Cut="0.0000000000000000e+00" cType="1" res="-7.5697903521358967e-03" rms="1.2170389294624329e-01" purity="1.0000000000000000e+00" nType="-99"/>
              <Node pos="r" depth="4" NCoef="0" IVar="-1" Cut="0.0000000000000000e+00" cType="1" res="-1.9865565001964569e-02" rms="1.3078188896179199e-01" purity="1.0000000000000000e+00" nType="-99"/>
            </Node>
          </Node>
          <Node pos="r" depth="2" NCoef="0" IVar="33" Cut="8.0126141357421875e+02" cType="1" res="3.0662236735224724e-02" rms="1.8616211414337158e-01" purity="1.0000000000000000e+00" nType="0">
            <Node pos="l" depth="3" NCoef="0" IVar="0" Cut="1.7537437438964844e+02" cType="1" res="1.9289486110210419e-02" rms="1.7026083171367645e-01" purity="1.0000000000000000e+00" nType="0">
              <Node pos="l" depth="4" NCoef="0" IVar="-1" Cut="0.0000000000000000e+00" cType="1" res="1.0820388793945312e-02" rms="1.7487598955631256e-01" purity="1.0000000000000000e+00" nType="-99"/>
              <Node pos="r" depth="4" NCoef="0" IVar="-1" Cut="0.0000000000000000e+00" cType="1" res="-9.3839718028903008e-03" rms="1.4416041970252991e-01" purity="1.0000000000000000e+00" nType="-99"/>
            </Node>
            <Node pos="r" depth="3" NCoef="0" IVar="0" Cut="1.6068730163574219e+02" cType="1" res="1.2343994528055191e-01" rms="2.6688766479492188e-01" purity="1.0000000000000000e+00" nType="0">
              <Node pos="l" depth="4" NCoef="0" IVar="-1" Cut="0.0000000000000000e+00" cType="1" res="6.9141834974288940e-02" rms="3.0512332916259766e-01" purity="1.0000000000000000e+00" nType="-99"/>
              <Node pos="r" depth="4" NCoef="0" IVar="-1" Cut="0.0000000000000000e+00" cType="1" res="1.0609486140310764e-02" rms="1.8986189365386963e-01" purity="1.0000000000000000e+00" nType="-99"/>
            </Node>
          </Node>
        </Node>
        <Node pos="r" depth="1" NCoef="0" IVar="33" Cut="1.9300938720703125e+03" cType="1" res="2.4161022901535034e-01" rms="5.3887224197387695e-01" purity="1.0000000000000000e+00" nType="0">
          <Node pos="l" depth="2" NCoef="0" IVar="0" Cut="2.0770483398437500e+02" cType="1" res="2.0797613263130188e-01" rms="4.0995389223098755e-01" purity="1.0000000000000000e+00" nType="0">
            <Node pos="l" depth="3" NCoef="0" IVar="27" Cut="4.4497596875000000e+05" cType="1" res="3.3138930797576904e-01" rms="4.7263291478157043e-01" purity="1.0000000000000000e+00" nType="0">
              <Node pos="l" depth="4" NCoef="0" IVar="-1" Cut="0.0000000000000000e+00" cType="1" res="1.5936599671840668e-01" rms="5.2408623695373535e-01" purity="1.0000000000000000e+00" nType="-99"/>
              <Node pos="r" depth="4" NCoef="0" IVar="-1" Cut="0.0000000000000000e+00" cType="1" res="4.9114599823951721e-02" rms="3.4457084536552429e-01" purity="1.0000000000000000e+00" nType="-99"/>
            </Node>
            <Node pos="r" depth="3" NCoef="0" IVar="33" Cut="1.2569096679687500e+03" cType="1" res="7.1796067059040070e-02" rms="2.6770946383476257e-01" purity="1.0000000000000000e+00" nType="0">
              <Node pos="l" depth="4" NCoef="0" IVar="-1" Cut="0.0000000000000000e+00" cType="1" res="5.5547989904880524e-03" rms="2.0577283203601837e-01" purity="1.0000000000000000e+00" nType="-99"/>
              <Node pos="r" depth="4" NCoef="0" IVar="-1" Cut="0.0000000000000000e+00" cType="1" res="6.1402585357427597e-02" rms="3.4651082754135132e-01" purity="1.0000000000000000e+00" nType="-99"/>
            </Node>
          </Node>
          <Node pos="r" depth="2" NCoef="0" IVar="-1" Cut="0.0000000000000000e+00" cType="1" res="3.1868463754653931e-01" rms="1.6043422222137451e+00" purity="1.0000000000000000e+00" nType="-99"/>
        </Node>
      </Node>
    </BinaryTree>
    <BinaryTree type="DecisionTree" boostWeight="1.0000000000000000e+00" itree="3">
      <Node pos="s" depth="0" NCoef="0" IVar="33" Cut="1.1236453857421875e+03" cType="1" res="-3.3681926692175068e-10" rms="1.9480469822883606e-01" purity="1.0000000000000000e+00" nType="0">
        <Node pos="l" depth="1" NCoef="0" IVar="33" Cut="6.0436376953125000e+02" cType="1" res="-7.1145119145512581e-03" rms="1.5976372361183167e-01" purity="1.0000000000000000e+00" nType="0">
          <Node pos="l" depth="2" NCoef="0" IVar="33" Cut="4.3147116088867188e+02" cType="1" res="-2.4764446541666985e-02" rms="1.2861070036888123e-01" purity="1.0000000000000000e+00" nType="0">
            <Node pos="l" depth="3" NCoef="0" IVar="3" Cut="1.2402011108398438e+02" cType="1" res="-4.1521791368722916e-02" rms="1.1679755151271820e-01" purity="1.0000000000000000e+00" nType="0">
              <Node pos="l" depth="4" NCoef="0" IVar="-1" Cut="0.0000000000000000e+00" cType="1" res="-1.0757004842162132e-02" rms="1.1307074874639511e-01" purity="1.0000000000000000e+00" nType="-99"/>
              <Node pos="r" depth="4" NCoef="0" IVar="-1" Cut="0.0000000000000000e+00" cType="1" res="-2.6134701445698738e-02" rms="1.3490457832813263e-01" purity="1.0000000000000000e+00" nType="-99"/>
            </Node>
            <Node pos="r" depth="3" NCoef="0" IVar="17" Cut="6.0324756622314453e+01" cType="1" res="-5.7398555800318718e-03" rms="1.3838806748390198e-01" purity="1.0000000000000000e+00" nType="0">
              <Node pos="l" depth="4" NCoef="0" IVar="-1" Cut="0.0000000000000000e+00" cType="1" res="2.5385010521858931e-03" rms="1.4417408406734467e-01" purity="1.0000000000000000e+00" nType="-99"/>
              <Node pos="r" depth="4" NCoef="0" IVar="-1" Cut="0.0000000000000000e+00" cType="1" res="-7.8483279794454575e-03" rms="1.2685929238796234e-01" purity="1.0000000000000000e+00" nType="-99"/>
            </Node>
          </Node>
          <Node pos="r" depth="2" NCoef="0" IVar="27" Cut="2.8355353125000000e+05" cType="1" res="5.0953499972820282e-02" rms="2.2513109445571899e-01" purity="1.0000000000000000e+00" nType="0">
            <Node pos="l" depth="3" NCoef="0" IVar="33" Cut="8.2525085449218750e+02" cType="1" res="1.5550981462001801e-01" rms="2.5287213921546936e-01" purity="1.0000000000000000e+00" nType="0">
              <Node pos="l" depth="4" NCoef="0" IVar="-1" Cut="0.0000000000000000e+00" cType="1" res="3.6588422954082489e-02" rms="2.1104139089584351e-01" purity="1.0000000000000000e+00" nType="-99"/>
              <Node pos="r" depth="4" NCoef="0" IVar="-1" Cut="0.0000000000000000e+00" cType="1" res="8.8325053453445435e-02" rms="3.4689900279045105e-01" purity="1.0000000000000000e+00" nType="-99"/>
            </Node>
            <Node pos="r" depth="3" NCoef="0" IVar="28" Cut="7.9247373342514038e-01" cType="1" res="1.7670985311269760e-02" rms="2.0463465154170990e-01" purity="1.0000000000000000e+00" nType="0">
              <Node pos="l" depth="4" NCoef="0" IVar="-1" Cut="0.0000000000000000e+00" cType="1" res="1.5598356258124113e-03" rms="1.9496643543243408e-01" purity="1.0000000000000000e+00" nType="-99"/>
              <Node pos="r" depth="4" NCoef="0" IVar="-1" Cut="0.0000000000000000e+00" cType="1" res="2.6426548138260841e-02" rms="2.4052533507347107e-01" purity="1.0000000000000000e+00" nType="-99"/>
            </Node>
          </Node>
        </Node>
        <Node pos="r" depth="1" NCoef="0" IVar="23" Cut="4.6656227111816406e+01" cType="1" res="2.7586829662322998e-01" rms="6.6456401348114014e-01" purity="1.0000000000000000e+00" nType="0">
          <Node pos="l" depth="2" NCoef="0" IVar="33" Cut="1.4484687500000000e+03" cType="1" res="7.5356823205947876e-01" rms="1.1708762645721436e+00" purity="1.0000000000000000e+00" nType="0">
            <Node pos="l" depth="3" NCoef="0" IVar="-1" Cut="0.0000000000000000e+00" cType="1" res="1.2275116890668869e-01" rms="5.8441507816314697e-01" purity="1.0000000000000000e+00" nType="-99"/>
            <Node pos="r" depth="3" NCoef="0" IVar="-1" Cut="0.0000000000000000e+00" cType="1" res="3.4286618232727051e-01" rms="1.4996608495712280e+00" purity="1.0000000000000000e+00" nType="-99"/>
          </Node>
          <Node pos="r" depth="2" NCoef="0" IVar="27" Cut="6.2905062500000000e+05" cType="1" res="1.7668485641479492e-01" rms="4.3758302927017212e-01" purity="1.0000000000000000e+00" nType="0">
            <Node pos="l" depth="3" NCoef="0" IVar="33" Cut="1.4615186767578125e+03" cType="1" res="3.4968253970146179e-01" rms="5.0255066156387329e-01" purity="1.0000000000000000e+00" nType="0">
              <Node pos="l" depth="4" NCoef="0" IVar="-1" Cut="0.0000000000000000e+00" cType="1" res="7.7311687171459198e-02" rms="3.8699287176132202e-01" purity="1.0000000000000000e+00" nType="-99"/>
              <Node pos="r" depth="4" NCoef="0" IVar="-1" Cut="0.0000000000000000e+00" cType="1" res="1.7707125842571259e-01" rms="6.6438692808151245e-01" purity="1.0000000000000000e+00" nType="-99"/>
            </Node>
            <Node pos="r" depth="3" NCoef="0" IVar="27" Cut="1.5451780000000000e+06" cType="1" res="6.2165249139070511e-02" rms="3.4368658065795898e-01" purity="1.0000000000000000e+00" nType="0">
              <Node pos="l" depth="4" NCoef="0" IVar="-1" Cut="0.0000000000000000e+00" cType="1" res="3.6605179309844971e-02" rms="3.2022041082382202e-01" purity="1.0000000000000000e+00" nType="-99"/>
              <Node pos="r" depth="4" NCoef="0" IVar="-1" Cut="0.0000000000000000e+00" cType="1" res="-3.0492078512907028e-02" rms="3.5231000185012817e-01" purity="1.0000000000000000e+00" nType="-99"/>
            </Node>
          </Node>
        </Node>
      </Node>
    </BinaryTree>
    <BinaryTree type="DecisionTree" boostWeight="1.0000000000000000e+00" itree="4">
      <Node pos="s" depth="0" NCoef="0" IVar="33" Cut="1.3182984619140625e+03" cType="1" res="-1.4780636437006223e-10" rms="1.8528926372528076e-01" purity="1.0000000000000000e+00" nType="0">
        <Node pos="l" depth="1" NCoef="0" IVar="33" Cut="6.6883581542968750e+02" cType="1" res="-3.5589491017162800e-03" rms="1.6041991114616394e-01" purity="1.0000000000000000e+00" nType="0">
          <Node pos="l" depth="2" NCoef="0" IVar="33" Cut="3.7585617065429688e+02" cType="1" res="-1.5573146753013134e-02" rms="1.3146957755088806e-01" purity="1.0000000000000000e+00" nType="0">
            <Node pos="l" depth="3" NCoef="0" IVar="0" Cut="9.3109619140625000e+01" cType="1" res="-4.4090922921895981e-02" rms="1.1108095198869705e-01" purity="1.0000000000000000e+00" nType="0">
              <Node pos="l" depth="4" NCoef="0" IVar="-1" Cut="0.0000000000000000e+00" cType="1" res="-1.0236643254756927e-02" rms="1.0399626940488815e-01" purity="1.0000000000000000e+00" nType="-99"/>
              <Node pos="r" depth="4" NCoef="0" IVar="-1" Cut="0.0000000000000000e+00" cType="1" res="-2.3565458133816719e-02" rms="1.2678842246532440e-01" purity="1.0000000000000000e+00" nType="-99"/>
            </Node>
            <Node pos="r" depth="3" NCoef="0" IVar="0" Cut="1.2849545288085938e+02" cType="1" res="-8.8603831827640533e-03" rms="1.3495117425918579e-01" purity="1.0000000000000000e+00" nType="0">
              <Node pos="l" depth="4" NCoef="0" IVar="-1" Cut="0.0000000000000000e+00" cType="1" res="-4.3512060074135661e-05" rms="1.3427504897117615e-01" purity="1.0000000000000000e+00" nType="-99"/>
              <Node pos="r" depth="4" NCoef="0" IVar="-1" Cut="0.0000000000000000e+00" cType="1" res="-8.7783709168434143e-03" rms="1.3432763516902924e-01" purity="1.0000000000000000e+00" nType="-99"/>
            </Node>
          </Node>
          <Node pos="r" depth="2" NCoef="0" IVar="0" Cut="1.6380545043945312e+02" cType="1" res="5.2531652152538300e-02" rms="2.4772232770919800e-01" purity="1.0000000000000000e+00" nType="0">
            <Node pos="l" depth="3" NCoef="0" IVar="13" Cut="1.3653021240234375e+02" cType="1" res="1.0914508253335953e-01" rms="2.8121754527091980e-01" purity="1.0000000000000000e+00" nType="0">
              <Node pos="l" depth="4" NCoef="0" IVar="-1" Cut="0.0000000000000000e+00" cType="1" res="4.5437462627887726e-02" rms="2.9188930988311768e-01" purity="1.0000000000000000e+00" nType="-99"/>
              <Node pos="r" depth="4" NCoef="0" IVar="-1" Cut="0.0000000000000000e+00" cType="1" res="1.5243144705891609e-02" rms="2.5451958179473877e-01" purity="1.0000000000000000e+00" nType="-99"/>
            </Node>
            <Node pos="r" depth="3" NCoef="0" IVar="13" Cut="1.4843208312988281e+02" cType="1" res="-3.2844049856066704e-03" rms="1.9396795332431793e-01" purity="1.0000000000000000e+00" nType="0">
              <Node pos="l" depth="4" NCoef="0" IVar="-1" Cut="0.0000000000000000e+00" cType="1" res="7.3174987919628620e-03" rms="2.0576374232769012e-01" purity="1.0000000000000000e+00" nType="-99"/>
              <Node pos="r" depth="4" NCoef="0" IVar="-1" Cut="0.0000000000000000e+00" cType="1" res="-1.7540944740176201e-02" rms="1.5378206968307495e-01" purity="1.0000000000000000e+00" nType="-99"/>
            </Node>
          </Node>
        </Node>
        <Node pos="r" depth="1" NCoef="0" IVar="0" Cut="2.2427069091796875e+02" cType="1" res="2.7277150750160217e-01" rms="7.8607082366943359e-01" purity="1.0000000000000000e+00" nType="0">
          <Node pos="l" depth="2" NCoef="0" IVar="27" Cut="3.2720631250000000e+05" cType="1" res="5.0035303831100464e-01" rms="9.5375597476959229e-01" purity="1.0000000000000000e+00" nType="0">
            <Node pos="l" depth="3" NCoef="0" IVar="-1" Cut="0.0000000000000000e+00" cType="1" res="2.9627144336700439e-01" rms="1.3165628910064697e+00" purity="1.0000000000000000e+00" nType="-99"/>
            <Node pos="r" depth="3" NCoef="0" IVar="27" Cut="8.3189318750000000e+05" cType="1" res="2.8381150960922241e-01" rms="6.2543904781341553e-01" purity="1.0000000000000000e+00" nType="0">
              <Node pos="l" depth="4" NCoef="0" IVar="-1" Cut="0.0000000000000000e+00" cType="1" res="1.3329781591892242e-01" rms="7.0808202028274536e-01" purity="1.0000000000000000e+00" nType="-99"/>
              <Node pos="r" depth="4" NCoef="0" IVar="-1" Cut="0.0000000000000000e+00" cType="1" res="2.0239746198058128e-02" rms="4.0137675404548645e-01" purity="1.0000000000000000e+00" nType="-99"/>
            </Node>
          </Node>
          <Node pos="r" depth="2" NCoef="0" IVar="21" Cut="3.6130983829498291e+00" cType="1" res="1.1722091585397720e-02" rms="3.9459329843521118e-01" purity="1.0000000000000000e+00" nType="0">
            <Node pos="l" depth="3" NCoef="0" IVar="-1" Cut="0.0000000000000000e+00" cType="1" res="4.1189238429069519e-02" rms="3.3962622284889221e-01" purity="1.0000000000000000e+00" nType="-99"/>
            <Node pos="r" depth="3" NCoef="0" IVar="-1" Cut="0.0000000000000000e+00" cType="1" res="-5.7339128106832504e-02" rms="3.9277857542037964e-01" purity="1.0000000000000000e+00" nType="-99"/>
          </Node>
        </Node>
      </Node>
    </BinaryTree>
    <BinaryTree type="DecisionTree" boostWeight="1.0000000000000000e+00" itree="5">
      <Node pos="s" depth="0" NCoef="0" IVar="33" Cut="1.7076044921875000e+03" cType="1" res="-1.3136494669829801e-10" rms="1.7874859273433685e-01" purity="1.0000000000000000e+00" nType="0">
        <Node pos="l" depth="1" NCoef="0" IVar="33" Cut="7.9818127441406250e+02" cType="1" res="-1.6201309626922011e-03" rms="1.6010484099388123e-01" purity="1.0000000000000000e+00" nType="0">
          <Node pos="l" depth="2" NCoef="0" IVar="33" Cut="4.3134533691406250e+02" cType="1" res="-8.5695134475827217e-03" rms="1.3853177428245544e-01" purity="1.0000000000000000e+00" nType="0">
            <Node pos="l" depth="3" NCoef="0" IVar="3" Cut="1.0650109100341797e+02" cType="1" res="-2.3154849186539650e-02" rms="1.1528077721595764e-01" purity="1.0000000000000000e+00" nType="0">
              <Node pos="l" depth="4" NCoef="0" IVar="-1" Cut="0.0000000000000000e+00" cType="1" res="-5.0707855261862278e-03" rms="1.1014083027839661e-01" purity="1.0000000000000000e+00" nType="-99"/>
              <Node pos="r" depth="4" NCoef="0" IVar="-1" Cut="0.0000000000000000e+00" cType="1" res="-1.4851215295493603e-02" rms="1.3158129155635834e-01" purity="1.0000000000000000e+00" nType="-99"/>
            </Node>
            <Node pos="r" depth="3" NCoef="0" IVar="17" Cut="5.6149814605712891e+01" cType="1" res="2.9573577921837568e-03" rms="1.5347300469875336e-01" purity="1.0000000000000000e+00" nType="0">
              <Node pos="l" depth="4" NCoef="0" IVar="-1" Cut="0.0000000000000000e+00" cType="1" res="5.7134367525577545e-03" rms="1.6070984303951263e-01" purity="1.0000000000000000e+00" nType="-99"/>
              <Node pos="r" depth="4" NCoef="0" IVar="-1" Cut="0.0000000000000000e+00" cType="1" res="-4.1115721687674522e-03" rms="1.4371250569820404e-01" purity="1.0000000000000000e+00" nType="-99"/>
            </Node>
          </Node>
          <Node pos="r" depth="2" NCoef="0" IVar="27" Cut="5.7485318750000000e+05" cType="1" res="6.3253499567508698e-02" rms="2.8480875492095947e-01" purity="1.0000000000000000e+00" nType="0">
            <Node pos="l" depth="3" NCoef="0" IVar="27" Cut="2.2419168750000000e+05" cType="1" res="1.1040043085813522e-01" rms="3.1083396077156067e-01" purity="1.0000000000000000e+00" nType="0">
              <Node pos="l" depth="4" NCoef="0" IVar="-1" Cut="0.0000000000000000e+00" cType="1" res="7.4644781649112701e-02" rms="3.7074923515319824e-01" purity="1.0000000000000000e+00" nType="-99"/>
              <Node pos="r" depth="4" NCoef="0" IVar="-1" Cut="0.0000000000000000e+00" cType="1" res="2.4373628199100494e-02" rms="2.8832367062568665e-01" purity="1.0000000000000000e+00" nType="-99"/>
            </Node>
            <Node pos="r" depth="3" NCoef="0" IVar="32" Cut="-9.5523422956466675e-01" cType="1" res="7.4315411038696766e-03" rms="2.3877611756324768e-01" purity="1.0000000000000000e+00" nType="0">
              <Node pos="l" depth="4" NCoef="0" IVar="-1" Cut="0.0000000000000000e+00" cType="1" res="4.4706318527460098e-02" rms="3.0728083848953247e-01" purity="1.0000000000000000e+00" nType="-99"/>
              <Node pos="r" depth="4" NCoef="0" IVar="-1" Cut="0.0000000000000000e+00" cType="1" res="-3.1279786489903927e-03" rms="2.2237026691436768e-01" purity="1.0000000000000000e+00" nType="-99"/>
            </Node>
          </Node>
        </Node>
        <Node pos="r" depth="1" NCoef="0" IVar="29" Cut="4.1285943984985352e+00" cType="1" res="3.6569595336914062e-01" rms="1.1504828929901123e+00" purity="1.0000000000000000e+00" nType="0">
          <Node pos="l" depth="2" NCoef="0" IVar="-1" Cut="0.0000000000000000e+00" cType="1" res="1.9766083359718323e-01" rms="1.3372101783752441e+00" purity="1.0000000000000000e+00" nType="-99"/>
          <Node pos="r" depth="2" NCoef="0" IVar="-1" Cut="0.0000000000000000e+00" cType="1" res="1.4427396468818188e-02" rms="7.9145109653472900e-01" purity="1.0000000000000000e+00" nType="-99"/>
        </Node>
      </Node>
    </BinaryTree>
    <BinaryTree type="DecisionTree" boostWeight="1.0000000000000000e+00" itree="6">
      <Node pos="s" depth="0" NCoef="0" IVar="33" Cut="1.1236453857421875e+03" cType="1" res="3.9835561932433095e-11" rms="1.7532184720039368e-01" purity="1.0000000000000000e+00" nType="0">
        <Node pos="l" depth="1" NCoef="0" IVar="33" Cut="5.3026934814453125e+02" cType="1" res="-2.9601647984236479e-03" rms="1.5056814253330231e-01" purity="1.0000000000000000e+00" nType="0">
          <Node pos="l" depth="2" NCoef="0" IVar="21" Cut="2.3547611236572266e+00" cType="1" res="-1.3016032055020332e-02" rms="1.2110584974288940e-01" purity="1.0000000000000000e+00" nType="0">
            <Node pos="l" depth="3" NCoef="0" IVar="13" Cut="1.6944297790527344e+02" cType="1" res="-4.7554606571793556e-03" rms="1.1322815716266632e-01" purity="1.0000000000000000e+00" nType="0">
              <Node pos="l" depth="4" NCoef="0" IVar="-1" Cut="0.0000000000000000e+00" cType="1" res="-1.0252794018015265e-03" rms="1.1279097199440002e-01" purity="1.0000000000000000e+00" nType="-99"/>
              <Node pos="r" depth="4" NCoef="0" IVar="-1" Cut="0.0000000000000000e+00" cType="1" res="-1.9752604886889458e-02" rms="1.1627125740051270e-01" purity="1.0000000000000000e+00" nType="-99"/>
            </Node>
            <Node pos="r" depth="3" NCoef="0" IVar="3" Cut="1.3677343750000000e+02" cType="1" res="-2.6776557788252831e-02" rms="1.3205569982528687e-01" purity="1.0000000000000000e+00" nType="0">
              <Node pos="l" depth="4" NCoef="0" IVar="-1" Cut="0.0000000000000000e+00" cType="1" res="-6.9547970779240131e-03" rms="1.2940913438796997e-01" purity="1.0000000000000000e+00" nType="-99"/>
              <Node pos="r" depth="4" NCoef="0" IVar="-1" Cut="0.0000000000000000e+00" cType="1" res="-2.0971009507775307e-02" rms="1.5403762459754944e-01" purity="1.0000000000000000e+00" nType="-99"/>
            </Node>
          </Node>
          <Node pos="r" depth="2" NCoef="0" IVar="0" Cut="1.4321611022949219e+02" cType="1" res="1.6166580840945244e-02" rms="1.9322748482227325e-01" purity="1.0000000000000000e+00" nType="0">
            <Node pos="l" depth="3" NCoef="0" IVar="27" Cut="2.7669903125000000e+05" cType="1" res="4.3230354785919189e-02" rms="2.1217457950115204e-01" purity="1.0000000000000000e+00" nType="0">
              <Node pos="l" depth="4" NCoef="0" IVar="-1" Cut="0.0000000000000000e+00" cType="1" res="2.5243122130632401e-02" rms="2.1701513230800629e-01" purity="1.0000000000000000e+00" nType="-99"/>
              <Node pos="r" depth="4" NCoef="0" IVar="-1" Cut="0.0000000000000000e+00" cType="1" res="5.1067471504211426e-03" rms="2.0476366579532623e-01" purity="1.0000000000000000e+00" nType="-99"/>
            </Node>
            <Node pos="r" depth="3" NCoef="0" IVar="21" Cut="3.2162427902221680e+00" cType="1" res="-9.2435991391539574e-03" rms="1.6968090832233429e-01" purity="1.0000000000000000e+00" nType="0">
              <Node pos="l" depth="4" NCoef="0" IVar="-1" Cut="0.0000000000000000e+00" cType="1" res="1.3478534528985620e-03" rms="1.6759432852268219e-01" purity="1.0000000000000000e+00" nType="-99"/>
              <Node pos="r" depth="4" NCoef="0" IVar="-1" Cut="0.0000000000000000e+00" cType="1" res="-1.2926419265568256e-02" rms="1.7004472017288208e-01" purity="1.0000000000000000e+00" nType="-99"/>
            </Node>
          </Node>
        </Node>
        <Node pos="r" depth="1" NCoef="0" IVar="0" Cut="2.1444427490234375e+02" cType="1" res="1.1478168517351151e-01" rms="5.7447707653045654e-01" purity="1.0000000000000000e+00" nType="0">
          <Node pos="l" depth="2" NCoef="0" IVar="27" Cut="2.8424731250000000e+05" cType="1" res="2.2611404955387115e-01" rms="7.2339862585067749e-01" purity="1.0000000000000000e+00" nType="0">
            <Node pos="l" depth="3" NCoef="0" IVar="-1" Cut="0.0000000000000000e+00" cType="1" res="1.8114821612834930e-01" rms="1.1357475519180298e+00" purity="1.0000000000000000e+00" nType="-99"/>
            <Node pos="r" depth="3" NCoef="0" IVar="28" Cut="6.7490386962890625e-01" cType="1" res="1.2842956185340881e-01" rms="5.2782911062240601e-01" purity="1.0000000000000000e+00" nType="0">
              <Node pos="l" depth="4" NCoef="0" IVar="-1" Cut="0.0000000000000000e+00" cType="1" res="1.9611475989222527e-02" rms="4.2445662617683411e-01" purity="1.0000000000000000e+00" nType="-99"/>
              <Node pos="r" depth="4" NCoef="0" IVar="-1" Cut="0.0000000000000000e+00" cType="1" res="1.1502093821763992e-01" rms="7.7172172069549561e-01" purity="1.0000000000000000e+00" nType="-99"/>
            </Node>
          </Node>
          <Node pos="r" depth="2" NCoef="0" IVar="11" Cut="1.6407194137573242e+00" cType="1" res="-2.1573351696133614e-03" rms="3.1672501564025879e-01" purity="1.0000000000000000e+00" nType="0">
            <Node pos="l" depth="3" NCoef="0" IVar="0" Cut="4.3224411010742188e+02" cType="1" res="4.1667420417070389e-02" rms="2.9568609595298767e-01" purity="1.0000000000000000e+00" nType="0">
              <Node pos="l" depth="4" NCoef="0" IVar="-1" Cut="0.0000000000000000e+00" cType="1" res="2.7365913614630699e-02" rms="3.3022055029869080e-01" purity="1.0000000000000000e+00" nType="-99"/>
              <Node pos="r" depth="4" NCoef="0" IVar="-1" Cut="0.0000000000000000e+00" cType="1" res="-1.9089363515377045e-02" rms="1.5872007608413696e-01" purity="1.0000000000000000e+00" nType="-99"/>
            </Node>
            <Node pos="r" depth="3" NCoef="0" IVar="-1" Cut="0.0000000000000000e+00" cType="1" res="-3.4358549863100052e-02" rms="3.4029394388198853e-01" purity="1.0000000000000000e+00" nType="-99"/>
          </Node>
        </Node>
      </Node>
    </BinaryTree>
    <BinaryTree type="DecisionTree" boostWeight="1.0000000000000000e+00" itree="7">
      <Node pos="s" depth="0" NCoef="0" IVar="33" Cut="1.7076044921875000e+03" cType="1" res="-1.7317754175127931e-10" rms="1.7204912006855011e-01" purity="1.0000000000000000e+00" nType="0">
        <Node pos="l" depth="1" NCoef="0" IVar="33" Cut="7.9818127441406250e+02" cType="1" res="-9.7563397139310837e-04" rms="1.5584886074066162e-01" purity="1.0000000000000000e+00" nType="0">
          <Node pos="l" depth="2" NCoef="0" IVar="21" Cut="3.4444336891174316e+00" cType="1" res="-4.9356883391737938e-03" rms="1.3646230101585388e-01" purity="1.0000000000000000e+00" nType="0">
            <Node pos="l" depth="3" NCoef="0" IVar="17" Cut="3.8717773437500000e+01" cType="1" res="-2.9435444157570601e-03" rms="1.3536022603511810e-01" purity="1.0000000000000000e+00" nType="0">
              <Node pos="l" depth="4" NCoef="0" IVar="-1" Cut="0.0000000000000000e+00" cType="1" res="4.2524817399680614e-03" rms="1.4298042654991150e-01" purity="1.0000000000000000e+00" nType="-99"/>
              <Node pos="r" depth="4" NCoef="0" IVar="-1" Cut="0.0000000000000000e+00" cType="1" res="-2.2978766355663538e-03" rms="1.3279718160629272e-01" purity="1.0000000000000000e+00" nType="-99"/>
            </Node>
            <Node pos="r" depth="3" NCoef="0" IVar="29" Cut="3.3823125362396240e+00" cType="1" res="-5.5283535271883011e-02" rms="1.5348576009273529e-01" purity="1.0000000000000000e+00" nType="0">
              <Node pos="l" depth="4" NCoef="0" IVar="-1" Cut="0.0000000000000000e+00" cType="1" res="-1.8180351471528411e-03" rms="1.5030428767204285e-01" purity="1.0000000000000000e+00" nType="-99"/>
              <Node pos="r" depth="4" NCoef="0" IVar="-1" Cut="0.0000000000000000e+00" cType="1" res="-2.1109636873006821e-02" rms="1.5127511322498322e-01" purity="1.0000000000000000e+00" nType="-99"/>
            </Node>
          </Node>
          <Node pos="r" depth="2" NCoef="0" IVar="2" Cut="2.0476191043853760e+00" cType="1" res="3.5992126911878586e-02" rms="2.7509516477584839e-01" purity="1.0000000000000000e+00" nType="0">
            <Node pos="l" depth="3" NCoef="0" IVar="27" Cut="8.2027781250000000e+05" cType="1" res="2.9412372037768364e-02" rms="2.6643601059913635e-01" purity="1.0000000000000000e+00" nType="0">
              <Node pos="l" depth="4" NCoef="0" IVar="-1" Cut="0.0000000000000000e+00" cType="1" res="1.5239741653203964e-02" rms="2.8199025988578796e-01" purity="1.0000000000000000e+00" nType="-99"/>
              <Node pos="r" depth="4" NCoef="0" IVar="-1" Cut="0.0000000000000000e+00" cType="1" res="-1.1556619778275490e-02" rms="1.9448317587375641e-01" purity="1.0000000000000000e+00" nType="-99"/>
            </Node>
            <Node pos="r" depth="3" NCoef="0" IVar="-1" Cut="0.0000000000000000e+00" cType="1" res="8.8658079504966736e-02" rms="4.3769201636314392e-01" purity="1.0000000000000000e+00" nType="-99"/>
          </Node>
        </Node>
        <Node pos="r" depth="1" NCoef="0" IVar="24" Cut="2.2120334472656250e+03" cType="1" res="2.2022005915641785e-01" rms="1.0862418413162231e+00" purity="1.0000000000000000e+00" nType="0">
          <Node pos="l" depth="2" NCoef="0" IVar="-1" Cut="0.0000000000000000e+00" cType="1" res="1.4372545480728149e-01" rms="1.3654110431671143e+00" purity="1.0000000000000000e+00" nType="-99"/>
          <Node pos="r" depth="2" NCoef="0" IVar="-1" Cut="0.0000000000000000e+00" cType="1" res="-2.5099400430917740e-02" rms="4.5327010750770569e-01" purity="1.0000000000000000e+00" nType="-99"/>
        </Node>
      </Node>
    </BinaryTree>
    <BinaryTree type="DecisionTree" boostWeight="1.0000000000000000e+00" itree="8">
      <Node pos="s" depth="0" NCoef="0" IVar="33" Cut="5.3968634033203125e+02" cType="1" res="-1.4906438583484061e-10" rms="1.7027023434638977e-01" purity="1.0000000000000000e+00" nType="0">
        <Node pos="l" depth="1" NCoef="0" IVar="21" Cut="1.5296475887298584e+00" cType="1" res="-8.0872653052210808e-03" rms="1.2088704109191895e-01" purity="1.0000000000000000e+00" nType="0">
          <Node pos="l" depth="2" NCoef="0" IVar="30" Cut="-5.3312182426452637e-01" cType="1" res="4.6845497563481331e-03" rms="1.0655383020639420e-01" purity="1.0000000000000000e+00" nType="0">
            <Node pos="l" depth="3" NCoef="0" IVar="7" Cut="-1.0614218711853027e+00" cType="1" res="-3.3162232488393784e-02" rms="1.1754997074604034e-01" purity="1.0000000000000000e+00" nType="0">
              <Node pos="l" depth="4" NCoef="0" IVar="-1" Cut="0.0000000000000000e+00" cType="1" res="-2.1396962925791740e-02" rms="1.2119415402412415e-01" purity="1.0000000000000000e+00" nType="-99"/>
              <Node pos="r" depth="4" NCoef="0" IVar="-1" Cut="0.0000000000000000e+00" cType="1" res="-5.2114445716142654e-03" rms="1.1227664351463318e-01" purity="1.0000000000000000e+00" nType="-99"/>
            </Node>
            <Node pos="r" depth="3" NCoef="0" IVar="13" Cut="1.4380178833007812e+02" cType="1" res="7.7572586014866829e-03" rms="1.0501388460397720e-01" purity="1.0000000000000000e+00" nType="0">
              <Node pos="l" depth="4" NCoef="0" IVar="-1" Cut="0.0000000000000000e+00" cType="1" res="3.0691602732986212e-03" rms="1.0371357947587967e-01" purity="1.0000000000000000e+00" nType="-99"/>
              <Node pos="r" depth="4" NCoef="0" IVar="-1" Cut="0.0000000000000000e+00" cType="1" res="-9.5258373767137527e-03" rms="1.1706779897212982e-01" purity="1.0000000000000000e+00" nType="-99"/>
            </Node>
          </Node>
          <Node pos="r" depth="2" NCoef="0" IVar="27" Cut="1.4993856250000000e+05" cType="1" res="-1.3392256572842598e-02" rms="1.2598356604576111e-01" purity="1.0000000000000000e+00" nType="0">
            <Node pos="l" depth="3" NCoef="0" IVar="33" Cut="4.6548196411132812e+02" cType="1" res="2.5366877671331167e-03" rms="1.2515927851200104e-01" purity="1.0000000000000000e+00" nType="0">
              <Node pos="l" depth="4" NCoef="0" IVar="-1" Cut="0.0000000000000000e+00" cType="1" res="-1.2205523671582341e-03" rms="1.2021866440773010e-01" purity="1.0000000000000000e+00" nType="-99"/>
              <Node pos="r" depth="4" NCoef="0" IVar="-1" Cut="0.0000000000000000e+00" cType="1" res="1.6601955518126488e-02" rms="1.4906166493892670e-01" purity="1.0000000000000000e+00" nType="-99"/>
            </Node>
            <Node pos="r" depth="3" NCoef="0" IVar="29" Cut="6.0758476257324219e+00" cType="1" res="-2.0032534375786781e-02" rms="1.2573102116584778e-01" purity="1.0000000000000000e+00" nType="0">
              <Node pos="l" depth="4" NCoef="0" IVar="-1" Cut="0.0000000000000000e+00" cType="1" res="-6.7432695068418980e-03" rms="1.2606056034564972e-01" purity="1.0000000000000000e+00" nType="-99"/>
              <Node pos="r" depth="4" NCoef="0" IVar="-1" Cut="0.0000000000000000e+00" cType="1" res="8.3792395889759064e-03" rms="1.0845678299665451e-01" purity="1.0000000000000000e+00" nType="-99"/>
            </Node>
          </Node>
        </Node>
        <Node pos="r" depth="1" NCoef="0" IVar="0" Cut="1.2538486480712891e+02" cType="1" res="1.5455938875675201e-02" rms="2.3686926066875458e-01" purity="1.0000000000000000e+00" nType="0">
          <Node pos="l" depth="2" NCoef="0" IVar="33" Cut="1.0460557861328125e+03" cType="1" res="4.7851562500000000e-02" rms="2.7453085780143738e-01" purity="1.0000000000000000e+00" nType="0">
            <Node pos="l" depth="3" NCoef="0" IVar="13" Cut="1.4717063903808594e+02" cType="1" res="3.7059586495161057e-02" rms="2.0965853333473206e-01" purity="1.0000000000000000e+00" nType="0">
              <Node pos="l" depth="4" NCoef="0" IVar="-1" Cut="0.0000000000000000e+00" cType="1" res="1.8133947625756264e-02" rms="2.1579836308956146e-01" purity="1.0000000000000000e+00" nType="-99"/>
              <Node pos="r" depth="4" NCoef="0" IVar="-1" Cut="0.0000000000000000e+00" cType="1" res="-2.0823820959776640e-03" rms="1.8993902206420898e-01" purity="1.0000000000000000e+00" nType="-99"/>
            </Node>
            <Node pos="r" depth="3" NCoef="0" IVar="28" Cut="2.7882340550422668e-01" cType="1" res="2.7951928973197937e-01" rms="8.3275175094604492e-01" purity="1.0000000000000000e+00" nType="0">
              <Node pos="l" depth="4" NCoef="0" IVar="-1" Cut="0.0000000000000000e+00" cType="1" res="1.7258791252970695e-02" rms="5.0934767723083496e-01" purity="1.0000000000000000e+00" nType="-99"/>
              <Node pos="r" depth="4" NCoef="0" IVar="-1" Cut="0.0000000000000000e+00" cType="1" res="1.8375128507614136e-01" rms="1.0769112110137939e+00" purity="1.0000000000000000e+00" nType="-99"/>
            </Node>
          </Node>
          <Node pos="r" depth="2" NCoef="0" IVar="13" Cut="1.0155802917480469e+02" cType="1" res="-1.6961832297965884e-03" rms="2.1227285265922546e-01" purity="1.0000000000000000e+00" nType="0">
            <Node pos="l" depth="3" NCoef="0" IVar="28" Cut="7.9247373342514038e-01" cType="1" res="2.1603694185614586e-02" rms="2.3280444741249084e-01" purity="1.0000000000000000e+00" nType="0">
              <Node pos="l" depth="4" NCoef="0" IVar="-1" Cut="0.0000000000000000e+00" cType="1" res="2.8639037627726793e-03" rms="2.2901427745819092e-01" purity="1.0000000000000000e+00" nType="-99"/>
              <Node pos="r" depth="4" NCoef="0" IVar="-1" Cut="0.0000000000000000e+00" cType="1" res="3.8775250315666199e-02" rms="2.3861958086490631e-01" purity="1.0000000000000000e+00" nType="-99"/>
            </Node>
            <Node pos="r" depth="3" NCoef="0" IVar="2" Cut="2.0476191043853760e+00" cType="1" res="-1.9477669149637222e-02" rms="1.9327551126480103e-01" purity="1.0000000000000000e+00" nType="0">
              <Node pos="l" depth="4" NCoef="0" IVar="-1" Cut="0.0000000000000000e+00" cType="1" res="-6.8079256452620029e-03" rms="1.8685975670814514e-01" purity="1.0000000000000000e+00" nType="-99"/>
              <Node pos="r" depth="4" NCoef="0" IVar="-1" Cut="0.0000000000000000e+00" cType="1" res="3.1884256750345230e-02" rms="3.4135356545448303e-01" purity="1.0000000000000000e+00" nType="-99"/>
            </Node>
          </Node>
        </Node>
      </Node>
    </BinaryTree>
    <BinaryTree type="DecisionTree" boostWeight="1.0000000000000000e+00" itree="9">
      <Node pos="s" depth="0" NCoef="0" IVar="21" Cut="3.5879542827606201e+00" cType="1" res="-1.1584536108166787e-10" rms="1.6782635450363159e-01" purity="1.0000000000000000e+00" nType="0">
        <Node pos="l" depth="1" NCoef="0" IVar="33" Cut="1.7076044921875000e+03" cType="1" res="1.7676253337413073e-03" rms="1.6581222414970398e-01" purity="1.0000000000000000e+00" nType="0">
          <Node pos="l" depth="2" NCoef="0" IVar="33" Cut="6.6871044921875000e+02" cType="1" res="8.4298825822770596e-04" rms="1.5176746249198914e-01" purity="1.0000000000000000e+00" nType="0">
            <Node pos="l" depth="3" NCoef="0" IVar="33" Cut="3.6044476318359375e+02" cType="1" res="-3.5503755789250135e-03" rms="1.2732255458831787e-01" purity="1.0000000000000000e+00" nType="0">
              <Node pos="l" depth="4" NCoef="0" IVar="-1" Cut="0.0000000000000000e+00" cType="1" res="-8.5093630477786064e-03" rms="1.0547066479921341e-01" purity="1.0000000000000000e+00" nType="-99"/>
              <Node pos="r" depth="4" NCoef="0" IVar="-1" Cut="0.0000000000000000e+00" cType="1" res="-3.8249132921919227e-04" rms="1.2890250980854034e-01" purity="1.0000000000000000e+00" nType="-99"/>
            </Node>
            <Node pos="r" depth="3" NCoef="0" IVar="2" Cut="2.0952382087707520e+00" cType="1" res="2.2323762997984886e-02" rms="2.3629315197467804e-01" purity="1.0000000000000000e+00" nType="0">
              <Node pos="l" depth="4" NCoef="0" IVar="-1" Cut="0.0000000000000000e+00" cType="1" res="5.1560788415372372e-03" rms="2.2922952473163605e-01" purity="1.0000000000000000e+00" nType="-99"/>
              <Node pos="r" depth="4" NCoef="0" IVar="-1" Cut="0.0000000000000000e+00" cType="1" res="6.0070797801017761e-02" rms="3.7034600973129272e-01" purity="1.0000000000000000e+00" nType="-99"/>
            </Node>
          </Node>
          <Node pos="r" depth="2" NCoef="0" IVar="-1" Cut="0.0000000000000000e+00" cType="1" res="8.4618322551250458e-02" rms="1.1405128240585327e+00" purity="1.0000000000000000e+00" nType="-99"/>
        </Node>
        <Node pos="r" depth="1" NCoef="0" IVar="29" Cut="6.0909667015075684e+00" cType="1" res="-5.0009641796350479e-02" rms="2.1115951240062714e-01" purity="1.0000000000000000e+00" nType="0">
          <Node pos="l" depth="2" NCoef="0" IVar="7" Cut="2.5434651374816895e+00" cType="1" res="-3.5655532032251358e-02" rms="1.9287802278995514e-01" purity="1.0000000000000000e+00" nType="0">
            <Node pos="l" depth="3" NCoef="0" IVar="24" Cut="1.8350253906250000e+04" cType="1" res="-4.5614045113325119e-02" rms="1.8424391746520996e-01" purity="1.0000000000000000e+00" nType="0">
              <Node pos="l" depth="4" NCoef="0" IVar="-1" Cut="0.0000000000000000e+00" cType="1" res="-1.1261809617280960e-02" rms="1.7174884676933289e-01" purity="1.0000000000000000e+00" nType="-99"/>
              <Node pos="r" depth="4" NCoef="0" IVar="-1" Cut="0.0000000000000000e+00" cType="1" res="-4.5491423457860947e-02" rms="2.8329285979270935e-01" purity="1.0000000000000000e+00" nType="-99"/>
            </Node>
            <Node pos="r" depth="3" NCoef="0" IVar="-1" Cut="0.0000000000000000e+00" cType="1" res="1.7860842868685722e-02" rms="2.4148930609226227e-01" purity="1.0000000000000000e+00" nType="-99"/>
          </Node>
          <Node pos="r" depth="2" NCoef="0" IVar="-1" Cut="0.0000000000000000e+00" cType="1" res="-7.0214949548244476e-02" rms="3.2059335708618164e-01" purity="1.0000000000000000e+00" nType="-99"/>
        </Node>
      </Node>
    </BinaryTree>
    <BinaryTree type="DecisionTree" boostWeight="1.0000000000000000e+00" itree="10">
      <Node pos="s" depth="0" NCoef="0" IVar="3" Cut="1.3938110351562500e+02" cType="1" res="2.5741042977700523e-11" rms="1.6665406525135040e-01" purity="1.0000000000000000e+00" nType="0">
        <Node pos="l" depth="1" NCoef="0" IVar="33" Cut="9.1266076660156250e+02" cType="1" res="3.0824327841401100e-03" rms="1.6504095494747162e-01" purity="1.0000000000000000e+00" nType="0">
          <Node pos="l" depth="2" NCoef="0" IVar="17" Cut="1.1099909210205078e+02" cType="1" res="7.7384570613503456e-04" rms="1.3885629177093506e-01" purity="1.0000000000000000e+00" nType="0">
            <Node pos="l" depth="3" NCoef="0" IVar="33" Cut="6.1489141845703125e+02" cType="1" res="2.5621752720326185e-03" rms="1.3884969055652618e-01" purity="1.0000000000000000e+00" nType="0">
              <Node pos="l" depth="4" NCoef="0" IVar="-1" Cut="0.0000000000000000e+00" cType="1" res="-4.1665855678729713e-04" rms="1.2341780215501785e-01" purity="1.0000000000000000e+00" nType="-99"/>
              <Node pos="r" depth="4" NCoef="0" IVar="-1" Cut="0.0000000000000000e+00" cType="1" res="6.8062334321439266e-03" rms="1.9852006435394287e-01" purity="1.0000000000000000e+00" nType="-99"/>
            </Node>
            <Node pos="r" depth="3" NCoef="0" IVar="30" Cut="1.1737885475158691e+00" cType="1" res="-3.3860512077808380e-02" rms="1.3436919450759888e-01" purity="1.0000000000000000e+00" nType="0">
              <Node pos="l" depth="4" NCoef="0" IVar="-1" Cut="0.0000000000000000e+00" cType="1" res="-8.6500877514481544e-03" rms="1.2962394952774048e-01" purity="1.0000000000000000e+00" nType="-99"/>
              <Node pos="r" depth="4" NCoef="0" IVar="-1" Cut="0.0000000000000000e+00" cType="1" res="-3.5292591899633408e-02" rms="1.7746312916278839e-01" purity="1.0000000000000000e+00" nType="-99"/>
            </Node>
          </Node>
          <Node pos="r" depth="2" NCoef="0" IVar="0" Cut="1.2768074798583984e+02" cType="1" res="4.6463329344987869e-02" rms="4.1807371377944946e-01" purity="1.0000000000000000e+00" nType="0">
            <Node pos="l" depth="3" NCoef="0" IVar="22" Cut="2.2444555759429932e+00" cType="1" res="1.9716754555702209e-01" rms="6.4196550846099854e-01" purity="1.0000000000000000e+00" nType="0">
              <Node pos="l" depth="4" NCoef="0" IVar="-1" Cut="0.0000000000000000e+00" cType="1" res="1.8912909552454948e-02" rms="3.4334209561347961e-01" purity="1.0000000000000000e+00" nType="-99"/>
              <Node pos="r" depth="4" NCoef="0" IVar="-1" Cut="0.0000000000000000e+00" cType="1" res="1.3840566575527191e-01" rms="9.4151377677917480e-01" purity="1.0000000000000000e+00" nType="-99"/>
            </Node>
            <Node pos="r" depth="3" NCoef="0" IVar="5" Cut="4.7595596313476562e+01" cType="1" res="1.1215085163712502e-02" rms="3.3573949337005615e-01" purity="1.0000000000000000e+00" nType="0">
              <Node pos="l" depth="4" NCoef="0" IVar="-1" Cut="0.0000000000000000e+00" cType="1" res="-4.5703627169132233e-02" rms="2.4939727783203125e-01" purity="1.0000000000000000e+00" nType="-99"/>
              <Node pos="r" depth="4" NCoef="0" IVar="-1" Cut="0.0000000000000000e+00" cType="1" res="9.4158258289098740e-03" rms="3.3947837352752686e-01" purity="1.0000000000000000e+00" nType="-99"/>
            </Node>
          </Node>
        </Node>
        <Node pos="r" depth="1" NCoef="0" IVar="3" Cut="2.3833053588867188e+02" cType="1" res="-2.8568344190716743e-02" rms="1.7840512096881866e-01" purity="1.0000000000000000e+00" nType="0">
          <Node pos="l" depth="2" NCoef="0" IVar="33" Cut="1.3184775390625000e+03" cType="1" res="-2.1585974842309952e-02" rms="1.7252770066261292e-01" purity="1.0000000000000000e+00" nType="0">
            <Node pos="l" depth="3" NCoef="0" IVar="5" Cut="1.2645502471923828e+02" cType="1" res="-2.4124780669808388e-02" rms="1.5984940528869629e-01" purity="1.0000000000000000e+00" nType="0">
              <Node pos="l" depth="4" NCoef="0" IVar="-1" Cut="0.0000000000000000e+00" cType="1" res="-5.1278797909617424e-03" rms="1.6085787117481232e-01" purity="1.0000000000000000e+00" nType="-99"/>
              <Node pos="r" depth="4" NCoef="0" IVar="-1" Cut="0.0000000000000000e+00" cType="1" res="-2.0540222525596619e-02" rms="1.4571982622146606e-01" purity="1.0000000000000000e+00" nType="-99"/>
            </Node>
            <Node pos="r" depth="3" NCoef="0" IVar="-1" Cut="0.0000000000000000e+00" cType="1" res="2.4592861533164978e-02" rms="4.3666094541549683e-01" purity="1.0000000000000000e+00" nType="-99"/>
          </Node>
          <Node pos="r" depth="2" NCoef="0" IVar="9" Cut="5.3442340850830078e+01" cType="1" res="-9.7908116877079010e-02" rms="2.1683882176876068e-01" purity="1.0000000000000000e+00" nType="0">
            <Node pos="l" depth="3" NCoef="0" IVar="16" Cut="2.0540496826171875e+01" cType="1" res="-1.4205014705657959e-01" rms="2.2557890415191650e-01" purity="1.0000000000000000e+00" nType="0">
              <Node pos="l" depth="4" NCoef="0" IVar="-1" Cut="0.0000000000000000e+00" cType="1" res="-2.6917202398180962e-02" rms="1.3687035441398621e-01" purity="1.0000000000000000e+00" nType="-99"/>
              <Node pos="r" depth="4" NCoef="0" IVar="-1" Cut="0.0000000000000000e+00" cType="1" res="-6.8778112530708313e-02" rms="3.0381587147712708e-01" purity="1.0000000000000000e+00" nType="-99"/>
            </Node>
            <Node pos="r" depth="3" NCoef="0" IVar="-1" Cut="0.0000000000000000e+00" cType="1" res="-6.4662997610867023e-03" rms="1.7643778026103973e-01" purity="1.0000000000000000e+00" nType="-99"/>
          </Node>
        </Node>
      </Node>
    </BinaryTree>
    <BinaryTree type="DecisionTree" boostWeight="1.0000000000000000e+00" itree="11">
      <Node pos="s" depth="0" NCoef="0" IVar="0" Cut="2.3028791809082031e+02" cType="1" res="-5.5873750071100403e-11" rms="1.6490402817726135e-01" purity="1.0000000000000000e+00" nType="0">
        <Node pos="l" depth="1" NCoef="0" IVar="33" Cut="1.7076044921875000e+03" cType="1" res="2.4231949355453253e-03" rms="1.6319714486598969e-01" purity="1.0000000000000000e+00" nType="0">
          <Node pos="l" depth="2" NCoef="0" IVar="30" Cut="-4.4900092482566833e-01" cType="1" res="1.5376514056697488e-03" rms="1.5002454817295074e-01" purity="1.0000000000000000e+00" nType="0">
            <Node pos="l" depth="3" NCoef="0" IVar="2" Cut="2.0952382087707520e+00" cType="1" res="-2.4976853281259537e-02" rms="1.5542584657669067e-01" purity="1.0000000000000000e+00" nType="0">
              <Node pos="l" depth="4" NCoef="0" IVar="-1" Cut="0.0000000000000000e+00" cType="1" res="-8.8177314028143883e-03" rms="1.4886453747749329e-01" purity="1.0000000000000000e+00" nType="-99"/>
              <Node pos="r" depth="4" NCoef="0" IVar="-1" Cut="0.0000000000000000e+00" cType="1" res="3.4074366092681885e-02" rms="2.5883814692497253e-01" purity="1.0000000000000000e+00" nType="-99"/>
            </Node>
            <Node pos="r" depth="3" NCoef="0" IVar="33" Cut="7.9587011718750000e+02" cType="1" res="4.1411356069147587e-03" rms="1.4922988414764404e-01" purity="1.0000000000000000e+00" nType="0">
              <Node pos="l" depth="4" NCoef="0" IVar="-1" Cut="0.0000000000000000e+00" cType="1" res="5.2662251982837915e-04" rms="1.3338172435760498e-01" purity="1.0000000000000000e+00" nType="-99"/>
              <Node pos="r" depth="4" NCoef="0" IVar="-1" Cut="0.0000000000000000e+00" cType="1" res="1.1673875153064728e-02" rms="2.9369503259658813e-01" purity="1.0000000000000000e+00" nType="-99"/>
            </Node>
          </Node>
          <Node pos="r" depth="2" NCoef="0" IVar="-1" Cut="0.0000000000000000e+00" cType="1" res="1.0036958009004593e-01" rms="1.2097707986831665e+00" purity="1.0000000000000000e+00" nType="-99"/>
        </Node>
        <Node pos="r" depth="1" NCoef="0" IVar="33" Cut="1.7036289062500000e+03" cType="1" res="-3.1657870858907700e-02" rms="1.8284110724925995e-01" purity="1.0000000000000000e+00" nType="0">
          <Node pos="l" depth="2" NCoef="0" IVar="33" Cut="8.8601275634765625e+02" cType="1" res="-2.5307452306151390e-02" rms="1.6126257181167603e-01" purity="1.0000000000000000e+00" nType="0">
            <Node pos="l" depth="3" NCoef="0" IVar="27" Cut="4.5692878125000000e+05" cType="1" res="-4.1838571429252625e-02" rms="1.3500146567821503e-01" purity="1.0000000000000000e+00" nType="0">
              <Node pos="l" depth="4" NCoef="0" IVar="-1" Cut="0.0000000000000000e+00" cType="1" res="-6.5573868341743946e-03" rms="1.3715299963951111e-01" purity="1.0000000000000000e+00" nType="-99"/>
              <Node pos="r" depth="4" NCoef="0" IVar="-1" Cut="0.0000000000000000e+00" cType="1" res="-1.8132364377379417e-02" rms="1.3024008274078369e-01" purity="1.0000000000000000e+00" nType="-99"/>
            </Node>
            <Node pos="r" depth="3" NCoef="0" IVar="27" Cut="1.1199880000000000e+06" cType="1" res="4.5552169904112816e-03" rms="1.9665902853012085e-01" purity="1.0000000000000000e+00" nType="0">
              <Node pos="l" depth="4" NCoef="0" IVar="-1" Cut="0.0000000000000000e+00" cType="1" res="7.1671679615974426e-03" rms="2.0969180762767792e-01" purity="1.0000000000000000e+00" nType="-99"/>
              <Node pos="r" depth="4" NCoef="0" IVar="-1" Cut="0.0000000000000000e+00" cType="1" res="-1.6987582668662071e-02" rms="1.3035207986831665e-01" purity="1.0000000000000000e+00" nType="-99"/>
            </Node>
          </Node>
          <Node pos="r" depth="2" NCoef="0" IVar="-1" Cut="0.0000000000000000e+00" cType="1" res="-7.4354454874992371e-02" rms="4.8795601725578308e-01" purity="1.0000000000000000e+00" nType="-99"/>
        </Node>
      </Node>
    </BinaryTree>
    <BinaryTree type="DecisionTree" boostWeight="1.0000000000000000e+00" itree="12">
      <Node pos="s" depth="0" NCoef="0" IVar="32" Cut="-1.1423841714859009e+00" cType="1" res="3.1150512724842372e-11" rms="1.6379949450492859e-01" purity="1.0000000000000000e+00" nType="0">
        <Node pos="l" depth="1" NCoef="0" IVar="33" Cut="7.6287164306640625e+02" cType="1" res="2.9661230742931366e-02" rms="1.7667077481746674e-01" purity="1.0000000000000000e+00" nType="0">
          <Node pos="l" depth="2" NCoef="0" IVar="33" Cut="4.6372695922851562e+02" cType="1" res="1.9602956250309944e-02" rms="1.2911750376224518e-01" purity="1.0000000000000000e+00" nType="0">
            <Node pos="l" depth="3" NCoef="0" IVar="5" Cut="1.0910469818115234e+02" cType="1" res="4.0568639524281025e-03" rms="1.1423189193010330e-01" purity="1.0000000000000000e+00" nType="0">
              <Node pos="l" depth="4" NCoef="0" IVar="-1" Cut="0.0000000000000000e+00" cType="1" res="2.6232830714434385e-03" rms="1.1080043762922287e-01" purity="1.0000000000000000e+00" nType="-99"/>
              <Node pos="r" depth="4" NCoef="0" IVar="-1" Cut="0.0000000000000000e+00" cType="1" res="-2.7751157060265541e-02" rms="1.3848975300788879e-01" purity="1.0000000000000000e+00" nType="-99"/>
            </Node>
            <Node pos="r" depth="3" NCoef="0" IVar="11" Cut="-2.2473070621490479e+00" cType="1" res="5.0129830837249756e-02" rms="1.4959263801574707e-01" purity="1.0000000000000000e+00" nType="0">
              <Node pos="l" depth="4" NCoef="0" IVar="-1" Cut="0.0000000000000000e+00" cType="1" res="-6.0901539400219917e-03" rms="1.4150293171405792e-01" purity="1.0000000000000000e+00" nType="-99"/>
              <Node pos="r" depth="4" NCoef="0" IVar="-1" Cut="0.0000000000000000e+00" cType="1" res="1.9283222034573555e-02" rms="1.4715439081192017e-01" purity="1.0000000000000000e+00" nType="-99"/>
            </Node>
          </Node>
          <Node pos="r" depth="2" NCoef="0" IVar="13" Cut="1.2254178619384766e+02" cType="1" res="1.5386568009853363e-01" rms="4.4056633114814758e-01" purity="1.0000000000000000e+00" nType="0">
            <Node pos="l" depth="3" NCoef="0" IVar="-1" Cut="0.0000000000000000e+00" cType="1" res="8.3998888731002808e-02" rms="5.6156986951828003e-01" purity="1.0000000000000000e+00" nType="-99"/>
            <Node pos="r" depth="3" NCoef="0" IVar="-1" Cut="0.0000000000000000e+00" cType="1" res="5.9555643238127232e-03" rms="1.7434111237525940e-01" purity="1.0000000000000000e+00" nType="-99"/>
          </Node>
        </Node>
        <Node pos="r" depth="1" NCoef="0" IVar="13" Cut="2.4182099914550781e+02" cType="1" res="-2.4994302075356245e-03" rms="1.6242109239101410e-01" purity="1.0000000000000000e+00" nType="0">
          <Node pos="l" depth="2" NCoef="0" IVar="28" Cut="5.5064493417739868e-01" cType="1" res="-1.3438047608360648e-03" rms="1.6032214462757111e-01" purity="1.0000000000000000e+00" nType="0">
            <Node pos="l" depth="3" NCoef="0" IVar="29" Cut="3.6524183750152588e+00" cType="1" res="-6.2992926687002182e-03" rms="1.6143783926963806e-01" purity="1.0000000000000000e+00" nType="0">
              <Node pos="l" depth="4" NCoef="0" IVar="-1" Cut="0.0000000000000000e+00" cType="1" res="5.6642020354047418e-04" rms="1.5136907994747162e-01" purity="1.0000000000000000e+00" nType="-99"/>
              <Node pos="r" depth="4" NCoef="0" IVar="-1" Cut="0.0000000000000000e+00" cType="1" res="-8.7524335831403732e-03" rms="1.8480128049850464e-01" purity="1.0000000000000000e+00" nType="-99"/>
            </Node>
            <Node pos="r" depth="3" NCoef="0" IVar="33" Cut="9.2908007812500000e+02" cType="1" res="1.2650331482291222e-02" rms="1.5628258883953094e-01" purity="1.0000000000000000e+00" nType="0">
              <Node pos="l" depth="4" NCoef="0" IVar="-1" Cut="0.0000000000000000e+00" cType="1" res="2.6219303254038095e-03" rms="1.3674841821193695e-01" purity="1.0000000000000000e+00" nType="-99"/>
              <Node pos="r" depth="4" NCoef="0" IVar="-1" Cut="0.0000000000000000e+00" cType="1" res="3.0767509713768959e-02" rms="3.8417810201644897e-01" purity="1.0000000000000000e+00" nType="-99"/>
            </Node>
          </Node>
          <Node pos="r" depth="2" NCoef="0" IVar="4" Cut="2.2362213134765625e+00" cType="1" res="-6.8466387689113617e-02" rms="2.4621570110321045e-01" purity="1.0000000000000000e+00" nType="0">
            <Node pos="l" depth="3" NCoef="0" IVar="10" Cut="-2.9576495289802551e-01" cType="1" res="-4.9191500991582870e-02" rms="2.3022338747978210e-01" purity="1.0000000000000000e+00" nType="0">
              <Node pos="l" depth="4" NCoef="0" IVar="-1" Cut="0.0000000000000000e+00" cType="1" res="-3.1633842736482620e-02" rms="2.3815183341503143e-01" purity="1.0000000000000000e+00" nType="-99"/>
              <Node pos="r" depth="4" NCoef="0" IVar="-1" Cut="0.0000000000000000e+00" cType="1" res="-7.1005686186254025e-03" rms="2.2188010811805725e-01" purity="1.0000000000000000e+00" nType="-99"/>
            </Node>
            <Node pos="r" depth="3" NCoef="0" IVar="-1" Cut="0.0000000000000000e+00" cType="1" res="-6.0011535882949829e-02" rms="3.0460685491561890e-01" purity="1.0000000000000000e+00" nType="-99"/>
          </Node>
        </Node>
      </Node>
    </BinaryTree>
    <BinaryTree type="DecisionTree" boostWeight="1.0000000000000000e+00" itree="13">
      <Node pos="s" depth="0" NCoef="0" IVar="28" Cut="-4.8352971673011780e-01" cType="1" res="1.0083436863261852e-10" rms="1.6262532770633698e-01" purity="1.0000000000000000e+00" nType="0">
        <Node pos="l" depth="1" NCoef="0" IVar="33" Cut="4.6280902099609375e+02" cType="1" res="1.3239599764347076e-02" rms="1.5772686898708344e-01" purity="1.0000000000000000e+00" nType="0">
          <Node pos="l" depth="2" NCoef="0" IVar="30" Cut="1.1164889335632324e+00" cType="1" res="-2.4878166150301695e-03" rms="1.1583021283149719e-01" purity="1.0000000000000000e+00" nType="0">
            <Node pos="l" depth="3" NCoef="0" IVar="20" Cut="8.0573816299438477e+00" cType="1" res="2.4065067991614342e-03" rms="1.1443860083818436e-01" purity="1.0000000000000000e+00" nType="0">
              <Node pos="l" depth="4" NCoef="0" IVar="-1" Cut="0.0000000000000000e+00" cType="1" res="4.9412217922508717e-03" rms="1.1891303956508636e-01" purity="1.0000000000000000e+00" nType="-99"/>
              <Node pos="r" depth="4" NCoef="0" IVar="-1" Cut="0.0000000000000000e+00" cType="1" res="-1.9997088238596916e-03" rms="1.1051145195960999e-01" purity="1.0000000000000000e+00" nType="-99"/>
            </Node>
            <Node pos="r" depth="3" NCoef="0" IVar="29" Cut="4.7220120429992676e+00" cType="1" res="-4.4117372483015060e-02" rms="1.1918672174215317e-01" purity="1.0000000000000000e+00" nType="0">
              <Node pos="l" depth="4" NCoef="0" IVar="-1" Cut="0.0000000000000000e+00" cType="1" res="-1.7505776137113571e-02" rms="1.1660600453615189e-01" purity="1.0000000000000000e+00" nType="-99"/>
              <Node pos="r" depth="4" NCoef="0" IVar="-1" Cut="0.0000000000000000e+00" cType="1" res="-1.1662297183647752e-03" rms="1.1719240248203278e-01" purity="1.0000000000000000e+00" nType="-99"/>
            </Node>
          </Node>
          <Node pos="r" depth="2" NCoef="0" IVar="27" Cut="5.1517387500000000e+05" cType="1" res="3.1524498015642166e-02" rms="1.9385744631290436e-01" purity="1.0000000000000000e+00" nType="0">
            <Node pos="l" depth="3" NCoef="0" IVar="33" Cut="6.6042645263671875e+02" cType="1" res="5.0712276250123978e-02" rms="2.0121127367019653e-01" purity="1.0000000000000000e+00" nType="0">
              <Node pos="l" depth="4" NCoef="0" IVar="-1" Cut="0.0000000000000000e+00" cType="1" res="9.3694524839520454e-03" rms="1.3791067898273468e-01" purity="1.0000000000000000e+00" nType="-99"/>
              <Node pos="r" depth="4" NCoef="0" IVar="-1" Cut="0.0000000000000000e+00" cType="1" res="3.3776070922613144e-02" rms="3.2192271947860718e-01" purity="1.0000000000000000e+00" nType="-99"/>
            </Node>
            <Node pos="r" depth="3" NCoef="0" IVar="32" Cut="-1.6031119823455811e+00" cType="1" res="1.5820007538422942e-03" rms="1.7769627273082733e-01" purity="1.0000000000000000e+00" nType="0">
              <Node pos="l" depth="4" NCoef="0" IVar="-1" Cut="0.0000000000000000e+00" cType="1" res="4.0217883884906769e-02" rms="1.8150566518306732e-01" purity="1.0000000000000000e+00" nType="-99"/>
              <Node pos="r" depth="4" NCoef="0" IVar="-1" Cut="0.0000000000000000e+00" cType="1" res="-2.9012772720307112e-03" rms="1.7274937033653259e-01" purity="1.0000000000000000e+00" nType="-99"/>
            </Node>
          </Node>
        </Node>
        <Node pos="r" depth="1" NCoef="0" IVar="14" Cut="-9.7399991750717163e-01" cType="1" res="-5.0099259242415428e-03" rms="1.6416265070438385e-01" purity="1.0000000000000000e+00" nType="0">
          <Node pos="l" depth="2" NCoef="0" IVar="21" Cut="2.2978932857513428e+00" cType="1" res="-4.4400468468666077e-02" rms="1.9594673812389374e-01" purity="1.0000000000000000e+00" nType="0">
            <Node pos="l" depth="3" NCoef="0" IVar="3" Cut="6.1833175659179688e+01" cType="1" res="-1.2604345567524433e-02" rms="1.6680607199668884e-01" purity="1.0000000000000000e+00" nType="0">
              <Node pos="l" depth="4" NCoef="0" IVar="-1" Cut="0.0000000000000000e+00" cType="1" res="-1.7971450462937355e-02" rms="1.3852876424789429e-01" purity="1.0000000000000000e+00" nType="-99"/>
              <Node pos="r" depth="4" NCoef="0" IVar="-1" Cut="0.0000000000000000e+00" cType="1" res="6.7703449167311192e-03" rms="1.7704156041145325e-01" purity="1.0000000000000000e+00" nType="-99"/>
            </Node>
            <Node pos="r" depth="3" NCoef="0" IVar="15" Cut="2.2119171619415283e+00" cType="1" res="-6.5460242331027985e-02" rms="2.1043638885021210e-01" purity="1.0000000000000000e+00" nType="0">
              <Node pos="l" depth="4" NCoef="0" IVar="-1" Cut="0.0000000000000000e+00" cType="1" res="-1.6437370330095291e-02" rms="1.8042658269405365e-01" purity="1.0000000000000000e+00" nType="-99"/>
              <Node pos="r" depth="4" NCoef="0" IVar="-1" Cut="0.0000000000000000e+00" cType="1" res="-4.7244120389223099e-02" rms="3.6878564953804016e-01" purity="1.0000000000000000e+00" nType="-99"/>
            </Node>
          </Node>
          <Node pos="r" depth="2" NCoef="0" IVar="18" Cut="-1.4871387481689453e+00" cType="1" res="-2.3947863373905420e-03" rms="1.6149191558361053e-01" purity="1.0000000000000000e+00" nType="0">
            <Node pos="l" depth="3" NCoef="0" IVar="14" Cut="8.5256677865982056e-01" cType="1" res="-6.0397252440452576e-02" rms="2.0454700291156769e-01" purity="1.0000000000000000e+00" nType="0">
              <Node pos="l" depth="4" NCoef="0" IVar="-1" Cut="0.0000000000000000e+00" cType="1" res="-4.3563353829085827e-03" rms="1.6089145839214325e-01" purity="1.0000000000000000e+00" nType="-99"/>
              <Node pos="r" depth="4" NCoef="0" IVar="-1" Cut="0.0000000000000000e+00" cType="1" res="-3.6070708185434341e-02" rms="2.3732358217239380e-01" purity="1.0000000000000000e+00" nType="-99"/>
            </Node>
            <Node pos="r" depth="3" NCoef="0" IVar="13" Cut="1.6254185485839844e+02" cType="1" res="-3.3078016713261604e-04" rms="1.5935762226581573e-01" purity="1.0000000000000000e+00" nType="0">
              <Node pos="l" depth="4" NCoef="0" IVar="-1" Cut="0.0000000000000000e+00" cType="1" res="9.0989825548604131e-04" rms="1.5465390682220459e-01" purity="1.0000000000000000e+00" nType="-99"/>
              <Node pos="r" depth="4" NCoef="0" IVar="-1" Cut="0.0000000000000000e+00" cType="1" res="-9.1503541916608810e-03" rms="1.9398662447929382e-01" purity="1.0000000000000000e+00" nType="-99"/>
            </Node>
          </Node>
        </Node>
      </Node>
    </BinaryTree>
    <BinaryTree type="DecisionTree" boostWeight="1.0000000000000000e+00" itree="14">
      <Node pos="s" depth="0" NCoef="0" IVar="5" Cut="1.5968135070800781e+02" cType="1" res="1.4143219928541839e-10" rms="1.6134224832057953e-01" purity="1.0000000000000000e+00" nType="0">
        <Node pos="l" depth="1" NCoef="0" IVar="33" Cut="7.0092736816406250e+02" cType="1" res="1.4088012976571918e-03" rms="1.6027475893497467e-01" purity="1.0000000000000000e+00" nType="0">
          <Node pos="l" depth="2" NCoef="0" IVar="0" Cut="1.0784111785888672e+02" cType="1" res="-1.7280073370784521e-03" rms="1.2700127065181732e-01" purity="1.0000000000000000e+00" nType="0">
            <Node pos="l" depth="3" NCoef="0" IVar="33" Cut="4.1280667114257812e+02" cType="1" res="3.8622054271399975e-03" rms="1.2324284762144089e-01" purity="1.0000000000000000e+00" nType="0">
              <Node pos="l" depth="4" NCoef="0" IVar="-1" Cut="0.0000000000000000e+00" cType="1" res="-1.5861294232308865e-03" rms="1.0722099244594574e-01" purity="1.0000000000000000e+00" nType="-99"/>
              <Node pos="r" depth="4" NCoef="0" IVar="-1" Cut="0.0000000000000000e+00" cType="1" res="4.2895176447927952e-03" rms="1.3855043053627014e-01" purity="1.0000000000000000e+00" nType="-99"/>
            </Node>
            <Node pos="r" depth="3" NCoef="0" IVar="33" Cut="4.1322186279296875e+02" cType="1" res="-1.0912153869867325e-02" rms="1.3243418931961060e-01" purity="1.0000000000000000e+00" nType="0">
              <Node pos="l" depth="4" NCoef="0" IVar="-1" Cut="0.0000000000000000e+00" cType="1" res="-9.0013779699802399e-03" rms="1.2610673904418945e-01" purity="1.0000000000000000e+00" nType="-99"/>
              <Node pos="r" depth="4" NCoef="0" IVar="-1" Cut="0.0000000000000000e+00" cType="1" res="-2.0106683950871229e-03" rms="1.3342201709747314e-01" purity="1.0000000000000000e+00" nType="-99"/>
            </Node>
          </Node>
          <Node pos="r" depth="2" NCoef="0" IVar="32" Cut="1.0720442533493042e+00" cType="1" res="2.0373245701193810e-02" rms="2.8819870948791504e-01" purity="1.0000000000000000e+00" nType="0">
            <Node pos="l" depth="3" NCoef="0" IVar="28" Cut="-8.4824544191360474e-01" cType="1" res="1.3907197862863541e-02" rms="2.8444635868072510e-01" purity="1.0000000000000000e+00" nType="0">
              <Node pos="l" depth="4" NCoef="0" IVar="-1" Cut="0.0000000000000000e+00" cType="1" res="3.0495338141918182e-02" rms="3.2506155967712402e-01" purity="1.0000000000000000e+00" nType="-99"/>
              <Node pos="r" depth="4" NCoef="0" IVar="-1" Cut="0.0000000000000000e+00" cType="1" res="1.0894447332248092e-03" rms="2.7749487757682800e-01" purity="1.0000000000000000e+00" nType="-99"/>
            </Node>
            <Node pos="r" depth="3" NCoef="0" IVar="5" Cut="5.7800445556640625e+01" cType="1" res="1.3621014356613159e-01" rms="3.2769784331321716e-01" purity="1.0000000000000000e+00" nType="0">
              <Node pos="l" depth="4" NCoef="0" IVar="-1" Cut="0.0000000000000000e+00" cType="1" res="8.9426599442958832e-02" rms="4.6315094828605652e-01" purity="1.0000000000000000e+00" nType="-99"/>
              <Node pos="r" depth="4" NCoef="0" IVar="-1" Cut="0.0000000000000000e+00" cType="1" res="2.0767776295542717e-02" rms="2.1846957504749298e-01" purity="1.0000000000000000e+00" nType="-99"/>
            </Node>
          </Node>
        </Node>
        <Node pos="r" depth="1" NCoef="0" IVar="33" Cut="1.3412438964843750e+03" cType="1" res="-3.7733770906925201e-02" rms="1.8371149897575378e-01" purity="1.0000000000000000e+00" nType="0">
          <Node pos="l" depth="2" NCoef="0" IVar="25" Cut="2.5552093750000000e+04" cType="1" res="-4.8981737345457077e-02" rms="1.4224749803543091e-01" purity="1.0000000000000000e+00" nType="0">
            <Node pos="l" depth="3" NCoef="0" IVar="18" Cut="-7.8808021545410156e-01" cType="1" res="-6.3289456069469452e-02" rms="1.3941915333271027e-01" purity="1.0000000000000000e+00" nType="0">
              <Node pos="l" depth="4" NCoef="0" IVar="-1" Cut="0.0000000000000000e+00" cType="1" res="-5.0033661536872387e-03" rms="1.3550016283988953e-01" purity="1.0000000000000000e+00" nType="-99"/>
              <Node pos="r" depth="4" NCoef="0" IVar="-1" Cut="0.0000000000000000e+00" cType="1" res="-2.3193728178739548e-02" rms="1.3751929998397827e-01" purity="1.0000000000000000e+00" nType="-99"/>
            </Node>
            <Node pos="r" depth="3" NCoef="0" IVar="24" Cut="1.6988162109375000e+04" cType="1" res="1.6577500849962234e-02" rms="1.3656008243560791e-01" purity="1.0000000000000000e+00" nType="0">
              <Node pos="l" depth="4" NCoef="0" IVar="-1" Cut="0.0000000000000000e+00" cType="1" res="-6.3884300179779530e-03" rms="8.4672056138515472e-02" purity="1.0000000000000000e+00" nType="-99"/>
              <Node pos="r" depth="4" NCoef="0" IVar="-1" Cut="0.0000000000000000e+00" cType="1" res="2.1805370226502419e-02" rms="1.7430467903614044e-01" purity="1.0000000000000000e+00" nType="-99"/>
            </Node>
          </Node>
          <Node pos="r" depth="2" NCoef="0" IVar="-1" Cut="0.0000000000000000e+00" cType="1" res="2.5798164308071136e-02" rms="4.0708833932876587e-01" purity="1.0000000000000000e+00" nType="-99"/>
        </Node>
      </Node>
    </BinaryTree>
    <BinaryTree type="DecisionTree" boostWeight="1.0000000000000000e+00" itree="15">
      <Node pos="s" depth="0" NCoef="0" IVar="13" Cut="1.0968908691406250e+02" cType="1" res="3.2387592607818760e-11" rms="1.6033345460891724e-01" purity="1.0000000000000000e+00" nType="0">
        <Node pos="l" depth="1" NCoef="0" IVar="33" Cut="1.5906624755859375e+03" cType="1" res="5.0983829423785210e-03" rms="1.5784749388694763e-01" purity="1.0000000000000000e+00" nType="0">
          <Node pos="l" depth="2" NCoef="0" IVar="21" Cut="3.3525273799896240e+00" cType="1" res="4.0090209804475307e-03" rms="1.4352685213088989e-01" purity="1.0000000000000000e+00" nType="0">
            <Node pos="l" depth="3" NCoef="0" IVar="33" Cut="6.9040795898437500e+02" cType="1" res="6.1347191222012043e-03" rms="1.4042843878269196e-01" purity="1.0000000000000000e+00" nType="0">
              <Node pos="l" depth="4" NCoef="0" IVar="-1" Cut="0.0000000000000000e+00" cType="1" res="1.0470448760315776e-03" rms="1.2567816674709320e-01" purity="1.0000000000000000e+00" nType="-99"/>
              <Node pos="r" depth="4" NCoef="0" IVar="-1" Cut="0.0000000000000000e+00" cType="1" res="1.1016044765710831e-02" rms="2.5317889451980591e-01" purity="1.0000000000000000e+00" nType="-99"/>
            </Node>
            <Node pos="r" depth="3" NCoef="0" IVar="23" Cut="7.2158615112304688e+01" cType="1" res="-2.7751408517360687e-02" rms="1.8074603378772736e-01" purity="1.0000000000000000e+00" nType="0">
              <Node pos="l" depth="4" NCoef="0" IVar="-1" Cut="0.0000000000000000e+00" cType="1" res="-1.5943408012390137e-02" rms="2.0164410769939423e-01" purity="1.0000000000000000e+00" nType="-99"/>
              <Node pos="r" depth="4" NCoef="0" IVar="-1" Cut="0.0000000000000000e+00" cType="1" res="-1.4965517912060022e-03" rms="1.5623545646667480e-01" purity="1.0000000000000000e+00" nType="-99"/>
            </Node>
          </Node>
          <Node pos="r" depth="2" NCoef="0" IVar="-1" Cut="0.0000000000000000e+00" cType="1" res="1.0485550016164780e-01" rms="1.1271426677703857e+00" purity="1.0000000000000000e+00" nType="-99"/>
        </Node>
        <Node pos="r" depth="1" NCoef="0" IVar="33" Cut="1.7089692382812500e+03" cType="1" res="-1.0421291925013065e-02" rms="1.6480863094329834e-01" purity="1.0000000000000000e+00" nType="0">
          <Node pos="l" depth="2" NCoef="0" IVar="33" Cut="1.2520117187500000e+03" cType="1" res="-8.9280689135193825e-03" rms="1.5425138175487518e-01" purity="1.0000000000000000e+00" nType="0">
            <Node pos="l" depth="3" NCoef="0" IVar="27" Cut="4.0501171875000000e+05" cType="1" res="-1.0761429555714130e-02" rms="1.4725409448146820e-01" purity="1.0000000000000000e+00" nType="0">
              <Node pos="l" depth="4" NCoef="0" IVar="-1" Cut="0.0000000000000000e+00" cType="1" res="-2.1310339798219502e-04" rms="1.4139527082443237e-01" purity="1.0000000000000000e+00" nType="-99"/>
              <Node pos="r" depth="4" NCoef="0" IVar="-1" Cut="0.0000000000000000e+00" cType="1" res="-7.1748159825801849e-03" rms="1.5359632670879364e-01" purity="1.0000000000000000e+00" nType="-99"/>
            </Node>
            <Node pos="r" depth="3" NCoef="0" IVar="18" Cut="1.5252038836479187e-01" cType="1" res="6.6156387329101562e-02" rms="3.2314223051071167e-01" purity="1.0000000000000000e+00" nType="0">
              <Node pos="l" depth="4" NCoef="0" IVar="-1" Cut="0.0000000000000000e+00" cType="1" res="4.4501420110464096e-02" rms="3.7517714500427246e-01" purity="1.0000000000000000e+00" nType="-99"/>
              <Node pos="r" depth="4" NCoef="0" IVar="-1" Cut="0.0000000000000000e+00" cType="1" res="-7.1556358598172665e-03" rms="2.2164084017276764e-01" purity="1.0000000000000000e+00" nType="-99"/>
            </Node>
          </Node>
          <Node pos="r" depth="2" NCoef="0" IVar="-1" Cut="0.0000000000000000e+00" cType="1" res="-5.4810564965009689e-02" rms="6.2117052078247070e-01" purity="1.0000000000000000e+00" nType="-99"/>
        </Node>
      </Node>
    </BinaryTree>
    <BinaryTree type="DecisionTree" boostWeight="1.0000000000000000e+00" itree="16">
      <Node pos="s" depth="0" NCoef="0" IVar="3" Cut="1.8555203247070312e+02" cType="1" res="7.4164174801438776e-11" rms="1.5928977727890015e-01" purity="1.0000000000000000e+00" nType="0">
        <Node pos="l" depth="1" NCoef="0" IVar="28" Cut="1.1470844745635986e+00" cType="1" res="1.1883254628628492e-03" rms="1.5816700458526611e-01" purity="1.0000000000000000e+00" nType="0">
          <Node pos="l" depth="2" NCoef="0" IVar="28" Cut="-5.6135594844818115e-01" cType="1" res="-5.3553463658317924e-04" rms="1.5804211795330048e-01" purity="1.0000000000000000e+00" nType="0">
            <Node pos="l" depth="3" NCoef="0" IVar="33" Cut="1.0511545410156250e+03" cType="1" res="1.3064191676676273e-02" rms="1.5261174738407135e-01" purity="1.0000000000000000e+00" nType="0">
              <Node pos="l" depth="4" NCoef="0" IVar="-1" Cut="0.0000000000000000e+00" cType="1" res="3.2783055212348700e-03" rms="1.3850967586040497e-01" purity="1.0000000000000000e+00" nType="-99"/>
              <Node pos="r" depth="4" NCoef="0" IVar="-1" Cut="0.0000000000000000e+00" cType="1" res="3.8622219115495682e-02" rms="4.8160254955291748e-01" purity="1.0000000000000000e+00" nType="-99"/>
            </Node>
            <Node pos="r" depth="3" NCoef="0" IVar="29" Cut="3.6524183750152588e+00" cType="1" res="-5.3560067899525166e-03" rms="1.5964482724666595e-01" purity="1.0000000000000000e+00" nType="0">
              <Node pos="l" depth="4" NCoef="0" IVar="-1" Cut="0.0000000000000000e+00" cType="1" res="6.9029215956106782e-04" rms="1.5087604522705078e-01" purity="1.0000000000000000e+00" nType="-99"/>
              <Node pos="r" depth="4" NCoef="0" IVar="-1" Cut="0.0000000000000000e+00" cType="1" res="-8.1759095191955566e-03" rms="1.8062695860862732e-01" purity="1.0000000000000000e+00" nType="-99"/>
            </Node>
          </Node>
          <Node pos="r" depth="2" NCoef="0" IVar="33" Cut="8.7444659423828125e+02" cType="1" res="2.7596123516559601e-02" rms="1.5773020684719086e-01" purity="1.0000000000000000e+00" nType="0">
            <Node pos="l" depth="3" NCoef="0" IVar="33" Cut="3.9512283325195312e+02" cType="1" res="1.8181018531322479e-02" rms="1.3172875344753265e-01" purity="1.0000000000000000e+00" nType="0">
              <Node pos="l" depth="4" NCoef="0" IVar="-1" Cut="0.0000000000000000e+00" cType="1" res="-3.3308505080640316e-03" rms="1.0971054434776306e-01" purity="1.0000000000000000e+00" nType="-99"/>
              <Node pos="r" depth="4" NCoef="0" IVar="-1" Cut="0.0000000000000000e+00" cType="1" res="9.8366923630237579e-03" rms="1.3915155827999115e-01" purity="1.0000000000000000e+00" nType="-99"/>
            </Node>
            <Node pos="r" depth="3" NCoef="0" IVar="-1" Cut="0.0000000000000000e+00" cType="1" res="7.3444813489913940e-02" rms="3.8638451695442200e-01" purity="1.0000000000000000e+00" nType="-99"/>
          </Node>
        </Node>
        <Node pos="r" depth="1" NCoef="0" IVar="27" Cut="1.0439274375000000e+06" cType="1" res="-3.8784544914960861e-02" rms="1.8829810619354248e-01" purity="1.0000000000000000e+00" nType="0">
          <Node pos="l" depth="2" NCoef="0" IVar="20" Cut="1.4842494010925293e+01" cType="1" res="-2.4620397016406059e-02" rms="1.7897228896617889e-01" purity="1.0000000000000000e+00" nType="0">
            <Node pos="l" depth="3" NCoef="0" IVar="11" Cut="2.4681336879730225e+00" cType="1" res="-1.6589803621172905e-02" rms="1.8283446133136749e-01" purity="1.0000000000000000e+00" nType="0">
              <Node pos="l" depth="4" NCoef="0" IVar="-1" Cut="0.0000000000000000e+00" cType="1" res="-1.6929118428379297e-03" rms="1.7919129133224487e-01" purity="1.0000000000000000e+00" nType="-99"/>
              <Node pos="r" depth="4" NCoef="0" IVar="-1" Cut="0.0000000000000000e+00" cType="1" res="-3.7960015237331390e-02" rms="1.8271242082118988e-01" purity="1.0000000000000000e+00" nType="-99"/>
            </Node>
            <Node pos="r" depth="3" NCoef="0" IVar="-1" Cut="0.0000000000000000e+00" cType="1" res="-2.7783829718828201e-02" rms="1.2260156869888306e-01" purity="1.0000000000000000e+00" nType="-99"/>
          </Node>
          <Node pos="r" depth="2" NCoef="0" IVar="16" Cut="2.1161506652832031e+01" cType="1" res="-1.1468298733234406e-01" rms="2.1673466265201569e-01" purity="1.0000000000000000e+00" nType="0">
            <Node pos="l" depth="3" NCoef="0" IVar="-1" Cut="0.0000000000000000e+00" cType="1" res="-1.5363335609436035e-02" rms="1.3396520912647247e-01" purity="1.0000000000000000e+00" nType="-99"/>
            <Node pos="r" depth="3" NCoef="0" IVar="-1" Cut="0.0000000000000000e+00" cType="1" res="-5.7413447648286819e-02" rms="2.6701754331588745e-01" purity="1.0000000000000000e+00" nType="-99"/>
          </Node>
        </Node>
      </Node>
    </BinaryTree>
    <BinaryTree type="DecisionTree" boostWeight="1.0000000000000000e+00" itree="17">
      <Node pos="s" depth="0" NCoef="0" IVar="17" Cut="4.2722278594970703e+01" cType="1" res="-5.9329208212943740e-11" rms="1.5838599205017090e-01" purity="1.0000000000000000e+00" nType="0">
        <Node pos="l" depth="1" NCoef="0" IVar="23" Cut="2.0940328598022461e+01" cType="1" res="1.0023228824138641e-02" rms="1.8133589625358582e-01" purity="1.0000000000000000e+00" nType="0">
          <Node pos="l" depth="2" NCoef="0" IVar="-1" Cut="0.0000000000000000e+00" cType="1" res="4.4352877885103226e-02" rms="7.5213879346847534e-01" purity="1.0000000000000000e+00" nType="-99"/>
          <Node pos="r" depth="2" NCoef="0" IVar="33" Cut="4.6549383544921875e+02" cType="1" res="8.6922217160463333e-03" rms="1.6598686575889587e-01" purity="1.0000000000000000e+00" nType="0">
            <Node pos="l" depth="3" NCoef="0" IVar="30" Cut="1.0871887207031250e+00" cType="1" res="-1.6671244520694017e-03" rms="1.1985366791486740e-01" purity="1.0000000000000000e+00" nType="0">
              <Node pos="l" depth="4" NCoef="0" IVar="-1" Cut="0.0000000000000000e+00" cType="1" res="5.7028536684811115e-04" rms="1.1847024410963058e-01" purity="1.0000000000000000e+00" nType="-99"/>
              <Node pos="r" depth="4" NCoef="0" IVar="-1" Cut="0.0000000000000000e+00" cType="1" res="-1.4008570462465286e-02" rms="1.2781804800033569e-01" purity="1.0000000000000000e+00" nType="-99"/>
            </Node>
            <Node pos="r" depth="3" NCoef="0" IVar="0" Cut="1.2538486480712891e+02" cType="1" res="2.2201983258128166e-02" rms="2.1077516674995422e-01" purity="1.0000000000000000e+00" nType="0">
              <Node pos="l" depth="4" NCoef="0" IVar="-1" Cut="0.0000000000000000e+00" cType="1" res="1.6852220520377159e-02" rms="2.0251810550689697e-01" purity="1.0000000000000000e+00" nType="-99"/>
              <Node pos="r" depth="4" NCoef="0" IVar="-1" Cut="0.0000000000000000e+00" cType="1" res="2.0664754265453666e-04" rms="2.1305765211582184e-01" purity="1.0000000000000000e+00" nType="-99"/>
            </Node>
          </Node>
        </Node>
        <Node pos="r" depth="1" NCoef="0" IVar="32" Cut="-1.8007944822311401e+00" cType="1" res="-4.3850038200616837e-03" rms="1.4701041579246521e-01" purity="1.0000000000000000e+00" nType="0">
          <Node pos="l" depth="2" NCoef="0" IVar="-1" Cut="0.0000000000000000e+00" cType="1" res="2.6295809075236320e-02" rms="1.3580723106861115e-01" purity="1.0000000000000000e+00" nType="-99"/>
          <Node pos="r" depth="2" NCoef="0" IVar="27" Cut="1.9643527500000000e+06" cType="1" res="-4.8424359411001205e-03" rms="1.4692004024982452e-01" purity="1.0000000000000000e+00" nType="0">
            <Node pos="l" depth="3" NCoef="0" IVar="16" Cut="3.2362224578857422e+01" cType="1" res="-4.2614466510713100e-03" rms="1.4579376578330994e-01" purity="1.0000000000000000e+00" nType="0">
              <Node pos="l" depth="4" NCoef="0" IVar="-1" Cut="0.0000000000000000e+00" cType="1" res="-1.4751600101590157e-03" rms="1.4442799985408783e-01" purity="1.0000000000000000e+00" nType="-99"/>
              <Node pos="r" depth="4" NCoef="0" IVar="-1" Cut="0.0000000000000000e+00" cType="1" res="1.9812239333987236e-02" rms="2.4240890145301819e-01" purity="1.0000000000000000e+00" nType="-99"/>
            </Node>
