<?xml version="1.0"?>
<MethodSetup Method="BDT::BDTG_HU_y">
  <GeneralInfo>
    <Info name="TMVA Release" value="4.2.1 [262657]"/>
    <Info name="ROOT Release" value="6.10/09 [395785]"/>
    <Info name="Creator" value="bribeiro"/>
    <Info name="Date" value="Thu Aug  1 16:06:27 2019"/>
    <Info name="Host" value="Linux cmsbuild64.cern.ch 2.6.32-696.30.1.el6.x86_64 #1 SMP Tue May 22 06:09:36 CEST 2018 x86_64 x86_64 x86_64 GNU/Linux"/>
    <Info name="Dir" value="/afs/cern.ch/user/b/bribeiro/CMSSW_9_4_11/src/TopLJets2015/TopAnalysis"/>
    <Info name="Training events" value="14170"/>
    <Info name="TrainingTime" value="2.53473306e+00"/>
    <Info name="AnalysisType" value="Regression"/>
  </GeneralInfo>
  <Options>
    <Option name="V" modified="Yes">False</Option>
    <Option name="VerbosityLevel" modified="No">Default</Option>
    <Option name="VarTransform" modified="No">None</Option>
    <Option name="H" modified="Yes">False</Option>
    <Option name="CreateMVAPdfs" modified="No">False</Option>
    <Option name="IgnoreNegWeightsInTraining" modified="No">False</Option>
    <Option name="NTrees" modified="Yes">64</Option>
    <Option name="MaxDepth" modified="Yes">4</Option>
    <Option name="MinNodeSize" modified="No">0.2%</Option>
    <Option name="nCuts" modified="Yes">20</Option>
    <Option name="BoostType" modified="Yes">Grad</Option>
    <Option name="AdaBoostR2Loss" modified="No">quadratic</Option>
    <Option name="UseBaggedBoost" modified="No">False</Option>
    <Option name="Shrinkage" modified="Yes">3.000000e-01</Option>
    <Option name="AdaBoostBeta" modified="No">5.000000e-01</Option>
    <Option name="UseRandomisedTrees" modified="No">False</Option>
    <Option name="UseNvars" modified="No">6</Option>
    <Option name="UsePoissonNvars" modified="No">True</Option>
    <Option name="BaggedSampleFraction" modified="No">6.000000e-01</Option>
    <Option name="UseYesNoLeaf" modified="No">False</Option>
    <Option name="NegWeightTreatment" modified="No">pray</Option>
    <Option name="Css" modified="No">1.000000e+00</Option>
    <Option name="Cts_sb" modified="No">1.000000e+00</Option>
    <Option name="Ctb_ss" modified="No">1.000000e+00</Option>
    <Option name="Cbb" modified="No">1.000000e+00</Option>
    <Option name="NodePurityLimit" modified="No">5.000000e-01</Option>
    <Option name="SeparationType" modified="No">regressionvariance</Option>
    <Option name="RegressionLossFunctionBDTG" modified="Yes">huber</Option>
    <Option name="HuberQuantile" modified="No">7.000000e-01</Option>
    <Option name="DoBoostMonitor" modified="No">False</Option>
    <Option name="UseFisherCuts" modified="No">False</Option>
    <Option name="MinLinCorrForFisher" modified="No">8.000000e-01</Option>
    <Option name="UseExclusiveVars" modified="No">False</Option>
    <Option name="DoPreselection" modified="No">False</Option>
    <Option name="SigToBkgFraction" modified="No">1.000000e+00</Option>
    <Option name="PruneMethod" modified="No">nopruning</Option>
    <Option name="PruneStrength" modified="No">0.000000e+00</Option>
    <Option name="PruningValFraction" modified="No">5.000000e-01</Option>
    <Option name="SkipNormalization" modified="No">False</Option>
    <Option name="nEventsMin" modified="No">0</Option>
    <Option name="UseBaggedGrad" modified="No">False</Option>
    <Option name="GradBaggingFraction" modified="No">6.000000e-01</Option>
    <Option name="UseNTrainEvents" modified="No">0</Option>
    <Option name="NNodesMax" modified="No">0</Option>
  </Options>
  <Variables NVar="34">
    <Variable VarIndex="0" Expression="mll" Label="mll" Title="mll" Unit="" Internal="mll" Type="F" Min="2.01043358e+01" Max="1.12357031e+03"/>
    <Variable VarIndex="1" Expression="nljets" Label="nljets" Title="nljets" Unit="" Internal="nljets" Type="F" Min="0.00000000e+00" Max="7.00000000e+00"/>
    <Variable VarIndex="2" Expression="nbjets" Label="nbjets" Title="nbjets" Unit="" Internal="nbjets" Type="F" Min="2.00000000e+00" Max="4.00000000e+00"/>
    <Variable VarIndex="3" Expression="metpt" Label="metpt" Title="metpt" Unit="" Internal="metpt" Type="F" Min="6.40878558e-01" Max="9.49200134e+02"/>
    <Variable VarIndex="4" Expression="metphi" Label="metphi" Title="metphi" Unit="" Internal="metphi" Type="F" Min="-3.14148808e+00" Max="3.14145446e+00"/>
    <Variable VarIndex="5" Expression="l1pt" Label="l1pt" Title="l1pt" Unit="" Internal="l1pt" Type="F" Min="3.00067863e+01" Max="7.10798279e+02"/>
    <Variable VarIndex="6" Expression="l1eta" Label="l1eta" Title="l1eta" Unit="" Internal="l1eta" Type="F" Min="-2.09992504e+00" Max="2.09870791e+00"/>
    <Variable VarIndex="7" Expression="l1phi" Label="l1phi" Title="l1phi" Unit="" Internal="l1phi" Type="F" Min="-3.14118195e+00" Max="3.14106321e+00"/>
    <Variable VarIndex="8" Expression="l1m" Label="l1m" Title="l1m" Unit="" Internal="l1m" Type="F" Min="-1.76364735e-01" Max="1.97807953e-01"/>
    <Variable VarIndex="9" Expression="l2pt" Label="l2pt" Title="l2pt" Unit="" Internal="l2pt" Type="F" Min="2.00008240e+01" Max="4.40407715e+02"/>
    <Variable VarIndex="10" Expression="l2eta" Label="l2eta" Title="l2eta" Unit="" Internal="l2eta" Type="F" Min="-2.49599195e+00" Max="2.49995303e+00"/>
    <Variable VarIndex="11" Expression="l2phi" Label="l2phi" Title="l2phi" Unit="" Internal="l2phi" Type="F" Min="-3.14118791e+00" Max="3.14082694e+00"/>
    <Variable VarIndex="12" Expression="l2m" Label="l2m" Title="l2m" Unit="" Internal="l2m" Type="F" Min="-2.93749362e-01" Max="2.38571659e-01"/>
    <Variable VarIndex="13" Expression="b1pt" Label="b1pt" Title="b1pt" Unit="" Internal="b1pt" Type="F" Min="3.04041882e+01" Max="5.23079102e+02"/>
    <Variable VarIndex="14" Expression="b1eta" Label="b1eta" Title="b1eta" Unit="" Internal="b1eta" Type="F" Min="-2.39731121e+00" Max="2.39803338e+00"/>
    <Variable VarIndex="15" Expression="b1phi" Label="b1phi" Title="b1phi" Unit="" Internal="b1phi" Type="F" Min="-3.14154148e+00" Max="3.14145160e+00"/>
    <Variable VarIndex="16" Expression="b1m" Label="b1m" Title="b1m" Unit="" Internal="b1m" Type="F" Min="3.24933958e+00" Max="6.26895866e+01"/>
    <Variable VarIndex="17" Expression="b2pt" Label="b2pt" Title="b2pt" Unit="" Internal="b2pt" Type="F" Min="3.00017509e+01" Max="3.11673553e+02"/>
    <Variable VarIndex="18" Expression="b2eta" Label="b2eta" Title="b2eta" Unit="" Internal="b2eta" Type="F" Min="-2.39952803e+00" Max="2.39143538e+00"/>
    <Variable VarIndex="19" Expression="b2phi" Label="b2phi" Title="b2phi" Unit="" Internal="b2phi" Type="F" Min="-3.14157486e+00" Max="3.14136744e+00"/>
    <Variable VarIndex="20" Expression="b2m" Label="b2m" Title="b2m" Unit="" Internal="b2m" Type="F" Min="2.29068422e+00" Max="5.07884064e+01"/>
    <Variable VarIndex="21" Expression="deltarll" Label="deltarll" Title="deltarll" Unit="" Internal="deltarll" Type="F" Min="2.81501561e-01" Max="5.23594284e+00"/>
    <Variable VarIndex="22" Expression="deltaphill" Label="deltaphill" Title="deltaphill" Unit="" Internal="deltaphill" Type="F" Min="-3.14152360e+00" Max="3.14138818e+00"/>
    <Variable VarIndex="23" Expression="mlb" Label="mlb" Title="mlb" Unit="" Internal="mlb" Type="F" Min="1.53656034e+01" Max="1.49750610e+02"/>
    <Variable VarIndex="24" Expression="px2" Label="px2" Title="px2" Unit="" Internal="px2" Type="F" Min="7.01223598e-07" Max="6.73477188e+05"/>
    <Variable VarIndex="25" Expression="py2" Label="py2" Title="py2" Unit="" Internal="py2" Type="F" Min="4.74931952e-08" Max="1.62155912e+06"/>
    <Variable VarIndex="26" Expression="pz2" Label="pz2" Title="pz2" Unit="" Internal="pz2" Type="F" Min="1.40760225e-04" Max="8.73348200e+06"/>
    <Variable VarIndex="27" Expression="E2" Label="E2" Title="E2" Unit="" Internal="E2" Type="F" Min="3.56139570e+04" Max="1.01374940e+07"/>
    <Variable VarIndex="28" Expression="yvis" Label="yvis" Title="yvis" Unit="" Internal="yvis" Type="F" Min="-2.09721684e+00" Max="2.12295032e+00"/>
    <Variable VarIndex="29" Expression="ysum" Label="ysum" Title="ysum" Unit="" Internal="ysum" Type="F" Min="3.20867091e-01" Max="8.38666534e+00"/>
    <Variable VarIndex="30" Expression="max_dy" Label="max_dy" Title="max_dy" Unit="" Internal="max_dy" Type="F" Min="-1.54347682e+00" Max="2.28718877e+00"/>
    <Variable VarIndex="31" Expression="min_dy" Label="min_dy" Title="min_dy" Unit="" Internal="min_dy" Type="F" Min="-2.17138886e+00" Max="1.78974748e+00"/>
    <Variable VarIndex="32" Expression="rec_ytt" Label="rec_ytt" Title="rec_ytt" Unit="" Internal="rec_ytt" Type="F" Min="-2.23707271e+00" Max="2.38993335e+00"/>
    <Variable VarIndex="33" Expression="rec_mtt" Label="rec_mtt" Title="rec_mtt" Unit="" Internal="rec_mtt" Type="F" Min="3.45044159e+02" Max="4.43274658e+03"/>
  </Variables>
  <Spectators NSpec="11">
    <Spectator SpecIndex="0" Expression="run" Label="run" Title="run" Unit="" Internal="run" Type="F" Min="1.00000000e+00" Max="1.00000000e+00"/>
    <Spectator SpecIndex="1" Expression="lumi" Label="lumi" Title="lumi" Unit="" Internal="lumi" Type="F" Min="2.70000000e+01" Max="2.64594000e+05"/>
    <Spectator SpecIndex="2" Expression="ev" Label="ev" Title="ev" Unit="" Internal="ev" Type="F" Min="4.60510000e+04" Max="4.65817344e+08"/>
    <Spectator SpecIndex="3" Expression="rho" Label="rho" Title="rho" Unit="" Internal="rho" Type="F" Min="1.00000000e+00" Max="1.23000000e+02"/>
    <Spectator SpecIndex="4" Expression="nvtx" Label="nvtx" Title="nvtx" Unit="" Internal="nvtx" Type="F" Min="0.00000000e+00" Max="7.45759659e+01"/>
    <Spectator SpecIndex="5" Expression="channel" Label="channel" Title="channel" Unit="" Internal="channel" Type="F" Min="1.21000000e+02" Max="1.69000000e+02"/>
    <Spectator SpecIndex="6" Expression="mpp" Label="mpp" Title="mpp" Unit="" Internal="mpp" Type="F" Min="3.07824463e+02" Max="1.00000000e+04"/>
    <Spectator SpecIndex="7" Expression="ypp" Label="ypp" Title="ypp" Unit="" Internal="ypp" Type="F" Min="-1.22184110e+00" Max="1.00000000e+01"/>
    <Spectator SpecIndex="8" Expression="gen_mtt" Label="gen_mtt" Title="gen_mtt" Unit="" Internal="gen_mtt" Type="F" Min="3.35572327e+02" Max="2.05427832e+03"/>
    <Spectator SpecIndex="9" Expression="gen_ytt" Label="gen_ytt" Title="gen_ytt" Unit="" Internal="gen_ytt" Type="F" Min="-2.53111053e+00" Max="2.36455297e+00"/>
    <Spectator SpecIndex="10" Expression="weight" Label="weight" Title="weight" Unit="" Internal="weight" Type="F" Min="-4.01403355e-08" Max="4.01403355e-08"/>
  </Spectators>
  <Classes NClass="1">
    <Class Name="Regression" Index="0"/>
  </Classes>
  <Targets NTrgt="1">
    <Target TargetIndex="0" Expression="rec_mtt/gen_mtt" Label="target" Title="target" Unit="" Internal="target" Type="F" Min="3.74028057e-01" Max="6.56877136e+00"/>
  </Targets>
  <Transformations NTransformations="0"/>
  <MVAPdfs/>
  <Weights NTrees="64" AnalysisType="1">
    <BinaryTree type="DecisionTree" boostWeight="9.9025017023086548e-01" itree="0">
      <Node pos="s" depth="0" NCoef="0" IVar="33" Cut="5.3969665527343750e+02" cType="1" res="3.2418831251561642e-03" rms="1.1242745816707611e-01" purity="1.0000000000000000e+00" nType="0">
        <Node pos="l" depth="1" NCoef="0" IVar="33" Cut="4.1915972900390625e+02" cType="1" res="-3.1979240477085114e-02" rms="9.8705865442752838e-02" purity="1.0000000000000000e+00" nType="0">
          <Node pos="l" depth="2" NCoef="0" IVar="33" Cut="3.8032553100585938e+02" cType="1" res="-6.1222217977046967e-02" rms="8.3211623132228851e-02" purity="1.0000000000000000e+00" nType="0">
            <Node pos="l" depth="3" NCoef="0" IVar="0" Cut="6.6112663269042969e+01" cType="1" res="-7.7165059745311737e-02" rms="7.2250939905643463e-02" purity="1.0000000000000000e+00" nType="0">
              <Node pos="l" depth="4" NCoef="0" IVar="-1" Cut="0.0000000000000000e+00" cType="1" res="-1.9389549270272255e-02" rms="6.9934695959091187e-02" purity="1.0000000000000000e+00" nType="-99"/>
              <Node pos="r" depth="4" NCoef="0" IVar="-1" Cut="0.0000000000000000e+00" cType="1" res="-3.5050749778747559e-02" rms="7.0634983479976654e-02" purity="1.0000000000000000e+00" nType="-99"/>
            </Node>
            <Node pos="r" depth="3" NCoef="0" IVar="21" Cut="1.4195166826248169e+00" cType="1" res="-4.4657971709966660e-02" rms="9.0311184525489807e-02" purity="1.0000000000000000e+00" nType="0">
              <Node pos="l" depth="4" NCoef="0" IVar="-1" Cut="0.0000000000000000e+00" cType="1" res="-6.3853403553366661e-03" rms="8.7800949811935425e-02" purity="1.0000000000000000e+00" nType="-99"/>
              <Node pos="r" depth="4" NCoef="0" IVar="-1" Cut="0.0000000000000000e+00" cType="1" res="-1.9189501181244850e-02" rms="8.9505478739738464e-02" purity="1.0000000000000000e+00" nType="-99"/>
            </Node>
          </Node>
          <Node pos="r" depth="2" NCoef="0" IVar="27" Cut="1.8005246875000000e+05" cType="1" res="2.7226111851632595e-03" rms="1.0425299406051636e-01" purity="1.0000000000000000e+00" nType="0">
            <Node pos="l" depth="3" NCoef="0" IVar="33" Cut="4.6505905151367188e+02" cType="1" res="2.9953725636005402e-02" rms="1.0547474026679993e-01" purity="1.0000000000000000e+00" nType="0">
              <Node pos="l" depth="4" NCoef="0" IVar="-1" Cut="0.0000000000000000e+00" cType="1" res="3.8707086350768805e-03" rms="1.0240702331066132e-01" purity="1.0000000000000000e+00" nType="-99"/>
              <Node pos="r" depth="4" NCoef="0" IVar="-1" Cut="0.0000000000000000e+00" cType="1" res="2.5668745860457420e-02" rms="1.0276041924953461e-01" purity="1.0000000000000000e+00" nType="-99"/>
            </Node>
            <Node pos="r" depth="3" NCoef="0" IVar="33" Cut="4.8224060058593750e+02" cType="1" res="-8.6921751499176025e-03" rms="1.0158810764551163e-01" purity="1.0000000000000000e+00" nType="0">
              <Node pos="l" depth="4" NCoef="0" IVar="-1" Cut="0.0000000000000000e+00" cType="1" res="-7.7611473388969898e-03" rms="9.7934670746326447e-02" purity="1.0000000000000000e+00" nType="-99"/>
              <Node pos="r" depth="4" NCoef="0" IVar="-1" Cut="0.0000000000000000e+00" cType="1" res="3.5708742216229439e-03" rms="1.0357748717069626e-01" purity="1.0000000000000000e+00" nType="-99"/>
            </Node>
          </Node>
        </Node>
        <Node pos="r" depth="1" NCoef="0" IVar="33" Cut="7.2522235107421875e+02" cType="1" res="6.9542996585369110e-02" rms="1.0659475624561310e-01" purity="1.0000000000000000e+00" nType="0">
          <Node pos="l" depth="2" NCoef="0" IVar="27" Cut="2.1784873437500000e+05" cType="1" res="4.8101376742124557e-02" rms="1.0948154330253601e-01" purity="1.0000000000000000e+00" nType="0">
            <Node pos="l" depth="3" NCoef="0" IVar="33" Cut="5.7523431396484375e+02" cType="1" res="1.0848710685968399e-01" rms="8.9416824281215668e-02" purity="1.0000000000000000e+00" nType="0">
              <Node pos="l" depth="4" NCoef="0" IVar="-1" Cut="0.0000000000000000e+00" cType="1" res="3.9827350527048111e-02" rms="1.0248348116874695e-01" purity="1.0000000000000000e+00" nType="-99"/>
              <Node pos="r" depth="4" NCoef="0" IVar="-1" Cut="0.0000000000000000e+00" cType="1" res="7.5393639504909515e-02" rms="7.6705113053321838e-02" purity="1.0000000000000000e+00" nType="-99"/>
            </Node>
            <Node pos="r" depth="3" NCoef="0" IVar="21" Cut="3.2942817211151123e+00" cType="1" res="3.5057254135608673e-02" rms="1.0904335975646973e-01" purity="1.0000000000000000e+00" nType="0">
              <Node pos="l" depth="4" NCoef="0" IVar="-1" Cut="0.0000000000000000e+00" cType="1" res="1.6435600817203522e-02" rms="1.0787006467580795e-01" purity="1.0000000000000000e+00" nType="-99"/>
              <Node pos="r" depth="4" NCoef="0" IVar="-1" Cut="0.0000000000000000e+00" cType="1" res="-1.1147028999403119e-03" rms="1.1070830374956131e-01" purity="1.0000000000000000e+00" nType="-99"/>
            </Node>
          </Node>
          <Node pos="r" depth="2" NCoef="0" IVar="27" Cut="5.5743256250000000e+05" cType="1" res="1.0080487281084061e-01" rms="9.3836985528469086e-02" purity="1.0000000000000000e+00" nType="0">
            <Node pos="l" depth="3" NCoef="0" IVar="27" Cut="3.2906731250000000e+05" cType="1" res="1.2207909673452377e-01" rms="7.8887991607189178e-02" purity="1.0000000000000000e+00" nType="0">
              <Node pos="l" depth="4" NCoef="0" IVar="-1" Cut="0.0000000000000000e+00" cType="1" res="1.3130390644073486e-01" rms="5.5382002145051956e-02" purity="1.0000000000000000e+00" nType="-99"/>
              <Node pos="r" depth="4" NCoef="0" IVar="-1" Cut="0.0000000000000000e+00" cType="1" res="6.4855299890041351e-02" rms="8.8801622390747070e-02" purity="1.0000000000000000e+00" nType="-99"/>
            </Node>
            <Node pos="r" depth="3" NCoef="0" IVar="33" Cut="1.0785593261718750e+03" cType="1" res="7.2776146233081818e-02" rms="1.0404490679502487e-01" purity="1.0000000000000000e+00" nType="0">
              <Node pos="l" depth="4" NCoef="0" IVar="-1" Cut="0.0000000000000000e+00" cType="1" res="2.4823924526572227e-02" rms="1.0401006042957306e-01" purity="1.0000000000000000e+00" nType="-99"/>
              <Node pos="r" depth="4" NCoef="0" IVar="-1" Cut="0.0000000000000000e+00" cType="1" res="8.0726213753223419e-02" rms="9.4928383827209473e-02" purity="1.0000000000000000e+00" nType="-99"/>
            </Node>
          </Node>
        </Node>
      </Node>
    </BinaryTree>
    <BinaryTree type="DecisionTree" boostWeight="1.0000000000000000e+00" itree="1">
      <Node pos="s" depth="0" NCoef="0" IVar="33" Cut="5.3969665527343750e+02" cType="1" res="2.2864616475999355e-03" rms="1.0298861563205719e-01" purity="1.0000000000000000e+00" nType="0">
        <Node pos="l" depth="1" NCoef="0" IVar="33" Cut="4.0989529418945312e+02" cType="1" res="-2.1702751517295837e-02" rms="9.3153357505798340e-02" purity="1.0000000000000000e+00" nType="0">
          <Node pos="l" depth="2" NCoef="0" IVar="21" Cut="1.9755406379699707e+00" cType="1" res="-4.4402670115232468e-02" rms="8.2067161798477173e-02" purity="1.0000000000000000e+00" nType="0">
            <Node pos="l" depth="3" NCoef="0" IVar="33" Cut="3.7281442260742188e+02" cType="1" res="-3.4064218401908875e-02" rms="7.9193919897079468e-02" purity="1.0000000000000000e+00" nType="0">
              <Node pos="l" depth="4" NCoef="0" IVar="-1" Cut="0.0000000000000000e+00" cType="1" res="-1.5168316662311554e-02" rms="7.0414043962955475e-02" purity="1.0000000000000000e+00" nType="-99"/>
              <Node pos="r" depth="4" NCoef="0" IVar="-1" Cut="0.0000000000000000e+00" cType="1" res="-7.4798879213631153e-03" rms="8.5230134427547455e-02" purity="1.0000000000000000e+00" nType="-99"/>
            </Node>
            <Node pos="r" depth="3" NCoef="0" IVar="33" Cut="3.9138665771484375e+02" cType="1" res="-5.6872922927141190e-02" rms="8.3722598850727081e-02" purity="1.0000000000000000e+00" nType="0">
              <Node pos="l" depth="4" NCoef="0" IVar="-1" Cut="0.0000000000000000e+00" cType="1" res="-2.4803055450320244e-02" rms="7.8646041452884674e-02" purity="1.0000000000000000e+00" nType="-99"/>
              <Node pos="r" depth="4" NCoef="0" IVar="-1" Cut="0.0000000000000000e+00" cType="1" res="-1.3150666840374470e-02" rms="9.2234209179878235e-02" purity="1.0000000000000000e+00" nType="-99"/>
            </Node>
          </Node>
          <Node pos="r" depth="2" NCoef="0" IVar="27" Cut="1.8005246875000000e+05" cType="1" res="-3.7310700281523168e-04" rms="9.7794078290462494e-02" purity="1.0000000000000000e+00" nType="0">
            <Node pos="l" depth="3" NCoef="0" IVar="27" Cut="1.1268910937500000e+05" cType="1" res="1.7266316339373589e-02" rms="9.9317543208599091e-02" purity="1.0000000000000000e+00" nType="0">
              <Node pos="l" depth="4" NCoef="0" IVar="-1" Cut="0.0000000000000000e+00" cType="1" res="2.2066237404942513e-02" rms="9.8058134317398071e-02" purity="1.0000000000000000e+00" nType="-99"/>
              <Node pos="r" depth="4" NCoef="0" IVar="-1" Cut="0.0000000000000000e+00" cType="1" res="2.6137065142393112e-03" rms="9.7398065030574799e-02" purity="1.0000000000000000e+00" nType="-99"/>
            </Node>
            <Node pos="r" depth="3" NCoef="0" IVar="33" Cut="4.3461605834960938e+02" cType="1" res="-8.4306877106428146e-03" rms="9.6017986536026001e-02" purity="1.0000000000000000e+00" nType="0">
              <Node pos="l" depth="4" NCoef="0" IVar="-1" Cut="0.0000000000000000e+00" cType="1" res="-1.2065674178302288e-02" rms="9.1100551187992096e-02" purity="1.0000000000000000e+00" nType="-99"/>
              <Node pos="r" depth="4" NCoef="0" IVar="-1" Cut="0.0000000000000000e+00" cType="1" res="-4.0973210707306862e-04" rms="9.6255026757717133e-02" purity="1.0000000000000000e+00" nType="-99"/>
            </Node>
          </Node>
        </Node>
        <Node pos="r" depth="1" NCoef="0" IVar="33" Cut="9.1059857177734375e+02" cType="1" res="4.7444351017475128e-02" rms="1.0543015599250793e-01" purity="1.0000000000000000e+00" nType="0">
          <Node pos="l" depth="2" NCoef="0" IVar="27" Cut="2.7669903125000000e+05" cType="1" res="3.7913072854280472e-02" rms="1.0529831051826477e-01" purity="1.0000000000000000e+00" nType="0">
            <Node pos="l" depth="3" NCoef="0" IVar="33" Cut="5.9292529296875000e+02" cType="1" res="7.5722552835941315e-02" rms="9.6754118800163269e-02" purity="1.0000000000000000e+00" nType="0">
              <Node pos="l" depth="4" NCoef="0" IVar="-1" Cut="0.0000000000000000e+00" cType="1" res="2.1238509565591812e-02" rms="1.0132601112127304e-01" purity="1.0000000000000000e+00" nType="-99"/>
              <Node pos="r" depth="4" NCoef="0" IVar="-1" Cut="0.0000000000000000e+00" cType="1" res="6.0235522687435150e-02" rms="8.8784351944923401e-02" purity="1.0000000000000000e+00" nType="-99"/>
            </Node>
            <Node pos="r" depth="3" NCoef="0" IVar="33" Cut="7.6926940917968750e+02" cType="1" res="2.2075043991208076e-02" rms="1.0469587147235870e-01" purity="1.0000000000000000e+00" nType="0">
              <Node pos="l" depth="4" NCoef="0" IVar="-1" Cut="0.0000000000000000e+00" cType="1" res="5.7036299258470535e-03" rms="1.0396628081798553e-01" purity="1.0000000000000000e+00" nType="-99"/>
              <Node pos="r" depth="4" NCoef="0" IVar="-1" Cut="0.0000000000000000e+00" cType="1" res="2.3791948333382607e-02" rms="1.0244984179735184e-01" purity="1.0000000000000000e+00" nType="-99"/>
            </Node>
          </Node>
          <Node pos="r" depth="2" NCoef="0" IVar="27" Cut="5.6274150000000000e+05" cType="1" res="9.1462515294551849e-02" rms="9.4269208610057831e-02" purity="1.0000000000000000e+00" nType="0">
            <Node pos="l" depth="3" NCoef="0" IVar="33" Cut="1.0714121093750000e+03" cType="1" res="1.2465987354516983e-01" rms="6.6424638032913208e-02" purity="1.0000000000000000e+00" nType="0">
              <Node pos="l" depth="4" NCoef="0" IVar="-1" Cut="0.0000000000000000e+00" cType="1" res="9.6852086484432220e-02" rms="8.1739760935306549e-02" purity="1.0000000000000000e+00" nType="-99"/>
              <Node pos="r" depth="4" NCoef="0" IVar="-1" Cut="0.0000000000000000e+00" cType="1" res="2.1627534925937653e-01" rms="3.4993745386600494e-02" purity="1.0000000000000000e+00" nType="-99"/>
            </Node>
            <Node pos="r" depth="3" NCoef="0" IVar="12" Cut="-6.6896802745759487e-03" cType="1" res="6.3635319471359253e-02" rms="1.0459055751562119e-01" purity="1.0000000000000000e+00" nType="0">
              <Node pos="l" depth="4" NCoef="0" IVar="-1" Cut="0.0000000000000000e+00" cType="1" res="1.9300352782011032e-02" rms="1.1245810240507126e-01" purity="1.0000000000000000e+00" nType="-99"/>
              <Node pos="r" depth="4" NCoef="0" IVar="-1" Cut="0.0000000000000000e+00" cType="1" res="4.6522166579961777e-02" rms="9.7906775772571564e-02" purity="1.0000000000000000e+00" nType="-99"/>
            </Node>
          </Node>
        </Node>
      </Node>
    </BinaryTree>
    <BinaryTree type="DecisionTree" boostWeight="1.0000000000000000e+00" itree="2">
      <Node pos="s" depth="0" NCoef="0" IVar="33" Cut="5.3969665527343750e+02" cType="1" res="1.8402516143396497e-03" rms="9.8400168120861053e-02" purity="1.0000000000000000e+00" nType="0">
        <Node pos="l" depth="1" NCoef="0" IVar="33" Cut="3.9136639404296875e+02" cType="1" res="-1.5029206871986389e-02" rms="9.0572610497474670e-02" purity="1.0000000000000000e+00" nType="0">
          <Node pos="l" depth="2" NCoef="0" IVar="0" Cut="1.1212098693847656e+02" cType="1" res="-3.5384919494390488e-02" rms="8.0191209912300110e-02" purity="1.0000000000000000e+00" nType="0">
            <Node pos="l" depth="3" NCoef="0" IVar="3" Cut="9.0933883666992188e+01" cType="1" res="-3.1078353524208069e-02" rms="7.9454384744167328e-02" purity="1.0000000000000000e+00" nType="0">
              <Node pos="l" depth="4" NCoef="0" IVar="-1" Cut="0.0000000000000000e+00" cType="1" res="-8.2555990666151047e-03" rms="7.8541949391365051e-02" purity="1.0000000000000000e+00" nType="-99"/>
              <Node pos="r" depth="4" NCoef="0" IVar="-1" Cut="0.0000000000000000e+00" cType="1" res="-1.6987312585115433e-02" rms="7.9784780740737915e-02" purity="1.0000000000000000e+00" nType="-99"/>
            </Node>
            <Node pos="r" depth="3" NCoef="0" IVar="3" Cut="1.1558316802978516e+02" cType="1" res="-6.6457480192184448e-02" rms="7.8613199293613434e-02" purity="1.0000000000000000e+00" nType="0">
              <Node pos="l" depth="4" NCoef="0" IVar="-1" Cut="0.0000000000000000e+00" cType="1" res="-2.3429438471794128e-02" rms="7.9538904130458832e-02" purity="1.0000000000000000e+00" nType="-99"/>
              <Node pos="r" depth="4" NCoef="0" IVar="-1" Cut="0.0000000000000000e+00" cType="1" res="-5.7373084127902985e-02" rms="4.3062239885330200e-02" purity="1.0000000000000000e+00" nType="-99"/>
            </Node>
          </Node>
          <Node pos="r" depth="2" NCoef="0" IVar="33" Cut="4.6198153686523438e+02" cType="1" res="-3.4250002354383469e-03" rms="9.4037927687168121e-02" purity="1.0000000000000000e+00" nType="0">
            <Node pos="l" depth="3" NCoef="0" IVar="21" Cut="2.2192051410675049e+00" cType="1" res="-1.2227853760123253e-02" rms="9.1556251049041748e-02" purity="1.0000000000000000e+00" nType="0">
              <Node pos="l" depth="4" NCoef="0" IVar="-1" Cut="0.0000000000000000e+00" cType="1" res="-2.0466811838559806e-04" rms="9.0297579765319824e-02" purity="1.0000000000000000e+00" nType="-99"/>
              <Node pos="r" depth="4" NCoef="0" IVar="-1" Cut="0.0000000000000000e+00" cType="1" res="-9.6708890050649643e-03" rms="9.1260641813278198e-02" purity="1.0000000000000000e+00" nType="-99"/>
            </Node>
            <Node pos="r" depth="3" NCoef="0" IVar="27" Cut="1.8005246875000000e+05" cType="1" res="1.0488442145287991e-02" rms="9.6203185617923737e-02" purity="1.0000000000000000e+00" nType="0">
              <Node pos="l" depth="4" NCoef="0" IVar="-1" Cut="0.0000000000000000e+00" cType="1" res="1.5062443912029266e-02" rms="9.8682433366775513e-02" purity="1.0000000000000000e+00" nType="-99"/>
              <Node pos="r" depth="4" NCoef="0" IVar="-1" Cut="0.0000000000000000e+00" cType="1" res="1.4628389617428184e-03" rms="9.4327732920646667e-02" purity="1.0000000000000000e+00" nType="-99"/>
            </Node>
          </Node>
        </Node>
        <Node pos="r" depth="1" NCoef="0" IVar="33" Cut="9.1059857177734375e+02" cType="1" res="3.3595737069845200e-02" rms="1.0451296716928482e-01" purity="1.0000000000000000e+00" nType="0">
          <Node pos="l" depth="2" NCoef="0" IVar="27" Cut="2.7669903125000000e+05" cType="1" res="2.6413351297378540e-02" rms="1.0343683511018753e-01" purity="1.0000000000000000e+00" nType="0">
            <Node pos="l" depth="3" NCoef="0" IVar="33" Cut="6.6349841308593750e+02" cType="1" res="5.3218659013509750e-02" rms="1.0131369531154633e-01" purity="1.0000000000000000e+00" nType="0">
              <Node pos="l" depth="4" NCoef="0" IVar="-1" Cut="0.0000000000000000e+00" cType="1" res="1.8792616203427315e-02" rms="1.0288037359714508e-01" purity="1.0000000000000000e+00" nType="-99"/>
              <Node pos="r" depth="4" NCoef="0" IVar="-1" Cut="0.0000000000000000e+00" cType="1" res="5.9069946408271790e-02" rms="9.1287747025489807e-02" purity="1.0000000000000000e+00" nType="-99"/>
            </Node>
            <Node pos="r" depth="3" NCoef="0" IVar="28" Cut="7.0235580205917358e-01" cType="1" res="1.5184864401817322e-02" rms="1.0224585980176926e-01" purity="1.0000000000000000e+00" nType="0">
              <Node pos="l" depth="4" NCoef="0" IVar="-1" Cut="0.0000000000000000e+00" cType="1" res="3.5414253361523151e-03" rms="1.0168951004743576e-01" purity="1.0000000000000000e+00" nType="-99"/>
              <Node pos="r" depth="4" NCoef="0" IVar="-1" Cut="0.0000000000000000e+00" cType="1" res="1.7998831346631050e-02" rms="1.0112939774990082e-01" purity="1.0000000000000000e+00" nType="-99"/>
            </Node>
          </Node>
          <Node pos="r" depth="2" NCoef="0" IVar="27" Cut="5.6274150000000000e+05" cType="1" res="6.6766053438186646e-02" rms="1.0304334759712219e-01" purity="1.0000000000000000e+00" nType="0">
            <Node pos="l" depth="3" NCoef="0" IVar="21" Cut="3.2713222503662109e+00" cType="1" res="9.4369553029537201e-02" rms="9.0783126652240753e-02" purity="1.0000000000000000e+00" nType="0">
              <Node pos="l" depth="4" NCoef="0" IVar="-1" Cut="0.0000000000000000e+00" cType="1" res="1.2178002297878265e-01" rms="8.1267043948173523e-02" purity="1.0000000000000000e+00" nType="-99"/>
              <Node pos="r" depth="4" NCoef="0" IVar="-1" Cut="0.0000000000000000e+00" cType="1" res="4.7184582799673080e-02" rms="1.0519127547740936e-01" purity="1.0000000000000000e+00" nType="-99"/>
            </Node>
            <Node pos="r" depth="3" NCoef="0" IVar="0" Cut="3.0344946289062500e+02" cType="1" res="4.3627828359603882e-02" rms="1.0693831741809845e-01" purity="1.0000000000000000e+00" nType="0">
              <Node pos="l" depth="4" NCoef="0" IVar="-1" Cut="0.0000000000000000e+00" cType="1" res="4.0127392858266830e-02" rms="1.0497467964887619e-01" purity="1.0000000000000000e+00" nType="-99"/>
              <Node pos="r" depth="4" NCoef="0" IVar="-1" Cut="0.0000000000000000e+00" cType="1" res="7.1526523679494858e-03" rms="1.0460644215345383e-01" purity="1.0000000000000000e+00" nType="-99"/>
            </Node>
          </Node>
        </Node>
      </Node>
    </BinaryTree>
    <BinaryTree type="DecisionTree" boostWeight="1.0000000000000000e+00" itree="3">
      <Node pos="s" depth="0" NCoef="0" IVar="33" Cut="5.3969665527343750e+02" cType="1" res="1.2394448276609182e-03" rms="9.5869176089763641e-02" purity="1.0000000000000000e+00" nType="0">
        <Node pos="l" depth="1" NCoef="0" IVar="33" Cut="4.1915972900390625e+02" cType="1" res="-1.0605274699628353e-02" rms="8.9255876839160919e-02" purity="1.0000000000000000e+00" nType="0">
          <Node pos="l" depth="2" NCoef="0" IVar="3" Cut="1.1325674438476562e+02" cType="1" res="-2.0820802077651024e-02" rms="8.4232538938522339e-02" purity="1.0000000000000000e+00" nType="0">
            <Node pos="l" depth="3" NCoef="0" IVar="33" Cut="3.7326925659179688e+02" cType="1" res="-1.7180256545543671e-02" rms="8.3419807255268097e-02" purity="1.0000000000000000e+00" nType="0">
              <Node pos="l" depth="4" NCoef="0" IVar="-1" Cut="0.0000000000000000e+00" cType="1" res="-8.8091949000954628e-03" rms="7.5971543788909912e-02" purity="1.0000000000000000e+00" nType="-99"/>
              <Node pos="r" depth="4" NCoef="0" IVar="-1" Cut="0.0000000000000000e+00" cType="1" res="-3.4730092156678438e-03" rms="8.7610512971878052e-02" purity="1.0000000000000000e+00" nType="-99"/>
            </Node>
            <Node pos="r" depth="3" NCoef="0" IVar="0" Cut="8.4175453186035156e+01" cType="1" res="-4.0801469236612320e-02" rms="8.5854388773441315e-02" purity="1.0000000000000000e+00" nType="0">
              <Node pos="l" depth="4" NCoef="0" IVar="-1" Cut="0.0000000000000000e+00" cType="1" res="-9.2144943773746490e-03" rms="8.4471896290779114e-02" purity="1.0000000000000000e+00" nType="-99"/>
              <Node pos="r" depth="4" NCoef="0" IVar="-1" Cut="0.0000000000000000e+00" cType="1" res="-3.1734902411699295e-02" rms="8.0796800553798676e-02" purity="1.0000000000000000e+00" nType="-99"/>
            </Node>
          </Node>
          <Node pos="r" depth="2" NCoef="0" IVar="17" Cut="4.3688179016113281e+01" cType="1" res="1.5172152779996395e-03" rms="9.3434438109397888e-02" purity="1.0000000000000000e+00" nType="0">
            <Node pos="l" depth="3" NCoef="0" IVar="0" Cut="1.2697002410888672e+02" cType="1" res="1.5561096370220184e-02" rms="9.7280994057655334e-02" purity="1.0000000000000000e+00" nType="0">
              <Node pos="l" depth="4" NCoef="0" IVar="-1" Cut="0.0000000000000000e+00" cType="1" res="1.1890025809407234e-02" rms="9.6079051494598389e-02" purity="1.0000000000000000e+00" nType="-99"/>
              <Node pos="r" depth="4" NCoef="0" IVar="-1" Cut="0.0000000000000000e+00" cType="1" res="-2.1623049397021532e-03" rms="9.5963992178440094e-02" purity="1.0000000000000000e+00" nType="-99"/>
            </Node>
            <Node pos="r" depth="3" NCoef="0" IVar="33" Cut="5.1091629028320312e+02" cType="1" res="-6.1538121663033962e-03" rms="9.0347737073898315e-02" purity="1.0000000000000000e+00" nType="0">
              <Node pos="l" depth="4" NCoef="0" IVar="-1" Cut="0.0000000000000000e+00" cType="1" res="-3.6412791814655066e-03" rms="8.9572295546531677e-02" purity="1.0000000000000000e+00" nType="-99"/>
              <Node pos="r" depth="4" NCoef="0" IVar="-1" Cut="0.0000000000000000e+00" cType="1" res="4.4412733986973763e-03" rms="9.1593898832798004e-02" purity="1.0000000000000000e+00" nType="-99"/>
            </Node>
          </Node>
        </Node>
        <Node pos="r" depth="1" NCoef="0" IVar="33" Cut="1.2813509521484375e+03" cType="1" res="2.3536236956715584e-02" rms="1.0360638052225113e-01" purity="1.0000000000000000e+00" nType="0">
          <Node pos="l" depth="2" NCoef="0" IVar="0" Cut="1.9748677062988281e+02" cType="1" res="2.0468151196837425e-02" rms="1.0314274579286575e-01" purity="1.0000000000000000e+00" nType="0">
            <Node pos="l" depth="3" NCoef="0" IVar="33" Cut="6.7975738525390625e+02" cType="1" res="2.9626289382576942e-02" rms="1.0322941839694977e-01" purity="1.0000000000000000e+00" nType="0">
              <Node pos="l" depth="4" NCoef="0" IVar="-1" Cut="0.0000000000000000e+00" cType="1" res="7.2871497832238674e-03" rms="1.0177467763423920e-01" purity="1.0000000000000000e+00" nType="-99"/>
              <Node pos="r" depth="4" NCoef="0" IVar="-1" Cut="0.0000000000000000e+00" cType="1" res="3.0520448461174965e-02" rms="1.0202772170305252e-01" purity="1.0000000000000000e+00" nType="-99"/>
            </Node>
            <Node pos="r" depth="3" NCoef="0" IVar="13" Cut="1.7184751892089844e+02" cType="1" res="-2.4579244200140238e-03" rms="9.9287882447242737e-02" purity="1.0000000000000000e+00" nType="0">
              <Node pos="l" depth="4" NCoef="0" IVar="-1" Cut="0.0000000000000000e+00" cType="1" res="1.0916456812992692e-03" rms="9.9481396377086639e-02" purity="1.0000000000000000e+00" nType="-99"/>
              <Node pos="r" depth="4" NCoef="0" IVar="-1" Cut="0.0000000000000000e+00" cType="1" res="-1.3697304762899876e-02" rms="9.3060456216335297e-02" purity="1.0000000000000000e+00" nType="-99"/>
            </Node>
          </Node>
          <Node pos="r" depth="2" NCoef="0" IVar="27" Cut="1.0647732500000000e+06" cType="1" res="8.9654900133609772e-02" rms="9.0694464743137360e-02" purity="1.0000000000000000e+00" nType="0">
            <Node pos="l" depth="3" NCoef="0" IVar="16" Cut="1.2903997421264648e+01" cType="1" res="1.1335811764001846e-01" rms="6.7451648414134979e-02" purity="1.0000000000000000e+00" nType="0">
              <Node pos="l" depth="4" NCoef="0" IVar="-1" Cut="0.0000000000000000e+00" cType="1" res="1.7393070459365845e-01" rms="9.2733003199100494e-02" purity="1.0000000000000000e+00" nType="-99"/>
              <Node pos="r" depth="4" NCoef="0" IVar="-1" Cut="0.0000000000000000e+00" cType="1" res="1.9533975422382355e-01" rms="3.8214556872844696e-02" purity="1.0000000000000000e+00" nType="-99"/>
            </Node>
            <Node pos="r" depth="3" NCoef="0" IVar="27" Cut="1.5132560000000000e+06" cType="1" res="4.8766862601041794e-02" rms="1.0920239984989166e-01" purity="1.0000000000000000e+00" nType="0">
              <Node pos="l" depth="4" NCoef="0" IVar="-1" Cut="0.0000000000000000e+00" cType="1" res="8.5207581520080566e-02" rms="9.0860523283481598e-02" purity="1.0000000000000000e+00" nType="-99"/>
              <Node pos="r" depth="4" NCoef="0" IVar="-1" Cut="0.0000000000000000e+00" cType="1" res="2.1303642541170120e-02" rms="1.1675112694501877e-01" purity="1.0000000000000000e+00" nType="-99"/>
            </Node>
          </Node>
        </Node>
      </Node>
    </BinaryTree>
    <BinaryTree type="DecisionTree" boostWeight="1.0000000000000000e+00" itree="4">
      <Node pos="s" depth="0" NCoef="0" IVar="33" Cut="5.3969665527343750e+02" cType="1" res="7.6906930189579725e-04" rms="9.4480089843273163e-02" purity="1.0000000000000000e+00" nType="0">
        <Node pos="l" depth="1" NCoef="0" IVar="33" Cut="4.5621752929687500e+02" cType="1" res="-7.5708390213549137e-03" rms="8.8400445878505707e-02" purity="1.0000000000000000e+00" nType="0">
          <Node pos="l" depth="2" NCoef="0" IVar="21" Cut="1.6456843614578247e+00" cType="1" res="-1.2742395512759686e-02" rms="8.6080446839332581e-02" purity="1.0000000000000000e+00" nType="0">
            <Node pos="l" depth="3" NCoef="0" IVar="30" Cut="-4.6847534179687500e-01" cType="1" res="-2.3996415548026562e-03" rms="8.1420190632343292e-02" purity="1.0000000000000000e+00" nType="0">
              <Node pos="l" depth="4" NCoef="0" IVar="-1" Cut="0.0000000000000000e+00" cType="1" res="-1.2718418613076210e-02" rms="8.4852665662765503e-02" purity="1.0000000000000000e+00" nType="-99"/>
              <Node pos="r" depth="4" NCoef="0" IVar="-1" Cut="0.0000000000000000e+00" cType="1" res="6.6122668795287609e-04" rms="8.0481842160224915e-02" purity="1.0000000000000000e+00" nType="-99"/>
            </Node>
            <Node pos="r" depth="3" NCoef="0" IVar="27" Cut="1.4063432812500000e+05" cType="1" res="-1.9149543717503548e-02" rms="8.8238820433616638e-02" purity="1.0000000000000000e+00" nType="0">
              <Node pos="l" depth="4" NCoef="0" IVar="-1" Cut="0.0000000000000000e+00" cType="1" res="-2.2254034411162138e-03" rms="8.9287884533405304e-02" purity="1.0000000000000000e+00" nType="-99"/>
              <Node pos="r" depth="4" NCoef="0" IVar="-1" Cut="0.0000000000000000e+00" cType="1" res="-9.4000231474637985e-03" rms="8.7113171815872192e-02" purity="1.0000000000000000e+00" nType="-99"/>
            </Node>
          </Node>
          <Node pos="r" depth="2" NCoef="0" IVar="17" Cut="6.4197425842285156e+01" cType="1" res="6.3700578175485134e-03" rms="9.2948347330093384e-02" purity="1.0000000000000000e+00" nType="0">
            <Node pos="l" depth="3" NCoef="0" IVar="0" Cut="9.6569358825683594e+01" cType="1" res="1.4144010841846466e-02" rms="9.4830572605133057e-02" purity="1.0000000000000000e+00" nType="0">
              <Node pos="l" depth="4" NCoef="0" IVar="-1" Cut="0.0000000000000000e+00" cType="1" res="1.3925493694841862e-02" rms="9.3379065394401550e-02" purity="1.0000000000000000e+00" nType="-99"/>
              <Node pos="r" depth="4" NCoef="0" IVar="-1" Cut="0.0000000000000000e+00" cType="1" res="1.8277035560458899e-03" rms="9.4224952161312103e-02" purity="1.0000000000000000e+00" nType="-99"/>
            </Node>
            <Node pos="r" depth="3" NCoef="0" IVar="20" Cut="8.2147102355957031e+00" cType="1" res="-6.8548866547644138e-03" rms="8.8093221187591553e-02" purity="1.0000000000000000e+00" nType="0">
              <Node pos="l" depth="4" NCoef="0" IVar="-1" Cut="0.0000000000000000e+00" cType="1" res="-1.8822003155946732e-02" rms="8.4342218935489655e-02" purity="1.0000000000000000e+00" nType="-99"/>
              <Node pos="r" depth="4" NCoef="0" IVar="-1" Cut="0.0000000000000000e+00" cType="1" res="-1.6583619872108102e-03" rms="8.7687030434608459e-02" purity="1.0000000000000000e+00" nType="-99"/>
            </Node>
          </Node>
        </Node>
        <Node pos="r" depth="1" NCoef="0" IVar="17" Cut="5.6827636718750000e+01" cType="1" res="1.6468320041894913e-02" rms="1.0316036641597748e-01" purity="1.0000000000000000e+00" nType="0">
          <Node pos="l" depth="2" NCoef="0" IVar="0" Cut="1.7792094421386719e+02" cType="1" res="2.9659485444426537e-02" rms="1.0347914695739746e-01" purity="1.0000000000000000e+00" nType="0">
            <Node pos="l" depth="3" NCoef="0" IVar="27" Cut="1.5877137500000000e+05" cType="1" res="4.2159061878919601e-02" rms="1.0187192261219025e-01" purity="1.0000000000000000e+00" nType="0">
              <Node pos="l" depth="4" NCoef="0" IVar="-1" Cut="0.0000000000000000e+00" cType="1" res="5.6734424084424973e-02" rms="8.9615613222122192e-02" purity="1.0000000000000000e+00" nType="-99"/>
              <Node pos="r" depth="4" NCoef="0" IVar="-1" Cut="0.0000000000000000e+00" cType="1" res="2.0699763670563698e-02" rms="1.0260395705699921e-01" purity="1.0000000000000000e+00" nType="-99"/>
            </Node>
            <Node pos="r" depth="3" NCoef="0" IVar="33" Cut="8.9684338378906250e+02" cType="1" res="1.2122564949095249e-02" rms="1.0317091643810272e-01" purity="1.0000000000000000e+00" nType="0">
              <Node pos="l" depth="4" NCoef="0" IVar="-1" Cut="0.0000000000000000e+00" cType="1" res="-2.7868911274708807e-04" rms="9.9704310297966003e-02" purity="1.0000000000000000e+00" nType="-99"/>
              <Node pos="r" depth="4" NCoef="0" IVar="-1" Cut="0.0000000000000000e+00" cType="1" res="2.6301750913262367e-02" rms="1.0598989576101303e-01" purity="1.0000000000000000e+00" nType="-99"/>
            </Node>
          </Node>
          <Node pos="r" depth="2" NCoef="0" IVar="33" Cut="1.0959747314453125e+03" cType="1" res="5.4082619026303291e-03" rms="1.0158056020736694e-01" purity="1.0000000000000000e+00" nType="0">
            <Node pos="l" depth="3" NCoef="0" IVar="27" Cut="3.1991653125000000e+05" cType="1" res="2.4021989665925503e-03" rms="9.9981337785720825e-02" purity="1.0000000000000000e+00" nType="0">
              <Node pos="l" depth="4" NCoef="0" IVar="-1" Cut="0.0000000000000000e+00" cType="1" res="9.9738491699099541e-03" rms="1.0280265659093857e-01" purity="1.0000000000000000e+00" nType="-99"/>
              <Node pos="r" depth="4" NCoef="0" IVar="-1" Cut="0.0000000000000000e+00" cType="1" res="-2.3016817867755890e-03" rms="9.8178483545780182e-02" purity="1.0000000000000000e+00" nType="-99"/>
            </Node>
            <Node pos="r" depth="3" NCoef="0" IVar="27" Cut="6.2905062500000000e+05" cType="1" res="4.1999306529760361e-02" rms="1.1310794204473495e-01" purity="1.0000000000000000e+00" nType="0">
              <Node pos="l" depth="4" NCoef="0" IVar="-1" Cut="0.0000000000000000e+00" cType="1" res="1.4181785285472870e-01" rms="7.4123732745647430e-02" purity="1.0000000000000000e+00" nType="-99"/>
              <Node pos="r" depth="4" NCoef="0" IVar="-1" Cut="0.0000000000000000e+00" cType="1" res="1.0305103845894337e-02" rms="1.1615613102912903e-01" purity="1.0000000000000000e+00" nType="-99"/>
            </Node>
          </Node>
        </Node>
      </Node>
    </BinaryTree>
    <BinaryTree type="DecisionTree" boostWeight="1.0000000000000000e+00" itree="5">
      <Node pos="s" depth="0" NCoef="0" IVar="33" Cut="7.3434912109375000e+02" cType="1" res="5.0447450485080481e-04" rms="9.3864567577838898e-02" purity="1.0000000000000000e+00" nType="0">
        <Node pos="l" depth="1" NCoef="0" IVar="33" Cut="4.0064050292968750e+02" cType="1" res="-3.1274729408323765e-03" rms="9.1180220246315002e-02" purity="1.0000000000000000e+00" nType="0">
          <Node pos="l" depth="2" NCoef="0" IVar="0" Cut="8.3523666381835938e+01" cType="1" res="-1.3817294500768185e-02" rms="8.3285450935363770e-02" purity="1.0000000000000000e+00" nType="0">
            <Node pos="l" depth="3" NCoef="0" IVar="30" Cut="8.8682150840759277e-01" cType="1" res="-7.6830340549349785e-03" rms="8.0771818757057190e-02" purity="1.0000000000000000e+00" nType="0">
              <Node pos="l" depth="4" NCoef="0" IVar="-1" Cut="0.0000000000000000e+00" cType="1" res="-1.2353662168607116e-03" rms="8.0170951783657074e-02" purity="1.0000000000000000e+00" nType="-99"/>
              <Node pos="r" depth="4" NCoef="0" IVar="-1" Cut="0.0000000000000000e+00" cType="1" res="-1.1288220062851906e-02" rms="8.2721285521984100e-02" purity="1.0000000000000000e+00" nType="-99"/>
            </Node>
            <Node pos="r" depth="3" NCoef="0" IVar="3" Cut="9.0699371337890625e+01" cType="1" res="-2.4704534560441971e-02" rms="8.6504630744457245e-02" purity="1.0000000000000000e+00" nType="0">
              <Node pos="l" depth="4" NCoef="0" IVar="-1" Cut="0.0000000000000000e+00" cType="1" res="-5.9492345899343491e-03" rms="8.5096128284931183e-02" purity="1.0000000000000000e+00" nType="-99"/>
              <Node pos="r" depth="4" NCoef="0" IVar="-1" Cut="0.0000000000000000e+00" cType="1" res="-2.0404344424605370e-02" rms="8.6903557181358337e-02" purity="1.0000000000000000e+00" nType="-99"/>
            </Node>
          </Node>
          <Node pos="r" depth="2" NCoef="0" IVar="27" Cut="2.0799809375000000e+05" cType="1" res="1.9990936852991581e-03" rms="9.4304278492927551e-02" purity="1.0000000000000000e+00" nType="0">
            <Node pos="l" depth="3" NCoef="0" IVar="26" Cut="1.8853203125000000e+04" cType="1" res="1.2002792209386826e-02" rms="9.4759926199913025e-02" purity="1.0000000000000000e+00" nType="0">
              <Node pos="l" depth="4" NCoef="0" IVar="-1" Cut="0.0000000000000000e+00" cType="1" res="1.6896910965442657e-03" rms="9.4356104731559753e-02" purity="1.0000000000000000e+00" nType="-99"/>
              <Node pos="r" depth="4" NCoef="0" IVar="-1" Cut="0.0000000000000000e+00" cType="1" res="1.2841325253248215e-02" rms="9.3276992440223694e-02" purity="1.0000000000000000e+00" nType="-99"/>
            </Node>
            <Node pos="r" depth="3" NCoef="0" IVar="28" Cut="9.2758208513259888e-01" cType="1" res="-3.2967645674943924e-03" rms="9.3630492687225342e-02" purity="1.0000000000000000e+00" nType="0">
              <Node pos="l" depth="4" NCoef="0" IVar="-1" Cut="0.0000000000000000e+00" cType="1" res="-2.9924586415290833e-03" rms="9.3163132667541504e-02" purity="1.0000000000000000e+00" nType="-99"/>
              <Node pos="r" depth="4" NCoef="0" IVar="-1" Cut="0.0000000000000000e+00" cType="1" res="7.2792307473719120e-03" rms="9.3526929616928101e-02" purity="1.0000000000000000e+00" nType="-99"/>
            </Node>
          </Node>
        </Node>
        <Node pos="r" depth="1" NCoef="0" IVar="0" Cut="1.4738734436035156e+02" cType="1" res="2.3565834388136864e-02" rms="1.0653156042098999e-01" purity="1.0000000000000000e+00" nType="0">
          <Node pos="l" depth="2" NCoef="0" IVar="23" Cut="5.7671161651611328e+01" cType="1" res="4.7552246600389481e-02" rms="1.0433496534824371e-01" purity="1.0000000000000000e+00" nType="0">
            <Node pos="l" depth="3" NCoef="0" IVar="33" Cut="1.0318389892578125e+03" cType="1" res="7.7858127653598785e-02" rms="9.0917564928531647e-02" purity="1.0000000000000000e+00" nType="0">
              <Node pos="l" depth="4" NCoef="0" IVar="-1" Cut="0.0000000000000000e+00" cType="1" res="5.3685687482357025e-02" rms="9.6421062946319580e-02" purity="1.0000000000000000e+00" nType="-99"/>
              <Node pos="r" depth="4" NCoef="0" IVar="-1" Cut="0.0000000000000000e+00" cType="1" res="1.3950835168361664e-01" rms="6.3927724957466125e-02" purity="1.0000000000000000e+00" nType="-99"/>
            </Node>
            <Node pos="r" depth="3" NCoef="0" IVar="27" Cut="3.1003012500000000e+05" cType="1" res="2.8185656294226646e-02" rms="1.0769371688365936e-01" purity="1.0000000000000000e+00" nType="0">
              <Node pos="l" depth="4" NCoef="0" IVar="-1" Cut="0.0000000000000000e+00" cType="1" res="7.2327643632888794e-02" rms="9.4238370656967163e-02" purity="1.0000000000000000e+00" nType="-99"/>
              <Node pos="r" depth="4" NCoef="0" IVar="-1" Cut="0.0000000000000000e+00" cType="1" res="6.2354458495974541e-03" rms="1.0760005563497543e-01" purity="1.0000000000000000e+00" nType="-99"/>
            </Node>
          </Node>
          <Node pos="r" depth="2" NCoef="0" IVar="33" Cut="1.4388657226562500e+03" cType="1" res="1.2384334579110146e-02" rms="1.0569608956575394e-01" purity="1.0000000000000000e+00" nType="0">
            <Node pos="l" depth="3" NCoef="0" IVar="33" Cut="8.0139477539062500e+02" cType="1" res="7.3536457493901253e-03" rms="1.0440975427627563e-01" purity="1.0000000000000000e+00" nType="0">
              <Node pos="l" depth="4" NCoef="0" IVar="-1" Cut="0.0000000000000000e+00" cType="1" res="-9.1923167929053307e-03" rms="9.9044702947139740e-02" purity="1.0000000000000000e+00" nType="-99"/>
              <Node pos="r" depth="4" NCoef="0" IVar="-1" Cut="0.0000000000000000e+00" cType="1" res="8.2988096401095390e-03" rms="1.0485375672578812e-01" purity="1.0000000000000000e+00" nType="-99"/>
            </Node>
            <Node pos="r" depth="3" NCoef="0" IVar="0" Cut="3.3478378295898438e+02" cType="1" res="7.3507197201251984e-02" rms="1.0203874856233597e-01" purity="1.0000000000000000e+00" nType="0">
              <Node pos="l" depth="4" NCoef="0" IVar="-1" Cut="0.0000000000000000e+00" cType="1" res="1.8566296994686127e-01" rms="8.3368882536888123e-02" purity="1.0000000000000000e+00" nType="-99"/>
              <Node pos="r" depth="4" NCoef="0" IVar="-1" Cut="0.0000000000000000e+00" cType="1" res="2.3366561159491539e-02" rms="1.1400349438190460e-01" purity="1.0000000000000000e+00" nType="-99"/>
            </Node>
          </Node>
        </Node>
      </Node>
    </BinaryTree>
    <BinaryTree type="DecisionTree" boostWeight="1.0000000000000000e+00" itree="6">
      <Node pos="s" depth="0" NCoef="0" IVar="33" Cut="5.3969665527343750e+02" cType="1" res="3.3645442454144359e-04" rms="9.3143142759799957e-02" purity="1.0000000000000000e+00" nType="0">
        <Node pos="l" depth="1" NCoef="0" IVar="21" Cut="3.4088716506958008e+00" cType="1" res="-4.6127270907163620e-03" rms="8.7491035461425781e-02" purity="1.0000000000000000e+00" nType="0">
          <Node pos="l" depth="2" NCoef="0" IVar="33" Cut="4.9327529907226562e+02" cType="1" res="-3.6509286146610975e-03" rms="8.7130315601825714e-02" purity="1.0000000000000000e+00" nType="0">
            <Node pos="l" depth="3" NCoef="0" IVar="31" Cut="-1.3059885501861572e+00" cType="1" res="-6.0318578034639359e-03" rms="8.6118161678314209e-02" purity="1.0000000000000000e+00" nType="0">
              <Node pos="l" depth="4" NCoef="0" IVar="-1" Cut="0.0000000000000000e+00" cType="1" res="-1.8462507054209709e-02" rms="8.3706036210060120e-02" purity="1.0000000000000000e+00" nType="-99"/>
              <Node pos="r" depth="4" NCoef="0" IVar="-1" Cut="0.0000000000000000e+00" cType="1" res="-1.4082667184993625e-03" rms="8.5939958691596985e-02" purity="1.0000000000000000e+00" nType="-99"/>
            </Node>
            <Node pos="r" depth="3" NCoef="0" IVar="23" Cut="4.6585762023925781e+01" cType="1" res="1.2350466102361679e-02" rms="9.2065416276454926e-02" purity="1.0000000000000000e+00" nType="0">
              <Node pos="l" depth="4" NCoef="0" IVar="-1" Cut="0.0000000000000000e+00" cType="1" res="1.6856199130415916e-02" rms="9.0341344475746155e-02" purity="1.0000000000000000e+00" nType="-99"/>
              <Node pos="r" depth="4" NCoef="0" IVar="-1" Cut="0.0000000000000000e+00" cType="1" res="2.3761359043419361e-03" rms="9.1461792588233948e-02" purity="1.0000000000000000e+00" nType="-99"/>
            </Node>
          </Node>
          <Node pos="r" depth="2" NCoef="0" IVar="7" Cut="-1.3392609357833862e+00" cType="1" res="-4.0128316730260849e-02" rms="9.3194104731082916e-02" purity="1.0000000000000000e+00" nType="0">
            <Node pos="l" depth="3" NCoef="0" IVar="24" Cut="1.5291938476562500e+03" cType="1" res="-7.2301097214221954e-02" rms="8.2565099000930786e-02" purity="1.0000000000000000e+00" nType="0">
              <Node pos="l" depth="4" NCoef="0" IVar="-1" Cut="0.0000000000000000e+00" cType="1" res="-2.8223957866430283e-02" rms="9.0341687202453613e-02" purity="1.0000000000000000e+00" nType="-99"/>
              <Node pos="r" depth="4" NCoef="0" IVar="-1" Cut="0.0000000000000000e+00" cType="1" res="-4.3216101825237274e-02" rms="6.0300275683403015e-02" purity="1.0000000000000000e+00" nType="-99"/>
            </Node>
            <Node pos="r" depth="3" NCoef="0" IVar="22" Cut="2.2260131835937500e+00" cType="1" res="-2.7697924524545670e-02" rms="9.4087667763233185e-02" purity="1.0000000000000000e+00" nType="0">
              <Node pos="l" depth="4" NCoef="0" IVar="-1" Cut="0.0000000000000000e+00" cType="1" res="-2.0363114774227142e-02" rms="9.0916611254215240e-02" purity="1.0000000000000000e+00" nType="-99"/>
              <Node pos="r" depth="4" NCoef="0" IVar="-1" Cut="0.0000000000000000e+00" cType="1" res="4.8940436681732535e-04" rms="9.3393564224243164e-02" purity="1.0000000000000000e+00" nType="-99"/>
            </Node>
          </Node>
        </Node>
        <Node pos="r" depth="1" NCoef="0" IVar="28" Cut="-6.6517680883407593e-01" cType="1" res="9.6529163420200348e-03" rms="1.0229675471782684e-01" purity="1.0000000000000000e+00" nType="0">
          <Node pos="l" depth="2" NCoef="0" IVar="27" Cut="5.1517387500000000e+05" cType="1" res="3.1134610995650291e-02" rms="9.7818098962306976e-02" purity="1.0000000000000000e+00" nType="0">
            <Node pos="l" depth="3" NCoef="0" IVar="27" Cut="4.0656387500000000e+05" cType="1" res="5.1235128194093704e-02" rms="9.4465501606464386e-02" purity="1.0000000000000000e+00" nType="0">
              <Node pos="l" depth="4" NCoef="0" IVar="-1" Cut="0.0000000000000000e+00" cType="1" res="3.9638701826334000e-02" rms="8.9937806129455566e-02" purity="1.0000000000000000e+00" nType="-99"/>
              <Node pos="r" depth="4" NCoef="0" IVar="-1" Cut="0.0000000000000000e+00" cType="1" res="1.1983150616288185e-02" rms="9.6306689083576202e-02" purity="1.0000000000000000e+00" nType="-99"/>
            </Node>
            <Node pos="r" depth="3" NCoef="0" IVar="28" Cut="-1.4467113018035889e+00" cType="1" res="1.7437083646655083e-02" rms="9.7697131335735321e-02" purity="1.0000000000000000e+00" nType="0">
              <Node pos="l" depth="4" NCoef="0" IVar="-1" Cut="0.0000000000000000e+00" cType="1" res="3.0787222087383270e-02" rms="7.3824562132358551e-02" purity="1.0000000000000000e+00" nType="-99"/>
              <Node pos="r" depth="4" NCoef="0" IVar="-1" Cut="0.0000000000000000e+00" cType="1" res="3.5257211420685053e-03" rms="9.8503857851028442e-02" purity="1.0000000000000000e+00" nType="-99"/>
            </Node>
          </Node>
          <Node pos="r" depth="2" NCoef="0" IVar="28" Cut="6.3726347684860229e-01" cType="1" res="5.2639562636613846e-03" rms="1.0263622552156448e-01" purity="1.0000000000000000e+00" nType="0">
            <Node pos="l" depth="3" NCoef="0" IVar="27" Cut="1.8306371875000000e+05" cType="1" res="-3.9560350705869496e-04" rms="1.0246571153402328e-01" purity="1.0000000000000000e+00" nType="0">
              <Node pos="l" depth="4" NCoef="0" IVar="-1" Cut="0.0000000000000000e+00" cType="1" res="2.8732171282172203e-02" rms="1.0254548490047455e-01" purity="1.0000000000000000e+00" nType="-99"/>
              <Node pos="r" depth="4" NCoef="0" IVar="-1" Cut="0.0000000000000000e+00" cType="1" res="-3.5239739809185266e-03" rms="1.0093373805284500e-01" purity="1.0000000000000000e+00" nType="-99"/>
            </Node>
            <Node pos="r" depth="3" NCoef="0" IVar="13" Cut="1.0158152770996094e+02" cType="1" res="2.5649854913353920e-02" rms="1.0064396262168884e-01" purity="1.0000000000000000e+00" nType="0">
              <Node pos="l" depth="4" NCoef="0" IVar="-1" Cut="0.0000000000000000e+00" cType="1" res="2.9479984194040298e-02" rms="9.9104359745979309e-02" purity="1.0000000000000000e+00" nType="-99"/>
              <Node pos="r" depth="4" NCoef="0" IVar="-1" Cut="0.0000000000000000e+00" cType="1" res="6.9433916360139847e-03" rms="9.9498420953750610e-02" purity="1.0000000000000000e+00" nType="-99"/>
            </Node>
          </Node>
        </Node>
      </Node>
    </BinaryTree>
    <BinaryTree type="DecisionTree" boostWeight="1.0000000000000000e+00" itree="7">
      <Node pos="s" depth="0" NCoef="0" IVar="33" Cut="7.3434912109375000e+02" cType="1" res="1.1718431051122025e-04" rms="9.2516779899597168e-02" purity="1.0000000000000000e+00" nType="0">
        <Node pos="l" depth="1" NCoef="0" IVar="21" Cut="2.3125703334808350e+00" cType="1" res="-2.4041095748543739e-03" rms="8.9965224266052246e-02" purity="1.0000000000000000e+00" nType="0">
          <Node pos="l" depth="2" NCoef="0" IVar="31" Cut="3.6154535412788391e-01" cType="1" res="2.4150495883077383e-03" rms="8.7283611297607422e-02" purity="1.0000000000000000e+00" nType="0">
            <Node pos="l" depth="3" NCoef="0" IVar="33" Cut="3.8210839843750000e+02" cType="1" res="5.0551160238683224e-03" rms="8.6815662682056427e-02" purity="1.0000000000000000e+00" nType="0">
              <Node pos="l" depth="4" NCoef="0" IVar="-1" Cut="0.0000000000000000e+00" cType="1" res="-1.4758835313841701e-03" rms="7.8152060508728027e-02" purity="1.0000000000000000e+00" nType="-99"/>
              <Node pos="r" depth="4" NCoef="0" IVar="-1" Cut="0.0000000000000000e+00" cType="1" res="4.1713612154126167e-03" rms="8.9828513562679291e-02" purity="1.0000000000000000e+00" nType="-99"/>
            </Node>
            <Node pos="r" depth="3" NCoef="0" IVar="33" Cut="5.9995751953125000e+02" cType="1" res="-1.5831163153052330e-02" rms="8.8319860398769379e-02" purity="1.0000000000000000e+00" nType="0">
              <Node pos="l" depth="4" NCoef="0" IVar="-1" Cut="0.0000000000000000e+00" cType="1" res="-7.4576893821358681e-03" rms="8.5624523460865021e-02" purity="1.0000000000000000e+00" nType="-99"/>
              <Node pos="r" depth="4" NCoef="0" IVar="-1" Cut="0.0000000000000000e+00" cType="1" res="1.2714304961264133e-02" rms="1.0391174256801605e-01" purity="1.0000000000000000e+00" nType="-99"/>
            </Node>
          </Node>
          <Node pos="r" depth="2" NCoef="0" IVar="33" Cut="6.7847436523437500e+02" cType="1" res="-8.0378465354442596e-03" rms="9.2684991657733917e-02" purity="1.0000000000000000e+00" nType="0">
            <Node pos="l" depth="3" NCoef="0" IVar="33" Cut="3.7716473388671875e+02" cType="1" res="-9.9521270021796227e-03" rms="9.1743730008602142e-02" purity="1.0000000000000000e+00" nType="0">
              <Node pos="l" depth="4" NCoef="0" IVar="-1" Cut="0.0000000000000000e+00" cType="1" res="-9.4774672761559486e-03" rms="8.4911517798900604e-02" purity="1.0000000000000000e+00" nType="-99"/>
              <Node pos="r" depth="4" NCoef="0" IVar="-1" Cut="0.0000000000000000e+00" cType="1" res="-2.8357123956084251e-03" rms="9.2480383813381195e-02" purity="1.0000000000000000e+00" nType="-99"/>
            </Node>
            <Node pos="r" depth="3" NCoef="0" IVar="13" Cut="1.5343287658691406e+02" cType="1" res="1.6019497066736221e-02" rms="1.0073395073413849e-01" purity="1.0000000000000000e+00" nType="0">
              <Node pos="l" depth="4" NCoef="0" IVar="-1" Cut="0.0000000000000000e+00" cType="1" res="1.3872974552214146e-02" rms="1.0088331252336502e-01" purity="1.0000000000000000e+00" nType="-99"/>
              <Node pos="r" depth="4" NCoef="0" IVar="-1" Cut="0.0000000000000000e+00" cType="1" res="-9.6669122576713562e-03" rms="9.0309150516986847e-02" purity="1.0000000000000000e+00" nType="-99"/>
            </Node>
          </Node>
        </Node>
        <Node pos="r" depth="1" NCoef="0" IVar="0" Cut="3.0152151489257812e+02" cType="1" res="1.6126355156302452e-02" rms="1.0592044889926910e-01" purity="1.0000000000000000e+00" nType="0">
          <Node pos="l" depth="2" NCoef="0" IVar="33" Cut="1.6149763183593750e+03" cType="1" res="2.1945251151919365e-02" rms="1.0654898732900620e-01" purity="1.0000000000000000e+00" nType="0">
            <Node pos="l" depth="3" NCoef="0" IVar="27" Cut="3.0472115625000000e+05" cType="1" res="1.9210889935493469e-02" rms="1.0622079670429230e-01" purity="1.0000000000000000e+00" nType="0">
              <Node pos="l" depth="4" NCoef="0" IVar="-1" Cut="0.0000000000000000e+00" cType="1" res="3.8477826863527298e-02" rms="1.0733997076749802e-01" purity="1.0000000000000000e+00" nType="-99"/>
              <Node pos="r" depth="4" NCoef="0" IVar="-1" Cut="0.0000000000000000e+00" cType="1" res="5.9986850246787071e-03" rms="1.0478681325912476e-01" purity="1.0000000000000000e+00" nType="-99"/>
            </Node>
            <Node pos="r" depth="3" NCoef="0" IVar="9" Cut="4.7577018737792969e+01" cType="1" res="9.5914430916309357e-02" rms="8.6993940174579620e-02" purity="1.0000000000000000e+00" nType="0">
              <Node pos="l" depth="4" NCoef="0" IVar="-1" Cut="0.0000000000000000e+00" cType="1" res="2.5220426917076111e-01" rms="1.0662220418453217e-01" purity="1.0000000000000000e+00" nType="-99"/>
              <Node pos="r" depth="4" NCoef="0" IVar="-1" Cut="0.0000000000000000e+00" cType="1" res="2.2554133832454681e-01" rms="5.3010653704404831e-02" purity="1.0000000000000000e+00" nType="-99"/>
            </Node>
          </Node>
          <Node pos="r" depth="2" NCoef="0" IVar="21" Cut="3.5546491146087646e+00" cType="1" res="-1.5326615422964096e-02" rms="9.6565939486026764e-02" purity="1.0000000000000000e+00" nType="0">
            <Node pos="l" depth="3" NCoef="0" IVar="33" Cut="1.3387540283203125e+03" cType="1" res="-2.8634860645979643e-03" rms="9.3807063996791840e-02" purity="1.0000000000000000e+00" nType="0">
              <Node pos="l" depth="4" NCoef="0" IVar="-1" Cut="0.0000000000000000e+00" cType="1" res="-6.7597767338156700e-03" rms="8.7880596518516541e-02" purity="1.0000000000000000e+00" nType="-99"/>
              <Node pos="r" depth="4" NCoef="0" IVar="-1" Cut="0.0000000000000000e+00" cType="1" res="4.4417411088943481e-02" rms="9.2609643936157227e-02" purity="1.0000000000000000e+00" nType="-99"/>
            </Node>
            <Node pos="r" depth="3" NCoef="0" IVar="13" Cut="1.2036265563964844e+02" cType="1" res="-4.1537731885910034e-02" rms="9.7035378217697144e-02" purity="1.0000000000000000e+00" nType="0">
              <Node pos="l" depth="4" NCoef="0" IVar="-1" Cut="0.0000000000000000e+00" cType="1" res="-1.4310756698250771e-02" rms="1.0401108860969543e-01" purity="1.0000000000000000e+00" nType="-99"/>
              <Node pos="r" depth="4" NCoef="0" IVar="-1" Cut="0.0000000000000000e+00" cType="1" res="-2.7336809784173965e-02" rms="8.3351589739322662e-02" purity="1.0000000000000000e+00" nType="-99"/>
            </Node>
          </Node>
        </Node>
      </Node>
    </BinaryTree>
    <BinaryTree type="DecisionTree" boostWeight="1.0000000000000000e+00" itree="8">
      <Node pos="s" depth="0" NCoef="0" IVar="3" Cut="1.8131883239746094e+02" cType="1" res="-1.4169074711389840e-04" rms="9.2206001281738281e-02" purity="1.0000000000000000e+00" nType="0">
        <Node pos="l" depth="1" NCoef="0" IVar="33" Cut="9.2900164794921875e+02" cType="1" res="7.6794676715508103e-04" rms="9.2070668935775757e-02" purity="1.0000000000000000e+00" nType="0">
          <Node pos="l" depth="2" NCoef="0" IVar="28" Cut="-8.9145481586456299e-01" cType="1" res="-5.2806636085733771e-04" rms="9.0871855616569519e-02" purity="1.0000000000000000e+00" nType="0">
            <Node pos="l" depth="3" NCoef="0" IVar="33" Cut="6.2114007568359375e+02" cType="1" res="1.2406886555254459e-02" rms="8.8875912129878998e-02" purity="1.0000000000000000e+00" nType="0">
              <Node pos="l" depth="4" NCoef="0" IVar="-1" Cut="0.0000000000000000e+00" cType="1" res="3.3581210300326347e-03" rms="8.7591916322708130e-02" purity="1.0000000000000000e+00" nType="-99"/>
              <Node pos="r" depth="4" NCoef="0" IVar="-1" Cut="0.0000000000000000e+00" cType="1" res="2.3337146267294884e-02" rms="9.1492615640163422e-02" purity="1.0000000000000000e+00" nType="-99"/>
            </Node>
            <Node pos="r" depth="3" NCoef="0" IVar="21" Cut="3.2152674198150635e+00" cType="1" res="-2.4761979002505541e-03" rms="9.1009519994258881e-02" purity="1.0000000000000000e+00" nType="0">
              <Node pos="l" depth="4" NCoef="0" IVar="-1" Cut="0.0000000000000000e+00" cType="1" res="-9.2963295173831284e-05" rms="9.0310603380203247e-02" purity="1.0000000000000000e+00" nType="-99"/>
              <Node pos="r" depth="4" NCoef="0" IVar="-1" Cut="0.0000000000000000e+00" cType="1" res="-7.5864316895604134e-03" rms="9.6149481832981110e-02" purity="1.0000000000000000e+00" nType="-99"/>
            </Node>
          </Node>
          <Node pos="r" depth="2" NCoef="0" IVar="0" Cut="2.1459413146972656e+02" cType="1" res="2.4767233058810234e-02" rms="1.0922984778881073e-01" purity="1.0000000000000000e+00" nType="0">
            <Node pos="l" depth="3" NCoef="0" IVar="5" Cut="5.3896282196044922e+01" cType="1" res="4.6689227223396301e-02" rms="1.0748004168272018e-01" purity="1.0000000000000000e+00" nType="0">
              <Node pos="l" depth="4" NCoef="0" IVar="-1" Cut="0.0000000000000000e+00" cType="1" res="8.9535377919673920e-03" rms="1.1174853146076202e-01" purity="1.0000000000000000e+00" nType="-99"/>
              <Node pos="r" depth="4" NCoef="0" IVar="-1" Cut="0.0000000000000000e+00" cType="1" res="6.2210772186517715e-02" rms="1.0174936801195145e-01" purity="1.0000000000000000e+00" nType="-99"/>
            </Node>
            <Node pos="r" depth="3" NCoef="0" IVar="29" Cut="3.6326022148132324e+00" cType="1" res="1.0940749198198318e-03" rms="1.0611912608146667e-01" purity="1.0000000000000000e+00" nType="0">
              <Node pos="l" depth="4" NCoef="0" IVar="-1" Cut="0.0000000000000000e+00" cType="1" res="2.0398326218128204e-02" rms="1.0309166461229324e-01" purity="1.0000000000000000e+00" nType="-99"/>
              <Node pos="r" depth="4" NCoef="0" IVar="-1" Cut="0.0000000000000000e+00" cType="1" res="-9.1325286775827408e-03" rms="1.0404662042856216e-01" purity="1.0000000000000000e+00" nType="-99"/>
            </Node>
          </Node>
        </Node>
        <Node pos="r" depth="1" NCoef="0" IVar="14" Cut="-7.3709112405776978e-01" cType="1" res="-2.7939321473240852e-02" rms="9.2011101543903351e-02" purity="1.0000000000000000e+00" nType="0">
          <Node pos="l" depth="2" NCoef="0" IVar="3" Cut="2.2974046325683594e+02" cType="1" res="-5.3788531571626663e-02" rms="8.6594089865684509e-02" purity="1.0000000000000000e+00" nType="0">
            <Node pos="l" depth="3" NCoef="0" IVar="31" Cut="4.0912680327892303e-02" cType="1" res="-4.0909562259912491e-02" rms="9.2076592147350311e-02" purity="1.0000000000000000e+00" nType="0">
              <Node pos="l" depth="4" NCoef="0" IVar="-1" Cut="0.0000000000000000e+00" cType="1" res="-9.5561631023883820e-03" rms="1.0249423980712891e-01" purity="1.0000000000000000e+00" nType="-99"/>
              <Node pos="r" depth="4" NCoef="0" IVar="-1" Cut="0.0000000000000000e+00" cType="1" res="-2.4863241240382195e-02" rms="7.3949262499809265e-02" purity="1.0000000000000000e+00" nType="-99"/>
            </Node>
            <Node pos="r" depth="3" NCoef="0" IVar="-1" Cut="0.0000000000000000e+00" cType="1" res="-3.5319335758686066e-02" rms="6.3999481499195099e-02" purity="1.0000000000000000e+00" nType="-99"/>
          </Node>
          <Node pos="r" depth="2" NCoef="0" IVar="23" Cut="9.0012878417968750e+01" cType="1" res="-1.9851995632052422e-02" rms="9.2164456844329834e-02" purity="1.0000000000000000e+00" nType="0">
            <Node pos="l" depth="3" NCoef="0" IVar="28" Cut="7.3621433973312378e-01" cType="1" res="-1.4036014676094055e-02" rms="9.4713754951953888e-02" purity="1.0000000000000000e+00" nType="0">
              <Node pos="l" depth="4" NCoef="0" IVar="-1" Cut="0.0000000000000000e+00" cType="1" res="-1.0195421054959297e-02" rms="9.2497892677783966e-02" purity="1.0000000000000000e+00" nType="-99"/>
              <Node pos="r" depth="4" NCoef="0" IVar="-1" Cut="0.0000000000000000e+00" cType="1" res="6.1458945274353027e-03" rms="9.6470817923545837e-02" purity="1.0000000000000000e+00" nType="-99"/>
            </Node>
            <Node pos="r" depth="3" NCoef="0" IVar="32" Cut="2.3715037107467651e-01" cType="1" res="-4.6643640846014023e-02" rms="7.3661901056766510e-02" purity="1.0000000000000000e+00" nType="0">
              <Node pos="l" depth="4" NCoef="0" IVar="-1" Cut="0.0000000000000000e+00" cType="1" res="-6.8034878931939602e-03" rms="7.5336374342441559e-02" purity="1.0000000000000000e+00" nType="-99"/>
              <Node pos="r" depth="4" NCoef="0" IVar="-1" Cut="0.0000000000000000e+00" cType="1" res="-2.7978248894214630e-02" rms="6.2243219465017319e-02" purity="1.0000000000000000e+00" nType="-99"/>
            </Node>
          </Node>
        </Node>
      </Node>
    </BinaryTree>
    <BinaryTree type="DecisionTree" boostWeight="1.0000000000000000e+00" itree="9">
      <Node pos="s" depth="0" NCoef="0" IVar="17" Cut="4.3414695739746094e+01" cType="1" res="-2.7082499582320452e-04" rms="9.1835744678974152e-02" purity="1.0000000000000000e+00" nType="0">
        <Node pos="l" depth="1" NCoef="0" IVar="23" Cut="5.1159767150878906e+01" cType="1" res="6.9654127582907677e-03" rms="9.3809619545936584e-02" purity="1.0000000000000000e+00" nType="0">
          <Node pos="l" depth="2" NCoef="0" IVar="33" Cut="4.6275659179687500e+02" cType="1" res="1.9033720716834068e-02" rms="9.4584062695503235e-02" purity="1.0000000000000000e+00" nType="0">
            <Node pos="l" depth="3" NCoef="0" IVar="13" Cut="8.6339553833007812e+01" cType="1" res="8.7999925017356873e-03" rms="8.9735925197601318e-02" purity="1.0000000000000000e+00" nType="0">
              <Node pos="l" depth="4" NCoef="0" IVar="-1" Cut="0.0000000000000000e+00" cType="1" res="7.6811127364635468e-03" rms="8.8416203856468201e-02" purity="1.0000000000000000e+00" nType="-99"/>
              <Node pos="r" depth="4" NCoef="0" IVar="-1" Cut="0.0000000000000000e+00" cType="1" res="-9.8417885601520538e-03" rms="8.6526736617088318e-02" purity="1.0000000000000000e+00" nType="-99"/>
            </Node>
            <Node pos="r" depth="3" NCoef="0" IVar="5" Cut="1.1346915435791016e+02" cType="1" res="3.6083463579416275e-02" rms="9.9848650395870209e-02" purity="1.0000000000000000e+00" nType="0">
              <Node pos="l" depth="4" NCoef="0" IVar="-1" Cut="0.0000000000000000e+00" cType="1" res="2.4951308965682983e-02" rms="9.8902061581611633e-02" purity="1.0000000000000000e+00" nType="-99"/>
              <Node pos="r" depth="4" NCoef="0" IVar="-1" Cut="0.0000000000000000e+00" cType="1" res="-3.8440967909991741e-03" rms="9.6065044403076172e-02" purity="1.0000000000000000e+00" nType="-99"/>
            </Node>
          </Node>
          <Node pos="r" depth="2" NCoef="0" IVar="29" Cut="2.3296627998352051e+00" cType="1" res="1.6350219957530499e-03" rms="9.2968069016933441e-02" purity="1.0000000000000000e+00" nType="0">
            <Node pos="l" depth="3" NCoef="0" IVar="20" Cut="5.2469396591186523e+00" cType="1" res="1.6250578686594963e-02" rms="8.7366290390491486e-02" purity="1.0000000000000000e+00" nType="0">
              <Node pos="l" depth="4" NCoef="0" IVar="-1" Cut="0.0000000000000000e+00" cType="1" res="2.2981209680438042e-02" rms="6.9311887025833130e-02" purity="1.0000000000000000e+00" nType="-99"/>
              <Node pos="r" depth="4" NCoef="0" IVar="-1" Cut="0.0000000000000000e+00" cType="1" res="4.6025547198951244e-03" rms="8.7577305734157562e-02" purity="1.0000000000000000e+00" nType="-99"/>
            </Node>
            <Node pos="r" depth="3" NCoef="0" IVar="32" Cut="-9.1429156064987183e-01" cType="1" res="-1.5080482698976994e-03" rms="9.3832224607467651e-02" purity="1.0000000000000000e+00" nType="0">
              <Node pos="l" depth="4" NCoef="0" IVar="-1" Cut="0.0000000000000000e+00" cType="1" res="7.0177712477743626e-03" rms="8.9891307055950165e-02" purity="1.0000000000000000e+00" nType="-99"/>
              <Node pos="r" depth="4" NCoef="0" IVar="-1" Cut="0.0000000000000000e+00" cType="1" res="-1.8971854588016868e-03" rms="9.4156652688980103e-02" purity="1.0000000000000000e+00" nType="-99"/>
            </Node>
          </Node>
        </Node>
        <Node pos="r" depth="1" NCoef="0" IVar="33" Cut="1.7076115722656250e+03" cType="1" res="-3.7334070075303316e-03" rms="9.0672016143798828e-02" purity="1.0000000000000000e+00" nType="0">
          <Node pos="l" depth="2" NCoef="0" IVar="33" Cut="6.0398376464843750e+02" cType="1" res="-4.0518487803637981e-03" rms="9.0473234653472900e-02" purity="1.0000000000000000e+00" nType="0">
            <Node pos="l" depth="3" NCoef="0" IVar="0" Cut="1.2629709625244141e+02" cType="1" res="-7.2405049577355385e-03" rms="8.5877738893032074e-02" purity="1.0000000000000000e+00" nType="0">
              <Node pos="l" depth="4" NCoef="0" IVar="-1" Cut="0.0000000000000000e+00" cType="1" res="-1.2235504109412432e-03" rms="8.5664033889770508e-02" purity="1.0000000000000000e+00" nType="-99"/>
              <Node pos="r" depth="4" NCoef="0" IVar="-1" Cut="0.0000000000000000e+00" cType="1" res="-6.6261687316000462e-03" rms="8.5845388472080231e-02" purity="1.0000000000000000e+00" nType="-99"/>
            </Node>
            <Node pos="r" depth="3" NCoef="0" IVar="27" Cut="3.2658725000000000e+05" cType="1" res="4.4166063889861107e-03" rms="1.0118798166513443e-01" purity="1.0000000000000000e+00" nType="0">
              <Node pos="l" depth="4" NCoef="0" IVar="-1" Cut="0.0000000000000000e+00" cType="1" res="1.7141073942184448e-02" rms="1.0532262921333313e-01" purity="1.0000000000000000e+00" nType="-99"/>
              <Node pos="r" depth="4" NCoef="0" IVar="-1" Cut="0.0000000000000000e+00" cType="1" res="-1.7309165559709072e-03" rms="9.8652206361293793e-02" purity="1.0000000000000000e+00" nType="-99"/>
            </Node>
          </Node>
          <Node pos="r" depth="2" NCoef="0" IVar="-1" Cut="0.0000000000000000e+00" cType="1" res="1.5442453324794769e-01" rms="1.0633400082588196e-01" purity="1.0000000000000000e+00" nType="-99"/>
        </Node>
      </Node>
    </BinaryTree>
    <BinaryTree type="DecisionTree" boostWeight="1.0000000000000000e+00" itree="10">
      <Node pos="s" depth="0" NCoef="0" IVar="3" Cut="1.3614933776855469e+02" cType="1" res="-3.4645842970348895e-04" rms="9.1537773609161377e-02" purity="1.0000000000000000e+00" nType="0">
        <Node pos="l" depth="1" NCoef="0" IVar="21" Cut="3.3485367298126221e+00" cType="1" res="1.1823235545307398e-03" rms="9.1180853545665741e-02" purity="1.0000000000000000e+00" nType="0">
          <Node pos="l" depth="2" NCoef="0" IVar="33" Cut="7.2052441406250000e+02" cType="1" res="2.4428088217973709e-03" rms="9.0413078665733337e-02" purity="1.0000000000000000e+00" nType="0">
            <Node pos="l" depth="3" NCoef="0" IVar="13" Cut="1.3468060302734375e+02" cType="1" res="2.7115072589367628e-04" rms="8.8274061679840088e-02" purity="1.0000000000000000e+00" nType="0">
              <Node pos="l" depth="4" NCoef="0" IVar="-1" Cut="0.0000000000000000e+00" cType="1" res="1.3014746364206076e-03" rms="8.8249012827873230e-02" purity="1.0000000000000000e+00" nType="-99"/>
              <Node pos="r" depth="4" NCoef="0" IVar="-1" Cut="0.0000000000000000e+00" cType="1" res="-4.8651569522917271e-03" rms="8.7416470050811768e-02" purity="1.0000000000000000e+00" nType="-99"/>
            </Node>
            <Node pos="r" depth="3" NCoef="0" IVar="23" Cut="7.9171783447265625e+01" cType="1" res="2.0556606352329254e-02" rms="1.0485766828060150e-01" purity="1.0000000000000000e+00" nType="0">
              <Node pos="l" depth="4" NCoef="0" IVar="-1" Cut="0.0000000000000000e+00" cType="1" res="2.3819679394364357e-02" rms="1.0754779726266861e-01" purity="1.0000000000000000e+00" nType="-99"/>
              <Node pos="r" depth="4" NCoef="0" IVar="-1" Cut="0.0000000000000000e+00" cType="1" res="2.4101787712424994e-03" rms="9.9408648908138275e-02" purity="1.0000000000000000e+00" nType="-99"/>
            </Node>
          </Node>
          <Node pos="r" depth="2" NCoef="0" IVar="29" Cut="4.0535893440246582e+00" cType="1" res="-1.5556409023702145e-02" rms="9.9318362772464752e-02" purity="1.0000000000000000e+00" nType="0">
            <Node pos="l" depth="3" NCoef="0" IVar="23" Cut="6.4029838562011719e+01" cType="1" res="-3.9928760379552841e-03" rms="9.7473517060279846e-02" purity="1.0000000000000000e+00" nType="0">
              <Node pos="l" depth="4" NCoef="0" IVar="-1" Cut="0.0000000000000000e+00" cType="1" res="-9.6605829894542694e-03" rms="9.6628412604331970e-02" purity="1.0000000000000000e+00" nType="-99"/>
              <Node pos="r" depth="4" NCoef="0" IVar="-1" Cut="0.0000000000000000e+00" cType="1" res="4.1936375200748444e-03" rms="9.6269980072975159e-02" purity="1.0000000000000000e+00" nType="-99"/>
            </Node>
            <Node pos="r" depth="3" NCoef="0" IVar="16" Cut="7.9838280677795410e+00" cType="1" res="-2.5723498314619064e-02" rms="9.9811851978302002e-02" purity="1.0000000000000000e+00" nType="0">
              <Node pos="l" depth="4" NCoef="0" IVar="-1" Cut="0.0000000000000000e+00" cType="1" res="-3.8697410374879837e-02" rms="8.6560249328613281e-02" purity="1.0000000000000000e+00" nType="-99"/>
              <Node pos="r" depth="4" NCoef="0" IVar="-1" Cut="0.0000000000000000e+00" cType="1" res="-1.1423099786043167e-02" rms="1.0001947730779648e-01" purity="1.0000000000000000e+00" nType="-99"/>
            </Node>
          </Node>
        </Node>
        <Node pos="r" depth="1" NCoef="0" IVar="28" Cut="1.3161262273788452e+00" cType="1" res="-1.3221160508692265e-02" rms="9.3503750860691071e-02" purity="1.0000000000000000e+00" nType="0">
          <Node pos="l" depth="2" NCoef="0" IVar="27" Cut="1.3594845000000000e+06" cType="1" res="-1.4570389874279499e-02" rms="9.3348152935504913e-02" purity="1.0000000000000000e+00" nType="0">
            <Node pos="l" depth="3" NCoef="0" IVar="33" Cut="9.2919390869140625e+02" cType="1" res="-1.3298122212290764e-02" rms="9.3297041952610016e-02" purity="1.0000000000000000e+00" nType="0">
              <Node pos="l" depth="4" NCoef="0" IVar="-1" Cut="0.0000000000000000e+00" cType="1" res="-6.9662304595112801e-03" rms="9.1156713664531708e-02" purity="1.0000000000000000e+00" nType="-99"/>
              <Node pos="r" depth="4" NCoef="0" IVar="-1" Cut="0.0000000000000000e+00" cType="1" res="8.1730410456657410e-03" rms="1.0540369898080826e-01" purity="1.0000000000000000e+00" nType="-99"/>
            </Node>
            <Node pos="r" depth="3" NCoef="0" IVar="-1" Cut="0.0000000000000000e+00" cType="1" res="-2.1378772333264351e-02" rms="8.8462419807910919e-02" purity="1.0000000000000000e+00" nType="-99"/>
          </Node>
          <Node pos="r" depth="2" NCoef="0" IVar="-1" Cut="0.0000000000000000e+00" cType="1" res="1.2627848424017429e-02" rms="8.8192783296108246e-02" purity="1.0000000000000000e+00" nType="-99"/>
        </Node>
      </Node>
    </BinaryTree>
    <BinaryTree type="DecisionTree" boostWeight="1.0000000000000000e+00" itree="11">
      <Node pos="s" depth="0" NCoef="0" IVar="30" Cut="-4.4900092482566833e-01" cType="1" res="-4.6483197365887463e-04" rms="9.0951427817344666e-02" purity="1.0000000000000000e+00" nType="0">
        <Node pos="l" depth="1" NCoef="0" IVar="11" Cut="1.6442620754241943e+00" cType="1" res="-1.4616275206208229e-02" rms="9.2346891760826111e-02" purity="1.0000000000000000e+00" nType="0">
          <Node pos="l" depth="2" NCoef="0" IVar="3" Cut="4.9907192230224609e+01" cType="1" res="-9.2647718265652657e-03" rms="9.2781648039817810e-02" purity="1.0000000000000000e+00" nType="0">
            <Node pos="l" depth="3" NCoef="0" IVar="19" Cut="4.5192188024520874e-01" cType="1" res="-2.5738829746842384e-02" rms="8.8240541517734528e-02" purity="1.0000000000000000e+00" nType="0">
              <Node pos="l" depth="4" NCoef="0" IVar="-1" Cut="0.0000000000000000e+00" cType="1" res="-4.3385215103626251e-03" rms="9.0099394321441650e-02" purity="1.0000000000000000e+00" nType="-99"/>
              <Node pos="r" depth="4" NCoef="0" IVar="-1" Cut="0.0000000000000000e+00" cType="1" res="-1.9430987536907196e-02" rms="8.0765277147293091e-02" purity="1.0000000000000000e+00" nType="-99"/>
            </Node>
            <Node pos="r" depth="3" NCoef="0" IVar="33" Cut="4.4198782348632812e+02" cType="1" res="-3.4654927439987659e-03" rms="9.3641035258769989e-02" purity="1.0000000000000000e+00" nType="0">
              <Node pos="l" depth="4" NCoef="0" IVar="-1" Cut="0.0000000000000000e+00" cType="1" res="-6.0117058455944061e-03" rms="8.5454978048801422e-02" purity="1.0000000000000000e+00" nType="-99"/>
              <Node pos="r" depth="4" NCoef="0" IVar="-1" Cut="0.0000000000000000e+00" cType="1" res="2.1943503525108099e-03" rms="9.7262576222419739e-02" purity="1.0000000000000000e+00" nType="-99"/>
            </Node>
          </Node>
          <Node pos="r" depth="2" NCoef="0" IVar="12" Cut="5.2609625272452831e-03" cType="1" res="-3.0801307410001755e-02" rms="8.9083999395370483e-02" purity="1.0000000000000000e+00" nType="0">
            <Node pos="l" depth="3" NCoef="0" IVar="33" Cut="6.3915972900390625e+02" cType="1" res="-4.4530488550662994e-02" rms="8.4101647138595581e-02" purity="1.0000000000000000e+00" nType="0">
              <Node pos="l" depth="4" NCoef="0" IVar="-1" Cut="0.0000000000000000e+00" cType="1" res="-1.3647929765284061e-02" rms="8.4293395280838013e-02" purity="1.0000000000000000e+00" nType="-99"/>
              <Node pos="r" depth="4" NCoef="0" IVar="-1" Cut="0.0000000000000000e+00" cType="1" res="-3.7354495376348495e-02" rms="7.3156587779521942e-02" purity="1.0000000000000000e+00" nType="-99"/>
            </Node>
            <Node pos="r" depth="3" NCoef="0" IVar="7" Cut="-4.8386245965957642e-01" cType="1" res="-2.0207805559039116e-02" rms="9.1346003115177155e-02" purity="1.0000000000000000e+00" nType="0">
              <Node pos="l" depth="4" NCoef="0" IVar="-1" Cut="0.0000000000000000e+00" cType="1" res="-4.0485011413693428e-04" rms="9.0675108134746552e-02" purity="1.0000000000000000e+00" nType="-99"/>
              <Node pos="r" depth="4" NCoef="0" IVar="-1" Cut="0.0000000000000000e+00" cType="1" res="-1.4722274616360664e-02" rms="8.9557774364948273e-02" purity="1.0000000000000000e+00" nType="-99"/>
            </Node>
          </Node>
        </Node>
        <Node pos="r" depth="1" NCoef="0" IVar="28" Cut="5.1526761054992676e-01" cType="1" res="7.9102022573351860e-04" rms="9.0719975531101227e-02" purity="1.0000000000000000e+00" nType="0">
          <Node pos="l" depth="2" NCoef="0" IVar="28" Cut="-4.8016387224197388e-01" cType="1" res="-1.5573750715702772e-03" rms="9.0479642152786255e-02" purity="1.0000000000000000e+00" nType="0">
            <Node pos="l" depth="3" NCoef="0" IVar="33" Cut="5.8047808837890625e+02" cType="1" res="6.9447034038603306e-03" rms="8.9217968285083771e-02" purity="1.0000000000000000e+00" nType="0">
              <Node pos="l" depth="4" NCoef="0" IVar="-1" Cut="0.0000000000000000e+00" cType="1" res="1.2706124689429998e-03" rms="8.5349567234516144e-02" purity="1.0000000000000000e+00" nType="-99"/>
              <Node pos="r" depth="4" NCoef="0" IVar="-1" Cut="0.0000000000000000e+00" cType="1" res="1.1719531379640102e-02" rms="9.9086821079254150e-02" purity="1.0000000000000000e+00" nType="-99"/>
            </Node>
            <Node pos="r" depth="3" NCoef="0" IVar="29" Cut="3.4840927124023438e+00" cType="1" res="-6.5059745684266090e-03" rms="9.0840332210063934e-02" purity="1.0000000000000000e+00" nType="0">
              <Node pos="l" depth="4" NCoef="0" IVar="-1" Cut="0.0000000000000000e+00" cType="1" res="-3.6186209763400257e-04" rms="8.8288567960262299e-02" purity="1.0000000000000000e+00" nType="-99"/>
              <Node pos="r" depth="4" NCoef="0" IVar="-1" Cut="0.0000000000000000e+00" cType="1" res="-1.2746307998895645e-02" rms="9.8067209124565125e-02" purity="1.0000000000000000e+00" nType="-99"/>
            </Node>
          </Node>
          <Node pos="r" depth="2" NCoef="0" IVar="30" Cut="9.8444670438766479e-01" cType="1" res="7.7411844395101070e-03" rms="9.1073431074619293e-02" purity="1.0000000000000000e+00" nType="0">
            <Node pos="l" depth="3" NCoef="0" IVar="6" Cut="-5.4327231645584106e-01" cType="1" res="1.3443320989608765e-02" rms="8.8696725666522980e-02" purity="1.0000000000000000e+00" nType="0">
              <Node pos="l" depth="4" NCoef="0" IVar="-1" Cut="0.0000000000000000e+00" cType="1" res="-1.8546944484114647e-02" rms="9.0590544044971466e-02" purity="1.0000000000000000e+00" nType="-99"/>
              <Node pos="r" depth="4" NCoef="0" IVar="-1" Cut="0.0000000000000000e+00" cType="1" res="6.1917449347674847e-03" rms="8.8454902172088623e-02" purity="1.0000000000000000e+00" nType="-99"/>
            </Node>
            <Node pos="r" depth="3" NCoef="0" IVar="33" Cut="6.3727227783203125e+02" cType="1" res="-1.1414668522775173e-02" rms="9.6195340156555176e-02" purity="1.0000000000000000e+00" nType="0">
              <Node pos="l" depth="4" NCoef="0" IVar="-1" Cut="0.0000000000000000e+00" cType="1" res="-8.6217159405350685e-03" rms="9.1342657804489136e-02" purity="1.0000000000000000e+00" nType="-99"/>
              <Node pos="r" depth="4" NCoef="0" IVar="-1" Cut="0.0000000000000000e+00" cType="1" res="4.3393936939537525e-03" rms="1.0355456918478012e-01" purity="1.0000000000000000e+00" nType="-99"/>
            </Node>
          </Node>
        </Node>
      </Node>
    </BinaryTree>
    <BinaryTree type="DecisionTree" boostWeight="1.0000000000000000e+00" itree="12">
      <Node pos="s" depth="0" NCoef="0" IVar="13" Cut="1.0078631591796875e+02" cType="1" res="-5.5533880367875099e-04" rms="9.0406209230422974e-02" purity="1.0000000000000000e+00" nType="0">
        <Node pos="l" depth="1" NCoef="0" IVar="33" Cut="7.2052441406250000e+02" cType="1" res="2.7144781779497862e-03" rms="8.9870937168598175e-02" purity="1.0000000000000000e+00" nType="0">
          <Node pos="l" depth="2" NCoef="0" IVar="33" Cut="3.6279675292968750e+02" cType="1" res="1.3648938620463014e-03" rms="8.8109321892261505e-02" purity="1.0000000000000000e+00" nType="0">
            <Node pos="l" depth="3" NCoef="0" IVar="0" Cut="1.2351657867431641e+02" cType="1" res="-1.2447660788893700e-02" rms="7.5346410274505615e-02" purity="1.0000000000000000e+00" nType="0">
              <Node pos="l" depth="4" NCoef="0" IVar="-1" Cut="0.0000000000000000e+00" cType="1" res="-2.9695604462176561e-03" rms="7.3873892426490784e-02" purity="1.0000000000000000e+00" nType="-99"/>
              <Node pos="r" depth="4" NCoef="0" IVar="-1" Cut="0.0000000000000000e+00" cType="1" res="-4.4191721826791763e-02" rms="8.5394918918609619e-02" purity="1.0000000000000000e+00" nType="-99"/>
            </Node>
            <Node pos="r" depth="3" NCoef="0" IVar="0" Cut="1.6372293090820312e+02" cType="1" res="3.6380032543092966e-03" rms="8.9833214879035950e-02" purity="1.0000000000000000e+00" nType="0">
              <Node pos="l" depth="4" NCoef="0" IVar="-1" Cut="0.0000000000000000e+00" cType="1" res="2.9191016219556332e-03" rms="8.9449778199195862e-02" purity="1.0000000000000000e+00" nType="-99"/>
              <Node pos="r" depth="4" NCoef="0" IVar="-1" Cut="0.0000000000000000e+00" cType="1" res="-4.5460192486643791e-03" rms="9.0636223554611206e-02" purity="1.0000000000000000e+00" nType="-99"/>
            </Node>
          </Node>
          <Node pos="r" depth="2" NCoef="0" IVar="28" Cut="8.6802804470062256e-01" cType="1" res="1.7889978364109993e-02" rms="1.0654360055923462e-01" purity="1.0000000000000000e+00" nType="0">
            <Node pos="l" depth="3" NCoef="0" IVar="14" Cut="1.0284162759780884e+00" cType="1" res="1.3735788874328136e-02" rms="1.0642452538013458e-01" purity="1.0000000000000000e+00" nType="0">
              <Node pos="l" depth="4" NCoef="0" IVar="-1" Cut="0.0000000000000000e+00" cType="1" res="1.4031802304089069e-02" rms="1.0453251749277115e-01" purity="1.0000000000000000e+00" nType="-99"/>
              <Node pos="r" depth="4" NCoef="0" IVar="-1" Cut="0.0000000000000000e+00" cType="1" res="-1.0825440287590027e-02" rms="1.0623829066753387e-01" purity="1.0000000000000000e+00" nType="-99"/>
            </Node>
            <Node pos="r" depth="3" NCoef="0" IVar="-1" Cut="0.0000000000000000e+00" cType="1" res="7.4709713459014893e-02" rms="8.7973043322563171e-02" purity="1.0000000000000000e+00" nType="-99"/>
          </Node>
        </Node>
        <Node pos="r" depth="1" NCoef="0" IVar="0" Cut="4.3562985229492188e+02" cType="1" res="-5.4013575427234173e-03" rms="9.0977847576141357e-02" purity="1.0000000000000000e+00" nType="0">
          <Node pos="l" depth="2" NCoef="0" IVar="33" Cut="1.1250917968750000e+03" cType="1" res="-4.9859862774610519e-03" rms="9.0935394167900085e-02" purity="1.0000000000000000e+00" nType="0">
            <Node pos="l" depth="3" NCoef="0" IVar="33" Cut="4.2074432373046875e+02" cType="1" res="-6.1388225294649601e-03" rms="8.9773170650005341e-02" purity="1.0000000000000000e+00" nType="0">
              <Node pos="l" depth="4" NCoef="0" IVar="-1" Cut="0.0000000000000000e+00" cType="1" res="-8.2329697906970978e-03" rms="8.1655390560626984e-02" purity="1.0000000000000000e+00" nType="-99"/>
              <Node pos="r" depth="4" NCoef="0" IVar="-1" Cut="0.0000000000000000e+00" cType="1" res="-1.0827537626028061e-03" rms="9.0924300253391266e-02" purity="1.0000000000000000e+00" nType="-99"/>
            </Node>
            <Node pos="r" depth="3" NCoef="0" IVar="15" Cut="-1.3637804985046387e-01" cType="1" res="2.3803193122148514e-02" rms="1.1248128116130829e-01" purity="1.0000000000000000e+00" nType="0">
              <Node pos="l" depth="4" NCoef="0" IVar="-1" Cut="0.0000000000000000e+00" cType="1" res="4.6259518712759018e-02" rms="1.0415447503328323e-01" purity="1.0000000000000000e+00" nType="-99"/>
              <Node pos="r" depth="4" NCoef="0" IVar="-1" Cut="0.0000000000000000e+00" cType="1" res="2.2982622031122446e-03" rms="1.1428171396255493e-01" purity="1.0000000000000000e+00" nType="-99"/>
            </Node>
          </Node>
          <Node pos="r" depth="2" NCoef="0" IVar="-1" Cut="0.0000000000000000e+00" cType="1" res="-2.2831827402114868e-02" rms="8.1747762858867645e-02" purity="1.0000000000000000e+00" nType="-99"/>
        </Node>
      </Node>
    </BinaryTree>
    <BinaryTree type="DecisionTree" boostWeight="1.0000000000000000e+00" itree="13">
      <Node pos="s" depth="0" NCoef="0" IVar="5" Cut="1.5968135070800781e+02" cType="1" res="-5.7469314197078347e-04" rms="9.0032614767551422e-02" purity="1.0000000000000000e+00" nType="0">
        <Node pos="l" depth="1" NCoef="0" IVar="9" Cut="4.0020198822021484e+01" cType="1" res="1.0251432831864804e-04" rms="9.0031504631042480e-02" purity="1.0000000000000000e+00" nType="0">
          <Node pos="l" depth="2" NCoef="0" IVar="17" Cut="1.3092778015136719e+02" cType="1" res="-3.5600219853222370e-03" rms="9.0766869485378265e-02" purity="1.0000000000000000e+00" nType="0">
            <Node pos="l" depth="3" NCoef="0" IVar="33" Cut="4.6275659179687500e+02" cType="1" res="-2.8265577275305986e-03" rms="9.0649902820587158e-02" purity="1.0000000000000000e+00" nType="0">
              <Node pos="l" depth="4" NCoef="0" IVar="-1" Cut="0.0000000000000000e+00" cType="1" res="-2.1623433567583561e-03" rms="8.4857612848281860e-02" purity="1.0000000000000000e+00" nType="-99"/>
              <Node pos="r" depth="4" NCoef="0" IVar="-1" Cut="0.0000000000000000e+00" cType="1" res="1.6349513316527009e-03" rms="9.8684832453727722e-02" purity="1.0000000000000000e+00" nType="-99"/>
            </Node>
            <Node pos="r" depth="3" NCoef="0" IVar="9" Cut="2.5646846771240234e+01" cType="1" res="-3.5098992288112640e-02" rms="9.0184211730957031e-02" purity="1.0000000000000000e+00" nType="0">
              <Node pos="l" depth="4" NCoef="0" IVar="-1" Cut="0.0000000000000000e+00" cType="1" res="-2.4591062683612108e-03" rms="9.5039792358875275e-02" purity="1.0000000000000000e+00" nType="-99"/>
              <Node pos="r" depth="4" NCoef="0" IVar="-1" Cut="0.0000000000000000e+00" cType="1" res="-2.0905792713165283e-02" rms="8.5188098251819611e-02" purity="1.0000000000000000e+00" nType="-99"/>
            </Node>
          </Node>
          <Node pos="r" depth="2" NCoef="0" IVar="23" Cut="3.2108692169189453e+01" cType="1" res="3.7086384836584330e-03" rms="8.9154668152332306e-02" purity="1.0000000000000000e+00" nType="0">
            <Node pos="l" depth="3" NCoef="0" IVar="29" Cut="3.9739603996276855e+00" cType="1" res="4.0785524994134903e-02" rms="8.3545848727226257e-02" purity="1.0000000000000000e+00" nType="0">
              <Node pos="l" depth="4" NCoef="0" IVar="-1" Cut="0.0000000000000000e+00" cType="1" res="1.0723758488893509e-02" rms="8.2101516425609589e-02" purity="1.0000000000000000e+00" nType="-99"/>
              <Node pos="r" depth="4" NCoef="0" IVar="-1" Cut="0.0000000000000000e+00" cType="1" res="3.7897240370512009e-02" rms="7.5217165052890778e-02" purity="1.0000000000000000e+00" nType="-99"/>
            </Node>
            <Node pos="r" depth="3" NCoef="0" IVar="33" Cut="1.4714849853515625e+03" cType="1" res="2.9667711351066828e-03" rms="8.9106000959873199e-02" purity="1.0000000000000000e+00" nType="0">
              <Node pos="l" depth="4" NCoef="0" IVar="-1" Cut="0.0000000000000000e+00" cType="1" res="1.2863666051998734e-03" rms="8.8815741240978241e-02" purity="1.0000000000000000e+00" nType="-99"/>
              <Node pos="r" depth="4" NCoef="0" IVar="-1" Cut="0.0000000000000000e+00" cType="1" res="9.2025585472583771e-02" rms="1.0791833698749542e-01" purity="1.0000000000000000e+00" nType="-99"/>
            </Node>
          </Node>
        </Node>
        <Node pos="r" depth="1" NCoef="0" IVar="33" Cut="1.3412438964843750e+03" cType="1" res="-1.8639732152223587e-02" rms="8.8162600994110107e-02" purity="1.0000000000000000e+00" nType="0">
          <Node pos="l" depth="2" NCoef="0" IVar="25" Cut="2.5552039062500000e+04" cType="1" res="-2.3596417158842087e-02" rms="8.5182949900627136e-02" purity="1.0000000000000000e+00" nType="0">
            <Node pos="l" depth="3" NCoef="0" IVar="7" Cut="7.3790800571441650e-01" cType="1" res="-2.9961548745632172e-02" rms="8.3011858165264130e-02" purity="1.0000000000000000e+00" nType="0">
              <Node pos="l" depth="4" NCoef="0" IVar="-1" Cut="0.0000000000000000e+00" cType="1" res="-8.3747813478112221e-03" rms="8.5470892488956451e-02" purity="1.0000000000000000e+00" nType="-99"/>
              <Node pos="r" depth="4" NCoef="0" IVar="-1" Cut="0.0000000000000000e+00" cType="1" res="-1.8280642107129097e-02" rms="7.4334673583507538e-02" purity="1.0000000000000000e+00" nType="-99"/>
            </Node>
            <Node pos="r" depth="3" NCoef="0" IVar="13" Cut="1.1877528381347656e+02" cType="1" res="9.9495435133576393e-03" rms="8.8553972542285919e-02" purity="1.0000000000000000e+00" nType="0">
              <Node pos="l" depth="4" NCoef="0" IVar="-1" Cut="0.0000000000000000e+00" cType="1" res="1.4429769478738308e-02" rms="8.4146626293659210e-02" purity="1.0000000000000000e+00" nType="-99"/>
              <Node pos="r" depth="4" NCoef="0" IVar="-1" Cut="0.0000000000000000e+00" cType="1" res="-5.8686826378107071e-03" rms="8.6186505854129791e-02" purity="1.0000000000000000e+00" nType="-99"/>
            </Node>
          </Node>
          <Node pos="r" depth="2" NCoef="0" IVar="-1" Cut="0.0000000000000000e+00" cType="1" res="2.0580811426043510e-02" rms="1.0115458816289902e-01" purity="1.0000000000000000e+00" nType="-99"/>
        </Node>
      </Node>
    </BinaryTree>
    <BinaryTree type="DecisionTree" boostWeight="1.0000000000000000e+00" itree="14">
      <Node pos="s" depth="0" NCoef="0" IVar="33" Cut="1.9022641601562500e+03" cType="1" res="-5.9861422050744295e-04" rms="9.0041704475879669e-02" purity="1.0000000000000000e+00" nType="0">
        <Node pos="l" depth="1" NCoef="0" IVar="33" Cut="4.9233010864257812e+02" cType="1" res="-7.6931522926315665e-04" rms="8.9921191334724426e-02" purity="1.0000000000000000e+00" nType="0">
          <Node pos="l" depth="2" NCoef="0" IVar="13" Cut="7.4928520202636719e+01" cType="1" res="-3.8582431152462959e-03" rms="8.4147080779075623e-02" purity="1.0000000000000000e+00" nType="0">
            <Node pos="l" depth="3" NCoef="0" IVar="0" Cut="1.3158671569824219e+02" cType="1" res="1.6448479145765305e-03" rms="8.6243532598018646e-02" purity="1.0000000000000000e+00" nType="0">
              <Node pos="l" depth="4" NCoef="0" IVar="-1" Cut="0.0000000000000000e+00" cType="1" res="2.4610746186226606e-03" rms="8.4762483835220337e-02" purity="1.0000000000000000e+00" nType="-99"/>
              <Node pos="r" depth="4" NCoef="0" IVar="-1" Cut="0.0000000000000000e+00" cType="1" res="-5.3427196107804775e-03" rms="9.1360732913017273e-02" purity="1.0000000000000000e+00" nType="-99"/>
            </Node>
            <Node pos="r" depth="3" NCoef="0" IVar="3" Cut="1.5479818725585938e+02" cType="1" res="-8.3111068233847618e-03" rms="8.2142293453216553e-02" purity="1.0000000000000000e+00" nType="0">
              <Node pos="l" depth="4" NCoef="0" IVar="-1" Cut="0.0000000000000000e+00" cType="1" res="-2.2381988819688559e-03" rms="8.1664413213729858e-02" purity="1.0000000000000000e+00" nType="-99"/>
              <Node pos="r" depth="4" NCoef="0" IVar="-1" Cut="0.0000000000000000e+00" cType="1" res="-1.4148820191621780e-02" rms="8.7359294295310974e-02" purity="1.0000000000000000e+00" nType="-99"/>
            </Node>
          </Node>
          <Node pos="r" depth="2" NCoef="0" IVar="0" Cut="1.2538486480712891e+02" cType="1" res="3.2391098793596029e-03" rms="9.6755616366863251e-02" purity="1.0000000000000000e+00" nType="0">
            <Node pos="l" depth="3" NCoef="0" IVar="17" Cut="1.1047940826416016e+02" cType="1" res="1.1140987277030945e-02" rms="9.8137967288494110e-02" purity="1.0000000000000000e+00" nType="0">
              <Node pos="l" depth="4" NCoef="0" IVar="-1" Cut="0.0000000000000000e+00" cType="1" res="7.9073868691921234e-03" rms="9.8676055669784546e-02" purity="1.0000000000000000e+00" nType="-99"/>
              <Node pos="r" depth="4" NCoef="0" IVar="-1" Cut="0.0000000000000000e+00" cType="1" res="-6.2550697475671768e-03" rms="9.1091424226760864e-02" purity="1.0000000000000000e+00" nType="-99"/>
            </Node>
            <Node pos="r" depth="3" NCoef="0" IVar="5" Cut="6.2475391387939453e+01" cType="1" res="-1.8618076574057341e-03" rms="9.5506072044372559e-02" purity="1.0000000000000000e+00" nType="0">
              <Node pos="l" depth="4" NCoef="0" IVar="-1" Cut="0.0000000000000000e+00" cType="1" res="-1.0080016218125820e-02" rms="9.8915308713912964e-02" purity="1.0000000000000000e+00" nType="-99"/>
              <Node pos="r" depth="4" NCoef="0" IVar="-1" Cut="0.0000000000000000e+00" cType="1" res="1.2215138413012028e-03" rms="9.3920804560184479e-02" purity="1.0000000000000000e+00" nType="-99"/>
            </Node>
          </Node>
        </Node>
        <Node pos="r" depth="1" NCoef="0" IVar="-1" Cut="0.0000000000000000e+00" cType="1" res="1.6037008166313171e-01" rms="1.1013273149728775e-01" purity="1.0000000000000000e+00" nType="-99"/>
      </Node>
    </BinaryTree>
    <BinaryTree type="DecisionTree" boostWeight="1.0000000000000000e+00" itree="15">
      <Node pos="s" depth="0" NCoef="0" IVar="31" Cut="8.4661978483200073e-01" cType="1" res="-5.3360720630735159e-04" rms="8.9449033141136169e-02" purity="1.0000000000000000e+00" nType="0">
