<?xml version="1.0"?>
<MethodSetup Method="BDT::BDTG_LS_fold1">
  <GeneralInfo>
    <Info name="TMVA Release" value="4.2.1 [262657]"/>
    <Info name="ROOT Release" value="6.13/08 [396552]"/>
    <Info name="Creator" value="bribeiro"/>
    <Info name="Date" value="Fri Jun 28 12:56:17 2019"/>
    <Info name="Host" value="Linux lcgapp-centos7-x86-64-6.cern.ch 3.10.0-693.21.1.el7.x86_64 #1 SMP Wed Mar 7 19:03:37 UTC 2018 x86_64 x86_64 x86_64 GNU/Linux"/>
    <Info name="Dir" value="/afs/cern.ch/user/b/bribeiro/CMSSW_9_4_11/src/TopLJets2015/TopAnalysis"/>
    <Info name="Training events" value="11336"/>
    <Info name="TrainingTime" value="1.13284898e+00"/>
    <Info name="AnalysisType" value="Regression"/>
  </GeneralInfo>
  <Options>
    <Option name="V" modified="Yes">False</Option>
    <Option name="VerbosityLevel" modified="No">Default</Option>
    <Option name="VarTransform" modified="No">None</Option>
    <Option name="H" modified="Yes">False</Option>
    <Option name="CreateMVAPdfs" modified="No">False</Option>
    <Option name="IgnoreNegWeightsInTraining" modified="No">False</Option>
    <Option name="NTrees" modified="Yes">64</Option>
    <Option name="MaxDepth" modified="Yes">4</Option>
    <Option name="MinNodeSize" modified="No">0.2%</Option>
    <Option name="nCuts" modified="Yes">20</Option>
    <Option name="BoostType" modified="Yes">Grad</Option>
    <Option name="AdaBoostR2Loss" modified="No">quadratic</Option>
    <Option name="UseBaggedBoost" modified="No">False</Option>
    <Option name="Shrinkage" modified="Yes">3.000000e-01</Option>
    <Option name="AdaBoostBeta" modified="No">5.000000e-01</Option>
    <Option name="UseRandomisedTrees" modified="No">False</Option>
    <Option name="UseNvars" modified="No">6</Option>
    <Option name="UsePoissonNvars" modified="No">True</Option>
    <Option name="BaggedSampleFraction" modified="No">6.000000e-01</Option>
    <Option name="UseYesNoLeaf" modified="No">False</Option>
    <Option name="NegWeightTreatment" modified="No">pray</Option>
    <Option name="Css" modified="No">1.000000e+00</Option>
    <Option name="Cts_sb" modified="No">1.000000e+00</Option>
    <Option name="Ctb_ss" modified="No">1.000000e+00</Option>
    <Option name="Cbb" modified="No">1.000000e+00</Option>
    <Option name="NodePurityLimit" modified="No">5.000000e-01</Option>
    <Option name="SeparationType" modified="No">regressionvariance</Option>
    <Option name="RegressionLossFunctionBDTG" modified="Yes">leastsquares</Option>
    <Option name="HuberQuantile" modified="No">7.000000e-01</Option>
    <Option name="DoBoostMonitor" modified="No">False</Option>
    <Option name="UseFisherCuts" modified="No">False</Option>
    <Option name="MinLinCorrForFisher" modified="No">8.000000e-01</Option>
    <Option name="UseExclusiveVars" modified="No">False</Option>
    <Option name="DoPreselection" modified="No">False</Option>
    <Option name="SigToBkgFraction" modified="No">1.000000e+00</Option>
    <Option name="PruneMethod" modified="No">nopruning</Option>
    <Option name="PruneStrength" modified="No">0.000000e+00</Option>
    <Option name="PruningValFraction" modified="No">5.000000e-01</Option>
    <Option name="SkipNormalization" modified="No">False</Option>
    <Option name="nEventsMin" modified="No">0</Option>
    <Option name="UseBaggedGrad" modified="No">False</Option>
    <Option name="GradBaggingFraction" modified="No">6.000000e-01</Option>
    <Option name="UseNTrainEvents" modified="No">0</Option>
    <Option name="NNodesMax" modified="No">0</Option>
  </Options>
  <Variables NVar="34">
    <Variable VarIndex="0" Expression="mll" Label="mll" Title="mll" Unit="" Internal="mll" Type="F" Min="3.40282347e+38" Max="-3.40282347e+38"/>
    <Variable VarIndex="1" Expression="nljets" Label="nljets" Title="nljets" Unit="" Internal="nljets" Type="F" Min="3.40282347e+38" Max="-3.40282347e+38"/>
    <Variable VarIndex="2" Expression="nbjets" Label="nbjets" Title="nbjets" Unit="" Internal="nbjets" Type="F" Min="3.40282347e+38" Max="-3.40282347e+38"/>
    <Variable VarIndex="3" Expression="metpt" Label="metpt" Title="metpt" Unit="" Internal="metpt" Type="F" Min="3.40282347e+38" Max="-3.40282347e+38"/>
    <Variable VarIndex="4" Expression="metphi" Label="metphi" Title="metphi" Unit="" Internal="metphi" Type="F" Min="3.40282347e+38" Max="-3.40282347e+38"/>
    <Variable VarIndex="5" Expression="l1pt" Label="l1pt" Title="l1pt" Unit="" Internal="l1pt" Type="F" Min="3.40282347e+38" Max="-3.40282347e+38"/>
    <Variable VarIndex="6" Expression="l1eta" Label="l1eta" Title="l1eta" Unit="" Internal="l1eta" Type="F" Min="3.40282347e+38" Max="-3.40282347e+38"/>
    <Variable VarIndex="7" Expression="l1phi" Label="l1phi" Title="l1phi" Unit="" Internal="l1phi" Type="F" Min="3.40282347e+38" Max="-3.40282347e+38"/>
    <Variable VarIndex="8" Expression="l1m" Label="l1m" Title="l1m" Unit="" Internal="l1m" Type="F" Min="3.40282347e+38" Max="-3.40282347e+38"/>
    <Variable VarIndex="9" Expression="l2pt" Label="l2pt" Title="l2pt" Unit="" Internal="l2pt" Type="F" Min="3.40282347e+38" Max="-3.40282347e+38"/>
    <Variable VarIndex="10" Expression="l2eta" Label="l2eta" Title="l2eta" Unit="" Internal="l2eta" Type="F" Min="3.40282347e+38" Max="-3.40282347e+38"/>
    <Variable VarIndex="11" Expression="l2phi" Label="l2phi" Title="l2phi" Unit="" Internal="l2phi" Type="F" Min="3.40282347e+38" Max="-3.40282347e+38"/>
    <Variable VarIndex="12" Expression="l2m" Label="l2m" Title="l2m" Unit="" Internal="l2m" Type="F" Min="3.40282347e+38" Max="-3.40282347e+38"/>
    <Variable VarIndex="13" Expression="b1pt" Label="b1pt" Title="b1pt" Unit="" Internal="b1pt" Type="F" Min="3.40282347e+38" Max="-3.40282347e+38"/>
    <Variable VarIndex="14" Expression="b1eta" Label="b1eta" Title="b1eta" Unit="" Internal="b1eta" Type="F" Min="3.40282347e+38" Max="-3.40282347e+38"/>
    <Variable VarIndex="15" Expression="b1phi" Label="b1phi" Title="b1phi" Unit="" Internal="b1phi" Type="F" Min="3.40282347e+38" Max="-3.40282347e+38"/>
    <Variable VarIndex="16" Expression="b1m" Label="b1m" Title="b1m" Unit="" Internal="b1m" Type="F" Min="3.40282347e+38" Max="-3.40282347e+38"/>
    <Variable VarIndex="17" Expression="b2pt" Label="b2pt" Title="b2pt" Unit="" Internal="b2pt" Type="F" Min="3.40282347e+38" Max="-3.40282347e+38"/>
    <Variable VarIndex="18" Expression="b2eta" Label="b2eta" Title="b2eta" Unit="" Internal="b2eta" Type="F" Min="3.40282347e+38" Max="-3.40282347e+38"/>
    <Variable VarIndex="19" Expression="b2phi" Label="b2phi" Title="b2phi" Unit="" Internal="b2phi" Type="F" Min="3.40282347e+38" Max="-3.40282347e+38"/>
    <Variable VarIndex="20" Expression="b2m" Label="b2m" Title="b2m" Unit="" Internal="b2m" Type="F" Min="3.40282347e+38" Max="-3.40282347e+38"/>
    <Variable VarIndex="21" Expression="deltarll" Label="deltarll" Title="deltarll" Unit="" Internal="deltarll" Type="F" Min="3.40282347e+38" Max="-3.40282347e+38"/>
    <Variable VarIndex="22" Expression="deltaphill" Label="deltaphill" Title="deltaphill" Unit="" Internal="deltaphill" Type="F" Min="3.40282347e+38" Max="-3.40282347e+38"/>
    <Variable VarIndex="23" Expression="mlb" Label="mlb" Title="mlb" Unit="" Internal="mlb" Type="F" Min="3.40282347e+38" Max="-3.40282347e+38"/>
    <Variable VarIndex="24" Expression="px2" Label="px2" Title="px2" Unit="" Internal="px2" Type="F" Min="3.40282347e+38" Max="-3.40282347e+38"/>
    <Variable VarIndex="25" Expression="py2" Label="py2" Title="py2" Unit="" Internal="py2" Type="F" Min="3.40282347e+38" Max="-3.40282347e+38"/>
    <Variable VarIndex="26" Expression="pz2" Label="pz2" Title="pz2" Unit="" Internal="pz2" Type="F" Min="3.40282347e+38" Max="-3.40282347e+38"/>
    <Variable VarIndex="27" Expression="E2" Label="E2" Title="E2" Unit="" Internal="E2" Type="F" Min="3.40282347e+38" Max="-3.40282347e+38"/>
    <Variable VarIndex="28" Expression="yvis" Label="yvis" Title="yvis" Unit="" Internal="yvis" Type="F" Min="3.40282347e+38" Max="-3.40282347e+38"/>
    <Variable VarIndex="29" Expression="ysum" Label="ysum" Title="ysum" Unit="" Internal="ysum" Type="F" Min="3.40282347e+38" Max="-3.40282347e+38"/>
    <Variable VarIndex="30" Expression="max_dy" Label="max_dy" Title="max_dy" Unit="" Internal="max_dy" Type="F" Min="3.40282347e+38" Max="-3.40282347e+38"/>
    <Variable VarIndex="31" Expression="min_dy" Label="min_dy" Title="min_dy" Unit="" Internal="min_dy" Type="F" Min="3.40282347e+38" Max="-3.40282347e+38"/>
    <Variable VarIndex="32" Expression="rec_ytt" Label="rec_ytt" Title="rec_ytt" Unit="" Internal="rec_ytt" Type="F" Min="3.40282347e+38" Max="-3.40282347e+38"/>
    <Variable VarIndex="33" Expression="rec_mtt" Label="rec_mtt" Title="rec_mtt" Unit="" Internal="rec_mtt" Type="F" Min="3.40282347e+38" Max="-3.40282347e+38"/>
  </Variables>
  <Spectators NSpec="10">
    <Spectator SpecIndex="0" Expression="run" Label="run" Title="run" Unit="" Internal="run" Type="F" Min="3.40282347e+38" Max="-3.40282347e+38"/>
    <Spectator SpecIndex="1" Expression="lumi" Label="lumi" Title="lumi" Unit="" Internal="lumi" Type="F" Min="3.40282347e+38" Max="-3.40282347e+38"/>
    <Spectator SpecIndex="2" Expression="ev" Label="ev" Title="ev" Unit="" Internal="ev" Type="F" Min="3.40282347e+38" Max="-3.40282347e+38"/>
    <Spectator SpecIndex="3" Expression="rho" Label="rho" Title="rho" Unit="" Internal="rho" Type="F" Min="3.40282347e+38" Max="-3.40282347e+38"/>
    <Spectator SpecIndex="4" Expression="nvtx" Label="nvtx" Title="nvtx" Unit="" Internal="nvtx" Type="F" Min="3.40282347e+38" Max="-3.40282347e+38"/>
    <Spectator SpecIndex="5" Expression="channel" Label="channel" Title="channel" Unit="" Internal="channel" Type="F" Min="3.40282347e+38" Max="-3.40282347e+38"/>
    <Spectator SpecIndex="6" Expression="mpp" Label="mpp" Title="mpp" Unit="" Internal="mpp" Type="F" Min="3.40282347e+38" Max="-3.40282347e+38"/>
    <Spectator SpecIndex="7" Expression="ypp" Label="ypp" Title="ypp" Unit="" Internal="ypp" Type="F" Min="3.40282347e+38" Max="-3.40282347e+38"/>
    <Spectator SpecIndex="8" Expression="gen_mtt" Label="gen_mtt" Title="gen_mtt" Unit="" Internal="gen_mtt" Type="F" Min="3.40282347e+38" Max="-3.40282347e+38"/>
    <Spectator SpecIndex="9" Expression="gen_ytt" Label="gen_ytt" Title="gen_ytt" Unit="" Internal="gen_ytt" Type="F" Min="3.40282347e+38" Max="-3.40282347e+38"/>
  </Spectators>
  <Classes NClass="1">
    <Class Name="Regression" Index="0"/>
  </Classes>
  <Targets NTrgt="1">
    <Target TargetIndex="0" Expression="rec_mtt/gen_mtt" Label="target" Title="target" Unit="" Internal="target" Type="F" Min="3.40282347e+38" Max="-3.40282347e+38"/>
  </Targets>
  <Transformations NTransformations="0"/>
  <MVAPdfs/>
  <Weights NTrees="64" AnalysisType="1">
    <BinaryTree type="DecisionTree" boostWeight="1.0252737479025449e+00" itree="0">
      <Node pos="s" depth="0" NCoef="0" IVar="33" Cut="7.2345166015625000e+02" cType="1" res="-1.0560703422868301e-09" rms="2.6488578319549561e-01" purity="1.0000000000000000e+00" nType="0">
        <Node pos="l" depth="1" NCoef="0" IVar="33" Cut="4.7114517211914062e+02" cType="1" res="-4.9467742443084717e-02" rms="1.5737092494964600e-01" purity="1.0000000000000000e+00" nType="0">
          <Node pos="l" depth="2" NCoef="0" IVar="33" Cut="3.9906201171875000e+02" cType="1" res="-9.7966521978378296e-02" rms="1.2606139481067657e-01" purity="1.0000000000000000e+00" nType="0">
            <Node pos="l" depth="3" NCoef="0" IVar="21" Cut="2.2721450328826904e+00" cType="1" res="-1.2720030546188354e-01" rms="1.1621259897947311e-01" purity="1.0000000000000000e+00" nType="0">
              <Node pos="l" depth="4" NCoef="0" IVar="-1" Cut="0.0000000000000000e+00" cType="1" res="-3.2952062785625458e-02" rms="1.0494148731231689e-01" purity="1.0000000000000000e+00" nType="-99"/>
              <Node pos="r" depth="4" NCoef="0" IVar="-1" Cut="0.0000000000000000e+00" cType="1" res="-4.8661943525075912e-02" rms="1.2922303378582001e-01" purity="1.0000000000000000e+00" nType="-99"/>
            </Node>
            <Node pos="r" depth="3" NCoef="0" IVar="33" Cut="4.1964590454101562e+02" cType="1" res="-6.4471937716007233e-02" rms="1.2854684889316559e-01" purity="1.0000000000000000e+00" nType="0">
              <Node pos="l" depth="4" NCoef="0" IVar="-1" Cut="0.0000000000000000e+00" cType="1" res="-2.6712723076343536e-02" rms="1.2709182500839233e-01" purity="1.0000000000000000e+00" nType="-99"/>
              <Node pos="r" depth="4" NCoef="0" IVar="-1" Cut="0.0000000000000000e+00" cType="1" res="-1.5378602780401707e-02" rms="1.2737815082073212e-01" purity="1.0000000000000000e+00" nType="-99"/>
            </Node>
          </Node>
          <Node pos="r" depth="2" NCoef="0" IVar="27" Cut="1.8770362500000000e+05" cType="1" res="2.3858992382884026e-02" rms="1.7102515697479248e-01" purity="1.0000000000000000e+00" nType="0">
            <Node pos="l" depth="3" NCoef="0" IVar="33" Cut="5.6727282714843750e+02" cType="1" res="1.0240263491868973e-01" rms="1.9048441946506500e-01" purity="1.0000000000000000e+00" nType="0">
              <Node pos="l" depth="4" NCoef="0" IVar="-1" Cut="0.0000000000000000e+00" cType="1" res="1.5119512565433979e-02" rms="1.5879814326763153e-01" purity="1.0000000000000000e+00" nType="-99"/>
              <Node pos="r" depth="4" NCoef="0" IVar="-1" Cut="0.0000000000000000e+00" cType="1" res="6.8811148405075073e-02" rms="2.0144900679588318e-01" purity="1.0000000000000000e+00" nType="-99"/>
            </Node>
            <Node pos="r" depth="3" NCoef="0" IVar="33" Cut="6.1528155517578125e+02" cType="1" res="8.0229891464114189e-03" rms="1.6228576004505157e-01" purity="1.0000000000000000e+00" nType="0">
              <Node pos="l" depth="4" NCoef="0" IVar="-1" Cut="0.0000000000000000e+00" cType="1" res="-4.3069641105830669e-03" rms="1.4410871267318726e-01" purity="1.0000000000000000e+00" nType="-99"/>
              <Node pos="r" depth="4" NCoef="0" IVar="-1" Cut="0.0000000000000000e+00" cType="1" res="1.6650993376970291e-02" rms="1.8664298951625824e-01" purity="1.0000000000000000e+00" nType="-99"/>
            </Node>
          </Node>
        </Node>
        <Node pos="r" depth="1" NCoef="0" IVar="33" Cut="1.5795014648437500e+03" cType="1" res="2.9039064049720764e-01" rms="4.8782983422279358e-01" purity="1.0000000000000000e+00" nType="0">
          <Node pos="l" depth="2" NCoef="0" IVar="27" Cut="3.2411959375000000e+05" cType="1" res="2.3729075491428375e-01" rms="3.3949348330497742e-01" purity="1.0000000000000000e+00" nType="0">
            <Node pos="l" depth="3" NCoef="0" IVar="33" Cut="1.0403707275390625e+03" cType="1" res="4.5758694410324097e-01" rms="3.7888005375862122e-01" purity="1.0000000000000000e+00" nType="0">
              <Node pos="l" depth="4" NCoef="0" IVar="-1" Cut="0.0000000000000000e+00" cType="1" res="1.1366432160139084e-01" rms="3.0164381861686707e-01" purity="1.0000000000000000e+00" nType="-99"/>
              <Node pos="r" depth="4" NCoef="0" IVar="-1" Cut="0.0000000000000000e+00" cType="1" res="2.6388397812843323e-01" rms="4.6267062425613403e-01" purity="1.0000000000000000e+00" nType="-99"/>
            </Node>
            <Node pos="r" depth="3" NCoef="0" IVar="33" Cut="1.1245079345703125e+03" cType="1" res="1.6966238617897034e-01" rms="2.9512360692024231e-01" purity="1.0000000000000000e+00" nType="0">
              <Node pos="l" depth="4" NCoef="0" IVar="-1" Cut="0.0000000000000000e+00" cType="1" res="3.8966629654169083e-02" rms="2.4711129069328308e-01" purity="1.0000000000000000e+00" nType="-99"/>
              <Node pos="r" depth="4" NCoef="0" IVar="-1" Cut="0.0000000000000000e+00" cType="1" res="1.1734023690223694e-01" rms="4.1737815737724304e-01" purity="1.0000000000000000e+00" nType="-99"/>
            </Node>
          </Node>
          <Node pos="r" depth="2" NCoef="0" IVar="27" Cut="4.9030381250000000e+05" cType="1" res="1.3463387489318848e+00" rms="1.2277386188507080e+00" purity="1.0000000000000000e+00" nType="0">
            <Node pos="l" depth="3" NCoef="0" IVar="-1" Cut="0.0000000000000000e+00" cType="1" res="6.0545533895492554e-01" rms="1.3721686601638794e+00" purity="1.0000000000000000e+00" nType="-99"/>
            <Node pos="r" depth="3" NCoef="0" IVar="-1" Cut="0.0000000000000000e+00" cType="1" res="2.2634243965148926e-01" rms="6.5467238426208496e-01" purity="1.0000000000000000e+00" nType="-99"/>
          </Node>
        </Node>
      </Node>
    </BinaryTree>
    <BinaryTree type="DecisionTree" boostWeight="1.0000000000000000e+00" itree="1">
      <Node pos="s" depth="0" NCoef="0" IVar="33" Cut="9.1266076660156250e+02" cType="1" res="-1.0198433209041013e-09" rms="2.2954159975051880e-01" purity="1.0000000000000000e+00" nType="0">
        <Node pos="l" depth="1" NCoef="0" IVar="33" Cut="5.0712857055664062e+02" cType="1" res="-2.2399257868528366e-02" rms="1.6423602402210236e-01" purity="1.0000000000000000e+00" nType="0">
          <Node pos="l" depth="2" NCoef="0" IVar="33" Cut="4.1448254394531250e+02" cType="1" res="-6.2898896634578705e-02" rms="1.2584753334522247e-01" purity="1.0000000000000000e+00" nType="0">
            <Node pos="l" depth="3" NCoef="0" IVar="21" Cut="1.2614877223968506e+00" cType="1" res="-8.4446541965007782e-02" rms="1.1732412129640579e-01" purity="1.0000000000000000e+00" nType="0">
              <Node pos="l" depth="4" NCoef="0" IVar="-1" Cut="0.0000000000000000e+00" cType="1" res="-1.5757143497467041e-02" rms="9.5663428306579590e-02" purity="1.0000000000000000e+00" nType="-99"/>
              <Node pos="r" depth="4" NCoef="0" IVar="-1" Cut="0.0000000000000000e+00" cType="1" res="-2.8481010347604752e-02" rms="1.2180338054895401e-01" purity="1.0000000000000000e+00" nType="-99"/>
            </Node>
            <Node pos="r" depth="3" NCoef="0" IVar="27" Cut="1.6223820312500000e+05" cType="1" res="-3.4081269055604935e-02" rms="1.3098908960819244e-01" purity="1.0000000000000000e+00" nType="0">
              <Node pos="l" depth="4" NCoef="0" IVar="-1" Cut="0.0000000000000000e+00" cType="1" res="8.5603521438315511e-04" rms="1.3126842677593231e-01" purity="1.0000000000000000e+00" nType="-99"/>
              <Node pos="r" depth="4" NCoef="0" IVar="-1" Cut="0.0000000000000000e+00" cType="1" res="-1.3905871659517288e-02" rms="1.2856888771057129e-01" purity="1.0000000000000000e+00" nType="-99"/>
            </Node>
          </Node>
          <Node pos="r" depth="2" NCoef="0" IVar="27" Cut="2.7669903125000000e+05" cType="1" res="4.7152902930974960e-02" rms="1.9606974720954895e-01" purity="1.0000000000000000e+00" nType="0">
            <Node pos="l" depth="3" NCoef="0" IVar="33" Cut="6.0341845703125000e+02" cType="1" res="1.0624089092016220e-01" rms="2.0699523389339447e-01" purity="1.0000000000000000e+00" nType="0">
              <Node pos="l" depth="4" NCoef="0" IVar="-1" Cut="0.0000000000000000e+00" cType="1" res="1.3177393935620785e-02" rms="1.5859675407409668e-01" purity="1.0000000000000000e+00" nType="-99"/>
              <Node pos="r" depth="4" NCoef="0" IVar="-1" Cut="0.0000000000000000e+00" cType="1" res="6.0060061514377594e-02" rms="2.3418438434600830e-01" purity="1.0000000000000000e+00" nType="-99"/>
            </Node>
            <Node pos="r" depth="3" NCoef="0" IVar="33" Cut="7.9659564208984375e+02" cType="1" res="1.8126830458641052e-02" rms="1.8363687396049500e-01" purity="1.0000000000000000e+00" nType="0">
              <Node pos="l" depth="4" NCoef="0" IVar="-1" Cut="0.0000000000000000e+00" cType="1" res="1.3514106394723058e-03" rms="1.6993641853332520e-01" purity="1.0000000000000000e+00" nType="-99"/>
              <Node pos="r" depth="4" NCoef="0" IVar="-1" Cut="0.0000000000000000e+00" cType="1" res="2.8430553153157234e-02" rms="2.3250544071197510e-01" purity="1.0000000000000000e+00" nType="-99"/>
            </Node>
          </Node>
        </Node>
        <Node pos="r" depth="1" NCoef="0" IVar="33" Cut="2.0479893798828125e+03" cType="1" res="3.3879274129867554e-01" rms="5.6504619121551514e-01" purity="1.0000000000000000e+00" nType="0">
          <Node pos="l" depth="2" NCoef="0" IVar="27" Cut="5.8162406250000000e+05" cType="1" res="2.9117220640182495e-01" rms="4.1960421204566956e-01" purity="1.0000000000000000e+00" nType="0">
            <Node pos="l" depth="3" NCoef="0" IVar="33" Cut="1.2778427734375000e+03" cType="1" res="4.6510654687881470e-01" rms="4.4916644692420959e-01" purity="1.0000000000000000e+00" nType="0">
              <Node pos="l" depth="4" NCoef="0" IVar="-1" Cut="0.0000000000000000e+00" cType="1" res="1.1167225986719131e-01" rms="3.5165333747863770e-01" purity="1.0000000000000000e+00" nType="-99"/>
              <Node pos="r" depth="4" NCoef="0" IVar="-1" Cut="0.0000000000000000e+00" cType="1" res="2.5434774160385132e-01" rms="5.8443325757980347e-01" purity="1.0000000000000000e+00" nType="-99"/>
            </Node>
            <Node pos="r" depth="3" NCoef="0" IVar="23" Cut="5.9554435729980469e+01" cType="1" res="1.1876808106899261e-01" rms="3.0149734020233154e-01" purity="1.0000000000000000e+00" nType="0">
              <Node pos="l" depth="4" NCoef="0" IVar="-1" Cut="0.0000000000000000e+00" cType="1" res="9.9937424063682556e-02" rms="4.2152562737464905e-01" purity="1.0000000000000000e+00" nType="-99"/>
              <Node pos="r" depth="4" NCoef="0" IVar="-1" Cut="0.0000000000000000e+00" cType="1" res="2.1620687097311020e-02" rms="2.4454697966575623e-01" purity="1.0000000000000000e+00" nType="-99"/>
            </Node>
          </Node>
          <Node pos="r" depth="2" NCoef="0" IVar="-1" Cut="0.0000000000000000e+00" cType="1" res="5.0581699609756470e-01" rms="1.5784919261932373e+00" purity="1.0000000000000000e+00" nType="-99"/>
        </Node>
      </Node>
    </BinaryTree>
    <BinaryTree type="DecisionTree" boostWeight="1.0000000000000000e+00" itree="2">
      <Node pos="s" depth="0" NCoef="0" IVar="33" Cut="9.1266076660156250e+02" cType="1" res="-6.2355781649259256e-10" rms="2.0679308474063873e-01" purity="1.0000000000000000e+00" nType="0">
        <Node pos="l" depth="1" NCoef="0" IVar="33" Cut="5.3414440917968750e+02" cType="1" res="-1.5679480507969856e-02" rms="1.5619599819183350e-01" purity="1.0000000000000000e+00" nType="0">
          <Node pos="l" depth="2" NCoef="0" IVar="33" Cut="3.8105078125000000e+02" cType="1" res="-4.1039895266294479e-02" rms="1.2574367225170135e-01" purity="1.0000000000000000e+00" nType="0">
            <Node pos="l" depth="3" NCoef="0" IVar="0" Cut="1.1423491668701172e+02" cType="1" res="-7.3592811822891235e-02" rms="1.1204138398170471e-01" purity="1.0000000000000000e+00" nType="0">
              <Node pos="l" depth="4" NCoef="0" IVar="-1" Cut="0.0000000000000000e+00" cType="1" res="-2.0110461860895157e-02" rms="1.0716214776039124e-01" purity="1.0000000000000000e+00" nType="-99"/>
              <Node pos="r" depth="4" NCoef="0" IVar="-1" Cut="0.0000000000000000e+00" cType="1" res="-4.3106954544782639e-02" rms="1.3642671704292297e-01" purity="1.0000000000000000e+00" nType="-99"/>
            </Node>
            <Node pos="r" depth="3" NCoef="0" IVar="21" Cut="2.2361078262329102e+00" cType="1" res="-2.7766380459070206e-02" rms="1.2857578694820404e-01" purity="1.0000000000000000e+00" nType="0">
              <Node pos="l" depth="4" NCoef="0" IVar="-1" Cut="0.0000000000000000e+00" cType="1" res="-4.1153854690492153e-03" rms="1.2277527898550034e-01" purity="1.0000000000000000e+00" nType="-99"/>
              <Node pos="r" depth="4" NCoef="0" IVar="-1" Cut="0.0000000000000000e+00" cType="1" res="-1.3028076849877834e-02" rms="1.3301031291484833e-01" purity="1.0000000000000000e+00" nType="-99"/>
            </Node>
          </Node>
          <Node pos="r" depth="2" NCoef="0" IVar="0" Cut="1.7942761230468750e+02" cType="1" res="3.9000857621431351e-02" rms="1.9629687070846558e-01" purity="1.0000000000000000e+00" nType="0">
            <Node pos="l" depth="3" NCoef="0" IVar="33" Cut="6.7798309326171875e+02" cType="1" res="6.5393052995204926e-02" rms="2.0745266973972321e-01" purity="1.0000000000000000e+00" nType="0">
              <Node pos="l" depth="4" NCoef="0" IVar="-1" Cut="0.0000000000000000e+00" cType="1" res="9.1728670522570610e-03" rms="1.6968436539173126e-01" purity="1.0000000000000000e+00" nType="-99"/>
              <Node pos="r" depth="4" NCoef="0" IVar="-1" Cut="0.0000000000000000e+00" cType="1" res="4.0146920830011368e-02" rms="2.5291630625724792e-01" purity="1.0000000000000000e+00" nType="-99"/>
            </Node>
            <Node pos="r" depth="3" NCoef="0" IVar="13" Cut="1.0265317535400391e+02" cType="1" res="-1.9046945497393608e-02" rms="1.5402704477310181e-01" purity="1.0000000000000000e+00" nType="0">
              <Node pos="l" depth="4" NCoef="0" IVar="-1" Cut="0.0000000000000000e+00" cType="1" res="1.7048988956958055e-03" rms="1.6473078727722168e-01" purity="1.0000000000000000e+00" nType="-99"/>
              <Node pos="r" depth="4" NCoef="0" IVar="-1" Cut="0.0000000000000000e+00" cType="1" res="-1.2171102687716484e-02" rms="1.4056774973869324e-01" purity="1.0000000000000000e+00" nType="-99"/>
            </Node>
          </Node>
        </Node>
        <Node pos="r" depth="1" NCoef="0" IVar="33" Cut="2.0479893798828125e+03" cType="1" res="2.3715491592884064e-01" rms="5.1048439741134644e-01" purity="1.0000000000000000e+00" nType="0">
          <Node pos="l" depth="2" NCoef="0" IVar="27" Cut="5.8162406250000000e+05" cType="1" res="2.0382054150104523e-01" rms="3.8624784350395203e-01" purity="1.0000000000000000e+00" nType="0">
            <Node pos="l" depth="3" NCoef="0" IVar="33" Cut="1.2256896972656250e+03" cType="1" res="3.2557457685470581e-01" rms="4.2851412296295166e-01" purity="1.0000000000000000e+00" nType="0">
              <Node pos="l" depth="4" NCoef="0" IVar="-1" Cut="0.0000000000000000e+00" cType="1" res="7.4322082102298737e-02" rms="3.2752320170402527e-01" purity="1.0000000000000000e+00" nType="-99"/>
              <Node pos="r" depth="4" NCoef="0" IVar="-1" Cut="0.0000000000000000e+00" cType="1" res="1.6717384755611420e-01" rms="5.8239400386810303e-01" purity="1.0000000000000000e+00" nType="-99"/>
            </Node>
            <Node pos="r" depth="3" NCoef="0" IVar="0" Cut="2.5219190979003906e+02" cType="1" res="8.3137653768062592e-02" rms="2.9290851950645447e-01" purity="1.0000000000000000e+00" nType="0">
              <Node pos="l" depth="4" NCoef="0" IVar="-1" Cut="0.0000000000000000e+00" cType="1" res="4.5799359679222107e-02" rms="3.3949002623558044e-01" purity="1.0000000000000000e+00" nType="-99"/>
              <Node pos="r" depth="4" NCoef="0" IVar="-1" Cut="0.0000000000000000e+00" cType="1" res="2.6926959399133921e-03" rms="2.0908659696578979e-01" purity="1.0000000000000000e+00" nType="-99"/>
            </Node>
          </Node>
          <Node pos="r" depth="2" NCoef="0" IVar="-1" Cut="0.0000000000000000e+00" cType="1" res="3.5407188534736633e-01" rms="1.5784919261932373e+00" purity="1.0000000000000000e+00" nType="-99"/>
        </Node>
      </Node>
    </BinaryTree>
    <BinaryTree type="DecisionTree" boostWeight="1.0000000000000000e+00" itree="3">
      <Node pos="s" depth="0" NCoef="0" IVar="33" Cut="1.2910791015625000e+03" cType="1" res="-5.5713966773396351e-10" rms="1.9407650828361511e-01" purity="1.0000000000000000e+00" nType="0">
        <Node pos="l" depth="1" NCoef="0" IVar="33" Cut="6.5946594238281250e+02" cType="1" res="-5.3562293760478497e-03" rms="1.6465510427951813e-01" purity="1.0000000000000000e+00" nType="0">
          <Node pos="l" depth="2" NCoef="0" IVar="33" Cut="4.3484817504882812e+02" cType="1" res="-2.1325279027223587e-02" rms="1.3328301906585693e-01" purity="1.0000000000000000e+00" nType="0">
            <Node pos="l" depth="3" NCoef="0" IVar="3" Cut="1.1325674438476562e+02" cType="1" res="-4.1183825582265854e-02" rms="1.1659579724073410e-01" purity="1.0000000000000000e+00" nType="0">
              <Node pos="l" depth="4" NCoef="0" IVar="-1" Cut="0.0000000000000000e+00" cType="1" res="-1.0414094664156437e-02" rms="1.1218654364347458e-01" purity="1.0000000000000000e+00" nType="-99"/>
              <Node pos="r" depth="4" NCoef="0" IVar="-1" Cut="0.0000000000000000e+00" cType="1" res="-2.2571768611669540e-02" rms="1.3237828016281128e-01" purity="1.0000000000000000e+00" nType="-99"/>
            </Node>
            <Node pos="r" depth="3" NCoef="0" IVar="17" Cut="5.3899482727050781e+01" cType="1" res="-4.5925084850750864e-04" rms="1.4593124389648438e-01" purity="1.0000000000000000e+00" nType="0">
              <Node pos="l" depth="4" NCoef="0" IVar="-1" Cut="0.0000000000000000e+00" cType="1" res="5.7711717672646046e-03" rms="1.5482944250106812e-01" purity="1.0000000000000000e+00" nType="-99"/>
              <Node pos="r" depth="4" NCoef="0" IVar="-1" Cut="0.0000000000000000e+00" cType="1" res="-5.8915694244205952e-03" rms="1.3395655155181885e-01" purity="1.0000000000000000e+00" nType="-99"/>
            </Node>
          </Node>
          <Node pos="r" depth="2" NCoef="0" IVar="27" Cut="3.1250775000000000e+05" cType="1" res="6.4705759286880493e-02" rms="2.4918310344219208e-01" purity="1.0000000000000000e+00" nType="0">
            <Node pos="l" depth="3" NCoef="0" IVar="33" Cut="8.0864178466796875e+02" cType="1" res="1.5425167977809906e-01" rms="2.7741611003875732e-01" purity="1.0000000000000000e+00" nType="0">
              <Node pos="l" depth="4" NCoef="0" IVar="-1" Cut="0.0000000000000000e+00" cType="1" res="2.9883500188589096e-02" rms="2.1968740224838257e-01" purity="1.0000000000000000e+00" nType="-99"/>
              <Node pos="r" depth="4" NCoef="0" IVar="-1" Cut="0.0000000000000000e+00" cType="1" res="7.8322790563106537e-02" rms="3.4031736850738525e-01" purity="1.0000000000000000e+00" nType="-99"/>
            </Node>
            <Node pos="r" depth="3" NCoef="0" IVar="13" Cut="1.3688041687011719e+02" cType="1" res="3.4258987754583359e-02" rms="2.3104910552501678e-01" purity="1.0000000000000000e+00" nType="0">
              <Node pos="l" depth="4" NCoef="0" IVar="-1" Cut="0.0000000000000000e+00" cType="1" res="2.2248907014727592e-02" rms="2.4233229458332062e-01" purity="1.0000000000000000e+00" nType="-99"/>
              <Node pos="r" depth="4" NCoef="0" IVar="-1" Cut="0.0000000000000000e+00" cType="1" res="-1.2231617001816630e-03" rms="2.1272721886634827e-01" purity="1.0000000000000000e+00" nType="-99"/>
            </Node>
          </Node>
        </Node>
        <Node pos="r" depth="1" NCoef="0" IVar="23" Cut="5.6255447387695312e+01" cType="1" res="3.5606166720390320e-01" rms="7.8140503168106079e-01" purity="1.0000000000000000e+00" nType="0">
          <Node pos="l" depth="2" NCoef="0" IVar="0" Cut="1.6826179504394531e+02" cType="1" res="7.4933397769927979e-01" rms="1.1092190742492676e+00" purity="1.0000000000000000e+00" nType="0">
            <Node pos="l" depth="3" NCoef="0" IVar="-1" Cut="0.0000000000000000e+00" cType="1" res="3.1821718811988831e-01" rms="1.4011648893356323e+00" purity="1.0000000000000000e+00" nType="-99"/>
            <Node pos="r" depth="3" NCoef="0" IVar="-1" Cut="0.0000000000000000e+00" cType="1" res="1.4104703068733215e-01" rms="6.3907325267791748e-01" purity="1.0000000000000000e+00" nType="-99"/>
          </Node>
          <Node pos="r" depth="2" NCoef="0" IVar="0" Cut="3.1682217407226562e+02" cType="1" res="1.6464595496654510e-01" rms="4.4386479258537292e-01" purity="1.0000000000000000e+00" nType="0">
            <Node pos="l" depth="3" NCoef="0" IVar="4" Cut="1.9528987407684326e+00" cType="1" res="2.9867526888847351e-01" rms="4.7079652547836304e-01" purity="1.0000000000000000e+00" nType="0">
              <Node pos="l" depth="4" NCoef="0" IVar="-1" Cut="0.0000000000000000e+00" cType="1" res="1.1883492767810822e-01" rms="4.9071586132049561e-01" purity="1.0000000000000000e+00" nType="-99"/>
              <Node pos="r" depth="4" NCoef="0" IVar="-1" Cut="0.0000000000000000e+00" cType="1" res="4.3318033218383789e-02" rms="3.9049708843231201e-01" purity="1.0000000000000000e+00" nType="-99"/>
            </Node>
            <Node pos="r" depth="3" NCoef="0" IVar="22" Cut="-1.9522559642791748e+00" cType="1" res="1.7083430429920554e-03" rms="3.4450304508209229e-01" purity="1.0000000000000000e+00" nType="0">
              <Node pos="l" depth="4" NCoef="0" IVar="-1" Cut="0.0000000000000000e+00" cType="1" res="-3.2358583062887192e-02" rms="3.7144687771797180e-01" purity="1.0000000000000000e+00" nType="-99"/>
              <Node pos="r" depth="4" NCoef="0" IVar="-1" Cut="0.0000000000000000e+00" cType="1" res="3.7492476403713226e-02" rms="2.6130366325378418e-01" purity="1.0000000000000000e+00" nType="-99"/>
            </Node>
          </Node>
        </Node>
      </Node>
    </BinaryTree>
    <BinaryTree type="DecisionTree" boostWeight="1.0000000000000000e+00" itree="4">
      <Node pos="s" depth="0" NCoef="0" IVar="33" Cut="1.6694973144531250e+03" cType="1" res="-2.8308455579661995e-10" rms="1.8539926409721375e-01" purity="1.0000000000000000e+00" nType="0">
        <Node pos="l" depth="1" NCoef="0" IVar="33" Cut="8.4370715332031250e+02" cType="1" res="-2.4869928602129221e-03" rms="1.6518270969390869e-01" purity="1.0000000000000000e+00" nType="0">
          <Node pos="l" depth="2" NCoef="0" IVar="33" Cut="4.6370413208007812e+02" cType="1" res="-1.0509621351957321e-02" rms="1.4342883229255676e-01" purity="1.0000000000000000e+00" nType="0">
            <Node pos="l" depth="3" NCoef="0" IVar="21" Cut="1.8232136964797974e+00" cType="1" res="-2.7020335197448730e-02" rms="1.1801270395517349e-01" purity="1.0000000000000000e+00" nType="0">
              <Node pos="l" depth="4" NCoef="0" IVar="-1" Cut="0.0000000000000000e+00" cType="1" res="-3.4659120719879866e-03" rms="1.0731102526187897e-01" purity="1.0000000000000000e+00" nType="-99"/>
              <Node pos="r" depth="4" NCoef="0" IVar="-1" Cut="0.0000000000000000e+00" cType="1" res="-1.1942110024392605e-02" rms="1.2473636865615845e-01" purity="1.0000000000000000e+00" nType="-99"/>
            </Node>
            <Node pos="r" depth="3" NCoef="0" IVar="0" Cut="1.5313639831542969e+02" cType="1" res="9.1532962396740913e-03" rms="1.6665533185005188e-01" purity="1.0000000000000000e+00" nType="0">
              <Node pos="l" depth="4" NCoef="0" IVar="-1" Cut="0.0000000000000000e+00" cType="1" res="7.6649016700685024e-03" rms="1.7481681704521179e-01" purity="1.0000000000000000e+00" nType="-99"/>
              <Node pos="r" depth="4" NCoef="0" IVar="-1" Cut="0.0000000000000000e+00" cType="1" res="-6.1249453574419022e-03" rms="1.4624899625778198e-01" purity="1.0000000000000000e+00" nType="-99"/>
            </Node>
          </Node>
          <Node pos="r" depth="2" NCoef="0" IVar="0" Cut="1.4546702575683594e+02" cType="1" res="8.9884534478187561e-02" rms="3.0872341990470886e-01" purity="1.0000000000000000e+00" nType="0">
            <Node pos="l" depth="3" NCoef="0" IVar="27" Cut="5.4282725000000000e+05" cType="1" res="1.9846360385417938e-01" rms="3.8694250583648682e-01" purity="1.0000000000000000e+00" nType="0">
              <Node pos="l" depth="4" NCoef="0" IVar="-1" Cut="0.0000000000000000e+00" cType="1" res="8.3925753831863403e-02" rms="3.9277043938636780e-01" purity="1.0000000000000000e+00" nType="-99"/>
              <Node pos="r" depth="4" NCoef="0" IVar="-1" Cut="0.0000000000000000e+00" cType="1" res="2.3845860734581947e-02" rms="3.4532073140144348e-01" purity="1.0000000000000000e+00" nType="-99"/>
            </Node>
            <Node pos="r" depth="3" NCoef="0" IVar="27" Cut="3.4193818750000000e+05" cType="1" res="4.3178297579288483e-02" rms="2.5426471233367920e-01" purity="1.0000000000000000e+00" nType="0">
              <Node pos="l" depth="4" NCoef="0" IVar="-1" Cut="0.0000000000000000e+00" cType="1" res="4.7755636274814606e-02" rms="3.3285799622535706e-01" purity="1.0000000000000000e+00" nType="-99"/>
              <Node pos="r" depth="4" NCoef="0" IVar="-1" Cut="0.0000000000000000e+00" cType="1" res="5.4287011735141277e-03" rms="2.2612957656383514e-01" purity="1.0000000000000000e+00" nType="-99"/>
            </Node>
          </Node>
        </Node>
        <Node pos="r" depth="1" NCoef="0" IVar="27" Cut="4.9124500000000000e+05" cType="1" res="4.5968592166900635e-01" rms="1.0639336109161377e+00" purity="1.0000000000000000e+00" nType="0">
          <Node pos="l" depth="2" NCoef="0" IVar="-1" Cut="0.0000000000000000e+00" cType="1" res="2.8257295489311218e-01" rms="1.3211073875427246e+00" purity="1.0000000000000000e+00" nType="-99"/>
          <Node pos="r" depth="2" NCoef="0" IVar="-1" Cut="0.0000000000000000e+00" cType="1" res="2.3023022338747978e-02" rms="5.5996227264404297e-01" purity="1.0000000000000000e+00" nType="-99"/>
        </Node>
      </Node>
    </BinaryTree>
    <BinaryTree type="DecisionTree" boostWeight="1.0000000000000000e+00" itree="5">
      <Node pos="s" depth="0" NCoef="0" IVar="33" Cut="2.0479156494140625e+03" cType="1" res="-2.2225816673215881e-11" rms="1.7943301796913147e-01" purity="1.0000000000000000e+00" nType="0">
        <Node pos="l" depth="1" NCoef="0" IVar="33" Cut="6.6178619384765625e+02" cType="1" res="-1.1947127059102058e-03" rms="1.6482771933078766e-01" purity="1.0000000000000000e+00" nType="0">
          <Node pos="l" depth="2" NCoef="0" IVar="33" Cut="3.7519519042968750e+02" cType="1" res="-1.1345649138092995e-02" rms="1.3083240389823914e-01" purity="1.0000000000000000e+00" nType="0">
            <Node pos="l" depth="3" NCoef="0" IVar="0" Cut="7.6886306762695312e+01" cType="1" res="-3.5134479403495789e-02" rms="1.0919393599033356e-01" purity="1.0000000000000000e+00" nType="0">
              <Node pos="l" depth="4" NCoef="0" IVar="-1" Cut="0.0000000000000000e+00" cType="1" res="-6.3897189684212208e-03" rms="9.9254913628101349e-02" purity="1.0000000000000000e+00" nType="-99"/>
              <Node pos="r" depth="4" NCoef="0" IVar="-1" Cut="0.0000000000000000e+00" cType="1" res="-1.7458051443099976e-02" rms="1.2052189558744431e-01" purity="1.0000000000000000e+00" nType="-99"/>
            </Node>
            <Node pos="r" depth="3" NCoef="0" IVar="21" Cut="3.1614439487457275e+00" cType="1" res="-5.6890211999416351e-03" rms="1.3485385477542877e-01" purity="1.0000000000000000e+00" nType="0">
              <Node pos="l" depth="4" NCoef="0" IVar="-1" Cut="0.0000000000000000e+00" cType="1" res="-4.3755260412581265e-04" rms="1.3275729119777679e-01" purity="1.0000000000000000e+00" nType="-99"/>
              <Node pos="r" depth="4" NCoef="0" IVar="-1" Cut="0.0000000000000000e+00" cType="1" res="-1.3108453713357449e-02" rms="1.4704009890556335e-01" purity="1.0000000000000000e+00" nType="-99"/>
            </Node>
          </Node>
          <Node pos="r" depth="2" NCoef="0" IVar="2" Cut="2.0952382087707520e+00" cType="1" res="4.1039109230041504e-02" rms="2.5840675830841064e-01" purity="1.0000000000000000e+00" nType="0">
            <Node pos="l" depth="3" NCoef="0" IVar="0" Cut="1.2734465789794922e+02" cType="1" res="3.4302279353141785e-02" rms="2.4954688549041748e-01" purity="1.0000000000000000e+00" nType="0">
              <Node pos="l" depth="4" NCoef="0" IVar="-1" Cut="0.0000000000000000e+00" cType="1" res="2.7566680684685707e-02" rms="3.0766960978507996e-01" purity="1.0000000000000000e+00" nType="-99"/>
              <Node pos="r" depth="4" NCoef="0" IVar="-1" Cut="0.0000000000000000e+00" cType="1" res="3.8637006655335426e-03" rms="2.2030086815357208e-01" purity="1.0000000000000000e+00" nType="-99"/>
            </Node>
            <Node pos="r" depth="3" NCoef="0" IVar="30" Cut="1.4982469379901886e-01" cType="1" res="2.6503875851631165e-01" rms="4.0586623549461365e-01" purity="1.0000000000000000e+00" nType="0">
              <Node pos="l" depth="4" NCoef="0" IVar="-1" Cut="0.0000000000000000e+00" cType="1" res="1.0752091556787491e-01" rms="4.2176842689514160e-01" purity="1.0000000000000000e+00" nType="-99"/>
              <Node pos="r" depth="4" NCoef="0" IVar="-1" Cut="0.0000000000000000e+00" cType="1" res="2.9582031071186066e-02" rms="3.1309372186660767e-01" purity="1.0000000000000000e+00" nType="-99"/>
            </Node>
          </Node>
        </Node>
        <Node pos="r" depth="1" NCoef="0" IVar="-1" Cut="0.0000000000000000e+00" cType="1" res="1.6893237829208374e-01" rms="1.4437146186828613e+00" purity="1.0000000000000000e+00" nType="-99"/>
      </Node>
    </BinaryTree>
    <BinaryTree type="DecisionTree" boostWeight="1.0000000000000000e+00" itree="6">
      <Node pos="s" depth="0" NCoef="0" IVar="33" Cut="1.1018698730468750e+03" cType="1" res="-2.8211705541125731e-11" rms="1.7660577595233917e-01" purity="1.0000000000000000e+00" nType="0">
        <Node pos="l" depth="1" NCoef="0" IVar="33" Cut="5.6114813232421875e+02" cType="1" res="-3.4584952518343925e-03" rms="1.5106509625911713e-01" purity="1.0000000000000000e+00" nType="0">
          <Node pos="l" depth="2" NCoef="0" IVar="3" Cut="1.3544920349121094e+02" cType="1" res="-1.1548530310392380e-02" rms="1.2327842414379120e-01" purity="1.0000000000000000e+00" nType="0">
            <Node pos="l" depth="3" NCoef="0" IVar="17" Cut="4.3676391601562500e+01" cType="1" res="-8.3719883114099503e-03" rms="1.2148293852806091e-01" purity="1.0000000000000000e+00" nType="0">
              <Node pos="l" depth="4" NCoef="0" IVar="-1" Cut="0.0000000000000000e+00" cType="1" res="1.3004258507862687e-03" rms="1.2921163439750671e-01" purity="1.0000000000000000e+00" nType="-99"/>
              <Node pos="r" depth="4" NCoef="0" IVar="-1" Cut="0.0000000000000000e+00" cType="1" res="-4.5882458798587322e-03" rms="1.1647629737854004e-01" purity="1.0000000000000000e+00" nType="-99"/>
            </Node>
            <Node pos="r" depth="3" NCoef="0" IVar="0" Cut="1.2649182128906250e+02" cType="1" res="-4.5003399252891541e-02" rms="1.3638351857662201e-01" purity="1.0000000000000000e+00" nType="0">
              <Node pos="l" depth="4" NCoef="0" IVar="-1" Cut="0.0000000000000000e+00" cType="1" res="-1.0156259872019291e-02" rms="1.3281302154064178e-01" purity="1.0000000000000000e+00" nType="-99"/>
              <Node pos="r" depth="4" NCoef="0" IVar="-1" Cut="0.0000000000000000e+00" cType="1" res="-2.7794640511274338e-02" rms="1.4109095931053162e-01" purity="1.0000000000000000e+00" nType="-99"/>
            </Node>
          </Node>
          <Node pos="r" depth="2" NCoef="0" IVar="27" Cut="2.8355353125000000e+05" cType="1" res="1.6043776646256447e-02" rms="2.0164121687412262e-01" purity="1.0000000000000000e+00" nType="0">
            <Node pos="l" depth="3" NCoef="0" IVar="21" Cut="3.4755396842956543e+00" cType="1" res="7.2732165455818176e-02" rms="2.1455346047878265e-01" purity="1.0000000000000000e+00" nType="0">
              <Node pos="l" depth="4" NCoef="0" IVar="-1" Cut="0.0000000000000000e+00" cType="1" res="2.5472378358244896e-02" rms="2.0913226902484894e-01" purity="1.0000000000000000e+00" nType="-99"/>
              <Node pos="r" depth="4" NCoef="0" IVar="-1" Cut="0.0000000000000000e+00" cType="1" res="-2.0432066172361374e-02" rms="2.2594510018825531e-01" purity="1.0000000000000000e+00" nType="-99"/>
            </Node>
            <Node pos="r" depth="3" NCoef="0" IVar="28" Cut="6.7521095275878906e-01" cType="1" res="-3.9527136832475662e-03" rms="1.9295103847980499e-01" purity="1.0000000000000000e+00" nType="0">
              <Node pos="l" depth="4" NCoef="0" IVar="-1" Cut="0.0000000000000000e+00" cType="1" res="-5.1297941245138645e-03" rms="1.8890884518623352e-01" purity="1.0000000000000000e+00" nType="-99"/>
              <Node pos="r" depth="4" NCoef="0" IVar="-1" Cut="0.0000000000000000e+00" cType="1" res="1.4401908032596111e-02" rms="1.9986949861049652e-01" purity="1.0000000000000000e+00" nType="-99"/>
            </Node>
          </Node>
        </Node>
        <Node pos="r" depth="1" NCoef="0" IVar="27" Cut="3.4918590625000000e+05" cType="1" res="1.1792076379060745e-01" rms="5.4974859952926636e-01" purity="1.0000000000000000e+00" nType="0">
          <Node pos="l" depth="2" NCoef="0" IVar="27" Cut="2.6345706250000000e+05" cType="1" res="3.6613786220550537e-01" rms="8.4469580650329590e-01" purity="1.0000000000000000e+00" nType="0">
            <Node pos="l" depth="3" NCoef="0" IVar="-1" Cut="0.0000000000000000e+00" cType="1" res="1.6817706823348999e-01" rms="1.0131782293319702e+00" purity="1.0000000000000000e+00" nType="-99"/>
            <Node pos="r" depth="3" NCoef="0" IVar="-1" Cut="0.0000000000000000e+00" cType="1" res="2.3504519835114479e-02" rms="3.3385422825813293e-01" purity="1.0000000000000000e+00" nType="-99"/>
          </Node>
          <Node pos="r" depth="2" NCoef="0" IVar="27" Cut="1.7467220000000000e+06" cType="1" res="5.8957319706678391e-02" rms="4.3175297975540161e-01" purity="1.0000000000000000e+00" nType="0">
            <Node pos="l" depth="3" NCoef="0" IVar="28" Cut="7.7355027198791504e-01" cType="1" res="9.1959334909915924e-02" rms="4.2189806699752808e-01" purity="1.0000000000000000e+00" nType="0">
              <Node pos="l" depth="4" NCoef="0" IVar="-1" Cut="0.0000000000000000e+00" cType="1" res="1.7525304108858109e-02" rms="3.8916060328483582e-01" purity="1.0000000000000000e+00" nType="-99"/>
              <Node pos="r" depth="4" NCoef="0" IVar="-1" Cut="0.0000000000000000e+00" cType="1" res="1.1395756900310516e-01" rms="5.5978578329086304e-01" purity="1.0000000000000000e+00" nType="-99"/>
            </Node>
            <Node pos="r" depth="3" NCoef="0" IVar="-1" Cut="0.0000000000000000e+00" cType="1" res="-5.5768914520740509e-02" rms="4.2519775032997131e-01" purity="1.0000000000000000e+00" nType="-99"/>
          </Node>
        </Node>
      </Node>
    </BinaryTree>
    <BinaryTree type="DecisionTree" boostWeight="1.0000000000000000e+00" itree="7">
      <Node pos="s" depth="0" NCoef="0" IVar="33" Cut="2.0479156494140625e+03" cType="1" res="-7.5144675204530387e-11" rms="1.7307622730731964e-01" purity="1.0000000000000000e+00" nType="0">
        <Node pos="l" depth="1" NCoef="0" IVar="33" Cut="8.2016259765625000e+02" cType="1" res="-7.5950595783069730e-04" rms="1.6001348197460175e-01" purity="1.0000000000000000e+00" nType="0">
          <Node pos="l" depth="2" NCoef="0" IVar="13" Cut="1.5755743408203125e+02" cType="1" res="-4.9564968794584274e-03" rms="1.3862544298171997e-01" purity="1.0000000000000000e+00" nType="0">
            <Node pos="l" depth="3" NCoef="0" IVar="33" Cut="4.5811737060546875e+02" cType="1" res="-1.8244521925225854e-03" rms="1.3801002502441406e-01" purity="1.0000000000000000e+00" nType="0">
              <Node pos="l" depth="4" NCoef="0" IVar="-1" Cut="0.0000000000000000e+00" cType="1" res="-3.3826837316155434e-03" rms="1.1581381410360336e-01" purity="1.0000000000000000e+00" nType="-99"/>
              <Node pos="r" depth="4" NCoef="0" IVar="-1" Cut="0.0000000000000000e+00" cType="1" res="3.2352395355701447e-03" rms="1.6212563216686249e-01" purity="1.0000000000000000e+00" nType="-99"/>
            </Node>
            <Node pos="r" depth="3" NCoef="0" IVar="17" Cut="1.5360922241210938e+02" cType="1" res="-3.8312952965497971e-02" rms="1.4075888693332672e-01" purity="1.0000000000000000e+00" nType="0">
              <Node pos="l" depth="4" NCoef="0" IVar="-1" Cut="0.0000000000000000e+00" cType="1" res="-9.5800049602985382e-03" rms="1.4084631204605103e-01" purity="1.0000000000000000e+00" nType="-99"/>
              <Node pos="r" depth="4" NCoef="0" IVar="-1" Cut="0.0000000000000000e+00" cType="1" res="-2.9230661690235138e-02" rms="1.2534844875335693e-01" purity="1.0000000000000000e+00" nType="-99"/>
            </Node>
          </Node>
          <Node pos="r" depth="2" NCoef="0" IVar="21" Cut="3.3811922073364258e+00" cType="1" res="4.1361905634403229e-02" rms="2.9623785614967346e-01" purity="1.0000000000000000e+00" nType="0">
            <Node pos="l" depth="3" NCoef="0" IVar="27" Cut="5.7832393750000000e+05" cType="1" res="6.5722361207008362e-02" rms="3.0621579289436340e-01" purity="1.0000000000000000e+00" nType="0">
              <Node pos="l" depth="4" NCoef="0" IVar="-1" Cut="0.0000000000000000e+00" cType="1" res="3.3792253583669662e-02" rms="3.3652269840240479e-01" purity="1.0000000000000000e+00" nType="-99"/>
              <Node pos="r" depth="4" NCoef="0" IVar="-1" Cut="0.0000000000000000e+00" cType="1" res="2.8493220452219248e-03" rms="2.5421613454818726e-01" purity="1.0000000000000000e+00" nType="-99"/>
            </Node>
            <Node pos="r" depth="3" NCoef="0" IVar="25" Cut="3.7240585937500000e+03" cType="1" res="-4.4275302439928055e-02" rms="2.3917549848556519e-01" purity="1.0000000000000000e+00" nType="0">
              <Node pos="l" depth="4" NCoef="0" IVar="-1" Cut="0.0000000000000000e+00" cType="1" res="-2.1795581560581923e-03" rms="2.4945300817489624e-01" purity="1.0000000000000000e+00" nType="-99"/>
              <Node pos="r" depth="4" NCoef="0" IVar="-1" Cut="0.0000000000000000e+00" cType="1" res="-3.1486403197050095e-02" rms="2.0746956765651703e-01" purity="1.0000000000000000e+00" nType="-99"/>
            </Node>
          </Node>
        </Node>
        <Node pos="r" depth="1" NCoef="0" IVar="-1" Cut="0.0000000000000000e+00" cType="1" res="1.0739412903785706e-01" rms="1.3972605466842651e+00" purity="1.0000000000000000e+00" nType="-99"/>
      </Node>
    </BinaryTree>
    <BinaryTree type="DecisionTree" boostWeight="1.0000000000000000e+00" itree="8">
      <Node pos="s" depth="0" NCoef="0" IVar="33" Cut="1.6694973144531250e+03" cType="1" res="-1.7587588330147952e-10" rms="1.7146182060241699e-01" purity="1.0000000000000000e+00" nType="0">
        <Node pos="l" depth="1" NCoef="0" IVar="21" Cut="3.3485367298126221e+00" cType="1" res="-9.1831339523196220e-04" rms="1.5612904727458954e-01" purity="1.0000000000000000e+00" nType="0">
          <Node pos="l" depth="2" NCoef="0" IVar="33" Cut="1.0307098388671875e+03" cType="1" res="2.3109174799174070e-03" rms="1.5416234731674194e-01" purity="1.0000000000000000e+00" nType="0">
            <Node pos="l" depth="3" NCoef="0" IVar="17" Cut="5.2808368682861328e+01" cType="1" res="4.1330866224598140e-05" rms="1.4452081918716431e-01" purity="1.0000000000000000e+00" nType="0">
              <Node pos="l" depth="4" NCoef="0" IVar="-1" Cut="0.0000000000000000e+00" cType="1" res="3.1191620510071516e-03" rms="1.4627248048782349e-01" purity="1.0000000000000000e+00" nType="-99"/>
              <Node pos="r" depth="4" NCoef="0" IVar="-1" Cut="0.0000000000000000e+00" cType="1" res="-3.2997641246765852e-03" rms="1.4179912209510803e-01" purity="1.0000000000000000e+00" nType="-99"/>
            </Node>
            <Node pos="r" depth="3" NCoef="0" IVar="27" Cut="8.3805950000000000e+05" cType="1" res="8.7893597781658173e-02" rms="3.5332548618316650e-01" purity="1.0000000000000000e+00" nType="0">
              <Node pos="l" depth="4" NCoef="0" IVar="-1" Cut="0.0000000000000000e+00" cType="1" res="3.9739258587360382e-02" rms="3.8295203447341919e-01" purity="1.0000000000000000e+00" nType="-99"/>
              <Node pos="r" depth="4" NCoef="0" IVar="-1" Cut="0.0000000000000000e+00" cType="1" res="-3.3987171482294798e-03" rms="2.4901941418647766e-01" purity="1.0000000000000000e+00" nType="-99"/>
            </Node>
          </Node>
          <Node pos="r" depth="2" NCoef="0" IVar="30" Cut="3.9449477195739746e-01" cType="1" res="-4.4070709496736526e-02" rms="1.7472729086875916e-01" purity="1.0000000000000000e+00" nType="0">
            <Node pos="l" depth="3" NCoef="0" IVar="29" Cut="4.1087751388549805e+00" cType="1" res="-6.6844724118709564e-02" rms="1.7610365152359009e-01" purity="1.0000000000000000e+00" nType="0">
              <Node pos="l" depth="4" NCoef="0" IVar="-1" Cut="0.0000000000000000e+00" cType="1" res="-1.1596553027629852e-02" rms="1.6012272238731384e-01" purity="1.0000000000000000e+00" nType="-99"/>
              <Node pos="r" depth="4" NCoef="0" IVar="-1" Cut="0.0000000000000000e+00" cType="1" res="-2.9459981247782707e-02" rms="1.8740884959697723e-01" purity="1.0000000000000000e+00" nType="-99"/>
            </Node>
            <Node pos="r" depth="3" NCoef="0" IVar="10" Cut="8.5461193323135376e-01" cType="1" res="-2.1004727110266685e-02" rms="1.7024458944797516e-01" purity="1.0000000000000000e+00" nType="0">
              <Node pos="l" depth="4" NCoef="0" IVar="-1" Cut="0.0000000000000000e+00" cType="1" res="4.0699160308577120e-04" rms="1.6727913916110992e-01" purity="1.0000000000000000e+00" nType="-99"/>
              <Node pos="r" depth="4" NCoef="0" IVar="-1" Cut="0.0000000000000000e+00" cType="1" res="-1.6805374994874001e-02" rms="1.6894251108169556e-01" purity="1.0000000000000000e+00" nType="-99"/>
            </Node>
          </Node>
        </Node>
        <Node pos="r" depth="1" NCoef="0" IVar="0" Cut="2.7492947387695312e+02" cType="1" res="1.6973739862442017e-01" rms="9.6376395225524902e-01" purity="1.0000000000000000e+00" nType="0">
          <Node pos="l" depth="2" NCoef="0" IVar="-1" Cut="0.0000000000000000e+00" cType="1" res="1.1959810554981232e-01" rms="1.1453119516372681e+00" purity="1.0000000000000000e+00" nType="-99"/>
          <Node pos="r" depth="2" NCoef="0" IVar="-1" Cut="0.0000000000000000e+00" cType="1" res="-4.7973487526178360e-02" rms="4.3969804048538208e-01" purity="1.0000000000000000e+00" nType="-99"/>
        </Node>
      </Node>
    </BinaryTree>
    <BinaryTree type="DecisionTree" boostWeight="1.0000000000000000e+00" itree="9">
      <Node pos="s" depth="0" NCoef="0" IVar="21" Cut="3.5844624042510986e+00" cType="1" res="-2.4519771629760712e-11" rms="1.6969303786754608e-01" purity="1.0000000000000000e+00" nType="0">
        <Node pos="l" depth="1" NCoef="0" IVar="33" Cut="1.8469584960937500e+03" cType="1" res="1.8427001778036356e-03" rms="1.6780206561088562e-01" purity="1.0000000000000000e+00" nType="0">
          <Node pos="l" depth="2" NCoef="0" IVar="33" Cut="7.7274029541015625e+02" cType="1" res="1.1581232538446784e-03" rms="1.5541858971118927e-01" purity="1.0000000000000000e+00" nType="0">
            <Node pos="l" depth="3" NCoef="0" IVar="32" Cut="-1.3645162582397461e+00" cType="1" res="-2.3822945076972246e-03" rms="1.3524685800075531e-01" purity="1.0000000000000000e+00" nType="0">
              <Node pos="l" depth="4" NCoef="0" IVar="-1" Cut="0.0000000000000000e+00" cType="1" res="1.1825784109532833e-02" rms="1.4345437288284302e-01" purity="1.0000000000000000e+00" nType="-99"/>
              <Node pos="r" depth="4" NCoef="0" IVar="-1" Cut="0.0000000000000000e+00" cType="1" res="-1.3022301718592644e-03" rms="1.3453191518783569e-01" purity="1.0000000000000000e+00" nType="-99"/>
            </Node>
            <Node pos="r" depth="3" NCoef="0" IVar="5" Cut="1.5973631286621094e+02" cType="1" res="3.2902143895626068e-02" rms="2.7496472001075745e-01" purity="1.0000000000000000e+00" nType="0">
              <Node pos="l" depth="4" NCoef="0" IVar="-1" Cut="0.0000000000000000e+00" cType="1" res="1.5057798475027084e-02" rms="2.9008823633193970e-01" purity="1.0000000000000000e+00" nType="-99"/>
              <Node pos="r" depth="4" NCoef="0" IVar="-1" Cut="0.0000000000000000e+00" cType="1" res="-1.2896629050374031e-02" rms="1.7614200711250305e-01" purity="1.0000000000000000e+00" nType="-99"/>
            </Node>
          </Node>
          <Node pos="r" depth="2" NCoef="0" IVar="-1" Cut="0.0000000000000000e+00" cType="1" res="8.6675234138965607e-02" rms="1.2743710279464722e+00" purity="1.0000000000000000e+00" nType="-99"/>
        </Node>
        <Node pos="r" depth="1" NCoef="0" IVar="9" Cut="9.5082824707031250e+01" cType="1" res="-4.9481254070997238e-02" rms="2.0831060409545898e-01" purity="1.0000000000000000e+00" nType="0">
          <Node pos="l" depth="2" NCoef="0" IVar="23" Cut="7.3808441162109375e+01" cType="1" res="-3.6753889173269272e-02" rms="1.9100464880466461e-01" purity="1.0000000000000000e+00" nType="0">
            <Node pos="l" depth="3" NCoef="0" IVar="26" Cut="4.6471234375000000e+04" cType="1" res="-7.3166772723197937e-02" rms="1.9832254946231842e-01" purity="1.0000000000000000e+00" nType="0">
              <Node pos="l" depth="4" NCoef="0" IVar="-1" Cut="0.0000000000000000e+00" cType="1" res="-2.9971560463309288e-02" rms="1.9563525915145874e-01" purity="1.0000000000000000e+00" nType="-99"/>
              <Node pos="r" depth="4" NCoef="0" IVar="-1" Cut="0.0000000000000000e+00" cType="1" res="-6.4244917593896389e-03" rms="1.9318094849586487e-01" purity="1.0000000000000000e+00" nType="-99"/>
            </Node>
            <Node pos="r" depth="3" NCoef="0" IVar="33" Cut="8.5365740966796875e+02" cType="1" res="-2.2375115659087896e-03" rms="1.7701379954814911e-01" purity="1.0000000000000000e+00" nType="0">
              <Node pos="l" depth="4" NCoef="0" IVar="-1" Cut="0.0000000000000000e+00" cType="1" res="-6.8077156320214272e-03" rms="1.2456888705492020e-01" purity="1.0000000000000000e+00" nType="-99"/>
              <Node pos="r" depth="4" NCoef="0" IVar="-1" Cut="0.0000000000000000e+00" cType="1" res="1.5010816976428032e-02" rms="2.6067602634429932e-01" purity="1.0000000000000000e+00" nType="-99"/>
            </Node>
          </Node>
          <Node pos="r" depth="2" NCoef="0" IVar="-1" Cut="0.0000000000000000e+00" cType="1" res="-5.8117419481277466e-02" rms="3.1475499272346497e-01" purity="1.0000000000000000e+00" nType="-99"/>
        </Node>
      </Node>
    </BinaryTree>
    <BinaryTree type="DecisionTree" boostWeight="1.0000000000000000e+00" itree="10">
      <Node pos="s" depth="0" NCoef="0" IVar="3" Cut="1.8150292968750000e+02" cType="1" res="-3.1659699167851940e-11" rms="1.6858655214309692e-01" purity="1.0000000000000000e+00" nType="0">
        <Node pos="l" depth="1" NCoef="0" IVar="33" Cut="1.4802882080078125e+03" cType="1" res="1.7629774520173669e-03" rms="1.6669982671737671e-01" purity="1.0000000000000000e+00" nType="0">
          <Node pos="l" depth="2" NCoef="0" IVar="33" Cut="3.9903442382812500e+02" cType="1" res="7.9318863572552800e-04" rms="1.5201149880886078e-01" purity="1.0000000000000000e+00" nType="0">
            <Node pos="l" depth="3" NCoef="0" IVar="0" Cut="1.1523304748535156e+02" cType="1" res="-1.2213212437927723e-02" rms="1.0980805009603500e-01" purity="1.0000000000000000e+00" nType="0">
              <Node pos="l" depth="4" NCoef="0" IVar="-1" Cut="0.0000000000000000e+00" cType="1" res="-2.4508517235517502e-03" rms="1.0647994279861450e-01" purity="1.0000000000000000e+00" nType="-99"/>
              <Node pos="r" depth="4" NCoef="0" IVar="-1" Cut="0.0000000000000000e+00" cType="1" res="-1.2963343411684036e-02" rms="1.2841181457042694e-01" purity="1.0000000000000000e+00" nType="-99"/>
            </Node>
            <Node pos="r" depth="3" NCoef="0" IVar="0" Cut="1.2562400817871094e+02" cType="1" res="5.8894585818052292e-03" rms="1.6536268591880798e-01" purity="1.0000000000000000e+00" nType="0">
              <Node pos="l" depth="4" NCoef="0" IVar="-1" Cut="0.0000000000000000e+00" cType="1" res="5.2852807566523552e-03" rms="1.6412444412708282e-01" purity="1.0000000000000000e+00" nType="-99"/>
              <Node pos="r" depth="4" NCoef="0" IVar="-1" Cut="0.0000000000000000e+00" cType="1" res="-2.3448541760444641e-03" rms="1.6574981808662415e-01" purity="1.0000000000000000e+00" nType="-99"/>
            </Node>
          </Node>
          <Node pos="r" depth="2" NCoef="0" IVar="13" Cut="9.9753082275390625e+01" cType="1" res="1.3348454236984253e-01" rms="8.0383634567260742e-01" purity="1.0000000000000000e+00" nType="0">
            <Node pos="l" depth="3" NCoef="0" IVar="-1" Cut="0.0000000000000000e+00" cType="1" res="1.3154369592666626e-01" rms="1.1224249601364136e+00" purity="1.0000000000000000e+00" nType="-99"/>
            <Node pos="r" depth="3" NCoef="0" IVar="17" Cut="5.9507396697998047e+01" cType="1" res="-3.0743237584829330e-02" rms="4.8851591348648071e-01" purity="1.0000000000000000e+00" nType="0">
              <Node pos="l" depth="4" NCoef="0" IVar="-1" Cut="0.0000000000000000e+00" cType="1" res="-6.5603479743003845e-02" rms="4.6586775779724121e-01" purity="1.0000000000000000e+00" nType="-99"/>
              <Node pos="r" depth="4" NCoef="0" IVar="-1" Cut="0.0000000000000000e+00" cType="1" res="3.9103180170059204e-02" rms="4.4827666878700256e-01" purity="1.0000000000000000e+00" nType="-99"/>
            </Node>
          </Node>
        </Node>
        <Node pos="r" depth="1" NCoef="0" IVar="27" Cut="1.0734792500000000e+06" cType="1" res="-4.9480900168418884e-02" rms="2.0890340209007263e-01" purity="1.0000000000000000e+00" nType="0">
          <Node pos="l" depth="2" NCoef="0" IVar="11" Cut="2.5283331871032715e+00" cType="1" res="-3.6640234291553497e-02" rms="1.7710821330547333e-01" purity="1.0000000000000000e+00" nType="0">
            <Node pos="l" depth="3" NCoef="0" IVar="33" Cut="1.1046196289062500e+03" cType="1" res="-2.7129359543323517e-02" rms="1.7847010493278503e-01" purity="1.0000000000000000e+00" nType="0">
              <Node pos="l" depth="4" NCoef="0" IVar="-1" Cut="0.0000000000000000e+00" cType="1" res="-1.0798078030347824e-02" rms="1.5084911882877350e-01" purity="1.0000000000000000e+00" nType="-99"/>
              <Node pos="r" depth="4" NCoef="0" IVar="-1" Cut="0.0000000000000000e+00" cType="1" res="2.0397204905748367e-02" rms="3.4578740596771240e-01" purity="1.0000000000000000e+00" nType="-99"/>
            </Node>
            <Node pos="r" depth="3" NCoef="0" IVar="-1" Cut="0.0000000000000000e+00" cType="1" res="-3.9064493030309677e-02" rms="1.3021774590015411e-01" purity="1.0000000000000000e+00" nType="-99"/>
          </Node>
          <Node pos="r" depth="2" NCoef="0" IVar="4" Cut="-4.3454271554946899e-01" cType="1" res="-1.2937836349010468e-01" rms="3.3555677533149719e-01" purity="1.0000000000000000e+00" nType="0">
            <Node pos="l" depth="3" NCoef="0" IVar="-1" Cut="0.0000000000000000e+00" cType="1" res="-9.4762742519378662e-03" rms="2.9766580462455750e-01" purity="1.0000000000000000e+00" nType="-99"/>
            <Node pos="r" depth="3" NCoef="0" IVar="-1" Cut="0.0000000000000000e+00" cType="1" res="-6.4104229211807251e-02" rms="3.4341147541999817e-01" purity="1.0000000000000000e+00" nType="-99"/>
          </Node>
        </Node>
      </Node>
    </BinaryTree>
    <BinaryTree type="DecisionTree" boostWeight="1.0000000000000000e+00" itree="11">
      <Node pos="s" depth="0" NCoef="0" IVar="13" Cut="1.3611546325683594e+02" cType="1" res="5.1431057329631713e-11" rms="1.6701427102088928e-01" purity="1.0000000000000000e+00" nType="0">
        <Node pos="l" depth="1" NCoef="0" IVar="33" Cut="1.6592178955078125e+03" cType="1" res="4.3024518527090549e-03" rms="1.6302536427974701e-01" purity="1.0000000000000000e+00" nType="0">
          <Node pos="l" depth="2" NCoef="0" IVar="33" Cut="5.9437023925781250e+02" cType="1" res="3.5012222360819578e-03" rms="1.4914210140705109e-01" purity="1.0000000000000000e+00" nType="0">
            <Node pos="l" depth="3" NCoef="0" IVar="27" Cut="1.4576156250000000e+05" cType="1" res="-2.0780849736183882e-03" rms="1.2308306246995926e-01" purity="1.0000000000000000e+00" nType="0">
              <Node pos="l" depth="4" NCoef="0" IVar="-1" Cut="0.0000000000000000e+00" cType="1" res="3.5521413665264845e-03" rms="1.2025278806686401e-01" purity="1.0000000000000000e+00" nType="-99"/>
              <Node pos="r" depth="4" NCoef="0" IVar="-1" Cut="0.0000000000000000e+00" cType="1" res="-2.4703573435544968e-03" rms="1.2381631135940552e-01" purity="1.0000000000000000e+00" nType="-99"/>
            </Node>
            <Node pos="r" depth="3" NCoef="0" IVar="28" Cut="-7.1946644783020020e-01" cType="1" res="2.7095528319478035e-02" rms="2.2705616056919098e-01" purity="1.0000000000000000e+00" nType="0">
              <Node pos="l" depth="4" NCoef="0" IVar="-1" Cut="0.0000000000000000e+00" cType="1" res="3.4496646374464035e-02" rms="2.4220195412635803e-01" purity="1.0000000000000000e+00" nType="-99"/>
              <Node pos="r" depth="4" NCoef="0" IVar="-1" Cut="0.0000000000000000e+00" cType="1" res="4.0388591587543488e-03" rms="2.2151310741901398e-01" purity="1.0000000000000000e+00" nType="-99"/>
            </Node>
          </Node>
          <Node pos="r" depth="2" NCoef="0" IVar="-1" Cut="0.0000000000000000e+00" cType="1" res="7.5236216187477112e-02" rms="1.1396832466125488e+00" purity="1.0000000000000000e+00" nType="-99"/>
        </Node>
        <Node pos="r" depth="1" NCoef="0" IVar="2" Cut="2.0952382087707520e+00" cType="1" res="-1.9179780036211014e-02" rms="1.8251617252826691e-01" purity="1.0000000000000000e+00" nType="0">
          <Node pos="l" depth="2" NCoef="0" IVar="33" Cut="1.6749154052734375e+03" cType="1" res="-2.2732313722372055e-02" rms="1.7528757452964783e-01" purity="1.0000000000000000e+00" nType="0">
            <Node pos="l" depth="3" NCoef="0" IVar="32" Cut="-1.5208202600479126e+00" cType="1" res="-2.0434472709894180e-02" rms="1.6526441276073456e-01" purity="1.0000000000000000e+00" nType="0">
              <Node pos="l" depth="4" NCoef="0" IVar="-1" Cut="0.0000000000000000e+00" cType="1" res="2.8044283390045166e-02" rms="1.4263276755809784e-01" purity="1.0000000000000000e+00" nType="-99"/>
              <Node pos="r" depth="4" NCoef="0" IVar="-1" Cut="0.0000000000000000e+00" cType="1" res="-6.8155913613736629e-03" rms="1.6488368809223175e-01" purity="1.0000000000000000e+00" nType="-99"/>
            </Node>
            <Node pos="r" depth="3" NCoef="0" IVar="-1" Cut="0.0000000000000000e+00" cType="1" res="-5.5665224790573120e-02" rms="4.9568727612495422e-01" purity="1.0000000000000000e+00" nType="-99"/>
          </Node>
          <Node pos="r" depth="2" NCoef="0" IVar="33" Cut="7.1365979003906250e+02" cType="1" res="9.0784795582294464e-02" rms="3.1763011217117310e-01" purity="1.0000000000000000e+00" nType="0">
            <Node pos="l" depth="3" NCoef="0" IVar="-1" Cut="0.0000000000000000e+00" cType="1" res="2.9682980384677649e-03" rms="1.6232889890670776e-01" purity="1.0000000000000000e+00" nType="-99"/>
            <Node pos="r" depth="3" NCoef="0" IVar="-1" Cut="0.0000000000000000e+00" cType="1" res="6.1389192938804626e-02" rms="4.2851442098617554e-01" purity="1.0000000000000000e+00" nType="-99"/>
          </Node>
        </Node>
      </Node>
    </BinaryTree>
    <BinaryTree type="DecisionTree" boostWeight="1.0000000000000000e+00" itree="12">
      <Node pos="s" depth="0" NCoef="0" IVar="0" Cut="2.8283395385742188e+02" cType="1" res="-2.6420957435768777e-11" rms="1.6574169695377350e-01" purity="1.0000000000000000e+00" nType="0">
        <Node pos="l" depth="1" NCoef="0" IVar="33" Cut="1.6592178955078125e+03" cType="1" res="1.7283341148868203e-03" rms="1.6431328654289246e-01" purity="1.0000000000000000e+00" nType="0">
          <Node pos="l" depth="2" NCoef="0" IVar="30" Cut="-2.6658830046653748e-01" cType="1" res="1.0761485900729895e-03" rms="1.5211908519268036e-01" purity="1.0000000000000000e+00" nType="0">
            <Node pos="l" depth="3" NCoef="0" IVar="13" Cut="2.6888391113281250e+02" cType="1" res="-1.9999580457806587e-02" rms="1.5692299604415894e-01" purity="1.0000000000000000e+00" nType="0">
              <Node pos="l" depth="4" NCoef="0" IVar="-1" Cut="0.0000000000000000e+00" cType="1" res="-5.1940102130174637e-03" rms="1.5524613857269287e-01" purity="1.0000000000000000e+00" nType="-99"/>
              <Node pos="r" depth="4" NCoef="0" IVar="-1" Cut="0.0000000000000000e+00" cType="1" res="-5.0840459764003754e-02" rms="1.7609491944313049e-01" purity="1.0000000000000000e+00" nType="-99"/>
            </Node>
            <Node pos="r" depth="3" NCoef="0" IVar="33" Cut="7.8137292480468750e+02" cType="1" res="4.6634105965495110e-03" rms="1.5099354088306427e-01" purity="1.0000000000000000e+00" nType="0">
              <Node pos="l" depth="4" NCoef="0" IVar="-1" Cut="0.0000000000000000e+00" cType="1" res="4.2531135841272771e-04" rms="1.3317586481571198e-01" purity="1.0000000000000000e+00" nType="-99"/>
              <Node pos="r" depth="4" NCoef="0" IVar="-1" Cut="0.0000000000000000e+00" cType="1" res="1.2087324634194374e-02" rms="2.7747532725334167e-01" purity="1.0000000000000000e+00" nType="-99"/>
            </Node>
          </Node>
          <Node pos="r" depth="2" NCoef="0" IVar="-1" Cut="0.0000000000000000e+00" cType="1" res="5.9780426323413849e-02" rms="1.0754475593566895e+00" purity="1.0000000000000000e+00" nType="-99"/>
        </Node>
        <Node pos="r" depth="1" NCoef="0" IVar="33" Cut="1.5533896484375000e+03" cType="1" res="-4.7747410833835602e-02" rms="1.9527542591094971e-01" purity="1.0000000000000000e+00" nType="0">
          <Node pos="l" depth="2" NCoef="0" IVar="33" Cut="1.1976412353515625e+03" cType="1" res="-3.8814898580312729e-02" rms="1.5867771208286285e-01" purity="1.0000000000000000e+00" nType="0">
            <Node pos="l" depth="3" NCoef="0" IVar="7" Cut="2.2247478961944580e+00" cType="1" res="-5.1234342157840729e-02" rms="1.4895977079868317e-01" purity="1.0000000000000000e+00" nType="0">
              <Node pos="l" depth="4" NCoef="0" IVar="-1" Cut="0.0000000000000000e+00" cType="1" res="-1.2555490247905254e-02" rms="1.4566549658775330e-01" purity="1.0000000000000000e+00" nType="-99"/>
              <Node pos="r" depth="4" NCoef="0" IVar="-1" Cut="0.0000000000000000e+00" cType="1" res="-3.1830839812755585e-02" rms="1.5601091086864471e-01" purity="1.0000000000000000e+00" nType="-99"/>
            </Node>
            <Node pos="r" depth="3" NCoef="0" IVar="12" Cut="3.9297115057706833e-02" cType="1" res="3.9427600800991058e-02" rms="1.9214451313018799e-01" purity="1.0000000000000000e+00" nType="0">
              <Node pos="l" depth="4" NCoef="0" IVar="-1" Cut="0.0000000000000000e+00" cType="1" res="-1.0433494113385677e-02" rms="1.8293733894824982e-01" purity="1.0000000000000000e+00" nType="-99"/>
              <Node pos="r" depth="4" NCoef="0" IVar="-1" Cut="0.0000000000000000e+00" cType="1" res="3.5945203155279160e-02" rms="1.6802629828453064e-01" purity="1.0000000000000000e+00" nType="-99"/>
            </Node>
          </Node>
          <Node pos="r" depth="2" NCoef="0" IVar="-1" Cut="0.0000000000000000e+00" cType="1" res="-4.5876167714595795e-02" rms="4.2267373204231262e-01" purity="1.0000000000000000e+00" nType="-99"/>
        </Node>
      </Node>
    </BinaryTree>
    <BinaryTree type="DecisionTree" boostWeight="1.0000000000000000e+00" itree="13">
      <Node pos="s" depth="0" NCoef="0" IVar="0" Cut="2.3028791809082031e+02" cType="1" res="4.0917592231126676e-11" rms="1.6491571068763733e-01" purity="1.0000000000000000e+00" nType="0">
        <Node pos="l" depth="1" NCoef="0" IVar="33" Cut="5.3277398681640625e+02" cType="1" res="2.1962444297969341e-03" rms="1.6382843255996704e-01" purity="1.0000000000000000e+00" nType="0">
          <Node pos="l" depth="2" NCoef="0" IVar="29" Cut="2.3850710391998291e+00" cType="1" res="-3.8965072017163038e-03" rms="1.1955231428146362e-01" purity="1.0000000000000000e+00" nType="0">
            <Node pos="l" depth="3" NCoef="0" IVar="27" Cut="1.8665584375000000e+05" cType="1" res="7.9788696020841599e-03" rms="1.0796083509922028e-01" purity="1.0000000000000000e+00" nType="0">
              <Node pos="l" depth="4" NCoef="0" IVar="-1" Cut="0.0000000000000000e+00" cType="1" res="5.1124836318194866e-03" rms="1.0494905710220337e-01" purity="1.0000000000000000e+00" nType="-99"/>
              <Node pos="r" depth="4" NCoef="0" IVar="-1" Cut="0.0000000000000000e+00" cType="1" res="-6.5130349248647690e-03" rms="1.1227509379386902e-01" purity="1.0000000000000000e+00" nType="-99"/>
            </Node>
            <Node pos="r" depth="3" NCoef="0" IVar="29" Cut="5.9063482284545898e+00" cType="1" res="-8.2829687744379044e-03" rms="1.2327020615339279e-01" purity="1.0000000000000000e+00" nType="0">
              <Node pos="l" depth="4" NCoef="0" IVar="-1" Cut="0.0000000000000000e+00" cType="1" res="-3.1470016110688448e-03" rms="1.2379524111747742e-01" purity="1.0000000000000000e+00" nType="-99"/>
              <Node pos="r" depth="4" NCoef="0" IVar="-1" Cut="0.0000000000000000e+00" cType="1" res="8.0896001309156418e-03" rms="1.0864428430795670e-01" purity="1.0000000000000000e+00" nType="-99"/>
            </Node>
          </Node>
          <Node pos="r" depth="2" NCoef="0" IVar="13" Cut="8.3896591186523438e+01" cType="1" res="1.5382515266537666e-02" rms="2.3181985318660736e-01" purity="1.0000000000000000e+00" nType="0">
            <Node pos="l" depth="3" NCoef="0" IVar="0" Cut="1.1020705413818359e+02" cType="1" res="5.3453452885150909e-02" rms="2.8884443640708923e-01" purity="1.0000000000000000e+00" nType="0">
              <Node pos="l" depth="4" NCoef="0" IVar="-1" Cut="0.0000000000000000e+00" cType="1" res="3.9607174694538116e-02" rms="3.8411152362823486e-01" purity="1.0000000000000000e+00" nType="-99"/>
              <Node pos="r" depth="4" NCoef="0" IVar="-1" Cut="0.0000000000000000e+00" cType="1" res="8.5041988641023636e-03" rms="2.4564719200134277e-01" purity="1.0000000000000000e+00" nType="-99"/>
            </Node>
            <Node pos="r" depth="3" NCoef="0" IVar="2" Cut="2.0952382087707520e+00" cType="1" res="3.3466021995991468e-03" rms="2.0916697382926941e-01" purity="1.0000000000000000e+00" nType="0">
              <Node pos="l" depth="4" NCoef="0" IVar="-1" Cut="0.0000000000000000e+00" cType="1" res="8.1463462265674025e-05" rms="2.0388548076152802e-01" purity="1.0000000000000000e+00" nType="-99"/>
              <Node pos="r" depth="4" NCoef="0" IVar="-1" Cut="0.0000000000000000e+00" cType="1" res="3.0284915119409561e-02" rms="3.2119584083557129e-01" purity="1.0000000000000000e+00" nType="-99"/>
            </Node>
          </Node>
        </Node>
        <Node pos="r" depth="1" NCoef="0" IVar="23" Cut="5.7093009948730469e+01" cType="1" res="-2.7548827230930328e-02" rms="1.7567384243011475e-01" purity="1.0000000000000000e+00" nType="0">
          <Node pos="l" depth="2" NCoef="0" IVar="33" Cut="9.7585260009765625e+02" cType="1" res="-1.1366490274667740e-01" rms="1.9895434379577637e-01" purity="1.0000000000000000e+00" nType="0">
            <Node pos="l" depth="3" NCoef="0" IVar="-1" Cut="0.0000000000000000e+00" cType="1" res="-1.7113609239459038e-02" rms="1.3669463992118835e-01" purity="1.0000000000000000e+00" nType="-99"/>
            <Node pos="r" depth="3" NCoef="0" IVar="-1" Cut="0.0000000000000000e+00" cType="1" res="-5.0499614328145981e-02" rms="2.3168063163757324e-01" purity="1.0000000000000000e+00" nType="-99"/>
          </Node>
          <Node pos="r" depth="2" NCoef="0" IVar="23" Cut="7.0597381591796875e+01" cType="1" res="-2.1255729719996452e-02" rms="1.7216973006725311e-01" purity="1.0000000000000000e+00" nType="0">
            <Node pos="l" depth="3" NCoef="0" IVar="33" Cut="1.0494868164062500e+03" cType="1" res="2.5487815961241722e-02" rms="2.1175551414489746e-01" purity="1.0000000000000000e+00" nType="0">
              <Node pos="l" depth="4" NCoef="0" IVar="-1" Cut="0.0000000000000000e+00" cType="1" res="-4.3235118500888348e-03" rms="1.4464372396469116e-01" purity="1.0000000000000000e+00" nType="-99"/>
              <Node pos="r" depth="4" NCoef="0" IVar="-1" Cut="0.0000000000000000e+00" cType="1" res="3.3638034015893936e-02" rms="2.9294154047966003e-01" purity="1.0000000000000000e+00" nType="-99"/>
            </Node>
            <Node pos="r" depth="3" NCoef="0" IVar="12" Cut="-5.5104520171880722e-02" cType="1" res="-2.9011385515332222e-02" rms="1.6339553892612457e-01" purity="1.0000000000000000e+00" nType="0">
              <Node pos="l" depth="4" NCoef="0" IVar="-1" Cut="0.0000000000000000e+00" cType="1" res="-3.3760067075490952e-02" rms="1.5791557729244232e-01" purity="1.0000000000000000e+00" nType="-99"/>
              <Node pos="r" depth="4" NCoef="0" IVar="-1" Cut="0.0000000000000000e+00" cType="1" res="-6.6794534213840961e-03" rms="1.6196088492870331e-01" purity="1.0000000000000000e+00" nType="-99"/>
            </Node>
          </Node>
        </Node>
      </Node>
    </BinaryTree>
    <BinaryTree type="DecisionTree" boostWeight="1.0000000000000000e+00" itree="14">
      <Node pos="s" depth="0" NCoef="0" IVar="28" Cut="9.4325768947601318e-01" cType="1" res="3.2653213466460329e-11" rms="1.6377207636833191e-01" purity="1.0000000000000000e+00" nType="0">
        <Node pos="l" depth="1" NCoef="0" IVar="28" Cut="-6.5826398134231567e-01" cType="1" res="-2.5468731764703989e-03" rms="1.6431260108947754e-01" purity="1.0000000000000000e+00" nType="0">
          <Node pos="l" depth="2" NCoef="0" IVar="33" Cut="1.2843476562500000e+03" cType="1" res="1.4020259492099285e-02" rms="1.5936908125877380e-01" purity="1.0000000000000000e+00" nType="0">
            <Node pos="l" depth="3" NCoef="0" IVar="33" Cut="4.3231414794921875e+02" cType="1" res="1.1541219428181648e-02" rms="1.4688821136951447e-01" purity="1.0000000000000000e+00" nType="0">
              <Node pos="l" depth="4" NCoef="0" IVar="-1" Cut="0.0000000000000000e+00" cType="1" res="-2.5058307219296694e-03" rms="1.1385542899370193e-01" purity="1.0000000000000000e+00" nType="-99"/>
              <Node pos="r" depth="4" NCoef="0" IVar="-1" Cut="0.0000000000000000e+00" cType="1" res="8.3429003134369850e-03" rms="1.6742536425590515e-01" purity="1.0000000000000000e+00" nType="-99"/>
            </Node>
            <Node pos="r" depth="3" NCoef="0" IVar="-1" Cut="0.0000000000000000e+00" cType="1" res="7.9676672816276550e-02" rms="5.9107893705368042e-01" purity="1.0000000000000000e+00" nType="-99"/>
          </Node>
          <Node pos="r" depth="2" NCoef="0" IVar="29" Cut="3.6524183750152588e+00" cType="1" res="-7.5672809034585953e-03" rms="1.6545435786247253e-01" purity="1.0000000000000000e+00" nType="0">
            <Node pos="l" depth="3" NCoef="0" IVar="27" Cut="4.4078031250000000e+05" cType="1" res="1.2303256662562490e-03" rms="1.5376082062721252e-01" purity="1.0000000000000000e+00" nType="0">
              <Node pos="l" depth="4" NCoef="0" IVar="-1" Cut="0.0000000000000000e+00" cType="1" res="1.4132630312815309e-03" rms="1.5307670831680298e-01" purity="1.0000000000000000e+00" nType="-99"/>
              <Node pos="r" depth="4" NCoef="0" IVar="-1" Cut="0.0000000000000000e+00" cType="1" res="-1.1362529359757900e-02" rms="1.5599831938743591e-01" purity="1.0000000000000000e+00" nType="-99"/>
            </Node>
            <Node pos="r" depth="3" NCoef="0" IVar="33" Cut="1.4808022460937500e+03" cType="1" res="-3.9092469960451126e-02" rms="1.9869537651538849e-01" purity="1.0000000000000000e+00" nType="0">
              <Node pos="l" depth="4" NCoef="0" IVar="-1" Cut="0.0000000000000000e+00" cType="1" res="-1.0700089856982231e-02" rms="1.8520262837409973e-01" purity="1.0000000000000000e+00" nType="-99"/>
              <Node pos="r" depth="4" NCoef="0" IVar="-1" Cut="0.0000000000000000e+00" cType="1" res="-5.6592833250761032e-02" rms="4.9268969893455505e-01" purity="1.0000000000000000e+00" nType="-99"/>
            </Node>
          </Node>
        </Node>
        <Node pos="r" depth="1" NCoef="0" IVar="33" Cut="8.2656823730468750e+02" cType="1" res="2.1492555737495422e-02" rms="1.5750595927238464e-01" purity="1.0000000000000000e+00" nType="0">
          <Node pos="l" depth="2" NCoef="0" IVar="30" Cut="1.3751255273818970e+00" cType="1" res="1.4670054428279400e-02" rms="1.3029029965400696e-01" purity="1.0000000000000000e+00" nType="0">
            <Node pos="l" depth="3" NCoef="0" IVar="17" Cut="1.0607136535644531e+02" cType="1" res="1.8996803089976311e-02" rms="1.2607413530349731e-01" purity="1.0000000000000000e+00" nType="0">
              <Node pos="l" depth="4" NCoef="0" IVar="-1" Cut="0.0000000000000000e+00" cType="1" res="6.9010793231427670e-03" rms="1.2543305754661560e-01" purity="1.0000000000000000e+00" nType="-99"/>
              <Node pos="r" depth="4" NCoef="0" IVar="-1" Cut="0.0000000000000000e+00" cType="1" res="-1.6090631484985352e-02" rms="1.1511300504207611e-01" purity="1.0000000000000000e+00" nType="-99"/>
            </Node>
            <Node pos="r" depth="3" NCoef="0" IVar="10" Cut="7.9226928949356079e-01" cType="1" res="-5.5356714874505997e-02" rms="1.7106233537197113e-01" purity="1.0000000000000000e+00" nType="0">
              <Node pos="l" depth="4" NCoef="0" IVar="-1" Cut="0.0000000000000000e+00" cType="1" res="-3.2796613872051239e-02" rms="1.3861879706382751e-01" purity="1.0000000000000000e+00" nType="-99"/>
              <Node pos="r" depth="4" NCoef="0" IVar="-1" Cut="0.0000000000000000e+00" cType="1" res="-1.8459091661497951e-03" rms="1.8261069059371948e-01" purity="1.0000000000000000e+00" nType="-99"/>
            </Node>
          </Node>
          <Node pos="r" depth="2" NCoef="0" IVar="27" Cut="7.2170081250000000e+05" cType="1" res="1.1221557855606079e-01" rms="3.4657320380210876e-01" purity="1.0000000000000000e+00" nType="0">
            <Node pos="l" depth="3" NCoef="0" IVar="-1" Cut="0.0000000000000000e+00" cType="1" res="1.1390038579702377e-01" rms="3.5493826866149902e-01" purity="1.0000000000000000e+00" nType="-99"/>
            <Node pos="r" depth="3" NCoef="0" IVar="13" Cut="1.7183111572265625e+02" cType="1" res="5.2346307784318924e-03" rms="2.7876240015029907e-01" purity="1.0000000000000000e+00" nType="0">
              <Node pos="l" depth="4" NCoef="0" IVar="-1" Cut="0.0000000000000000e+00" cType="1" res="2.5192745029926300e-02" rms="2.6901361346244812e-01" purity="1.0000000000000000e+00" nType="-99"/>
              <Node pos="r" depth="4" NCoef="0" IVar="-1" Cut="0.0000000000000000e+00" cType="1" res="-2.3681093007326126e-02" rms="2.6401567459106445e-01" purity="1.0000000000000000e+00" nType="-99"/>
            </Node>
          </Node>
        </Node>
      </Node>
    </BinaryTree>
    <BinaryTree type="DecisionTree" boostWeight="1.0000000000000000e+00" itree="15">
      <Node pos="s" depth="0" NCoef="0" IVar="17" Cut="4.3414695739746094e+01" cType="1" res="1.1952053236008453e-10" rms="1.6212868690490723e-01" purity="1.0000000000000000e+00" nType="0">
        <Node pos="l" depth="1" NCoef="0" IVar="33" Cut="1.4715502929687500e+03" cType="1" res="1.0445016436278820e-02" rms="1.8482464551925659e-01" purity="1.0000000000000000e+00" nType="0">
          <Node pos="l" depth="2" NCoef="0" IVar="33" Cut="5.0493936157226562e+02" cType="1" res="8.7974919006228447e-03" rms="1.5538893640041351e-01" purity="1.0000000000000000e+00" nType="0">
            <Node pos="l" depth="3" NCoef="0" IVar="0" Cut="1.1765141296386719e+02" cType="1" res="-9.9449686240404844e-04" rms="1.2253800034523010e-01" purity="1.0000000000000000e+00" nType="0">
              <Node pos="l" depth="4" NCoef="0" IVar="-1" Cut="0.0000000000000000e+00" cType="1" res="1.9479652401059866e-03" rms="1.1899113655090332e-01" purity="1.0000000000000000e+00" nType="-99"/>
              <Node pos="r" depth="4" NCoef="0" IVar="-1" Cut="0.0000000000000000e+00" cType="1" res="-6.6265985369682312e-03" rms="1.2971521914005280e-01" purity="1.0000000000000000e+00" nType="-99"/>
            </Node>
            <Node pos="r" depth="3" NCoef="0" IVar="0" Cut="1.3845559692382812e+02" cType="1" res="2.8389630839228630e-02" rms="2.0454327762126923e-01" purity="1.0000000000000000e+00" nType="0">
              <Node pos="l" depth="4" NCoef="0" IVar="-1" Cut="0.0000000000000000e+00" cType="1" res="1.8701935186982155e-02" rms="2.1957911550998688e-01" purity="1.0000000000000000e+00" nType="-99"/>
              <Node pos="r" depth="4" NCoef="0" IVar="-1" Cut="0.0000000000000000e+00" cType="1" res="1.0909042321145535e-03" rms="1.8903787434101105e-01" purity="1.0000000000000000e+00" nType="-99"/>
            </Node>
          </Node>
          <Node pos="r" depth="2" NCoef="0" IVar="-1" Cut="0.0000000000000000e+00" cType="1" res="5.2572958171367645e-02" rms="1.0042167901992798e+00" purity="1.0000000000000000e+00" nType="-99"/>
        </Node>
        <Node pos="r" depth="1" NCoef="0" IVar="3" Cut="2.2711233520507812e+02" cType="1" res="-4.9342154525220394e-03" rms="1.4996647834777832e-01" purity="1.0000000000000000e+00" nType="0">
          <Node pos="l" depth="2" NCoef="0" IVar="16" Cut="3.2124328613281250e+01" cType="1" res="-4.0538785979151726e-03" rms="1.4813628792762756e-01" purity="1.0000000000000000e+00" nType="0">
            <Node pos="l" depth="3" NCoef="0" IVar="33" Cut="1.6694973144531250e+03" cType="1" res="-4.7738142311573029e-03" rms="1.4657552540302277e-01" purity="1.0000000000000000e+00" nType="0">
              <Node pos="l" depth="4" NCoef="0" IVar="-1" Cut="0.0000000000000000e+00" cType="1" res="-1.2849124614149332e-03" rms="1.4403238892555237e-01" purity="1.0000000000000000e+00" nType="-99"/>
              <Node pos="r" depth="4" NCoef="0" IVar="-1" Cut="0.0000000000000000e+00" cType="1" res="-3.4858226776123047e-02" rms="4.2047947645187378e-01" purity="1.0000000000000000e+00" nType="-99"/>
            </Node>
            <Node pos="r" depth="3" NCoef="0" IVar="10" Cut="3.9985328912734985e-01" cType="1" res="6.8179659545421600e-02" rms="2.5064969062805176e-01" purity="1.0000000000000000e+00" nType="0">
              <Node pos="l" depth="4" NCoef="0" IVar="-1" Cut="0.0000000000000000e+00" cType="1" res="4.2250297963619232e-02" rms="2.6288816332817078e-01" purity="1.0000000000000000e+00" nType="-99"/>
              <Node pos="r" depth="4" NCoef="0" IVar="-1" Cut="0.0000000000000000e+00" cType="1" res="-1.0482925921678543e-02" rms="1.8915101885795593e-01" purity="1.0000000000000000e+00" nType="-99"/>
            </Node>
          </Node>
          <Node pos="r" depth="2" NCoef="0" IVar="16" Cut="2.0126352310180664e+01" cType="1" res="-7.2515614330768585e-02" rms="2.4443152546882629e-01" purity="1.0000000000000000e+00" nType="0">
            <Node pos="l" depth="3" NCoef="0" IVar="12" Cut="8.7796077132225037e-03" cType="1" res="-1.9739370793104172e-02" rms="2.1195462346076965e-01" purity="1.0000000000000000e+00" nType="0">
              <Node pos="l" depth="4" NCoef="0" IVar="-1" Cut="0.0000000000000000e+00" cType="1" res="-2.4406986311078072e-02" rms="1.6096466779708862e-01" purity="1.0000000000000000e+00" nType="-99"/>
              <Node pos="r" depth="4" NCoef="0" IVar="-1" Cut="0.0000000000000000e+00" cType="1" res="1.1476001702249050e-02" rms="2.3639978468418121e-01" purity="1.0000000000000000e+00" nType="-99"/>
            </Node>
            <Node pos="r" depth="3" NCoef="0" IVar="-1" Cut="0.0000000000000000e+00" cType="1" res="-5.3420428186655045e-02" rms="2.6959007978439331e-01" purity="1.0000000000000000e+00" nType="-99"/>
          </Node>
        </Node>
      </Node>
    </BinaryTree>
    <BinaryTree type="DecisionTree" boostWeight="1.0000000000000000e+00" itree="16">
      <Node pos="s" depth="0" NCoef="0" IVar="9" Cut="3.6663169860839844e+01" cType="1" res="2.0720047205768921e-11" rms="1.6125719249248505e-01" purity="1.0000000000000000e+00" nType="0">
        <Node pos="l" depth="1" NCoef="0" IVar="27" Cut="2.1960515625000000e+05" cType="1" res="-7.8863063827157021e-03" rms="1.6575960814952850e-01" purity="1.0000000000000000e+00" nType="0">
          <Node pos="l" depth="2" NCoef="0" IVar="33" Cut="8.7887438964843750e+02" cType="1" res="2.1135425195097923e-03" rms="1.5791998803615570e-01" purity="1.0000000000000000e+00" nType="0">
            <Node pos="l" depth="3" NCoef="0" IVar="33" Cut="5.1889349365234375e+02" cType="1" res="1.5579551109112799e-04" rms="1.2882350385189056e-01" purity="1.0000000000000000e+00" nType="0">
              <Node pos="l" depth="4" NCoef="0" IVar="-1" Cut="0.0000000000000000e+00" cType="1" res="-1.1510170297697186e-03" rms="1.2168503552675247e-01" purity="1.0000000000000000e+00" nType="-99"/>
              <Node pos="r" depth="4" NCoef="0" IVar="-1" Cut="0.0000000000000000e+00" cType="1" res="1.0555619373917580e-02" rms="1.7583596706390381e-01" purity="1.0000000000000000e+00" nType="-99"/>
            </Node>
            <Node pos="r" depth="3" NCoef="0" IVar="-1" Cut="0.0000000000000000e+00" cType="1" res="6.0908198356628418e-02" rms="9.1673481464385986e-01" purity="1.0000000000000000e+00" nType="-99"/>
          </Node>
          <Node pos="r" depth="2" NCoef="0" IVar="29" Cut="4.9752888679504395e+00" cType="1" res="-1.9038602709770203e-02" rms="1.7340795695781708e-01" purity="1.0000000000000000e+00" nType="0">
            <Node pos="l" depth="3" NCoef="0" IVar="19" Cut="-2.5370106697082520e+00" cType="1" res="-2.7090340852737427e-02" rms="1.6409236192703247e-01" purity="1.0000000000000000e+00" nType="0">
              <Node pos="l" depth="4" NCoef="0" IVar="-1" Cut="0.0000000000000000e+00" cType="1" res="2.8562175575643778e-03" rms="1.7436756193637848e-01" purity="1.0000000000000000e+00" nType="-99"/>
              <Node pos="r" depth="4" NCoef="0" IVar="-1" Cut="0.0000000000000000e+00" cType="1" res="-9.3278279528021812e-03" rms="1.6243015229701996e-01" purity="1.0000000000000000e+00" nType="-99"/>
            </Node>
            <Node pos="r" depth="3" NCoef="0" IVar="0" Cut="1.2622549438476562e+02" cType="1" res="4.0821861475706100e-03" rms="1.9590231776237488e-01" purity="1.0000000000000000e+00" nType="0">
              <Node pos="l" depth="4" NCoef="0" IVar="-1" Cut="0.0000000000000000e+00" cType="1" res="5.2128653042018414e-03" rms="1.9183357059955597e-01" purity="1.0000000000000000e+00" nType="-99"/>
              <Node pos="r" depth="4" NCoef="0" IVar="-1" Cut="0.0000000000000000e+00" cType="1" res="-1.1555082164704800e-02" rms="2.0261283218860626e-01" purity="1.0000000000000000e+00" nType="-99"/>
            </Node>
          </Node>
        </Node>
        <Node pos="r" depth="1" NCoef="0" IVar="0" Cut="1.2538248443603516e+02" cType="1" res="5.6201401166617870e-03" rms="1.5772983431816101e-01" purity="1.0000000000000000e+00" nType="0">
          <Node pos="l" depth="2" NCoef="0" IVar="33" Cut="7.1927587890625000e+02" cType="1" res="1.3830940239131451e-02" rms="1.3999314606189728e-01" purity="1.0000000000000000e+00" nType="0">
            <Node pos="l" depth="3" NCoef="0" IVar="13" Cut="1.3911720275878906e+02" cType="1" res="8.9059202000498772e-03" rms="1.2116813659667969e-01" purity="1.0000000000000000e+00" nType="0">
              <Node pos="l" depth="4" NCoef="0" IVar="-1" Cut="0.0000000000000000e+00" cType="1" res="3.8069188594818115e-03" rms="1.1865160614252090e-01" purity="1.0000000000000000e+00" nType="-99"/>
              <Node pos="r" depth="4" NCoef="0" IVar="-1" Cut="0.0000000000000000e+00" cType="1" res="-6.5593561157584190e-03" rms="1.3611142337322235e-01" purity="1.0000000000000000e+00" nType="-99"/>
            </Node>
            <Node pos="r" depth="3" NCoef="0" IVar="13" Cut="1.7223661804199219e+02" cType="1" res="1.1502679437398911e-01" rms="3.3147713541984558e-01" purity="1.0000000000000000e+00" nType="0">
              <Node pos="l" depth="4" NCoef="0" IVar="-1" Cut="0.0000000000000000e+00" cType="1" res="5.2644498646259308e-02" rms="3.5104742646217346e-01" purity="1.0000000000000000e+00" nType="-99"/>
              <Node pos="r" depth="4" NCoef="0" IVar="-1" Cut="0.0000000000000000e+00" cType="1" res="2.9371588025242090e-03" rms="2.6303791999816895e-01" purity="1.0000000000000000e+00" nType="-99"/>
            </Node>
          </Node>
          <Node pos="r" depth="2" NCoef="0" IVar="5" Cut="6.2475391387939453e+01" cType="1" res="-2.0137496758252382e-03" rms="1.7224209010601044e-01" purity="1.0000000000000000e+00" nType="0">
            <Node pos="l" depth="3" NCoef="0" IVar="21" Cut="2.2657203674316406e+00" cType="1" res="-2.5674182921648026e-02" rms="1.7567142844200134e-01" purity="1.0000000000000000e+00" nType="0">
              <Node pos="l" depth="4" NCoef="0" IVar="-1" Cut="0.0000000000000000e+00" cType="1" res="1.5049585141241550e-02" rms="1.7679639160633087e-01" purity="1.0000000000000000e+00" nType="-99"/>
              <Node pos="r" depth="4" NCoef="0" IVar="-1" Cut="0.0000000000000000e+00" cType="1" res="-9.7735924646258354e-03" rms="1.7393404245376587e-01" purity="1.0000000000000000e+00" nType="-99"/>
            </Node>
            <Node pos="r" depth="3" NCoef="0" IVar="3" Cut="1.6548931884765625e+02" cType="1" res="4.6642418019473553e-03" rms="1.7066924273967743e-01" purity="1.0000000000000000e+00" nType="0">
              <Node pos="l" depth="4" NCoef="0" IVar="-1" Cut="0.0000000000000000e+00" cType="1" res="2.4589526001363993e-03" rms="1.6842326521873474e-01" purity="1.0000000000000000e+00" nType="-99"/>
              <Node pos="r" depth="4" NCoef="0" IVar="-1" Cut="0.0000000000000000e+00" cType="1" res="-1.6438674181699753e-02" rms="1.9545507431030273e-01" purity="1.0000000000000000e+00" nType="-99"/>
            </Node>
          </Node>
        </Node>
      </Node>
    </BinaryTree>
    <BinaryTree type="DecisionTree" boostWeight="1.0000000000000000e+00" itree="17">
      <Node pos="s" depth="0" NCoef="0" IVar="28" Cut="5.3560411930084229e-01" cType="1" res="-2.4392083838864487e-11" rms="1.6011853516101837e-01" purity="1.0000000000000000e+00" nType="0">
        <Node pos="l" depth="1" NCoef="0" IVar="28" Cut="-6.0013240575790405e-01" cType="1" res="-3.8260289002209902e-03" rms="1.6161902248859406e-01" purity="1.0000000000000000e+00" nType="0">
          <Node pos="l" depth="2" NCoef="0" IVar="33" Cut="7.6256561279296875e+02" cType="1" res="9.8429312929511070e-03" rms="1.5382270514965057e-01" purity="1.0000000000000000e+00" nType="0">
            <Node pos="l" depth="3" NCoef="0" IVar="30" Cut="1.2286504507064819e+00" cType="1" res="4.2608338408172131e-03" rms="1.3075971603393555e-01" purity="1.0000000000000000e+00" nType="0">
              <Node pos="l" depth="4" NCoef="0" IVar="-1" Cut="0.0000000000000000e+00" cType="1" res="2.6733428239822388e-03" rms="1.2796118855476379e-01" purity="1.0000000000000000e+00" nType="-99"/>
              <Node pos="r" depth="4" NCoef="0" IVar="-1" Cut="0.0000000000000000e+00" cType="1" res="-8.3850929513573647e-03" rms="1.4465796947479248e-01" purity="1.0000000000000000e+00" nType="-99"/>
            </Node>
            <Node pos="r" depth="3" NCoef="0" IVar="13" Cut="1.2342323303222656e+02" cType="1" res="6.5383635461330414e-02" rms="2.9252398014068604e-01" purity="1.0000000000000000e+00" nType="0">
              <Node pos="l" depth="4" NCoef="0" IVar="-1" Cut="0.0000000000000000e+00" cType="1" res="3.9682224392890930e-02" rms="3.5044720768928528e-01" purity="1.0000000000000000e+00" nType="-99"/>
              <Node pos="r" depth="4" NCoef="0" IVar="-1" Cut="0.0000000000000000e+00" cType="1" res="1.9180905073881149e-03" rms="2.1283888816833496e-01" purity="1.0000000000000000e+00" nType="-99"/>
            </Node>
          </Node>
          <Node pos="r" depth="2" NCoef="0" IVar="29" Cut="2.9861080646514893e+00" cType="1" res="-9.8512386903166771e-03" rms="1.6457851231098175e-01" purity="1.0000000000000000e+00" nType="0">
            <Node pos="l" depth="3" NCoef="0" IVar="27" Cut="1.7151003125000000e+05" cType="1" res="6.9365644594654441e-04" rms="1.3253349065780640e-01" purity="1.0000000000000000e+00" nType="0">
              <Node pos="l" depth="4" NCoef="0" IVar="-1" Cut="0.0000000000000000e+00" cType="1" res="3.1731261406093836e-03" rms="1.1923340708017349e-01" purity="1.0000000000000000e+00" nType="-99"/>
              <Node pos="r" depth="4" NCoef="0" IVar="-1" Cut="0.0000000000000000e+00" cType="1" res="-3.0983008909970522e-03" rms="1.4515084028244019e-01" purity="1.0000000000000000e+00" nType="-99"/>
            </Node>
            <Node pos="r" depth="3" NCoef="0" IVar="33" Cut="1.4805950927734375e+03" cType="1" res="-2.9419397935271263e-02" rms="2.1015441417694092e-01" purity="1.0000000000000000e+00" nType="0">
              <Node pos="l" depth="4" NCoef="0" IVar="-1" Cut="0.0000000000000000e+00" cType="1" res="-9.5005175098776817e-03" rms="1.7638349533081055e-01" purity="1.0000000000000000e+00" nType="-99"/>
              <Node pos="r" depth="4" NCoef="0" IVar="-1" Cut="0.0000000000000000e+00" cType="1" res="3.0576532706618309e-02" rms="8.8823282718658447e-01" purity="1.0000000000000000e+00" nType="-99"/>
            </Node>
          </Node>
        </Node>
        <Node pos="r" depth="1" NCoef="0" IVar="18" Cut="-7.0815843343734741e-01" cType="1" res="1.1764144524931908e-02" rms="1.5482297539710999e-01" purity="1.0000000000000000e+00" nType="0">
          <Node pos="l" depth="2" NCoef="0" IVar="0" Cut="1.5611579895019531e+02" cType="1" res="-7.3587320744991302e-02" rms="2.8205004334449768e-01" purity="1.0000000000000000e+00" nType="0">
            <Node pos="l" depth="3" NCoef="0" IVar="19" Cut="1.5011323988437653e-01" cType="1" res="-2.8457185253500938e-02" rms="2.9766333103179932e-01" purity="1.0000000000000000e+00" nType="0">
              <Node pos="l" depth="4" NCoef="0" IVar="-1" Cut="0.0000000000000000e+00" cType="1" res="-3.5688996315002441e-02" rms="2.7027153968811035e-01" purity="1.0000000000000000e+00" nType="-99"/>
              <Node pos="r" depth="4" NCoef="0" IVar="-1" Cut="0.0000000000000000e+00" cType="1" res="7.8968526795506477e-03" rms="3.0010101199150085e-01" purity="1.0000000000000000e+00" nType="-99"/>
            </Node>
            <Node pos="r" depth="3" NCoef="0" IVar="-1" Cut="0.0000000000000000e+00" cType="1" res="-5.3840864449739456e-02" rms="2.0573556423187256e-01" purity="1.0000000000000000e+00" nType="-99"/>
          </Node>
          <Node pos="r" depth="2" NCoef="0" IVar="33" Cut="8.6995318603515625e+02" cType="1" res="1.4519460499286652e-02" rms="1.4809824526309967e-01" purity="1.0000000000000000e+00" nType="0">
            <Node pos="l" depth="3" NCoef="0" IVar="30" Cut="1.0103002786636353e+00" cType="1" res="1.0184168815612793e-02" rms="1.3056436181068420e-01" purity="1.0000000000000000e+00" nType="0">
              <Node pos="l" depth="4" NCoef="0" IVar="-1" Cut="0.0000000000000000e+00" cType="1" res="5.0446046516299248e-03" rms="1.2677675485610962e-01" purity="1.0000000000000000e+00" nType="-99"/>
              <Node pos="r" depth="4" NCoef="0" IVar="-1" Cut="0.0000000000000000e+00" cType="1" res="-5.8860075660049915e-03" rms="1.4262539148330688e-01" purity="1.0000000000000000e+00" nType="-99"/>
            </Node>
            <Node pos="r" depth="3" NCoef="0" IVar="5" Cut="1.9960131835937500e+02" cType="1" res="7.7719502151012421e-02" rms="2.9815036058425903e-01" purity="1.0000000000000000e+00" nType="0">
              <Node pos="l" depth="4" NCoef="0" IVar="-1" Cut="0.0000000000000000e+00" cType="1" res="3.0633147805929184e-02" rms="2.9402628540992737e-01" purity="1.0000000000000000e+00" nType="-99"/>
              <Node pos="r" depth="4" NCoef="0" IVar="-1" Cut="0.0000000000000000e+00" cType="1" res="-2.4405641481280327e-02" rms="2.7502208948135376e-01" purity="1.0000000000000000e+00" nType="-99"/>
            </Node>
          </Node>
        </Node>
      </Node>
    </BinaryTree>
    <BinaryTree type="DecisionTree" boostWeight="1.0000000000000000e+00" itree="18">
      <Node pos="s" depth="0" NCoef="0" IVar="30" Cut="-2.6658830046653748e-01" cType="1" res="1.1338709832164895e-10" rms="1.5886819362640381e-01" purity="1.0000000000000000e+00" nType="0">
        <Node pos="l" depth="1" NCoef="0" IVar="2" Cut="2.0952382087707520e+00" cType="1" res="-1.5724724158644676e-02" rms="1.5494295954704285e-01" purity="1.0000000000000000e+00" nType="0">
          <Node pos="l" depth="2" NCoef="0" IVar="32" Cut="1.2007626295089722e+00" cType="1" res="-1.8759423866868019e-02" rms="1.5041536092758179e-01" purity="1.0000000000000000e+00" nType="0">
            <Node pos="l" depth="3" NCoef="0" IVar="27" Cut="3.8954353125000000e+05" cType="1" res="-2.2364355623722076e-02" rms="1.4935351908206940e-01" purity="1.0000000000000000e+00" nType="0">
              <Node pos="l" depth="4" NCoef="0" IVar="-1" Cut="0.0000000000000000e+00" cType="1" res="-4.0115942247211933e-03" rms="1.4239270985126495e-01" purity="1.0000000000000000e+00" nType="-99"/>
              <Node pos="r" depth="4" NCoef="0" IVar="-1" Cut="0.0000000000000000e+00" cType="1" res="-1.4198375865817070e-02" rms="1.6460998356342316e-01" purity="1.0000000000000000e+00" nType="-99"/>
            </Node>
