<?xml version="1.0"?>
<MethodSetup Method="BDT::BDTG_HU_mass">
  <GeneralInfo>
    <Info name="TMVA Release" value="4.2.1 [262657]"/>
    <Info name="ROOT Release" value="6.10/09 [395785]"/>
    <Info name="Creator" value="bribeiro"/>
    <Info name="Date" value="Mon Jan  6 15:44:01 2020"/>
    <Info name="Host" value="Linux cmsbuild64.cern.ch 2.6.32-696.30.1.el6.x86_64 #1 SMP Tue May 22 06:09:36 CEST 2018 x86_64 x86_64 x86_64 GNU/Linux"/>
    <Info name="Dir" value="/afs/cern.ch/user/b/bribeiro/CMSSW_9_4_11/src/TopLJets2015/TopAnalysis"/>
    <Info name="Training events" value="14170"/>
    <Info name="TrainingTime" value="2.57030201e+00"/>
    <Info name="AnalysisType" value="Regression"/>
  </GeneralInfo>
  <Options>
    <Option name="V" modified="Yes">False</Option>
    <Option name="VerbosityLevel" modified="No">Default</Option>
    <Option name="VarTransform" modified="No">None</Option>
    <Option name="H" modified="Yes">False</Option>
    <Option name="CreateMVAPdfs" modified="No">False</Option>
    <Option name="IgnoreNegWeightsInTraining" modified="No">False</Option>
    <Option name="NTrees" modified="Yes">64</Option>
    <Option name="MaxDepth" modified="Yes">4</Option>
    <Option name="MinNodeSize" modified="No">0.2%</Option>
    <Option name="nCuts" modified="Yes">20</Option>
    <Option name="BoostType" modified="Yes">Grad</Option>
    <Option name="AdaBoostR2Loss" modified="No">quadratic</Option>
    <Option name="UseBaggedBoost" modified="No">False</Option>
    <Option name="Shrinkage" modified="Yes">3.000000e-01</Option>
    <Option name="AdaBoostBeta" modified="No">5.000000e-01</Option>
    <Option name="UseRandomisedTrees" modified="No">False</Option>
    <Option name="UseNvars" modified="No">6</Option>
    <Option name="UsePoissonNvars" modified="No">True</Option>
    <Option name="BaggedSampleFraction" modified="No">6.000000e-01</Option>
    <Option name="UseYesNoLeaf" modified="No">False</Option>
    <Option name="NegWeightTreatment" modified="No">pray</Option>
    <Option name="Css" modified="No">1.000000e+00</Option>
    <Option name="Cts_sb" modified="No">1.000000e+00</Option>
    <Option name="Ctb_ss" modified="No">1.000000e+00</Option>
    <Option name="Cbb" modified="No">1.000000e+00</Option>
    <Option name="NodePurityLimit" modified="No">5.000000e-01</Option>
    <Option name="SeparationType" modified="No">regressionvariance</Option>
    <Option name="RegressionLossFunctionBDTG" modified="Yes">huber</Option>
    <Option name="HuberQuantile" modified="No">7.000000e-01</Option>
    <Option name="DoBoostMonitor" modified="No">False</Option>
    <Option name="UseFisherCuts" modified="No">False</Option>
    <Option name="MinLinCorrForFisher" modified="No">8.000000e-01</Option>
    <Option name="UseExclusiveVars" modified="No">False</Option>
    <Option name="DoPreselection" modified="No">False</Option>
    <Option name="SigToBkgFraction" modified="No">1.000000e+00</Option>
    <Option name="PruneMethod" modified="No">nopruning</Option>
    <Option name="PruneStrength" modified="No">0.000000e+00</Option>
    <Option name="PruningValFraction" modified="No">5.000000e-01</Option>
    <Option name="SkipNormalization" modified="No">False</Option>
    <Option name="nEventsMin" modified="No">0</Option>
    <Option name="UseBaggedGrad" modified="No">False</Option>
    <Option name="GradBaggingFraction" modified="No">6.000000e-01</Option>
    <Option name="UseNTrainEvents" modified="No">0</Option>
    <Option name="NNodesMax" modified="No">0</Option>
  </Options>
  <Variables NVar="34">
    <Variable VarIndex="0" Expression="mll" Label="mll" Title="mll" Unit="" Internal="mll" Type="F" Min="2.01043358e+01" Max="1.12357031e+03"/>
    <Variable VarIndex="1" Expression="nljets" Label="nljets" Title="nljets" Unit="" Internal="nljets" Type="F" Min="0.00000000e+00" Max="6.00000000e+00"/>
    <Variable VarIndex="2" Expression="nbjets" Label="nbjets" Title="nbjets" Unit="" Internal="nbjets" Type="F" Min="2.00000000e+00" Max="4.00000000e+00"/>
    <Variable VarIndex="3" Expression="metpt" Label="metpt" Title="metpt" Unit="" Internal="metpt" Type="F" Min="6.40878558e-01" Max="9.49200134e+02"/>
    <Variable VarIndex="4" Expression="metphi" Label="metphi" Title="metphi" Unit="" Internal="metphi" Type="F" Min="-3.14134645e+00" Max="3.14145446e+00"/>
    <Variable VarIndex="5" Expression="l1pt" Label="l1pt" Title="l1pt" Unit="" Internal="l1pt" Type="F" Min="3.00067863e+01" Max="7.10798279e+02"/>
    <Variable VarIndex="6" Expression="l1eta" Label="l1eta" Title="l1eta" Unit="" Internal="l1eta" Type="F" Min="-2.09992504e+00" Max="2.09870791e+00"/>
    <Variable VarIndex="7" Expression="l1phi" Label="l1phi" Title="l1phi" Unit="" Internal="l1phi" Type="F" Min="-3.14118195e+00" Max="3.14148593e+00"/>
    <Variable VarIndex="8" Expression="l1m" Label="l1m" Title="l1m" Unit="" Internal="l1m" Type="F" Min="-3.11830580e-01" Max="1.97807953e-01"/>
    <Variable VarIndex="9" Expression="l2pt" Label="l2pt" Title="l2pt" Unit="" Internal="l2pt" Type="F" Min="2.00008240e+01" Max="4.40407715e+02"/>
    <Variable VarIndex="10" Expression="l2eta" Label="l2eta" Title="l2eta" Unit="" Internal="l2eta" Type="F" Min="-2.39950705e+00" Max="2.39693928e+00"/>
    <Variable VarIndex="11" Expression="l2phi" Label="l2phi" Title="l2phi" Unit="" Internal="l2phi" Type="F" Min="-3.14118791e+00" Max="3.14082694e+00"/>
    <Variable VarIndex="12" Expression="l2m" Label="l2m" Title="l2m" Unit="" Internal="l2m" Type="F" Min="-4.03093904e-01" Max="2.71714777e-01"/>
    <Variable VarIndex="13" Expression="b1pt" Label="b1pt" Title="b1pt" Unit="" Internal="b1pt" Type="F" Min="3.04041882e+01" Max="5.85363953e+02"/>
    <Variable VarIndex="14" Expression="b1eta" Label="b1eta" Title="b1eta" Unit="" Internal="b1eta" Type="F" Min="-2.39731121e+00" Max="2.39803338e+00"/>
    <Variable VarIndex="15" Expression="b1phi" Label="b1phi" Title="b1phi" Unit="" Internal="b1phi" Type="F" Min="-3.14154148e+00" Max="3.14145160e+00"/>
    <Variable VarIndex="16" Expression="b1m" Label="b1m" Title="b1m" Unit="" Internal="b1m" Type="F" Min="3.24933958e+00" Max="6.26895866e+01"/>
    <Variable VarIndex="17" Expression="b2pt" Label="b2pt" Title="b2pt" Unit="" Internal="b2pt" Type="F" Min="3.00017509e+01" Max="2.86404480e+02"/>
    <Variable VarIndex="18" Expression="b2eta" Label="b2eta" Title="b2eta" Unit="" Internal="b2eta" Type="F" Min="-2.39952803e+00" Max="2.39143538e+00"/>
    <Variable VarIndex="19" Expression="b2phi" Label="b2phi" Title="b2phi" Unit="" Internal="b2phi" Type="F" Min="-3.14157486e+00" Max="3.14136744e+00"/>
    <Variable VarIndex="20" Expression="b2m" Label="b2m" Title="b2m" Unit="" Internal="b2m" Type="F" Min="2.54510522e+00" Max="4.70349960e+01"/>
    <Variable VarIndex="21" Expression="deltarll" Label="deltarll" Title="deltarll" Unit="" Internal="deltarll" Type="F" Min="2.81501561e-01" Max="5.23594284e+00"/>
    <Variable VarIndex="22" Expression="deltaphill" Label="deltaphill" Title="deltaphill" Unit="" Internal="deltaphill" Type="F" Min="-3.14152360e+00" Max="3.14138818e+00"/>
    <Variable VarIndex="23" Expression="mlb" Label="mlb" Title="mlb" Unit="" Internal="mlb" Type="F" Min="1.59899750e+01" Max="1.49750610e+02"/>
    <Variable VarIndex="24" Expression="px2" Label="px2" Title="px2" Unit="" Internal="px2" Type="F" Min="7.01223598e-07" Max="6.73477188e+05"/>
    <Variable VarIndex="25" Expression="py2" Label="py2" Title="py2" Unit="" Internal="py2" Type="F" Min="4.74931952e-08" Max="1.62155912e+06"/>
    <Variable VarIndex="26" Expression="pz2" Label="pz2" Title="pz2" Unit="" Internal="pz2" Type="F" Min="1.40760225e-04" Max="4.25374100e+06"/>
    <Variable VarIndex="27" Expression="E2" Label="E2" Title="E2" Unit="" Internal="E2" Type="F" Min="3.56139570e+04" Max="5.23792150e+06"/>
    <Variable VarIndex="28" Expression="yvis" Label="yvis" Title="yvis" Unit="" Internal="yvis" Type="F" Min="-2.11414385e+00" Max="2.12295032e+00"/>
    <Variable VarIndex="29" Expression="ysum" Label="ysum" Title="ysum" Unit="" Internal="ysum" Type="F" Min="3.20867091e-01" Max="8.38666534e+00"/>
    <Variable VarIndex="30" Expression="max_dy" Label="max_dy" Title="max_dy" Unit="" Internal="max_dy" Type="F" Min="-1.54347682e+00" Max="2.28718877e+00"/>
    <Variable VarIndex="31" Expression="min_dy" Label="min_dy" Title="min_dy" Unit="" Internal="min_dy" Type="F" Min="-2.17138886e+00" Max="1.78974748e+00"/>
    <Variable VarIndex="32" Expression="rec_ytt" Label="rec_ytt" Title="rec_ytt" Unit="" Internal="rec_ytt" Type="F" Min="-2.23707271e+00" Max="2.38993335e+00"/>
    <Variable VarIndex="33" Expression="rec_mtt" Label="rec_mtt" Title="rec_mtt" Unit="" Internal="rec_mtt" Type="F" Min="3.45033356e+02" Max="4.43274658e+03"/>
  </Variables>
  <Spectators NSpec="10">
    <Spectator SpecIndex="0" Expression="run" Label="run" Title="run" Unit="" Internal="run" Type="F" Min="1.00000000e+00" Max="1.00000000e+00"/>
    <Spectator SpecIndex="1" Expression="lumi" Label="lumi" Title="lumi" Unit="" Internal="lumi" Type="F" Min="3.00000000e+00" Max="2.64594000e+05"/>
    <Spectator SpecIndex="2" Expression="ev" Label="ev" Title="ev" Unit="" Internal="ev" Type="F" Min="3.00000000e+00" Max="4.65817376e+08"/>
    <Spectator SpecIndex="3" Expression="rho" Label="rho" Title="rho" Unit="" Internal="rho" Type="F" Min="0.00000000e+00" Max="7.45759659e+01"/>
    <Spectator SpecIndex="4" Expression="channel" Label="channel" Title="channel" Unit="" Internal="channel" Type="F" Min="1.21000000e+02" Max="1.69000000e+02"/>
    <Spectator SpecIndex="5" Expression="mpp" Label="mpp" Title="mpp" Unit="" Internal="mpp" Type="F" Min="3.49061005e+02" Max="1.00000000e+04"/>
    <Spectator SpecIndex="6" Expression="ypp" Label="ypp" Title="ypp" Unit="" Internal="ypp" Type="F" Min="-9.66485977e-01" Max="1.00000000e+01"/>
    <Spectator SpecIndex="7" Expression="gen_mtt" Label="gen_mtt" Title="gen_mtt" Unit="" Internal="gen_mtt" Type="F" Min="3.35572327e+02" Max="2.41753223e+03"/>
    <Spectator SpecIndex="8" Expression="gen_ytt" Label="gen_ytt" Title="gen_ytt" Unit="" Internal="gen_ytt" Type="F" Min="-2.53111053e+00" Max="2.36455297e+00"/>
    <Spectator SpecIndex="9" Expression="weight" Label="weight" Title="weight" Unit="" Internal="weight" Type="F" Min="-4.01403355e-08" Max="1.55085327e-05"/>
  </Spectators>
  <Classes NClass="1">
    <Class Name="Regression" Index="0"/>
  </Classes>
  <Targets NTrgt="1">
    <Target TargetIndex="0" Expression="rec_mtt/gen_mtt" Label="target" Title="target" Unit="" Internal="target" Type="F" Min="3.74028057e-01" Max="5.47363424e+00"/>
  </Targets>
  <Transformations NTransformations="0"/>
  <MVAPdfs/>
  <Weights NTrees="64" AnalysisType="1">
    <BinaryTree type="DecisionTree" boostWeight="9.8945784568786621e-01" itree="0">
      <Node pos="s" depth="0" NCoef="0" IVar="33" Cut="5.3968634033203125e+02" cType="1" res="3.1497159507125616e-03" rms="1.1199018359184265e-01" purity="1.0000000000000000e+00" nType="0">
        <Node pos="l" depth="1" NCoef="0" IVar="33" Cut="4.1914834594726562e+02" cType="1" res="-3.1467702239751816e-02" rms="9.8749183118343353e-02" purity="1.0000000000000000e+00" nType="0">
          <Node pos="l" depth="2" NCoef="0" IVar="33" Cut="3.8031985473632812e+02" cType="1" res="-6.1645474284887314e-02" rms="8.2976110279560089e-02" purity="1.0000000000000000e+00" nType="0">
            <Node pos="l" depth="3" NCoef="0" IVar="0" Cut="6.6112663269042969e+01" cType="1" res="-7.7230222523212433e-02" rms="7.1977525949478149e-02" purity="1.0000000000000000e+00" nType="0">
              <Node pos="l" depth="4" NCoef="0" IVar="-1" Cut="0.0000000000000000e+00" cType="1" res="-1.9198345020413399e-02" rms="6.9867655634880066e-02" purity="1.0000000000000000e+00" nType="-99"/>
              <Node pos="r" depth="4" NCoef="0" IVar="-1" Cut="0.0000000000000000e+00" cType="1" res="-3.5423904657363892e-02" rms="6.9815106689929962e-02" purity="1.0000000000000000e+00" nType="-99"/>
            </Node>
            <Node pos="r" depth="3" NCoef="0" IVar="21" Cut="1.9755406379699707e+00" cType="1" res="-4.5194555073976517e-02" rms="9.0316161513328552e-02" purity="1.0000000000000000e+00" nType="0">
              <Node pos="l" depth="4" NCoef="0" IVar="-1" Cut="0.0000000000000000e+00" cType="1" res="-1.0202364064753056e-02" rms="8.9160636067390442e-02" purity="1.0000000000000000e+00" nType="-99"/>
              <Node pos="r" depth="4" NCoef="0" IVar="-1" Cut="0.0000000000000000e+00" cType="1" res="-2.1611034870147705e-02" rms="8.9180745184421539e-02" purity="1.0000000000000000e+00" nType="-99"/>
            </Node>
          </Node>
          <Node pos="r" depth="2" NCoef="0" IVar="27" Cut="1.8005246875000000e+05" cType="1" res="4.0646451525390148e-03" rms="1.0388226062059402e-01" purity="1.0000000000000000e+00" nType="0">
            <Node pos="l" depth="3" NCoef="0" IVar="33" Cut="4.6499557495117188e+02" cType="1" res="3.0599754303693771e-02" rms="1.0522689670324326e-01" purity="1.0000000000000000e+00" nType="0">
              <Node pos="l" depth="4" NCoef="0" IVar="-1" Cut="0.0000000000000000e+00" cType="1" res="4.5365253463387489e-03" rms="1.0282511264085770e-01" purity="1.0000000000000000e+00" nType="-99"/>
              <Node pos="r" depth="4" NCoef="0" IVar="-1" Cut="0.0000000000000000e+00" cType="1" res="2.4847252294421196e-02" rms="1.0247047245502472e-01" purity="1.0000000000000000e+00" nType="-99"/>
            </Node>
            <Node pos="r" depth="3" NCoef="0" IVar="33" Cut="4.8797506713867188e+02" cType="1" res="-7.3506929911673069e-03" rms="1.0117977112531662e-01" purity="1.0000000000000000e+00" nType="0">
              <Node pos="l" depth="4" NCoef="0" IVar="-1" Cut="0.0000000000000000e+00" cType="1" res="-6.1324210837483406e-03" rms="9.8208718001842499e-02" purity="1.0000000000000000e+00" nType="-99"/>
              <Node pos="r" depth="4" NCoef="0" IVar="-1" Cut="0.0000000000000000e+00" cType="1" res="3.3674398437142372e-03" rms="1.0359490662813187e-01" purity="1.0000000000000000e+00" nType="-99"/>
            </Node>
          </Node>
        </Node>
        <Node pos="r" depth="1" NCoef="0" IVar="33" Cut="7.2522235107421875e+02" cType="1" res="6.9298282265663147e-02" rms="1.0586927086114883e-01" purity="1.0000000000000000e+00" nType="0">
          <Node pos="l" depth="2" NCoef="0" IVar="27" Cut="3.4001590625000000e+05" cType="1" res="4.8250328749418259e-02" rms="1.0805680602788925e-01" purity="1.0000000000000000e+00" nType="0">
            <Node pos="l" depth="3" NCoef="0" IVar="27" Cut="2.1526062500000000e+05" cType="1" res="7.4046440422534943e-02" rms="1.0260362178087234e-01" purity="1.0000000000000000e+00" nType="0">
              <Node pos="l" depth="4" NCoef="0" IVar="-1" Cut="0.0000000000000000e+00" cType="1" res="6.2165617942810059e-02" rms="8.7132357060909271e-02" purity="1.0000000000000000e+00" nType="-99"/>
              <Node pos="r" depth="4" NCoef="0" IVar="-1" Cut="0.0000000000000000e+00" cType="1" res="2.3641586303710938e-02" rms="1.0478255897760391e-01" purity="1.0000000000000000e+00" nType="-99"/>
            </Node>
            <Node pos="r" depth="3" NCoef="0" IVar="26" Cut="1.2163359375000000e+05" cType="1" res="2.0340390503406525e-02" rms="1.0686554759740829e-01" purity="1.0000000000000000e+00" nType="0">
              <Node pos="l" depth="4" NCoef="0" IVar="-1" Cut="0.0000000000000000e+00" cType="1" res="-5.2430498180910945e-04" rms="1.0489138215780258e-01" purity="1.0000000000000000e+00" nType="-99"/>
              <Node pos="r" depth="4" NCoef="0" IVar="-1" Cut="0.0000000000000000e+00" cType="1" res="1.5590235590934753e-02" rms="1.0502302646636963e-01" purity="1.0000000000000000e+00" nType="-99"/>
            </Node>
          </Node>
          <Node pos="r" depth="2" NCoef="0" IVar="27" Cut="3.2411959375000000e+05" cType="1" res="9.9558018147945404e-02" rms="9.4778493046760559e-02" purity="1.0000000000000000e+00" nType="0">
            <Node pos="l" depth="3" NCoef="0" IVar="29" Cut="4.7397508621215820e+00" cType="1" res="1.4529369771480560e-01" rms="5.3781915456056595e-02" purity="1.0000000000000000e+00" nType="0">
              <Node pos="l" depth="4" NCoef="0" IVar="-1" Cut="0.0000000000000000e+00" cType="1" res="1.4296865463256836e-01" rms="4.3906789273023605e-02" purity="1.0000000000000000e+00" nType="-99"/>
              <Node pos="r" depth="4" NCoef="0" IVar="-1" Cut="0.0000000000000000e+00" cType="1" res="1.0036654025316238e-01" rms="9.5416493713855743e-02" purity="1.0000000000000000e+00" nType="-99"/>
            </Node>
            <Node pos="r" depth="3" NCoef="0" IVar="33" Cut="9.0198718261718750e+02" cType="1" res="8.5007123649120331e-02" rms="1.0021693259477615e-01" purity="1.0000000000000000e+00" nType="0">
              <Node pos="l" depth="4" NCoef="0" IVar="-1" Cut="0.0000000000000000e+00" cType="1" res="2.8500104323029518e-02" rms="1.0506343841552734e-01" purity="1.0000000000000000e+00" nType="-99"/>
              <Node pos="r" depth="4" NCoef="0" IVar="-1" Cut="0.0000000000000000e+00" cType="1" res="7.6943695545196533e-02" rms="8.8750563561916351e-02" purity="1.0000000000000000e+00" nType="-99"/>
            </Node>
          </Node>
        </Node>
      </Node>
    </BinaryTree>
    <BinaryTree type="DecisionTree" boostWeight="1.0000000000000000e+00" itree="1">
      <Node pos="s" depth="0" NCoef="0" IVar="33" Cut="5.3968634033203125e+02" cType="1" res="2.2020132746547461e-03" rms="1.0253866016864777e-01" purity="1.0000000000000000e+00" nType="0">
        <Node pos="l" depth="1" NCoef="0" IVar="33" Cut="4.0988397216796875e+02" cType="1" res="-2.1358942613005638e-02" rms="9.3100450932979584e-02" purity="1.0000000000000000e+00" nType="0">
          <Node pos="l" depth="2" NCoef="0" IVar="21" Cut="1.2341754436492920e+00" cType="1" res="-4.4720340520143509e-02" rms="8.1795163452625275e-02" purity="1.0000000000000000e+00" nType="0">
            <Node pos="l" depth="3" NCoef="0" IVar="30" Cut="7.8876531124114990e-01" cType="1" res="-2.2753691300749779e-02" rms="7.4835486710071564e-02" purity="1.0000000000000000e+00" nType="0">
              <Node pos="l" depth="4" NCoef="0" IVar="-1" Cut="0.0000000000000000e+00" cType="1" res="-5.8191311545670033e-03" rms="7.4379272758960724e-02" purity="1.0000000000000000e+00" nType="-99"/>
              <Node pos="r" depth="4" NCoef="0" IVar="-1" Cut="0.0000000000000000e+00" cType="1" res="-1.9784104079008102e-02" rms="6.9022744894027710e-02" purity="1.0000000000000000e+00" nType="-99"/>
            </Node>
            <Node pos="r" depth="3" NCoef="0" IVar="33" Cut="3.7280825805664062e+02" cType="1" res="-5.1630549132823944e-02" rms="8.2666940987110138e-02" purity="1.0000000000000000e+00" nType="0">
              <Node pos="l" depth="4" NCoef="0" IVar="-1" Cut="0.0000000000000000e+00" cType="1" res="-2.4117279797792435e-02" rms="7.2997041046619415e-02" purity="1.0000000000000000e+00" nType="-99"/>
              <Node pos="r" depth="4" NCoef="0" IVar="-1" Cut="0.0000000000000000e+00" cType="1" res="-1.5227501280605793e-02" rms="8.7652355432510376e-02" purity="1.0000000000000000e+00" nType="-99"/>
            </Node>
          </Node>
          <Node pos="r" depth="2" NCoef="0" IVar="27" Cut="1.8005246875000000e+05" cType="1" res="6.1821995768696070e-04" rms="9.7628727555274963e-02" purity="1.0000000000000000e+00" nType="0">
            <Node pos="l" depth="3" NCoef="0" IVar="27" Cut="1.2614838281250000e+05" cType="1" res="1.8051153048872948e-02" rms="9.9331103265285492e-02" purity="1.0000000000000000e+00" nType="0">
              <Node pos="l" depth="4" NCoef="0" IVar="-1" Cut="0.0000000000000000e+00" cType="1" res="1.9049996510148048e-02" rms="1.0048948228359222e-01" purity="1.0000000000000000e+00" nType="-99"/>
              <Node pos="r" depth="4" NCoef="0" IVar="-1" Cut="0.0000000000000000e+00" cType="1" res="1.8821994308382273e-03" rms="9.6155874431133270e-02" purity="1.0000000000000000e+00" nType="-99"/>
            </Node>
            <Node pos="r" depth="3" NCoef="0" IVar="33" Cut="4.4694366455078125e+02" cType="1" res="-7.5089717283844948e-03" rms="9.5746129751205444e-02" purity="1.0000000000000000e+00" nType="0">
              <Node pos="l" depth="4" NCoef="0" IVar="-1" Cut="0.0000000000000000e+00" cType="1" res="-9.3270493671298027e-03" rms="9.2142261564731598e-02" purity="1.0000000000000000e+00" nType="-99"/>
              <Node pos="r" depth="4" NCoef="0" IVar="-1" Cut="0.0000000000000000e+00" cType="1" res="5.5747583974152803e-04" rms="9.6279777586460114e-02" purity="1.0000000000000000e+00" nType="-99"/>
            </Node>
          </Node>
        </Node>
        <Node pos="r" depth="1" NCoef="0" IVar="27" Cut="2.9609743750000000e+05" cType="1" res="4.7223377972841263e-02" rms="1.0466542840003967e-01" purity="1.0000000000000000e+00" nType="0">
          <Node pos="l" depth="2" NCoef="0" IVar="33" Cut="6.3054180908203125e+02" cType="1" res="7.3850721120834351e-02" rms="9.7563058137893677e-02" purity="1.0000000000000000e+00" nType="0">
            <Node pos="l" depth="3" NCoef="0" IVar="27" Cut="1.5482360937500000e+05" cType="1" res="4.6397730708122253e-02" rms="1.0078706592321396e-01" purity="1.0000000000000000e+00" nType="0">
              <Node pos="l" depth="4" NCoef="0" IVar="-1" Cut="0.0000000000000000e+00" cType="1" res="5.2708487957715988e-02" rms="8.6757831275463104e-02" purity="1.0000000000000000e+00" nType="-99"/>
              <Node pos="r" depth="4" NCoef="0" IVar="-1" Cut="0.0000000000000000e+00" cType="1" res="1.5769304707646370e-02" rms="1.0071478039026260e-01" purity="1.0000000000000000e+00" nType="-99"/>
            </Node>
            <Node pos="r" depth="3" NCoef="0" IVar="33" Cut="8.0331005859375000e+02" cType="1" res="1.0102322697639465e-01" rms="8.6030758917331696e-02" purity="1.0000000000000000e+00" nType="0">
              <Node pos="l" depth="4" NCoef="0" IVar="-1" Cut="0.0000000000000000e+00" cType="1" res="5.4683517664670944e-02" rms="9.2893168330192566e-02" purity="1.0000000000000000e+00" nType="-99"/>
              <Node pos="r" depth="4" NCoef="0" IVar="-1" Cut="0.0000000000000000e+00" cType="1" res="1.5340256690979004e-01" rms="6.1038646847009659e-02" purity="1.0000000000000000e+00" nType="-99"/>
            </Node>
          </Node>
          <Node pos="r" depth="2" NCoef="0" IVar="33" Cut="9.1059857177734375e+02" cType="1" res="3.4690026193857193e-02" rms="1.0554665327072144e-01" purity="1.0000000000000000e+00" nType="0">
            <Node pos="l" depth="3" NCoef="0" IVar="33" Cut="6.8102972412109375e+02" cType="1" res="2.3541267961263657e-02" rms="1.0374283790588379e-01" purity="1.0000000000000000e+00" nType="0">
              <Node pos="l" depth="4" NCoef="0" IVar="-1" Cut="0.0000000000000000e+00" cType="1" res="3.5076688509434462e-03" rms="1.0100763291120529e-01" purity="1.0000000000000000e+00" nType="-99"/>
              <Node pos="r" depth="4" NCoef="0" IVar="-1" Cut="0.0000000000000000e+00" cType="1" res="1.8813159316778183e-02" rms="1.0453967750072479e-01" purity="1.0000000000000000e+00" nType="-99"/>
            </Node>
            <Node pos="r" depth="3" NCoef="0" IVar="27" Cut="7.6686625000000000e+05" cType="1" res="7.4441112577915192e-02" rms="1.0228797048330307e-01" purity="1.0000000000000000e+00" nType="0">
              <Node pos="l" depth="4" NCoef="0" IVar="-1" Cut="0.0000000000000000e+00" cType="1" res="9.1675654053688049e-02" rms="8.5789881646633148e-02" purity="1.0000000000000000e+00" nType="-99"/>
              <Node pos="r" depth="4" NCoef="0" IVar="-1" Cut="0.0000000000000000e+00" cType="1" res="1.9419932737946510e-02" rms="1.1074879765510559e-01" purity="1.0000000000000000e+00" nType="-99"/>
            </Node>
          </Node>
        </Node>
      </Node>
    </BinaryTree>
    <BinaryTree type="DecisionTree" boostWeight="1.0000000000000000e+00" itree="2">
      <Node pos="s" depth="0" NCoef="0" IVar="33" Cut="5.3968634033203125e+02" cType="1" res="1.5287979040294886e-03" rms="9.8021708428859711e-02" purity="1.0000000000000000e+00" nType="0">
        <Node pos="l" depth="1" NCoef="0" IVar="33" Cut="3.9135522460937500e+02" cType="1" res="-1.4810771681368351e-02" rms="9.0496271848678589e-02" purity="1.0000000000000000e+00" nType="0">
          <Node pos="l" depth="2" NCoef="0" IVar="0" Cut="7.5314331054687500e+01" cType="1" res="-3.6025214940309525e-02" rms="7.9564772546291351e-02" purity="1.0000000000000000e+00" nType="0">
            <Node pos="l" depth="3" NCoef="0" IVar="33" Cut="3.6046527099609375e+02" cType="1" res="-2.5407919660210609e-02" rms="7.6336309313774109e-02" purity="1.0000000000000000e+00" nType="0">
              <Node pos="l" depth="4" NCoef="0" IVar="-1" Cut="0.0000000000000000e+00" cType="1" res="-1.2421292252838612e-02" rms="6.8633206188678741e-02" purity="1.0000000000000000e+00" nType="-99"/>
              <Node pos="r" depth="4" NCoef="0" IVar="-1" Cut="0.0000000000000000e+00" cType="1" res="-6.1426251195371151e-03" rms="7.9312376677989960e-02" purity="1.0000000000000000e+00" nType="-99"/>
            </Node>
            <Node pos="r" depth="3" NCoef="0" IVar="3" Cut="1.0818006896972656e+02" cType="1" res="-4.9693461507558823e-02" rms="8.1526473164558411e-02" purity="1.0000000000000000e+00" nType="0">
              <Node pos="l" depth="4" NCoef="0" IVar="-1" Cut="0.0000000000000000e+00" cType="1" res="-1.5231927856802940e-02" rms="8.1296443939208984e-02" purity="1.0000000000000000e+00" nType="-99"/>
              <Node pos="r" depth="4" NCoef="0" IVar="-1" Cut="0.0000000000000000e+00" cType="1" res="-4.0866017341613770e-02" rms="6.9796852767467499e-02" purity="1.0000000000000000e+00" nType="-99"/>
            </Node>
          </Node>
          <Node pos="r" depth="2" NCoef="0" IVar="33" Cut="4.5492025756835938e+02" cType="1" res="-2.6856714393943548e-03" rms="9.4063028693199158e-02" purity="1.0000000000000000e+00" nType="0">
            <Node pos="l" depth="3" NCoef="0" IVar="21" Cut="1.9877166748046875e+00" cType="1" res="-1.1632248759269714e-02" rms="9.1897040605545044e-02" purity="1.0000000000000000e+00" nType="0">
              <Node pos="l" depth="4" NCoef="0" IVar="-1" Cut="0.0000000000000000e+00" cType="1" res="5.8646337129175663e-04" rms="8.9717932045459747e-02" purity="1.0000000000000000e+00" nType="-99"/>
              <Node pos="r" depth="4" NCoef="0" IVar="-1" Cut="0.0000000000000000e+00" cType="1" res="-8.1644151359796524e-03" rms="9.2447608709335327e-02" purity="1.0000000000000000e+00" nType="-99"/>
            </Node>
            <Node pos="r" depth="3" NCoef="0" IVar="17" Cut="4.2701976776123047e+01" cType="1" res="8.7820887565612793e-03" rms="9.5551244914531708e-02" purity="1.0000000000000000e+00" nType="0">
              <Node pos="l" depth="4" NCoef="0" IVar="-1" Cut="0.0000000000000000e+00" cType="1" res="1.1908075772225857e-02" rms="9.9913492798805237e-02" purity="1.0000000000000000e+00" nType="-99"/>
              <Node pos="r" depth="4" NCoef="0" IVar="-1" Cut="0.0000000000000000e+00" cType="1" res="3.8782652700319886e-04" rms="9.2440143227577209e-02" purity="1.0000000000000000e+00" nType="-99"/>
            </Node>
          </Node>
        </Node>
        <Node pos="r" depth="1" NCoef="0" IVar="33" Cut="1.0959747314453125e+03" cType="1" res="3.2751206308603287e-02" rms="1.0408715158700943e-01" purity="1.0000000000000000e+00" nType="0">
          <Node pos="l" depth="2" NCoef="0" IVar="0" Cut="2.0466781616210938e+02" cType="1" res="2.8061540797352791e-02" rms="1.0327211767435074e-01" purity="1.0000000000000000e+00" nType="0">
            <Node pos="l" depth="3" NCoef="0" IVar="27" Cut="2.7669903125000000e+05" cType="1" res="3.7631507962942123e-02" rms="1.0254653543233871e-01" purity="1.0000000000000000e+00" nType="0">
              <Node pos="l" depth="4" NCoef="0" IVar="-1" Cut="0.0000000000000000e+00" cType="1" res="3.3854171633720398e-02" rms="9.9551066756248474e-02" purity="1.0000000000000000e+00" nType="-99"/>
              <Node pos="r" depth="4" NCoef="0" IVar="-1" Cut="0.0000000000000000e+00" cType="1" res="1.1912675574421883e-02" rms="1.0228737443685532e-01" purity="1.0000000000000000e+00" nType="-99"/>
            </Node>
            <Node pos="r" depth="3" NCoef="0" IVar="13" Cut="1.3637901306152344e+02" cType="1" res="-1.5886606415733695e-03" rms="9.9824517965316772e-02" purity="1.0000000000000000e+00" nType="0">
              <Node pos="l" depth="4" NCoef="0" IVar="-1" Cut="0.0000000000000000e+00" cType="1" res="2.8875446878373623e-03" rms="1.0120765119791031e-01" purity="1.0000000000000000e+00" nType="-99"/>
              <Node pos="r" depth="4" NCoef="0" IVar="-1" Cut="0.0000000000000000e+00" cType="1" res="-8.4714759141206741e-03" rms="9.4030648469924927e-02" purity="1.0000000000000000e+00" nType="-99"/>
            </Node>
          </Node>
          <Node pos="r" depth="2" NCoef="0" IVar="27" Cut="5.9362268750000000e+05" cType="1" res="8.4430135786533356e-02" rms="9.8911367356777191e-02" purity="1.0000000000000000e+00" nType="0">
            <Node pos="l" depth="3" NCoef="0" IVar="29" Cut="3.6812124252319336e+00" cType="1" res="1.2359735369682312e-01" rms="6.0217313468456268e-02" purity="1.0000000000000000e+00" nType="0">
              <Node pos="l" depth="4" NCoef="0" IVar="-1" Cut="0.0000000000000000e+00" cType="1" res="2.2466269135475159e-01" rms="2.8988182544708252e-02" purity="1.0000000000000000e+00" nType="-99"/>
              <Node pos="r" depth="4" NCoef="0" IVar="-1" Cut="0.0000000000000000e+00" cType="1" res="1.2988933920860291e-01" rms="8.2730881869792938e-02" purity="1.0000000000000000e+00" nType="-99"/>
            </Node>
            <Node pos="r" depth="3" NCoef="0" IVar="23" Cut="6.8590736389160156e+01" cType="1" res="5.0497245043516159e-02" rms="1.1241630464792252e-01" purity="1.0000000000000000e+00" nType="0">
              <Node pos="l" depth="4" NCoef="0" IVar="-1" Cut="0.0000000000000000e+00" cType="1" res="1.1239475756883621e-01" rms="9.5163278281688690e-02" purity="1.0000000000000000e+00" nType="-99"/>
              <Node pos="r" depth="4" NCoef="0" IVar="-1" Cut="0.0000000000000000e+00" cType="1" res="1.9000599160790443e-02" rms="1.1482827365398407e-01" purity="1.0000000000000000e+00" nType="-99"/>
            </Node>
          </Node>
        </Node>
      </Node>
    </BinaryTree>
    <BinaryTree type="DecisionTree" boostWeight="1.0000000000000000e+00" itree="3">
      <Node pos="s" depth="0" NCoef="0" IVar="33" Cut="5.3968634033203125e+02" cType="1" res="1.1179988505318761e-03" rms="9.5457285642623901e-02" purity="1.0000000000000000e+00" nType="0">
        <Node pos="l" depth="1" NCoef="0" IVar="33" Cut="4.2841271972656250e+02" cType="1" res="-1.0424684733152390e-02" rms="8.9034497737884521e-02" purity="1.0000000000000000e+00" nType="0">
          <Node pos="l" depth="2" NCoef="0" IVar="3" Cut="9.0727081298828125e+01" cType="1" res="-2.0260252058506012e-02" rms="8.4281735122203827e-02" purity="1.0000000000000000e+00" nType="0">
            <Node pos="l" depth="3" NCoef="0" IVar="30" Cut="1.0175942182540894e+00" cType="1" res="-1.4430496841669083e-02" rms="8.2849279046058655e-02" purity="1.0000000000000000e+00" nType="0">
              <Node pos="l" depth="4" NCoef="0" IVar="-1" Cut="0.0000000000000000e+00" cType="1" res="-3.7808266934007406e-03" rms="8.2501202821731567e-02" purity="1.0000000000000000e+00" nType="-99"/>
              <Node pos="r" depth="4" NCoef="0" IVar="-1" Cut="0.0000000000000000e+00" cType="1" res="-1.7180917784571648e-02" rms="8.1293344497680664e-02" purity="1.0000000000000000e+00" nType="-99"/>
            </Node>
            <Node pos="r" depth="3" NCoef="0" IVar="27" Cut="1.8538631250000000e+05" cType="1" res="-3.4123472869396210e-02" rms="8.6021594703197479e-02" purity="1.0000000000000000e+00" nType="0">
              <Node pos="l" depth="4" NCoef="0" IVar="-1" Cut="0.0000000000000000e+00" cType="1" res="-6.1499252915382385e-03" rms="8.6146041750907898e-02" purity="1.0000000000000000e+00" nType="-99"/>
              <Node pos="r" depth="4" NCoef="0" IVar="-1" Cut="0.0000000000000000e+00" cType="1" res="-1.8639501184225082e-02" rms="8.3852410316467285e-02" purity="1.0000000000000000e+00" nType="-99"/>
            </Node>
          </Node>
          <Node pos="r" depth="2" NCoef="0" IVar="0" Cut="1.2635518646240234e+02" cType="1" res="3.6088961642235518e-03" rms="9.3634866178035736e-02" purity="1.0000000000000000e+00" nType="0">
            <Node pos="l" depth="3" NCoef="0" IVar="17" Cut="4.2694549560546875e+01" cType="1" res="1.1095792055130005e-02" rms="9.3982569873332977e-02" purity="1.0000000000000000e+00" nType="0">
              <Node pos="l" depth="4" NCoef="0" IVar="-1" Cut="0.0000000000000000e+00" cType="1" res="1.2949148193001747e-02" rms="9.7427822649478912e-02" purity="1.0000000000000000e+00" nType="-99"/>
              <Node pos="r" depth="4" NCoef="0" IVar="-1" Cut="0.0000000000000000e+00" cType="1" res="1.5631513670086861e-03" rms="9.1463454067707062e-02" purity="1.0000000000000000e+00" nType="-99"/>
            </Node>
            <Node pos="r" depth="3" NCoef="0" IVar="0" Cut="2.3757662963867188e+02" cType="1" res="-1.1880407109856606e-02" rms="9.0976051986217499e-02" purity="1.0000000000000000e+00" nType="0">
              <Node pos="l" depth="4" NCoef="0" IVar="-1" Cut="0.0000000000000000e+00" cType="1" res="-3.6020700354129076e-03" rms="9.1015383601188660e-02" purity="1.0000000000000000e+00" nType="-99"/>
              <Node pos="r" depth="4" NCoef="0" IVar="-1" Cut="0.0000000000000000e+00" cType="1" res="-2.7578776702284813e-02" rms="6.5623193979263306e-02" purity="1.0000000000000000e+00" nType="-99"/>
            </Node>
          </Node>
        </Node>
        <Node pos="r" depth="1" NCoef="0" IVar="33" Cut="1.2813509521484375e+03" cType="1" res="2.3174293339252472e-02" rms="1.0312751680612564e-01" purity="1.0000000000000000e+00" nType="0">
          <Node pos="l" depth="2" NCoef="0" IVar="33" Cut="6.8017559814453125e+02" cType="1" res="2.0331827923655510e-02" rms="1.0248697549104691e-01" purity="1.0000000000000000e+00" nType="0">
            <Node pos="l" depth="3" NCoef="0" IVar="0" Cut="1.3586814880371094e+02" cType="1" res="8.0292141065001488e-03" rms="9.9204786121845245e-02" purity="1.0000000000000000e+00" nType="0">
              <Node pos="l" depth="4" NCoef="0" IVar="-1" Cut="0.0000000000000000e+00" cType="1" res="9.3208132311701775e-03" rms="1.0080808401107788e-01" purity="1.0000000000000000e+00" nType="-99"/>
              <Node pos="r" depth="4" NCoef="0" IVar="-1" Cut="0.0000000000000000e+00" cType="1" res="-2.1950881928205490e-03" rms="9.5900811254978180e-02" purity="1.0000000000000000e+00" nType="-99"/>
            </Node>
            <Node pos="r" depth="3" NCoef="0" IVar="27" Cut="5.6127943750000000e+05" cType="1" res="3.3465549349784851e-02" rms="1.0428910702466965e-01" purity="1.0000000000000000e+00" nType="0">
              <Node pos="l" depth="4" NCoef="0" IVar="-1" Cut="0.0000000000000000e+00" cType="1" res="3.0780822038650513e-02" rms="1.0101743787527084e-01" purity="1.0000000000000000e+00" nType="-99"/>
              <Node pos="r" depth="4" NCoef="0" IVar="-1" Cut="0.0000000000000000e+00" cType="1" res="1.0010752594098449e-03" rms="1.0300336033105850e-01" purity="1.0000000000000000e+00" nType="-99"/>
            </Node>
          </Node>
          <Node pos="r" depth="2" NCoef="0" IVar="27" Cut="1.4739095000000000e+06" cType="1" res="8.4392584860324860e-02" rms="9.7724795341491699e-02" purity="1.0000000000000000e+00" nType="0">
            <Node pos="l" depth="3" NCoef="0" IVar="12" Cut="-7.4652135372161865e-03" cType="1" res="1.0210074484348297e-01" rms="8.3085551857948303e-02" purity="1.0000000000000000e+00" nType="0">
              <Node pos="l" depth="4" NCoef="0" IVar="-1" Cut="0.0000000000000000e+00" cType="1" res="1.0059056431055069e-01" rms="1.1069718003273010e-01" purity="1.0000000000000000e+00" nType="-99"/>
              <Node pos="r" depth="4" NCoef="0" IVar="-1" Cut="0.0000000000000000e+00" cType="1" res="1.9435639679431915e-01" rms="6.5192006528377533e-02" purity="1.0000000000000000e+00" nType="-99"/>
            </Node>
            <Node pos="r" depth="3" NCoef="0" IVar="-1" Cut="0.0000000000000000e+00" cType="1" res="1.4428957365453243e-02" rms="1.1773705482482910e-01" purity="1.0000000000000000e+00" nType="-99"/>
          </Node>
        </Node>
      </Node>
    </BinaryTree>
    <BinaryTree type="DecisionTree" boostWeight="1.0000000000000000e+00" itree="4">
      <Node pos="s" depth="0" NCoef="0" IVar="33" Cut="5.3968634033203125e+02" cType="1" res="7.9043628647923470e-04" rms="9.4223596155643463e-02" purity="1.0000000000000000e+00" nType="0">
        <Node pos="l" depth="1" NCoef="0" IVar="33" Cut="3.9135522460937500e+02" cType="1" res="-7.4894381687045097e-03" rms="8.8294222950935364e-02" purity="1.0000000000000000e+00" nType="0">
          <Node pos="l" depth="2" NCoef="0" IVar="21" Cut="2.0603058338165283e+00" cType="1" res="-1.9578022882342339e-02" rms="8.1483058631420135e-02" purity="1.0000000000000000e+00" nType="0">
            <Node pos="l" depth="3" NCoef="0" IVar="30" Cut="7.7488607168197632e-01" cType="1" res="-1.0982976295053959e-02" rms="7.7731586992740631e-02" purity="1.0000000000000000e+00" nType="0">
              <Node pos="l" depth="4" NCoef="0" IVar="-1" Cut="0.0000000000000000e+00" cType="1" res="-2.1694572642445564e-03" rms="7.6979607343673706e-02" purity="1.0000000000000000e+00" nType="-99"/>
              <Node pos="r" depth="4" NCoef="0" IVar="-1" Cut="0.0000000000000000e+00" cType="1" res="-1.0996202938258648e-02" rms="7.9407356679439545e-02" purity="1.0000000000000000e+00" nType="-99"/>
            </Node>
            <Node pos="r" depth="3" NCoef="0" IVar="13" Cut="9.7967727661132812e+01" cType="1" res="-3.2457899302244186e-02" rms="8.5193581879138947e-02" purity="1.0000000000000000e+00" nType="0">
              <Node pos="l" depth="4" NCoef="0" IVar="-1" Cut="0.0000000000000000e+00" cType="1" res="-1.0158921591937542e-02" rms="8.5803873836994171e-02" purity="1.0000000000000000e+00" nType="-99"/>
              <Node pos="r" depth="4" NCoef="0" IVar="-1" Cut="0.0000000000000000e+00" cType="1" res="-2.4032162502408028e-02" rms="7.6675005257129669e-02" purity="1.0000000000000000e+00" nType="-99"/>
            </Node>
          </Node>
          <Node pos="r" depth="2" NCoef="0" IVar="23" Cut="5.3015163421630859e+01" cType="1" res="-5.8021611766889691e-04" rms="9.1244392096996307e-02" purity="1.0000000000000000e+00" nType="0">
            <Node pos="l" depth="3" NCoef="0" IVar="13" Cut="9.9364013671875000e+01" cType="1" res="1.1281186714768410e-02" rms="9.2976540327072144e-02" purity="1.0000000000000000e+00" nType="0">
              <Node pos="l" depth="4" NCoef="0" IVar="-1" Cut="0.0000000000000000e+00" cType="1" res="8.4025459364056587e-03" rms="9.3656130135059357e-02" purity="1.0000000000000000e+00" nType="-99"/>
              <Node pos="r" depth="4" NCoef="0" IVar="-1" Cut="0.0000000000000000e+00" cType="1" res="-1.1864429106935859e-03" rms="8.9557267725467682e-02" purity="1.0000000000000000e+00" nType="-99"/>
            </Node>
            <Node pos="r" depth="3" NCoef="0" IVar="21" Cut="2.2497098445892334e+00" cType="1" res="-5.4508540779352188e-03" rms="9.0072259306907654e-02" purity="1.0000000000000000e+00" nType="0">
              <Node pos="l" depth="4" NCoef="0" IVar="-1" Cut="0.0000000000000000e+00" cType="1" res="8.1866665277630091e-04" rms="8.8983908295631409e-02" purity="1.0000000000000000e+00" nType="-99"/>
              <Node pos="r" depth="4" NCoef="0" IVar="-1" Cut="0.0000000000000000e+00" cType="1" res="-4.8789978027343750e-03" rms="9.0620376169681549e-02" purity="1.0000000000000000e+00" nType="-99"/>
            </Node>
          </Node>
        </Node>
        <Node pos="r" depth="1" NCoef="0" IVar="0" Cut="1.7792094421386719e+02" cType="1" res="1.6612004488706589e-02" rms="1.0278478264808655e-01" purity="1.0000000000000000e+00" nType="0">
          <Node pos="l" depth="2" NCoef="0" IVar="33" Cut="7.5392199707031250e+02" cType="1" res="2.4794572964310646e-02" rms="1.0331767052412033e-01" purity="1.0000000000000000e+00" nType="0">
            <Node pos="l" depth="3" NCoef="0" IVar="17" Cut="7.6192794799804688e+01" cType="1" res="1.5328910201787949e-02" rms="1.0152347385883331e-01" purity="1.0000000000000000e+00" nType="0">
              <Node pos="l" depth="4" NCoef="0" IVar="-1" Cut="0.0000000000000000e+00" cType="1" res="1.4625180512666702e-02" rms="1.0186529904603958e-01" purity="1.0000000000000000e+00" nType="-99"/>
              <Node pos="r" depth="4" NCoef="0" IVar="-1" Cut="0.0000000000000000e+00" cType="1" res="-3.2882054802030325e-03" rms="9.6962518990039825e-02" purity="1.0000000000000000e+00" nType="-99"/>
            </Node>
            <Node pos="r" depth="3" NCoef="0" IVar="27" Cut="5.3952712500000000e+05" cType="1" res="5.0895437598228455e-02" rms="1.0372871905565262e-01" purity="1.0000000000000000e+00" nType="0">
              <Node pos="l" depth="4" NCoef="0" IVar="-1" Cut="0.0000000000000000e+00" cType="1" res="5.4248034954071045e-02" rms="1.0019470751285553e-01" purity="1.0000000000000000e+00" nType="-99"/>
              <Node pos="r" depth="4" NCoef="0" IVar="-1" Cut="0.0000000000000000e+00" cType="1" res="1.3010117225348949e-02" rms="1.0535343736410141e-01" purity="1.0000000000000000e+00" nType="-99"/>
            </Node>
          </Node>
          <Node pos="r" depth="2" NCoef="0" IVar="33" Cut="1.4667857666015625e+03" cType="1" res="3.0518069397658110e-03" rms="1.0043837130069733e-01" purity="1.0000000000000000e+00" nType="0">
            <Node pos="l" depth="3" NCoef="0" IVar="21" Cut="3.2798743247985840e+00" cType="1" res="-7.1148714050650597e-04" rms="9.8907783627510071e-02" purity="1.0000000000000000e+00" nType="0">
              <Node pos="l" depth="4" NCoef="0" IVar="-1" Cut="0.0000000000000000e+00" cType="1" res="3.1044252682477236e-03" rms="9.7554057836532593e-02" purity="1.0000000000000000e+00" nType="-99"/>
              <Node pos="r" depth="4" NCoef="0" IVar="-1" Cut="0.0000000000000000e+00" cType="1" res="-9.3838507309556007e-03" rms="9.9234193563461304e-02" purity="1.0000000000000000e+00" nType="-99"/>
            </Node>
            <Node pos="r" depth="3" NCoef="0" IVar="27" Cut="9.8232000000000000e+05" cType="1" res="7.8533969819545746e-02" rms="1.0112427175045013e-01" purity="1.0000000000000000e+00" nType="0">
              <Node pos="l" depth="4" NCoef="0" IVar="-1" Cut="0.0000000000000000e+00" cType="1" res="2.0941163599491119e-01" rms="6.4700134098529816e-02" purity="1.0000000000000000e+00" nType="-99"/>
              <Node pos="r" depth="4" NCoef="0" IVar="-1" Cut="0.0000000000000000e+00" cType="1" res="3.5571407526731491e-02" rms="1.1685236543416977e-01" purity="1.0000000000000000e+00" nType="-99"/>
            </Node>
          </Node>
        </Node>
      </Node>
    </BinaryTree>
    <BinaryTree type="DecisionTree" boostWeight="1.0000000000000000e+00" itree="5">
      <Node pos="s" depth="0" NCoef="0" IVar="33" Cut="9.2899237060546875e+02" cType="1" res="4.7539774095639586e-04" rms="9.3356572091579437e-02" purity="1.0000000000000000e+00" nType="0">
        <Node pos="l" depth="1" NCoef="0" IVar="33" Cut="4.5615884399414062e+02" cType="1" res="-1.5872906660661101e-03" rms="9.1928735375404358e-02" purity="1.0000000000000000e+00" nType="0">
          <Node pos="l" depth="2" NCoef="0" IVar="31" Cut="-1.2906074523925781e+00" cType="1" res="-9.9228918552398682e-03" rms="8.5733376443386078e-02" purity="1.0000000000000000e+00" nType="0">
            <Node pos="l" depth="3" NCoef="0" IVar="17" Cut="4.1529716491699219e+01" cType="1" res="-5.3575448691844940e-02" rms="7.8199997544288635e-02" purity="1.0000000000000000e+00" nType="0">
              <Node pos="l" depth="4" NCoef="0" IVar="-1" Cut="0.0000000000000000e+00" cType="1" res="-1.2498281896114349e-02" rms="8.8071867823600769e-02" purity="1.0000000000000000e+00" nType="-99"/>
              <Node pos="r" depth="4" NCoef="0" IVar="-1" Cut="0.0000000000000000e+00" cType="1" res="-2.5818992406129837e-02" rms="6.7834191024303436e-02" purity="1.0000000000000000e+00" nType="-99"/>
            </Node>
            <Node pos="r" depth="3" NCoef="0" IVar="3" Cut="1.5773214721679688e+02" cType="1" res="-8.6331265047192574e-03" rms="8.5608035326004028e-02" purity="1.0000000000000000e+00" nType="0">
              <Node pos="l" depth="4" NCoef="0" IVar="-1" Cut="0.0000000000000000e+00" cType="1" res="-2.1447020117193460e-03" rms="8.5176803171634674e-02" purity="1.0000000000000000e+00" nType="-99"/>
              <Node pos="r" depth="4" NCoef="0" IVar="-1" Cut="0.0000000000000000e+00" cType="1" res="-1.9633920863270760e-02" rms="8.7944813072681427e-02" purity="1.0000000000000000e+00" nType="-99"/>
            </Node>
          </Node>
          <Node pos="r" depth="2" NCoef="0" IVar="17" Cut="8.7018295288085938e+01" cType="1" res="6.9323135539889336e-03" rms="9.7119875252246857e-02" purity="1.0000000000000000e+00" nType="0">
            <Node pos="l" depth="3" NCoef="0" IVar="27" Cut="2.0842459375000000e+05" cType="1" res="1.1559298262000084e-02" rms="9.8145522177219391e-02" purity="1.0000000000000000e+00" nType="0">
              <Node pos="l" depth="4" NCoef="0" IVar="-1" Cut="0.0000000000000000e+00" cType="1" res="1.3909773901104927e-02" rms="9.8151944577693939e-02" purity="1.0000000000000000e+00" nType="-99"/>
              <Node pos="r" depth="4" NCoef="0" IVar="-1" Cut="0.0000000000000000e+00" cType="1" res="2.0743133500218391e-03" rms="9.7423858940601349e-02" purity="1.0000000000000000e+00" nType="-99"/>
            </Node>
            <Node pos="r" depth="3" NCoef="0" IVar="32" Cut="-6.6471761465072632e-01" cType="1" res="-9.4736078754067421e-03" rms="9.1526478528976440e-02" purity="1.0000000000000000e+00" nType="0">
              <Node pos="l" depth="4" NCoef="0" IVar="-1" Cut="0.0000000000000000e+00" cType="1" res="2.8278499376028776e-03" rms="9.3094617128372192e-02" purity="1.0000000000000000e+00" nType="-99"/>
              <Node pos="r" depth="4" NCoef="0" IVar="-1" Cut="0.0000000000000000e+00" cType="1" res="-5.7075982913374901e-03" rms="9.0561240911483765e-02" purity="1.0000000000000000e+00" nType="-99"/>
            </Node>
          </Node>
        </Node>
        <Node pos="r" depth="1" NCoef="0" IVar="27" Cut="5.8162406250000000e+05" cType="1" res="3.5131670534610748e-02" rms="1.0903149843215942e-01" purity="1.0000000000000000e+00" nType="0">
          <Node pos="l" depth="2" NCoef="0" IVar="27" Cut="5.1156962500000000e+05" cType="1" res="6.4496427774429321e-02" rms="1.0174042731523514e-01" purity="1.0000000000000000e+00" nType="0">
            <Node pos="l" depth="3" NCoef="0" IVar="21" Cut="3.5752542018890381e+00" cType="1" res="7.4163518846035004e-02" rms="9.7047261893749237e-02" purity="1.0000000000000000e+00" nType="0">
              <Node pos="l" depth="4" NCoef="0" IVar="-1" Cut="0.0000000000000000e+00" cType="1" res="9.9551171064376831e-02" rms="9.3239523470401764e-02" purity="1.0000000000000000e+00" nType="-99"/>
              <Node pos="r" depth="4" NCoef="0" IVar="-1" Cut="0.0000000000000000e+00" cType="1" res="1.8799955025315285e-02" rms="1.0776542872190475e-01" purity="1.0000000000000000e+00" nType="-99"/>
            </Node>
            <Node pos="r" depth="3" NCoef="0" IVar="0" Cut="2.0919200134277344e+02" cType="1" res="9.9940169602632523e-03" rms="1.1006175726652145e-01" purity="1.0000000000000000e+00" nType="0">
              <Node pos="l" depth="4" NCoef="0" IVar="-1" Cut="0.0000000000000000e+00" cType="1" res="3.5245448350906372e-02" rms="1.1823495477437973e-01" purity="1.0000000000000000e+00" nType="-99"/>
              <Node pos="r" depth="4" NCoef="0" IVar="-1" Cut="0.0000000000000000e+00" cType="1" res="-3.7787547335028648e-03" rms="9.7228944301605225e-02" purity="1.0000000000000000e+00" nType="-99"/>
            </Node>
          </Node>
          <Node pos="r" depth="2" NCoef="0" IVar="26" Cut="2.0256326562500000e+05" cType="1" res="7.6245404779911041e-03" rms="1.0845747590065002e-01" purity="1.0000000000000000e+00" nType="0">
            <Node pos="l" depth="3" NCoef="0" IVar="23" Cut="5.6977897644042969e+01" cType="1" res="-1.4652285724878311e-02" rms="1.0627590119838715e-01" purity="1.0000000000000000e+00" nType="0">
              <Node pos="l" depth="4" NCoef="0" IVar="-1" Cut="0.0000000000000000e+00" cType="1" res="5.9186898171901703e-02" rms="1.0692730545997620e-01" purity="1.0000000000000000e+00" nType="-99"/>
              <Node pos="r" depth="4" NCoef="0" IVar="-1" Cut="0.0000000000000000e+00" cType="1" res="-1.4049212448298931e-02" rms="1.0190098732709885e-01" purity="1.0000000000000000e+00" nType="-99"/>
            </Node>
            <Node pos="r" depth="3" NCoef="0" IVar="23" Cut="8.7617240905761719e+01" cType="1" res="3.3283714205026627e-02" rms="1.0522646456956863e-01" purity="1.0000000000000000e+00" nType="0">
              <Node pos="l" depth="4" NCoef="0" IVar="-1" Cut="0.0000000000000000e+00" cType="1" res="4.0724664926528931e-02" rms="9.8026998341083527e-02" purity="1.0000000000000000e+00" nType="-99"/>
              <Node pos="r" depth="4" NCoef="0" IVar="-1" Cut="0.0000000000000000e+00" cType="1" res="-2.7965090703219175e-03" rms="1.0297239571809769e-01" purity="1.0000000000000000e+00" nType="-99"/>
            </Node>
          </Node>
        </Node>
      </Node>
    </BinaryTree>
    <BinaryTree type="DecisionTree" boostWeight="1.0000000000000000e+00" itree="6">
      <Node pos="s" depth="0" NCoef="0" IVar="33" Cut="7.3433935546875000e+02" cType="1" res="2.0621977455448359e-04" rms="9.2873774468898773e-02" purity="1.0000000000000000e+00" nType="0">
        <Node pos="l" depth="1" NCoef="0" IVar="33" Cut="5.6742492675781250e+02" cType="1" res="-2.4407906457781792e-03" rms="9.0221405029296875e-02" purity="1.0000000000000000e+00" nType="0">
          <Node pos="l" depth="2" NCoef="0" IVar="21" Cut="2.2392342090606689e+00" cType="1" res="-5.3688045591115952e-03" rms="8.7897390127182007e-02" purity="1.0000000000000000e+00" nType="0">
            <Node pos="l" depth="3" NCoef="0" IVar="20" Cut="6.2094268798828125e+00" cType="1" res="1.1117751273559406e-04" rms="8.5447750985622406e-02" purity="1.0000000000000000e+00" nType="0">
              <Node pos="l" depth="4" NCoef="0" IVar="-1" Cut="0.0000000000000000e+00" cType="1" res="8.7151825428009033e-03" rms="8.8278770446777344e-02" purity="1.0000000000000000e+00" nType="-99"/>
              <Node pos="r" depth="4" NCoef="0" IVar="-1" Cut="0.0000000000000000e+00" cType="1" res="-6.0404581017792225e-04" rms="8.4721907973289490e-02" purity="1.0000000000000000e+00" nType="-99"/>
            </Node>
            <Node pos="r" depth="3" NCoef="0" IVar="21" Cut="3.5724167823791504e+00" cType="1" res="-1.2436527758836746e-02" rms="9.0470612049102783e-02" purity="1.0000000000000000e+00" nType="0">
              <Node pos="l" depth="4" NCoef="0" IVar="-1" Cut="0.0000000000000000e+00" cType="1" res="-4.1302572935819626e-03" rms="9.0394422411918640e-02" purity="1.0000000000000000e+00" nType="-99"/>
              <Node pos="r" depth="4" NCoef="0" IVar="-1" Cut="0.0000000000000000e+00" cType="1" res="-2.1810829639434814e-02" rms="8.4393456578254700e-02" purity="1.0000000000000000e+00" nType="-99"/>
            </Node>
          </Node>
          <Node pos="r" depth="2" NCoef="0" IVar="27" Cut="3.4652771875000000e+05" cType="1" res="1.0086565278470516e-02" rms="9.8576627671718597e-02" purity="1.0000000000000000e+00" nType="0">
            <Node pos="l" depth="3" NCoef="0" IVar="28" Cut="-6.0759037733078003e-01" cType="1" res="2.2247230634093285e-02" rms="1.0019974410533905e-01" purity="1.0000000000000000e+00" nType="0">
              <Node pos="l" depth="4" NCoef="0" IVar="-1" Cut="0.0000000000000000e+00" cType="1" res="3.9483200758695602e-02" rms="8.4372118115425110e-02" purity="1.0000000000000000e+00" nType="-99"/>
              <Node pos="r" depth="4" NCoef="0" IVar="-1" Cut="0.0000000000000000e+00" cType="1" res="8.5870763286948204e-03" rms="1.0049822926521301e-01" purity="1.0000000000000000e+00" nType="-99"/>
            </Node>
            <Node pos="r" depth="3" NCoef="0" IVar="28" Cut="6.1847549676895142e-01" cType="1" res="-2.0531509071588516e-03" rms="9.5395348966121674e-02" purity="1.0000000000000000e+00" nType="0">
              <Node pos="l" depth="4" NCoef="0" IVar="-1" Cut="0.0000000000000000e+00" cType="1" res="-5.5759577080607414e-03" rms="9.3655228614807129e-02" purity="1.0000000000000000e+00" nType="-99"/>
              <Node pos="r" depth="4" NCoef="0" IVar="-1" Cut="0.0000000000000000e+00" cType="1" res="1.1556082405149937e-02" rms="9.4685859978199005e-02" purity="1.0000000000000000e+00" nType="-99"/>
            </Node>
          </Node>
        </Node>
        <Node pos="r" depth="1" NCoef="0" IVar="0" Cut="2.3300886535644531e+02" cType="1" res="1.7054082825779915e-02" rms="1.0671503096818924e-01" purity="1.0000000000000000e+00" nType="0">
          <Node pos="l" depth="2" NCoef="0" IVar="33" Cut="1.6150275878906250e+03" cType="1" res="2.7123605832457542e-02" rms="1.0693386197090149e-01" purity="1.0000000000000000e+00" nType="0">
            <Node pos="l" depth="3" NCoef="0" IVar="3" Cut="1.3861375427246094e+02" cType="1" res="2.4088714271783829e-02" rms="1.0671404004096985e-01" purity="1.0000000000000000e+00" nType="0">
              <Node pos="l" depth="4" NCoef="0" IVar="-1" Cut="0.0000000000000000e+00" cType="1" res="2.1105445921421051e-02" rms="1.0626126825809479e-01" purity="1.0000000000000000e+00" nType="-99"/>
              <Node pos="r" depth="4" NCoef="0" IVar="-1" Cut="0.0000000000000000e+00" cType="1" res="-4.4747060164809227e-03" rms="1.0301016271114349e-01" purity="1.0000000000000000e+00" nType="-99"/>
            </Node>
            <Node pos="r" depth="3" NCoef="0" IVar="-1" Cut="0.0000000000000000e+00" cType="1" res="2.1985499560832977e-01" rms="8.1376351416110992e-02" purity="1.0000000000000000e+00" nType="-99"/>
          </Node>
          <Node pos="r" depth="2" NCoef="0" IVar="30" Cut="9.9105620384216309e-01" cType="1" res="-3.9240894839167595e-03" rms="1.0314733535051346e-01" purity="1.0000000000000000e+00" nType="0">
            <Node pos="l" depth="3" NCoef="0" IVar="0" Cut="4.0272277832031250e+02" cType="1" res="-9.1658793389797211e-03" rms="1.0256345570087433e-01" purity="1.0000000000000000e+00" nType="0">
              <Node pos="l" depth="4" NCoef="0" IVar="-1" Cut="0.0000000000000000e+00" cType="1" res="-2.0743780769407749e-03" rms="1.0455905646085739e-01" purity="1.0000000000000000e+00" nType="-99"/>
              <Node pos="r" depth="4" NCoef="0" IVar="-1" Cut="0.0000000000000000e+00" cType="1" res="-1.5569156035780907e-02" rms="8.6935579776763916e-02" purity="1.0000000000000000e+00" nType="-99"/>
            </Node>
            <Node pos="r" depth="3" NCoef="0" IVar="17" Cut="5.9778015136718750e+01" cType="1" res="2.8430404141545296e-02" rms="1.0081830620765686e-01" purity="1.0000000000000000e+00" nType="0">
              <Node pos="l" depth="4" NCoef="0" IVar="-1" Cut="0.0000000000000000e+00" cType="1" res="3.3464949578046799e-02" rms="9.5738627016544342e-02" purity="1.0000000000000000e+00" nType="-99"/>
              <Node pos="r" depth="4" NCoef="0" IVar="-1" Cut="0.0000000000000000e+00" cType="1" res="5.3253129590302706e-04" rms="9.8863869905471802e-02" purity="1.0000000000000000e+00" nType="-99"/>
            </Node>
          </Node>
        </Node>
      </Node>
    </BinaryTree>
    <BinaryTree type="DecisionTree" boostWeight="1.0000000000000000e+00" itree="7">
      <Node pos="s" depth="0" NCoef="0" IVar="33" Cut="1.1236453857421875e+03" cType="1" res="5.6783890613587573e-05" rms="9.2384658753871918e-02" purity="1.0000000000000000e+00" nType="0">
        <Node pos="l" depth="1" NCoef="0" IVar="33" Cut="3.8205850219726562e+02" cType="1" res="-9.3363941414281726e-04" rms="9.1708883643150330e-02" purity="1.0000000000000000e+00" nType="0">
          <Node pos="l" depth="2" NCoef="0" IVar="0" Cut="9.3717658996582031e+01" cType="1" res="-1.2656278908252716e-02" rms="8.0687656998634338e-02" purity="1.0000000000000000e+00" nType="0">
            <Node pos="l" depth="3" NCoef="0" IVar="30" Cut="-5.0301390886306763e-01" cType="1" res="-7.7909319661557674e-03" rms="7.7902942895889282e-02" purity="1.0000000000000000e+00" nType="0">
              <Node pos="l" depth="4" NCoef="0" IVar="-1" Cut="0.0000000000000000e+00" cType="1" res="-1.3997551053762436e-02" rms="8.0874361097812653e-02" purity="1.0000000000000000e+00" nType="-99"/>
              <Node pos="r" depth="4" NCoef="0" IVar="-1" Cut="0.0000000000000000e+00" cType="1" res="-1.4474799390882254e-03" rms="7.7255249023437500e-02" purity="1.0000000000000000e+00" nType="-99"/>
            </Node>
            <Node pos="r" depth="3" NCoef="0" IVar="3" Cut="8.9621734619140625e+01" cType="1" res="-2.8409650549292564e-02" rms="8.7267562747001648e-02" purity="1.0000000000000000e+00" nType="0">
              <Node pos="l" depth="4" NCoef="0" IVar="-1" Cut="0.0000000000000000e+00" cType="1" res="-6.5649319440126419e-03" rms="8.7338000535964966e-02" purity="1.0000000000000000e+00" nType="-99"/>
              <Node pos="r" depth="4" NCoef="0" IVar="-1" Cut="0.0000000000000000e+00" cType="1" res="-2.3659903556108475e-02" rms="8.0807335674762726e-02" purity="1.0000000000000000e+00" nType="-99"/>
            </Node>
          </Node>
          <Node pos="r" depth="2" NCoef="0" IVar="21" Cut="3.3485367298126221e+00" cType="1" res="1.9275511149317026e-03" rms="9.3981578946113586e-02" purity="1.0000000000000000e+00" nType="0">
            <Node pos="l" depth="3" NCoef="0" IVar="13" Cut="1.4415698242187500e+02" cType="1" res="3.7529044784605503e-03" rms="9.3467190861701965e-02" purity="1.0000000000000000e+00" nType="0">
              <Node pos="l" depth="4" NCoef="0" IVar="-1" Cut="0.0000000000000000e+00" cType="1" res="2.9163872823119164e-03" rms="9.3382231891155243e-02" purity="1.0000000000000000e+00" nType="-99"/>
              <Node pos="r" depth="4" NCoef="0" IVar="-1" Cut="0.0000000000000000e+00" cType="1" res="-4.1560796089470387e-03" rms="9.2690885066986084e-02" purity="1.0000000000000000e+00" nType="-99"/>
            </Node>
            <Node pos="r" depth="3" NCoef="0" IVar="29" Cut="3.5678303241729736e+00" cType="1" res="-2.0765613764524460e-02" rms="9.7338907420635223e-02" purity="1.0000000000000000e+00" nType="0">
              <Node pos="l" depth="4" NCoef="0" IVar="-1" Cut="0.0000000000000000e+00" cType="1" res="3.7621476803906262e-04" rms="9.5190823078155518e-02" purity="1.0000000000000000e+00" nType="-99"/>
              <Node pos="r" depth="4" NCoef="0" IVar="-1" Cut="0.0000000000000000e+00" cType="1" res="-1.5126317739486694e-02" rms="9.6859849989414215e-02" purity="1.0000000000000000e+00" nType="-99"/>
            </Node>
          </Node>
        </Node>
        <Node pos="r" depth="1" NCoef="0" IVar="27" Cut="5.9362268750000000e+05" cType="1" res="3.7306956946849823e-02" rms="1.0857898741960526e-01" purity="1.0000000000000000e+00" nType="0">
          <Node pos="l" depth="2" NCoef="0" IVar="14" Cut="-9.3875735998153687e-01" cType="1" res="6.6295377910137177e-02" rms="9.7493313252925873e-02" purity="1.0000000000000000e+00" nType="0">
            <Node pos="l" depth="3" NCoef="0" IVar="-1" Cut="0.0000000000000000e+00" cType="1" res="7.2080497629940510e-03" rms="1.1169293522834778e-01" purity="1.0000000000000000e+00" nType="-99"/>
            <Node pos="r" depth="3" NCoef="0" IVar="33" Cut="1.2767108154296875e+03" cType="1" res="7.9628959298133850e-02" rms="8.8709317147731781e-02" purity="1.0000000000000000e+00" nType="0">
              <Node pos="l" depth="4" NCoef="0" IVar="-1" Cut="0.0000000000000000e+00" cType="1" res="4.8141099512577057e-02" rms="1.0097896307706833e-01" purity="1.0000000000000000e+00" nType="-99"/>
              <Node pos="r" depth="4" NCoef="0" IVar="-1" Cut="0.0000000000000000e+00" cType="1" res="1.2868560850620270e-01" rms="6.8233802914619446e-02" purity="1.0000000000000000e+00" nType="-99"/>
            </Node>
          </Node>
          <Node pos="r" depth="2" NCoef="0" IVar="12" Cut="4.7054192982614040e-03" cType="1" res="1.2834317982196808e-02" rms="1.1139857769012451e-01" purity="1.0000000000000000e+00" nType="0">
            <Node pos="l" depth="3" NCoef="0" IVar="17" Cut="9.1856483459472656e+01" cType="1" res="-2.5172481313347816e-02" rms="1.0886487364768982e-01" purity="1.0000000000000000e+00" nType="0">
              <Node pos="l" depth="4" NCoef="0" IVar="-1" Cut="0.0000000000000000e+00" cType="1" res="-3.0083231627941132e-02" rms="9.1934427618980408e-02" purity="1.0000000000000000e+00" nType="-99"/>
              <Node pos="r" depth="4" NCoef="0" IVar="-1" Cut="0.0000000000000000e+00" cType="1" res="2.2120229899883270e-02" rms="1.1476422846317291e-01" purity="1.0000000000000000e+00" nType="-99"/>
            </Node>
            <Node pos="r" depth="3" NCoef="0" IVar="23" Cut="6.0875877380371094e+01" cType="1" res="3.2563038170337677e-02" rms="1.0751877725124359e-01" purity="1.0000000000000000e+00" nType="0">
              <Node pos="l" depth="4" NCoef="0" IVar="-1" Cut="0.0000000000000000e+00" cType="1" res="5.7521898299455643e-02" rms="9.4305768609046936e-02" purity="1.0000000000000000e+00" nType="-99"/>
              <Node pos="r" depth="4" NCoef="0" IVar="-1" Cut="0.0000000000000000e+00" cType="1" res="1.3311355374753475e-02" rms="1.0810104757547379e-01" purity="1.0000000000000000e+00" nType="-99"/>
            </Node>
          </Node>
        </Node>
      </Node>
    </BinaryTree>
    <BinaryTree type="DecisionTree" boostWeight="1.0000000000000000e+00" itree="8">
      <Node pos="s" depth="0" NCoef="0" IVar="32" Cut="-6.9473737478256226e-01" cType="1" res="-8.3012768300250173e-05" rms="9.1769054532051086e-02" purity="1.0000000000000000e+00" nType="0">
        <Node pos="l" depth="1" NCoef="0" IVar="33" Cut="6.3485565185546875e+02" cType="1" res="9.1481599956750870e-03" rms="9.0427212417125702e-02" purity="1.0000000000000000e+00" nType="0">
          <Node pos="l" depth="2" NCoef="0" IVar="31" Cut="-1.0577896833419800e+00" cType="1" res="3.8581232074648142e-03" rms="8.7796598672866821e-02" purity="1.0000000000000000e+00" nType="0">
            <Node pos="l" depth="3" NCoef="0" IVar="14" Cut="-4.2317810654640198e-01" cType="1" res="-2.5020113214850426e-02" rms="8.6777165532112122e-02" purity="1.0000000000000000e+00" nType="0">
              <Node pos="l" depth="4" NCoef="0" IVar="-1" Cut="0.0000000000000000e+00" cType="1" res="-1.9397459691390395e-03" rms="8.7784759700298309e-02" purity="1.0000000000000000e+00" nType="-99"/>
              <Node pos="r" depth="4" NCoef="0" IVar="-1" Cut="0.0000000000000000e+00" cType="1" res="-1.5430249273777008e-02" rms="8.3228237926959991e-02" purity="1.0000000000000000e+00" nType="-99"/>
            </Node>
            <Node pos="r" depth="3" NCoef="0" IVar="30" Cut="9.1745173931121826e-01" cType="1" res="7.9225692898035049e-03" rms="8.7174519896507263e-02" purity="1.0000000000000000e+00" nType="0">
              <Node pos="l" depth="4" NCoef="0" IVar="-1" Cut="0.0000000000000000e+00" cType="1" res="5.3386725485324860e-03" rms="8.4555469453334808e-02" purity="1.0000000000000000e+00" nType="-99"/>
              <Node pos="r" depth="4" NCoef="0" IVar="-1" Cut="0.0000000000000000e+00" cType="1" res="-3.0533822719007730e-03" rms="9.2671684920787811e-02" purity="1.0000000000000000e+00" nType="-99"/>
            </Node>
          </Node>
          <Node pos="r" depth="2" NCoef="0" IVar="3" Cut="1.7468156433105469e+02" cType="1" res="3.6232698708772659e-02" rms="9.8491840064525604e-02" purity="1.0000000000000000e+00" nType="0">
            <Node pos="l" depth="3" NCoef="0" IVar="9" Cut="8.3944198608398438e+01" cType="1" res="4.1405983269214630e-02" rms="9.7275741398334503e-02" purity="1.0000000000000000e+00" nType="0">
              <Node pos="l" depth="4" NCoef="0" IVar="-1" Cut="0.0000000000000000e+00" cType="1" res="2.8349345549941063e-02" rms="9.3463465571403503e-02" purity="1.0000000000000000e+00" nType="-99"/>
              <Node pos="r" depth="4" NCoef="0" IVar="-1" Cut="0.0000000000000000e+00" cType="1" res="8.3024585619568825e-03" rms="1.0311999171972275e-01" purity="1.0000000000000000e+00" nType="-99"/>
            </Node>
            <Node pos="r" depth="3" NCoef="0" IVar="-1" Cut="0.0000000000000000e+00" cType="1" res="-1.1290570721030235e-02" rms="9.2421576380729675e-02" purity="1.0000000000000000e+00" nType="-99"/>
          </Node>
        </Node>
        <Node pos="r" depth="1" NCoef="0" IVar="28" Cut="4.8742878437042236e-01" cType="1" res="-2.4152875412255526e-03" rms="9.1958463191986084e-02" purity="1.0000000000000000e+00" nType="0">
          <Node pos="l" depth="2" NCoef="0" IVar="29" Cut="2.7811536788940430e+00" cType="1" res="-7.2662993334233761e-03" rms="9.1822162270545959e-02" purity="1.0000000000000000e+00" nType="0">
            <Node pos="l" depth="3" NCoef="0" IVar="27" Cut="1.7030915625000000e+05" cType="1" res="-1.4342193026095629e-04" rms="8.8541209697723389e-02" purity="1.0000000000000000e+00" nType="0">
              <Node pos="l" depth="4" NCoef="0" IVar="-1" Cut="0.0000000000000000e+00" cType="1" res="3.6637648008763790e-03" rms="8.6353093385696411e-02" purity="1.0000000000000000e+00" nType="-99"/>
              <Node pos="r" depth="4" NCoef="0" IVar="-1" Cut="0.0000000000000000e+00" cType="1" res="-3.6153485998511314e-03" rms="8.9965388178825378e-02" purity="1.0000000000000000e+00" nType="-99"/>
            </Node>
            <Node pos="r" depth="3" NCoef="0" IVar="28" Cut="-6.2631779909133911e-01" cType="1" res="-1.6236085444688797e-02" rms="9.5037706196308136e-02" purity="1.0000000000000000e+00" nType="0">
              <Node pos="l" depth="4" NCoef="0" IVar="-1" Cut="0.0000000000000000e+00" cType="1" res="3.9997841231524944e-03" rms="9.0540133416652679e-02" purity="1.0000000000000000e+00" nType="-99"/>
              <Node pos="r" depth="4" NCoef="0" IVar="-1" Cut="0.0000000000000000e+00" cType="1" res="-9.2083960771560669e-03" rms="9.5122493803501129e-02" purity="1.0000000000000000e+00" nType="-99"/>
            </Node>
          </Node>
          <Node pos="r" depth="2" NCoef="0" IVar="33" Cut="5.3989355468750000e+02" cType="1" res="7.2700306773185730e-03" rms="9.1463558375835419e-02" purity="1.0000000000000000e+00" nType="0">
            <Node pos="l" depth="3" NCoef="0" IVar="30" Cut="1.0323481559753418e+00" cType="1" res="1.9865843933075666e-03" rms="8.7771765887737274e-02" purity="1.0000000000000000e+00" nType="0">
              <Node pos="l" depth="4" NCoef="0" IVar="-1" Cut="0.0000000000000000e+00" cType="1" res="2.7355730999261141e-03" rms="8.6830914020538330e-02" purity="1.0000000000000000e+00" nType="-99"/>
              <Node pos="r" depth="4" NCoef="0" IVar="-1" Cut="0.0000000000000000e+00" cType="1" res="-8.6989300325512886e-03" rms="9.0170659124851227e-02" purity="1.0000000000000000e+00" nType="-99"/>
            </Node>
            <Node pos="r" depth="3" NCoef="0" IVar="6" Cut="-3.6761084198951721e-01" cType="1" res="1.9004510715603828e-02" rms="9.8160654306411743e-02" purity="1.0000000000000000e+00" nType="0">
              <Node pos="l" depth="4" NCoef="0" IVar="-1" Cut="0.0000000000000000e+00" cType="1" res="-1.5275924466550350e-02" rms="1.0311459004878998e-01" purity="1.0000000000000000e+00" nType="-99"/>
              <Node pos="r" depth="4" NCoef="0" IVar="-1" Cut="0.0000000000000000e+00" cType="1" res="1.0902583599090576e-02" rms="9.6638947725296021e-02" purity="1.0000000000000000e+00" nType="-99"/>
            </Node>
          </Node>
        </Node>
      </Node>
    </BinaryTree>
    <BinaryTree type="DecisionTree" boostWeight="1.0000000000000000e+00" itree="9">
      <Node pos="s" depth="0" NCoef="0" IVar="17" Cut="4.2211402893066406e+01" cType="1" res="-2.3484636039938778e-04" rms="9.0895406901836395e-02" purity="1.0000000000000000e+00" nType="0">
        <Node pos="l" depth="1" NCoef="0" IVar="23" Cut="5.1605747222900391e+01" cType="1" res="6.7597171291708946e-03" rms="9.2971712350845337e-02" purity="1.0000000000000000e+00" nType="0">
          <Node pos="l" depth="2" NCoef="0" IVar="33" Cut="5.3840740966796875e+02" cType="1" res="1.6919959336519241e-02" rms="9.3933552503585815e-02" purity="1.0000000000000000e+00" nType="0">
            <Node pos="l" depth="3" NCoef="0" IVar="33" Cut="4.8317642211914062e+02" cType="1" res="1.1321485973894596e-02" rms="9.0215981006622314e-02" purity="1.0000000000000000e+00" nType="0">
              <Node pos="l" depth="4" NCoef="0" IVar="-1" Cut="0.0000000000000000e+00" cType="1" res="2.8438866138458252e-03" rms="8.9143134653568268e-02" purity="1.0000000000000000e+00" nType="-99"/>
              <Node pos="r" depth="4" NCoef="0" IVar="-1" Cut="0.0000000000000000e+00" cType="1" res="1.8047530204057693e-02" rms="9.1274507343769073e-02" purity="1.0000000000000000e+00" nType="-99"/>
            </Node>
            <Node pos="r" depth="3" NCoef="0" IVar="13" Cut="1.3077932739257812e+02" cType="1" res="3.7660207599401474e-02" rms="1.0398744791746140e-01" purity="1.0000000000000000e+00" nType="0">
              <Node pos="l" depth="4" NCoef="0" IVar="-1" Cut="0.0000000000000000e+00" cType="1" res="3.6311067640781403e-02" rms="1.0051151365041733e-01" purity="1.0000000000000000e+00" nType="-99"/>
              <Node pos="r" depth="4" NCoef="0" IVar="-1" Cut="0.0000000000000000e+00" cType="1" res="-4.6622538939118385e-03" rms="1.0490366071462631e-01" purity="1.0000000000000000e+00" nType="-99"/>
            </Node>
          </Node>
          <Node pos="r" depth="2" NCoef="0" IVar="33" Cut="7.2129943847656250e+02" cType="1" res="2.0017153583467007e-03" rms="9.2133440077304840e-02" purity="1.0000000000000000e+00" nType="0">
            <Node pos="l" depth="3" NCoef="0" IVar="21" Cut="1.6952869892120361e+00" cType="1" res="-9.7907276358455420e-04" rms="8.9398577809333801e-02" purity="1.0000000000000000e+00" nType="0">
              <Node pos="l" depth="4" NCoef="0" IVar="-1" Cut="0.0000000000000000e+00" cType="1" res="4.5899115502834320e-03" rms="8.3950586616992950e-02" purity="1.0000000000000000e+00" nType="-99"/>
              <Node pos="r" depth="4" NCoef="0" IVar="-1" Cut="0.0000000000000000e+00" cType="1" res="-2.6190376374870539e-03" rms="9.1488920152187347e-02" purity="1.0000000000000000e+00" nType="-99"/>
            </Node>
            <Node pos="r" depth="3" NCoef="0" IVar="28" Cut="9.1141080856323242e-01" cType="1" res="2.0764505490660667e-02" rms="1.0585670173168182e-01" purity="1.0000000000000000e+00" nType="0">
              <Node pos="l" depth="4" NCoef="0" IVar="-1" Cut="0.0000000000000000e+00" cType="1" res="9.7514186054468155e-03" rms="1.0601117461919785e-01" purity="1.0000000000000000e+00" nType="-99"/>
              <Node pos="r" depth="4" NCoef="0" IVar="-1" Cut="0.0000000000000000e+00" cType="1" res="6.5137393772602081e-02" rms="8.6299493908882141e-02" purity="1.0000000000000000e+00" nType="-99"/>
            </Node>
          </Node>
        </Node>
        <Node pos="r" depth="1" NCoef="0" IVar="33" Cut="1.7076044921875000e+03" cType="1" res="-3.1268629245460033e-03" rms="8.9863985776901245e-02" purity="1.0000000000000000e+00" nType="0">
          <Node pos="l" depth="2" NCoef="0" IVar="33" Cut="6.0397503662109375e+02" cType="1" res="-3.4956813324242830e-03" rms="8.9646160602569580e-02" purity="1.0000000000000000e+00" nType="0">
            <Node pos="l" depth="3" NCoef="0" IVar="29" Cut="6.0821514129638672e+00" cType="1" res="-7.1363393217325211e-03" rms="8.5314691066741943e-02" purity="1.0000000000000000e+00" nType="0">
              <Node pos="l" depth="4" NCoef="0" IVar="-1" Cut="0.0000000000000000e+00" cType="1" res="-2.7734334580600262e-03" rms="8.5314579308032990e-02" purity="1.0000000000000000e+00" nType="-99"/>
              <Node pos="r" depth="4" NCoef="0" IVar="-1" Cut="0.0000000000000000e+00" cType="1" res="7.9536261036992073e-03" rms="8.0396696925163269e-02" purity="1.0000000000000000e+00" nType="-99"/>
            </Node>
            <Node pos="r" depth="3" NCoef="0" IVar="27" Cut="3.2658725000000000e+05" cType="1" res="6.5728202462196350e-03" rms="9.9971279501914978e-02" purity="1.0000000000000000e+00" nType="0">
              <Node pos="l" depth="4" NCoef="0" IVar="-1" Cut="0.0000000000000000e+00" cType="1" res="1.6865352168679237e-02" rms="1.0391484946012497e-01" purity="1.0000000000000000e+00" nType="-99"/>
              <Node pos="r" depth="4" NCoef="0" IVar="-1" Cut="0.0000000000000000e+00" cType="1" res="-6.0730666154995561e-04" rms="9.7600705921649933e-02" purity="1.0000000000000000e+00" nType="-99"/>
            </Node>
          </Node>
          <Node pos="r" depth="2" NCoef="0" IVar="-1" Cut="0.0000000000000000e+00" cType="1" res="1.6108916699886322e-01" rms="1.0215324163436890e-01" purity="1.0000000000000000e+00" nType="-99"/>
        </Node>
      </Node>
    </BinaryTree>
    <BinaryTree type="DecisionTree" boostWeight="1.0000000000000000e+00" itree="10">
      <Node pos="s" depth="0" NCoef="0" IVar="30" Cut="-4.4900092482566833e-01" cType="1" res="-3.0137668363749981e-04" rms="9.0729951858520508e-02" purity="1.0000000000000000e+00" nType="0">
        <Node pos="l" depth="1" NCoef="0" IVar="11" Cut="1.0463211536407471e+00" cType="1" res="-1.3857537880539894e-02" rms="9.2886202037334442e-02" purity="1.0000000000000000e+00" nType="0">
          <Node pos="l" depth="2" NCoef="0" IVar="31" Cut="-6.8562483787536621e-01" cType="1" res="-8.3490200340747833e-03" rms="9.4138786196708679e-02" purity="1.0000000000000000e+00" nType="0">
            <Node pos="l" depth="3" NCoef="0" IVar="23" Cut="3.4220355987548828e+01" cType="1" res="-1.3789168559014797e-02" rms="9.3641474843025208e-02" purity="1.0000000000000000e+00" nType="0">
              <Node pos="l" depth="4" NCoef="0" IVar="-1" Cut="0.0000000000000000e+00" cType="1" res="1.1584790423512459e-02" rms="7.4641533195972443e-02" purity="1.0000000000000000e+00" nType="-99"/>
              <Node pos="r" depth="4" NCoef="0" IVar="-1" Cut="0.0000000000000000e+00" cType="1" res="-7.4041942134499550e-03" rms="9.4003446400165558e-02" purity="1.0000000000000000e+00" nType="-99"/>
            </Node>
            <Node pos="r" depth="3" NCoef="0" IVar="4" Cut="1.8280842900276184e-01" cType="1" res="2.1759390830993652e-02" rms="9.1151736676692963e-02" purity="1.0000000000000000e+00" nType="0">
              <Node pos="l" depth="4" NCoef="0" IVar="-1" Cut="0.0000000000000000e+00" cType="1" res="-7.5785384979099035e-04" rms="9.5581337809562683e-02" purity="1.0000000000000000e+00" nType="-99"/>
              <Node pos="r" depth="4" NCoef="0" IVar="-1" Cut="0.0000000000000000e+00" cType="1" res="1.6283871605992317e-02" rms="8.4676288068294525e-02" purity="1.0000000000000000e+00" nType="-99"/>
            </Node>
          </Node>
          <Node pos="r" depth="2" NCoef="0" IVar="14" Cut="9.0296310186386108e-01" cType="1" res="-2.4192828685045242e-02" rms="8.9579902589321136e-02" purity="1.0000000000000000e+00" nType="0">
            <Node pos="l" depth="3" NCoef="0" IVar="30" Cut="-5.8636158704757690e-01" cType="1" res="-1.9312821328639984e-02" rms="8.9426785707473755e-02" purity="1.0000000000000000e+00" nType="0">
              <Node pos="l" depth="4" NCoef="0" IVar="-1" Cut="0.0000000000000000e+00" cType="1" res="-4.0875542908906937e-03" rms="8.9276164770126343e-02" purity="1.0000000000000000e+00" nType="-99"/>
              <Node pos="r" depth="4" NCoef="0" IVar="-1" Cut="0.0000000000000000e+00" cType="1" res="-1.5190967358648777e-02" rms="8.7221436202526093e-02" purity="1.0000000000000000e+00" nType="-99"/>
            </Node>
            <Node pos="r" depth="3" NCoef="0" IVar="-1" Cut="0.0000000000000000e+00" cType="1" res="-3.7154752761125565e-02" rms="6.6092230379581451e-02" purity="1.0000000000000000e+00" nType="-99"/>
          </Node>
        </Node>
        <Node pos="r" depth="1" NCoef="0" IVar="3" Cut="1.8131883239746094e+02" cType="1" res="9.0959039516746998e-04" rms="9.0436019003391266e-02" purity="1.0000000000000000e+00" nType="0">
          <Node pos="l" depth="2" NCoef="0" IVar="33" Cut="9.2899237060546875e+02" cType="1" res="1.6380070010200143e-03" rms="9.0289644896984100e-02" purity="1.0000000000000000e+00" nType="0">
            <Node pos="l" depth="3" NCoef="0" IVar="33" Cut="4.0058367919921875e+02" cType="1" res="5.0113361794501543e-04" rms="8.9137405157089233e-02" purity="1.0000000000000000e+00" nType="0">
              <Node pos="l" depth="4" NCoef="0" IVar="-1" Cut="0.0000000000000000e+00" cType="1" res="-1.7317218007519841e-03" rms="8.1592820584774017e-02" purity="1.0000000000000000e+00" nType="-99"/>
              <Node pos="r" depth="4" NCoef="0" IVar="-1" Cut="0.0000000000000000e+00" cType="1" res="1.6675972146913409e-03" rms="9.2068150639533997e-02" purity="1.0000000000000000e+00" nType="-99"/>
            </Node>
            <Node pos="r" depth="3" NCoef="0" IVar="0" Cut="2.1459413146972656e+02" cType="1" res="2.2765789180994034e-02" rms="1.0734958201646805e-01" purity="1.0000000000000000e+00" nType="0">
              <Node pos="l" depth="4" NCoef="0" IVar="-1" Cut="0.0000000000000000e+00" cType="1" res="4.5493155717849731e-02" rms="1.0648446530103683e-01" purity="1.0000000000000000e+00" nType="-99"/>
              <Node pos="r" depth="4" NCoef="0" IVar="-1" Cut="0.0000000000000000e+00" cType="1" res="3.3578480361029506e-04" rms="1.0334109514951706e-01" purity="1.0000000000000000e+00" nType="-99"/>
            </Node>
          </Node>
          <Node pos="r" depth="2" NCoef="0" IVar="14" Cut="-5.6939309835433960e-01" cType="1" res="-2.0144160836935043e-02" rms="9.2112429440021515e-02" purity="1.0000000000000000e+00" nType="0">
            <Node pos="l" depth="3" NCoef="0" IVar="6" Cut="-1.1833887100219727e+00" cType="1" res="-4.1767928749322891e-02" rms="8.9659787714481354e-02" purity="1.0000000000000000e+00" nType="0">
              <Node pos="l" depth="4" NCoef="0" IVar="-1" Cut="0.0000000000000000e+00" cType="1" res="-3.5531846806406975e-03" rms="9.0105921030044556e-02" purity="1.0000000000000000e+00" nType="-99"/>
              <Node pos="r" depth="4" NCoef="0" IVar="-1" Cut="0.0000000000000000e+00" cType="1" res="-2.5134483352303505e-02" rms="8.5754707455635071e-02" purity="1.0000000000000000e+00" nType="-99"/>
            </Node>
            <Node pos="r" depth="3" NCoef="0" IVar="23" Cut="9.0012878417968750e+01" cType="1" res="-1.0723905637860298e-02" rms="9.1577708721160889e-02" purity="1.0000000000000000e+00" nType="0">
              <Node pos="l" depth="4" NCoef="0" IVar="-1" Cut="0.0000000000000000e+00" cType="1" res="-6.5275334054604173e-04" rms="9.3283019959926605e-02" purity="1.0000000000000000e+00" nType="-99"/>
              <Node pos="r" depth="4" NCoef="0" IVar="-1" Cut="0.0000000000000000e+00" cType="1" res="-1.5585685148835182e-02" rms="7.7551744878292084e-02" purity="1.0000000000000000e+00" nType="-99"/>
            </Node>
          </Node>
        </Node>
      </Node>
    </BinaryTree>
    <BinaryTree type="DecisionTree" boostWeight="1.0000000000000000e+00" itree="11">
      <Node pos="s" depth="0" NCoef="0" IVar="13" Cut="1.6253746032714844e+02" cType="1" res="-4.2540195863693953e-04" rms="9.0404108166694641e-02" purity="1.0000000000000000e+00" nType="0">
        <Node pos="l" depth="1" NCoef="0" IVar="33" Cut="7.2051464843750000e+02" cType="1" res="8.4557669470086694e-04" rms="9.0013504028320312e-02" purity="1.0000000000000000e+00" nType="0">
          <Node pos="l" depth="2" NCoef="0" IVar="33" Cut="4.3433285522460938e+02" cType="1" res="-8.3332194481045008e-04" rms="8.7811730802059174e-02" purity="1.0000000000000000e+00" nType="0">
            <Node pos="l" depth="3" NCoef="0" IVar="0" Cut="1.6214410400390625e+02" cType="1" res="-5.4828547872602940e-03" rms="8.3032093942165375e-02" purity="1.0000000000000000e+00" nType="0">
              <Node pos="l" depth="4" NCoef="0" IVar="-1" Cut="0.0000000000000000e+00" cType="1" res="-1.0780246229842305e-03" rms="8.2821197807788849e-02" purity="1.0000000000000000e+00" nType="-99"/>
              <Node pos="r" depth="4" NCoef="0" IVar="-1" Cut="0.0000000000000000e+00" cType="1" res="-1.8647367134690285e-02" rms="8.0812662839889526e-02" purity="1.0000000000000000e+00" nType="-99"/>
            </Node>
            <Node pos="r" depth="3" NCoef="0" IVar="32" Cut="-7.3350912332534790e-01" cType="1" res="3.8251881487667561e-03" rms="9.2117786407470703e-02" purity="1.0000000000000000e+00" nType="0">
              <Node pos="l" depth="4" NCoef="0" IVar="-1" Cut="0.0000000000000000e+00" cType="1" res="7.8063220717012882e-03" rms="9.0737067162990570e-02" purity="1.0000000000000000e+00" nType="-99"/>
              <Node pos="r" depth="4" NCoef="0" IVar="-1" Cut="0.0000000000000000e+00" cType="1" res="2.8204714180901647e-04" rms="9.2112541198730469e-02" purity="1.0000000000000000e+00" nType="-99"/>
            </Node>
          </Node>
          <Node pos="r" depth="2" NCoef="0" IVar="0" Cut="1.3687702941894531e+02" cType="1" res="1.4561793766915798e-02" rms="1.0530900955200195e-01" purity="1.0000000000000000e+00" nType="0">
            <Node pos="l" depth="3" NCoef="0" IVar="27" Cut="1.8963367187500000e+05" cType="1" res="4.1357096284627914e-02" rms="1.0561627894639969e-01" purity="1.0000000000000000e+00" nType="0">
              <Node pos="l" depth="4" NCoef="0" IVar="-1" Cut="0.0000000000000000e+00" cType="1" res="7.6514050364494324e-02" rms="9.1526493430137634e-02" purity="1.0000000000000000e+00" nType="-99"/>
              <Node pos="r" depth="4" NCoef="0" IVar="-1" Cut="0.0000000000000000e+00" cType="1" res="2.7341457083821297e-02" rms="1.0755703598260880e-01" purity="1.0000000000000000e+00" nType="-99"/>
            </Node>
            <Node pos="r" depth="3" NCoef="0" IVar="28" Cut="1.0820741653442383e+00" cType="1" res="5.3549385629594326e-03" rms="1.0361588746309280e-01" purity="1.0000000000000000e+00" nType="0">
              <Node pos="l" depth="4" NCoef="0" IVar="-1" Cut="0.0000000000000000e+00" cType="1" res="1.5326422872021794e-03" rms="1.0355401039123535e-01" purity="1.0000000000000000e+00" nType="-99"/>
              <Node pos="r" depth="4" NCoef="0" IVar="-1" Cut="0.0000000000000000e+00" cType="1" res="5.2387826144695282e-02" rms="8.9890949428081512e-02" purity="1.0000000000000000e+00" nType="-99"/>
            </Node>
          </Node>
        </Node>
        <Node pos="r" depth="1" NCoef="0" IVar="16" Cut="2.3287960052490234e+01" cType="1" res="-1.2309841811656952e-02" rms="9.3142397701740265e-02" purity="1.0000000000000000e+00" nType="0">
          <Node pos="l" depth="2" NCoef="0" IVar="0" Cut="2.6957623291015625e+02" cType="1" res="-1.8357178196310997e-02" rms="9.1259881854057312e-02" purity="1.0000000000000000e+00" nType="0">
            <Node pos="l" depth="3" NCoef="0" IVar="33" Cut="1.1368929443359375e+03" cType="1" res="-1.5026691369712353e-02" rms="9.1515257954597473e-02" purity="1.0000000000000000e+00" nType="0">
              <Node pos="l" depth="4" NCoef="0" IVar="-1" Cut="0.0000000000000000e+00" cType="1" res="-7.1222856640815735e-03" rms="8.9487105607986450e-02" purity="1.0000000000000000e+00" nType="-99"/>
              <Node pos="r" depth="4" NCoef="0" IVar="-1" Cut="0.0000000000000000e+00" cType="1" res="3.3078484237194061e-02" rms="1.1202409118413925e-01" purity="1.0000000000000000e+00" nType="-99"/>
            </Node>
            <Node pos="r" depth="3" NCoef="0" IVar="3" Cut="9.5630615234375000e+01" cType="1" res="-5.2132226526737213e-02" rms="8.1251278519630432e-02" purity="1.0000000000000000e+00" nType="0">
              <Node pos="l" depth="4" NCoef="0" IVar="-1" Cut="0.0000000000000000e+00" cType="1" res="-2.8438353911042213e-02" rms="6.8006873130798340e-02" purity="1.0000000000000000e+00" nType="-99"/>
              <Node pos="r" depth="4" NCoef="0" IVar="-1" Cut="0.0000000000000000e+00" cType="1" res="-8.2264430820941925e-03" rms="9.0374805033206940e-02" purity="1.0000000000000000e+00" nType="-99"/>
            </Node>
          </Node>
          <Node pos="r" depth="2" NCoef="0" IVar="10" Cut="-1.0112587213516235e+00" cType="1" res="1.2608401011675596e-03" rms="9.5855541527271271e-02" purity="1.0000000000000000e+00" nType="0">
            <Node pos="l" depth="3" NCoef="0" IVar="6" Cut="-5.6858479976654053e-01" cType="1" res="2.7452992275357246e-02" rms="9.9497899413108826e-02" purity="1.0000000000000000e+00" nType="0">
              <Node pos="l" depth="4" NCoef="0" IVar="-1" Cut="0.0000000000000000e+00" cType="1" res="3.4287068992853165e-02" rms="7.7291995286941528e-02" purity="1.0000000000000000e+00" nType="-99"/>
              <Node pos="r" depth="4" NCoef="0" IVar="-1" Cut="0.0000000000000000e+00" cType="1" res="3.6191216204315424e-03" rms="1.0485869646072388e-01" purity="1.0000000000000000e+00" nType="-99"/>
            </Node>
            <Node pos="r" depth="3" NCoef="0" IVar="17" Cut="1.0360494995117188e+02" cType="1" res="-4.4002877548336983e-03" rms="9.4096586108207703e-02" purity="1.0000000000000000e+00" nType="0">
              <Node pos="l" depth="4" NCoef="0" IVar="-1" Cut="0.0000000000000000e+00" cType="1" res="5.2463817410171032e-03" rms="9.4930961728096008e-02" purity="1.0000000000000000e+00" nType="-99"/>
              <Node pos="r" depth="4" NCoef="0" IVar="-1" Cut="0.0000000000000000e+00" cType="1" res="-8.3661228418350220e-03" rms="9.0372718870639801e-02" purity="1.0000000000000000e+00" nType="-99"/>
            </Node>
          </Node>
        </Node>
      </Node>
    </BinaryTree>
    <BinaryTree type="DecisionTree" boostWeight="1.0000000000000000e+00" itree="12">
      <Node pos="s" depth="0" NCoef="0" IVar="17" Cut="5.4421058654785156e+01" cType="1" res="-5.0457171164453030e-04" rms="9.0075187385082245e-02" purity="1.0000000000000000e+00" nType="0">
        <Node pos="l" depth="1" NCoef="0" IVar="21" Cut="2.4048335552215576e+00" cType="1" res="3.0059712007641792e-03" rms="9.1077998280525208e-02" purity="1.0000000000000000e+00" nType="0">
          <Node pos="l" depth="2" NCoef="0" IVar="33" Cut="5.6356610107421875e+02" cType="1" res="8.1893624737858772e-03" rms="8.7049037218093872e-02" purity="1.0000000000000000e+00" nType="0">
            <Node pos="l" depth="3" NCoef="0" IVar="30" Cut="-4.6164390444755554e-01" cType="1" res="5.6712883524596691e-03" rms="8.4828421473503113e-02" purity="1.0000000000000000e+00" nType="0">
              <Node pos="l" depth="4" NCoef="0" IVar="-1" Cut="0.0000000000000000e+00" cType="1" res="-6.1753783375024796e-03" rms="9.0281225740909576e-02" purity="1.0000000000000000e+00" nType="-99"/>
              <Node pos="r" depth="4" NCoef="0" IVar="-1" Cut="0.0000000000000000e+00" cType="1" res="3.3627774100750685e-03" rms="8.4173455834388733e-02" purity="1.0000000000000000e+00" nType="-99"/>
            </Node>
            <Node pos="r" depth="3" NCoef="0" IVar="5" Cut="7.1042198181152344e+01" cType="1" res="2.7450235560536385e-02" rms="1.0038668662309647e-01" purity="1.0000000000000000e+00" nType="0">
              <Node pos="l" depth="4" NCoef="0" IVar="-1" Cut="0.0000000000000000e+00" cType="1" res="3.1674101948738098e-02" rms="9.9709175527095795e-02" purity="1.0000000000000000e+00" nType="-99"/>
              <Node pos="r" depth="4" NCoef="0" IVar="-1" Cut="0.0000000000000000e+00" cType="1" res="4.7873500734567642e-03" rms="9.8309434950351715e-02" purity="1.0000000000000000e+00" nType="-99"/>
            </Node>
          </Node>
          <Node pos="r" depth="2" NCoef="0" IVar="26" Cut="8.4485015625000000e+04" cType="1" res="-2.9943836852908134e-03" rms="9.5178134739398956e-02" purity="1.0000000000000000e+00" nType="0">
            <Node pos="l" depth="3" NCoef="0" IVar="29" Cut="4.2529978752136230e+00" cType="1" res="-7.3944805189967155e-03" rms="9.5030762255191803e-02" purity="1.0000000000000000e+00" nType="0">
              <Node pos="l" depth="4" NCoef="0" IVar="-1" Cut="0.0000000000000000e+00" cType="1" res="-1.4535849913954735e-03" rms="9.4131596386432648e-02" purity="1.0000000000000000e+00" nType="-99"/>
              <Node pos="r" depth="4" NCoef="0" IVar="-1" Cut="0.0000000000000000e+00" cType="1" res="-1.3448134064674377e-02" rms="9.7376048564910889e-02" purity="1.0000000000000000e+00" nType="-99"/>
            </Node>
            <Node pos="r" depth="3" NCoef="0" IVar="31" Cut="4.4410696625709534e-01" cType="1" res="9.0779168531298637e-03" rms="9.4535313546657562e-02" purity="1.0000000000000000e+00" nType="0">
              <Node pos="l" depth="4" NCoef="0" IVar="-1" Cut="0.0000000000000000e+00" cType="1" res="5.9382580220699310e-03" rms="9.4464264810085297e-02" purity="1.0000000000000000e+00" nType="-99"/>
              <Node pos="r" depth="4" NCoef="0" IVar="-1" Cut="0.0000000000000000e+00" cType="1" res="-9.6326712518930435e-03" rms="8.9007779955863953e-02" purity="1.0000000000000000e+00" nType="-99"/>
            </Node>
          </Node>
        </Node>
        <Node pos="r" depth="1" NCoef="0" IVar="33" Cut="1.7076044921875000e+03" cType="1" res="-4.5943944714963436e-03" rms="8.8717624545097351e-02" purity="1.0000000000000000e+00" nType="0">
          <Node pos="l" depth="2" NCoef="0" IVar="3" Cut="2.2705679321289062e+02" cType="1" res="-4.9896053969860077e-03" rms="8.8424213230609894e-02" purity="1.0000000000000000e+00" nType="0">
            <Node pos="l" depth="3" NCoef="0" IVar="33" Cut="7.9818127441406250e+02" cType="1" res="-4.5388666912913322e-03" rms="8.8218554854393005e-02" purity="1.0000000000000000e+00" nType="0">
              <Node pos="l" depth="4" NCoef="0" IVar="-1" Cut="0.0000000000000000e+00" cType="1" res="-2.1274776663631201e-03" rms="8.6155153810977936e-02" purity="1.0000000000000000e+00" nType="-99"/>
              <Node pos="r" depth="4" NCoef="0" IVar="-1" Cut="0.0000000000000000e+00" cType="1" res="3.4876591525971889e-03" rms="1.0185575485229492e-01" purity="1.0000000000000000e+00" nType="-99"/>
            </Node>
            <Node pos="r" depth="3" NCoef="0" IVar="5" Cut="7.9474395751953125e+01" cType="1" res="-3.9444312453269958e-02" rms="9.6918381750583649e-02" purity="1.0000000000000000e+00" nType="0">
              <Node pos="l" depth="4" NCoef="0" IVar="-1" Cut="0.0000000000000000e+00" cType="1" res="-4.2315721511840820e-03" rms="1.0011781752109528e-01" purity="1.0000000000000000e+00" nType="-99"/>
              <Node pos="r" depth="4" NCoef="0" IVar="-1" Cut="0.0000000000000000e+00" cType="1" res="-3.5175897181034088e-02" rms="8.5906259715557098e-02" purity="1.0000000000000000e+00" nType="-99"/>
            </Node>
          </Node>
          <Node pos="r" depth="2" NCoef="0" IVar="-1" Cut="0.0000000000000000e+00" cType="1" res="1.4396640658378601e-01" rms="1.1030438542366028e-01" purity="1.0000000000000000e+00" nType="-99"/>
        </Node>
      </Node>
    </BinaryTree>
    <BinaryTree type="DecisionTree" boostWeight="1.0000000000000000e+00" itree="13">
      <Node pos="s" depth="0" NCoef="0" IVar="5" Cut="1.5968135070800781e+02" cType="1" res="-5.6017684983089566e-04" rms="8.9855961501598358e-02" purity="1.0000000000000000e+00" nType="0">
        <Node pos="l" depth="1" NCoef="0" IVar="32" Cut="8.4759801626205444e-01" cType="1" res="1.4404646935872734e-04" rms="8.9840508997440338e-02" purity="1.0000000000000000e+00" nType="0">
          <Node pos="l" depth="2" NCoef="0" IVar="28" Cut="-4.0617758035659790e-01" cType="1" res="-1.4255301794037223e-03" rms="8.9739978313446045e-02" purity="1.0000000000000000e+00" nType="0">
            <Node pos="l" depth="3" NCoef="0" IVar="33" Cut="7.6391070556640625e+02" cType="1" res="4.5761223882436752e-03" rms="8.8584370911121368e-02" purity="1.0000000000000000e+00" nType="0">
              <Node pos="l" depth="4" NCoef="0" IVar="-1" Cut="0.0000000000000000e+00" cType="1" res="1.1909415479749441e-03" rms="8.6826898157596588e-02" purity="1.0000000000000000e+00" nType="-99"/>
              <Node pos="r" depth="4" NCoef="0" IVar="-1" Cut="0.0000000000000000e+00" cType="1" res="2.0204233005642891e-02" rms="1.0272706300020218e-01" purity="1.0000000000000000e+00" nType="-99"/>
            </Node>
            <Node pos="r" depth="3" NCoef="0" IVar="29" Cut="3.4840927124023438e+00" cType="1" res="-4.8297643661499023e-03" rms="9.0211592614650726e-02" purity="1.0000000000000000e+00" nType="0">
              <Node pos="l" depth="4" NCoef="0" IVar="-1" Cut="0.0000000000000000e+00" cType="1" res="8.4140803664922714e-05" rms="8.7766654789447784e-02" purity="1.0000000000000000e+00" nType="-99"/>
              <Node pos="r" depth="4" NCoef="0" IVar="-1" Cut="0.0000000000000000e+00" cType="1" res="-8.2669463008642197e-03" rms="9.5926262438297272e-02" purity="1.0000000000000000e+00" nType="-99"/>
            </Node>
          </Node>
          <Node pos="r" depth="2" NCoef="0" IVar="33" Cut="4.4030206298828125e+02" cType="1" res="9.4840256497263908e-03" rms="8.9871302247047424e-02" purity="1.0000000000000000e+00" nType="0">
            <Node pos="l" depth="3" NCoef="0" IVar="13" Cut="6.6624000549316406e+01" cType="1" res="-1.5944271581247449e-03" rms="8.4723256528377533e-02" purity="1.0000000000000000e+00" nType="0">
              <Node pos="l" depth="4" NCoef="0" IVar="-1" Cut="0.0000000000000000e+00" cType="1" res="5.5480259470641613e-03" rms="8.5742197930812836e-02" purity="1.0000000000000000e+00" nType="-99"/>
              <Node pos="r" depth="4" NCoef="0" IVar="-1" Cut="0.0000000000000000e+00" cType="1" res="-2.4549097288399935e-03" rms="8.3519600331783295e-02" purity="1.0000000000000000e+00" nType="-99"/>
            </Node>
            <Node pos="r" depth="3" NCoef="0" IVar="30" Cut="1.0669757127761841e+00" cType="1" res="2.1344624459743500e-02" rms="9.3632571399211884e-02" purity="1.0000000000000000e+00" nType="0">
              <Node pos="l" depth="4" NCoef="0" IVar="-1" Cut="0.0000000000000000e+00" cType="1" res="1.2484951876103878e-02" rms="9.0276427567005157e-02" purity="1.0000000000000000e+00" nType="-99"/>
              <Node pos="r" depth="4" NCoef="0" IVar="-1" Cut="0.0000000000000000e+00" cType="1" res="-2.0878424402326345e-03" rms="1.0079391300678253e-01" purity="1.0000000000000000e+00" nType="-99"/>
            </Node>
          </Node>
        </Node>
        <Node pos="r" depth="1" NCoef="0" IVar="25" Cut="2.5552039062500000e+04" cType="1" res="-1.9345883280038834e-02" rms="8.8215768337249756e-02" purity="1.0000000000000000e+00" nType="0">
          <Node pos="l" depth="2" NCoef="0" IVar="33" Cut="1.1480250244140625e+03" cType="1" res="-2.4332121014595032e-02" rms="8.7759986519813538e-02" purity="1.0000000000000000e+00" nType="0">
            <Node pos="l" depth="3" NCoef="0" IVar="6" Cut="1.3742011785507202e+00" cType="1" res="-3.0504662543535233e-02" rms="8.3141535520553589e-02" purity="1.0000000000000000e+00" nType="0">
              <Node pos="l" depth="4" NCoef="0" IVar="-1" Cut="0.0000000000000000e+00" cType="1" res="-1.1188093572854996e-02" rms="8.2823909819126129e-02" purity="1.0000000000000000e+00" nType="-99"/>
              <Node pos="r" depth="4" NCoef="0" IVar="-1" Cut="0.0000000000000000e+00" cType="1" res="-2.6779029518365860e-02" rms="8.0158039927482605e-02" purity="1.0000000000000000e+00" nType="-99"/>
            </Node>
            <Node pos="r" depth="3" NCoef="0" IVar="4" Cut="1.0555361509323120e+00" cType="1" res="6.7913960665464401e-03" rms="1.0257136821746826e-01" purity="1.0000000000000000e+00" nType="0">
              <Node pos="l" depth="4" NCoef="0" IVar="-1" Cut="0.0000000000000000e+00" cType="1" res="2.0689547061920166e-02" rms="9.9676258862018585e-02" purity="1.0000000000000000e+00" nType="-99"/>
              <Node pos="r" depth="4" NCoef="0" IVar="-1" Cut="0.0000000000000000e+00" cType="1" res="-9.9752554669976234e-03" rms="9.7761943936347961e-02" purity="1.0000000000000000e+00" nType="-99"/>
            </Node>
          </Node>
          <Node pos="r" depth="2" NCoef="0" IVar="13" Cut="1.1677962493896484e+02" cType="1" res="6.4263553358614445e-03" rms="8.6045756936073303e-02" purity="1.0000000000000000e+00" nType="0">
            <Node pos="l" depth="3" NCoef="0" IVar="-1" Cut="0.0000000000000000e+00" cType="1" res="1.2707961723208427e-02" rms="8.4285199642181396e-02" purity="1.0000000000000000e+00" nType="-99"/>
            <Node pos="r" depth="3" NCoef="0" IVar="-1" Cut="0.0000000000000000e+00" cType="1" res="-5.7883961126208305e-03" rms="8.2213878631591797e-02" purity="1.0000000000000000e+00" nType="-99"/>
          </Node>
        </Node>
      </Node>
    </BinaryTree>
    <BinaryTree type="DecisionTree" boostWeight="1.0000000000000000e+00" itree="14">
      <Node pos="s" depth="0" NCoef="0" IVar="3" Cut="1.3614933776855469e+02" cType="1" res="-5.7578476844355464e-04" rms="8.9497387409210205e-02" purity="1.0000000000000000e+00" nType="0">
        <Node pos="l" depth="1" NCoef="0" IVar="33" Cut="1.8587064208984375e+03" cType="1" res="6.9911032915115356e-04" rms="8.9172638952732086e-02" purity="1.0000000000000000e+00" nType="0">
          <Node pos="l" depth="2" NCoef="0" IVar="21" Cut="3.3485367298126221e+00" cType="1" res="4.9766176380217075e-04" rms="8.9085467159748077e-02" purity="1.0000000000000000e+00" nType="0">
            <Node pos="l" depth="3" NCoef="0" IVar="33" Cut="6.3204553222656250e+02" cType="1" res="1.4980798587203026e-03" rms="8.8451221585273743e-02" purity="1.0000000000000000e+00" nType="0">
              <Node pos="l" depth="4" NCoef="0" IVar="-1" Cut="0.0000000000000000e+00" cType="1" res="9.8466938652563840e-05" rms="8.5423976182937622e-02" purity="1.0000000000000000e+00" nType="-99"/>
              <Node pos="r" depth="4" NCoef="0" IVar="-1" Cut="0.0000000000000000e+00" cType="1" res="6.0611683875322342e-03" rms="1.0085405409336090e-01" purity="1.0000000000000000e+00" nType="-99"/>
            </Node>
            <Node pos="r" depth="3" NCoef="0" IVar="23" Cut="7.0205886840820312e+01" cType="1" res="-1.3285616412758827e-02" rms="9.6352614462375641e-02" purity="1.0000000000000000e+00" nType="0">
              <Node pos="l" depth="4" NCoef="0" IVar="-1" Cut="0.0000000000000000e+00" cType="1" res="-1.4134083874523640e-02" rms="9.7428254783153534e-02" purity="1.0000000000000000e+00" nType="-99"/>
              <Node pos="r" depth="4" NCoef="0" IVar="-1" Cut="0.0000000000000000e+00" cType="1" res="-1.2996459845453501e-03" rms="9.4562053680419922e-02" purity="1.0000000000000000e+00" nType="-99"/>
            </Node>
          </Node>
          <Node pos="r" depth="2" NCoef="0" IVar="-1" Cut="0.0000000000000000e+00" cType="1" res="1.5864071249961853e-01" rms="8.6808398365974426e-02" purity="1.0000000000000000e+00" nType="-99"/>
        </Node>
        <Node pos="r" depth="1" NCoef="0" IVar="28" Cut="1.3014713525772095e+00" cType="1" res="-1.1193756014108658e-02" rms="9.1469950973987579e-02" purity="1.0000000000000000e+00" nType="0">
          <Node pos="l" depth="2" NCoef="0" IVar="27" Cut="1.3543465000000000e+06" cType="1" res="-1.2222918681800365e-02" rms="9.1304622590541840e-02" purity="1.0000000000000000e+00" nType="0">
            <Node pos="l" depth="3" NCoef="0" IVar="6" Cut="1.6943769454956055e+00" cType="1" res="-1.0961771011352539e-02" rms="9.1308601200580597e-02" purity="1.0000000000000000e+00" nType="0">
              <Node pos="l" depth="4" NCoef="0" IVar="-1" Cut="0.0000000000000000e+00" cType="1" res="-4.5534027740359306e-03" rms="9.1259740293025970e-02" purity="1.0000000000000000e+00" nType="-99"/>
              <Node pos="r" depth="4" NCoef="0" IVar="-1" Cut="0.0000000000000000e+00" cType="1" res="-2.2436864674091339e-02" rms="8.4337927401065826e-02" purity="1.0000000000000000e+00" nType="-99"/>
            </Node>
            <Node pos="r" depth="3" NCoef="0" IVar="-1" Cut="0.0000000000000000e+00" cType="1" res="-2.0284337922930717e-02" rms="8.3593748509883881e-02" purity="1.0000000000000000e+00" nType="-99"/>
          </Node>
